{"learner":{"attributes":{"best_iteration":"10","best_ntree_limit":"11","best_score":"12.998374907311591"},"feature_names":["Country","Year","Energy from renewable & waste sources","Fraction from renewable sources and waste","Hydroelectric power","Wind, wave, tidal","Solar photovoltaic","Geothermal aquifers","Sewage gas","Municipal solid waste (MSW)","Poultry litter","Bioethanol"],"feature_types":["int","int","float","float","float","float","float","float","float","float","float","float"],"gradient_booster":{"model":{"gbtree_model_param":{"num_parallel_tree":"1","num_trees":"111","size_leaf_vector":"0"},"tree_info":[0,0,0,0,0,0,0,0,0,0,0,0,0,0,0,0,0,0,0,0,0,0,0,0,0,0,0,0,0,0,0,0,0,0,0,0,0,0,0,0,0,0,0,0,0,0,0,0,0,0,0,0,0,0,0,0,0,0,0,0,0,0,0,0,0,0,0,0,0,0,0,0,0,0,0,0,0,0,0,0,0,0,0,0,0,0,0,0,0,0,0,0,0,0,0,0,0,0,0,0,0,0,0,0,0,0,0,0,0,0,0],"trees":[{"base_weights":[5.0032205E2],"categories":[],"categories_nodes":[],"categories_segments":[],"categories_sizes":[],"default_left":[0],"id":0,"left_children":[-1],"loss_changes":[0E0],"parents":[2147483647],"right_children":[-1],"split_conditions":[1.5009662E2],"split_indices":[0],"split_type":[0],"sum_hessian":[2.4E1],"tree_param":{"num_deleted":"0","num_feature":"12","num_nodes":"1","size_leaf_vector":"0"}},{"base_weights":[3.562293E2,1.1859198E2,5.9781773E1],"categories":[],"categories_nodes":[],"categories_segments":[],"categories_sizes":[],"default_left":[0,0,0],"id":1,"left_children":[1,-1,-1],"loss_changes":[7.456225E4,0E0,0E0],"parents":[2147483647,0,0],"right_children":[2,-1,-1],"split_conditions":[2.014E3,1.1859198E2,5.9781773E1],"split_indices":[1,0,0],"split_type":[0,0,0],"sum_hessian":[2.4E1,1.8E1,6E0],"tree_param":{"num_deleted":"0","num_feature":"12","num_nodes":"3","size_leaf_vector":"0"}},{"base_weights":[2.5649545E2,8.3095436E1,3.574238E1],"categories":[],"categories_nodes":[],"categories_segments":[],"categories_sizes":[],"default_left":[0,0,0],"id":2,"left_children":[1,-1,-1],"loss_changes":[3.7357E4,0E0,0E0],"parents":[2147483647,0,0],"right_children":[2,-1,-1],"split_conditions":[2.016E3,8.3095436E1,3.574238E1],"split_indices":[1,0,0],"split_type":[0,0,0],"sum_hessian":[2.4E1,2E1,4E0],"tree_param":{"num_deleted":"0","num_feature":"12","num_nodes":"3","size_leaf_vector":"0"}},{"base_weights":[1.8430034E2,6.315895E1,3.4283375E1],"categories":[],"categories_nodes":[],"categories_segments":[],"categories_sizes":[],"default_left":[0,0,0],"id":3,"left_children":[1,-1,-1],"loss_changes":[2.1857438E4,0E0,0E0],"parents":[2147483647,0,0],"right_children":[2,-1,-1],"split_conditions":[2.009E3,6.315895E1,3.4283375E1],"split_indices":[1,0,0],"split_type":[0,0,0],"sum_hessian":[2.4E1,1.6E1,8E0],"tree_param":{"num_deleted":"0","num_feature":"12","num_nodes":"3","size_leaf_vector":"0"}},{"base_weights":[1.3290791E2,4.2628918E1,1.4743296E1],"categories":[],"categories_nodes":[],"categories_segments":[],"categories_sizes":[],"default_left":[0,0,0],"id":4,"left_children":[1,-1,-1],"loss_changes":[1.2258281E4,0E0,0E0],"parents":[2147483647,0,0],"right_children":[2,-1,-1],"split_conditions":[2.019E3,4.2628918E1,1.4743296E1],"split_indices":[1,0,0],"split_type":[0,0,0],"sum_hessian":[2.4E1,2.1E1,3E0],"tree_param":{"num_deleted":"0","num_feature":"12","num_nodes":"3","size_leaf_vector":"0"}},{"base_weights":[9.5330444E1,3.3289436E1,5.5206642E1,1.74654E1,4.667368E0],"categories":[],"categories_nodes":[],"categories_segments":[],"categories_sizes":[],"default_left":[0,0,0,0,0],"id":5,"left_children":[1,-1,3,-1,-1],"loss_changes":[9.55675E3,0E0,1.6882031E2,0E0,0E0],"parents":[2147483647,0,0,2,2],"right_children":[2,-1,4,-1,-1],"split_conditions":[2.009E3,3.3289436E1,2.4472E1,1.74654E1,4.667368E0],"split_indices":[1,0,2,0,0],"split_type":[0,0,0,0,0],"sum_hessian":[2.4E1,1.6E1,8E0,7E0,1E0],"tree_param":{"num_deleted":"0","num_feature":"12","num_nodes":"5","size_leaf_vector":"0"}},{"base_weights":[6.8948204E1,2.3890066E1,1.2331156E1],"categories":[],"categories_nodes":[],"categories_segments":[],"categories_sizes":[],"default_left":[0,0,0],"id":6,"left_children":[1,-1,-1],"loss_changes":[4.1649297E3,0E0,0E0],"parents":[2147483647,0,0],"right_children":[2,-1,-1],"split_conditions":[2.009E3,2.3890066E1,1.2331156E1],"split_indices":[1,0,0],"split_type":[0,0,0],"sum_hessian":[2.4E1,1.6E1,8E0],"tree_param":{"num_deleted":"0","num_feature":"12","num_nodes":"3","size_leaf_vector":"0"}},{"base_weights":[4.9712585E1,1.6729828E1,2.617985E1,8.457084E0,2.1175919E0],"categories":[],"categories_nodes":[],"categories_segments":[],"categories_sizes":[],"default_left":[0,0,0,0,0],"id":7,"left_children":[1,-1,3,-1,-1],"loss_changes":[2.1014414E3,0E0,7.010791E1,0E0,0E0],"parents":[2147483647,0,0,2,2],"right_children":[2,-1,4,-1,-1],"split_conditions":[2.014E3,1.6729828E1,2.4472E1,8.457084E0,2.1175919E0],"split_indices":[1,0,2,0,0],"split_type":[0,0,0,0,0],"sum_hessian":[2.4E1,1.8E1,6E0,5E0,1E0],"tree_param":{"num_deleted":"0","num_feature":"12","num_nodes":"5","size_leaf_vector":"0"}},{"base_weights":[3.5891006E1,1.2420926E1,2.149142E1,2.400728E1,2.5371828E0,7.7114964E0,2.0731568E0],"categories":[],"categories_nodes":[],"categories_segments":[],"categories_sizes":[],"default_left":[0,0,0,0,0,0,0],"id":8,"left_children":[1,-1,3,5,-1,-1,-1],"loss_changes":[1.0944766E3,0E0,9.209277E1,2.5541748E1,0E0,0E0,0E0],"parents":[2147483647,0,0,2,2,3,3],"right_children":[2,-1,4,6,-1,-1,-1],"split_conditions":[2.009E3,1.2420926E1,2.02E3,5.4E-1,2.5371828E0,7.7114964E0,2.0731568E0],"split_indices":[1,0,1,4,0,0,0],"split_type":[0,0,0,0,0,0,0],"sum_hessian":[2.4E1,1.6E1,8E0,6E0,2E0,5E0,1E0],"tree_param":{"num_deleted":"0","num_feature":"12","num_nodes":"7","size_leaf_vector":"0"}},{"base_weights":[2.6113436E1,3.7961086E1,2.037412E1,1.2198539E1,3.2635255E0,2.1577106E1,2.0297487E0,6.65743E0,1.7621843E0],"categories":[],"categories_nodes":[],"categories_segments":[],"categories_sizes":[],"default_left":[0,0,0,0,0,0,0,0,0],"id":9,"left_children":[1,3,5,-1,-1,7,-1,-1,-1],"loss_changes":[9.2650977E2,6.966113E1,1.6505322E2,0E0,0E0,3.3645508E1,0E0,0E0,0E0],"parents":[2147483647,0,0,1,1,2,2,5,5],"right_children":[2,4,6,-1,-1,8,-1,-1,-1],"split_conditions":[1.997E3,2.611E0,2.02E3,1.2198539E1,3.2635255E0,5.4E-1,2.0297487E0,6.65743E0,1.7621843E0],"split_indices":[1,2,1,0,0,4,0,0,0],"split_type":[0,0,0,0,0,0,0,0,0],"sum_hessian":[2.4E1,6E0,1.8E1,5E0,1E0,1.6E1,2E0,1.5E1,1E0],"tree_param":{"num_deleted":"0","num_feature":"12","num_nodes":"9","size_leaf_vector":"0"}},{"base_weights":[1.9315865E1,1.015513E1,1.5795223E1,4.9688544E0,1.6237977E0],"categories":[],"categories_nodes":[],"categories_segments":[],"categories_sizes":[],"default_left":[0,0,0,0,0],"id":10,"left_children":[1,-1,3,-1,-1],"loss_changes":[7.446006E2,0E0,8.568848E1,0E0,0E0],"parents":[2147483647,0,0,2,2],"right_children":[2,-1,4,-1,-1],"split_conditions":[1.994E3,1.015513E1,2.02E3,4.9688544E0,1.6237977E0],"split_indices":[1,0,1,0,0],"split_type":[0,0,0,0,0],"sum_hessian":[2.4E1,3E0,2.1E1,1.9E1,2E0],"tree_param":{"num_deleted":"0","num_feature":"12","num_nodes":"5","size_leaf_vector":"0"}},{"base_weights":[1.4191007E1,7.870221E0,1.1356314E1,3.585196E0,1.0825837E0],"categories":[],"categories_nodes":[],"categories_segments":[],"categories_sizes":[],"default_left":[0,0,0,0,0],"id":11,"left_children":[1,-1,3,-1,-1],"loss_changes":[5.555376E2,0E0,5.81792E1,0E0,0E0],"parents":[2147483647,0,0,2,2],"right_children":[2,-1,4,-1,-1],"split_conditions":[1.994E3,7.870221E0,5.4E-1,3.585196E0,1.0825837E0],"split_indices":[1,0,4,0,0],"split_type":[0,0,0,0,0],"sum_hessian":[2.4E1,3E0,2.1E1,1.9E1,2E0],"tree_param":{"num_deleted":"0","num_feature":"12","num_nodes":"5","size_leaf_vector":"0"}},{"base_weights":[1.0435216E1,1.7390415E1,7.323552E0,5.5896854E0,1.4908814E0,6.5450597E-1,8.151297E0,2.862118E0,5.0024023E0,-6.806946E-1,6.592463E0,2.3170578E0,8.660675E-1],"categories":[],"categories_nodes":[],"categories_segments":[],"categories_sizes":[],"default_left":[0,0,0,0,0,0,0,0,0,0,0,0,0],"id":12,"left_children":[1,3,5,-1,-1,-1,7,-1,9,-1,11,-1,-1],"loss_changes":[4.136963E2,1.5380127E1,6.3083313E1,0E0,0E0,0E0,2.2261108E1,0E0,9.58918E1,0E0,2.8504333E0,0E0,0E0],"parents":[2147483647,0,0,1,1,2,2,6,6,8,8,10,10],"right_children":[2,4,6,-1,-1,-1,8,-1,10,-1,12,-1,-1],"split_conditions":[1.997E3,2.611E0,7.5E-2,5.5896854E0,1.4908814E0,6.5450597E-1,4.48E-1,2.862118E0,2.01E3,-6.806946E-1,5.4E-1,2.3170578E0,8.660675E-1],"split_indices":[1,2,5,0,0,0,4,0,1,0,4,0,0],"split_type":[0,0,0,0,0,0,0,0,0,0,0,0,0],"sum_hessian":[2.4E1,6E0,1.8E1,5E0,1E0,3E0,1.5E1,9E0,6E0,1E0,5E0,3E0,2E0],"tree_param":{"num_deleted":"0","num_feature":"12","num_nodes":"13","size_leaf_vector":"0"}},{"base_weights":[7.8286424E0,4.8417435E0,5.961795E0,8.998784E0,4.5392222E0,3.0630617E0,4.4125214E-1,1.4018707E0,5.111378E0,7.809998E-1,-3.3037722E-1,2.02938E0,3.7736297E0,1.3729553E0,5.1452537E0,8.041535E-1,-5.785904E-1,1.7957222E0,6.928559E-1],"categories":[],"categories_nodes":[],"categories_segments":[],"categories_sizes":[],"default_left":[0,0,0,0,0,0,0,0,0,0,0,0,0,0,0,0,0,0,0],"id":13,"left_children":[1,-1,3,5,7,-1,-1,9,11,-1,-1,-1,13,15,17,-1,-1,-1,-1],"loss_changes":[2.9164282E2,0E0,5.419995E1,3.9699432E1,2.3350433E1,0E0,0E0,1.4896591E1,5.435211E0,0E0,0E0,0E0,2.5864014E1,2.6754797E1,4.761963E-1,0E0,0E0,0E0,0E0],"parents":[2147483647,0,0,2,2,3,3,4,4,7,7,8,8,12,12,13,13,14,14],"right_children":[2,-1,4,6,8,-1,-1,10,12,-1,-1,-1,14,16,18,-1,-1,-1,-1],"split_conditions":[1.994E3,4.8417435E0,3.78E-1,2.014E3,4.16E-1,3.0630617E0,4.4125214E-1,3.98E-1,4.38E-1,7.809998E-1,-3.3037722E-1,2.02938E0,2.01E3,2E3,5.4E-1,8.041535E-1,-5.785904E-1,1.7957222E0,6.928559E-1],"split_indices":[1,0,4,1,4,0,0,4,4,0,0,0,1,1,4,0,0,0,0],"split_type":[0,0,0,0,0,0,0,0,0,0,0,0,0,0,0,0,0,0,0],"sum_hessian":[2.4E1,3E0,2.1E1,5E0,1.6E1,4E0,1E0,3E0,1.3E1,2E0,1E0,4E0,9E0,4E0,5E0,3E0,1E0,3E0,2E0],"tree_param":{"num_deleted":"0","num_feature":"12","num_nodes":"19","size_leaf_vector":"0"}},{"base_weights":[6.021665E0,4.124286E0,4.7521205E0,6.883209E0,3.7777507E0,2.3279297E0,3.750641E-1,1.0939636E0,4.241577E0,6.247986E-1,-2.808197E-1,1.3737313E0,6.5058064E-1],"categories":[],"categories_nodes":[],"categories_segments":[],"categories_sizes":[],"default_left":[0,0,0,0,0,0,0,0,0,0,0,0,0],"id":14,"left_children":[1,-1,3,5,7,-1,-1,9,11,-1,-1,-1,-1],"loss_changes":[1.7988086E2,0E0,2.1755737E1,1.9924469E1,1.776648E1,0E0,0E0,9.977855E0,5.6500244E-1,0E0,0E0,0E0,0E0],"parents":[2147483647,0,0,2,2,3,3,4,4,7,7,8,8],"right_children":[2,-1,4,6,8,-1,-1,10,12,-1,-1,-1,-1],"split_conditions":[1.992E3,4.124286E0,3.78E-1,2.014E3,4.16E-1,2.3279297E0,3.750641E-1,3.98E-1,5.1E-1,6.247986E-1,-2.808197E-1,1.3737313E0,6.5058064E-1],"split_indices":[1,0,4,1,4,0,0,4,4,0,0,0,0],"split_type":[0,0,0,0,0,0,0,0,0,0,0,0,0],"sum_hessian":[2.4E1,2E0,2.2E1,5E0,1.7E1,4E0,1E0,3E0,1.4E1,2E0,1E0,1.1E1,3E0],"tree_param":{"num_deleted":"0","num_feature":"12","num_nodes":"13","size_leaf_vector":"0"}},{"base_weights":[4.582993E0,3.030684E0,3.3711686E0,5.268738E0,2.5031343E0,5.877442E-1,1.9301239E0,6.6456604E-1,2.8496442E0,4.249573E-1,-2.3869629E-1,3.706325E0,1.7438431E0,1.5513611E-1,1.2455018E0,-1.8162435E0,3.2332458E0,-1.19448856E-1,-6.978607E-1,1.4601014E0,5.7992804E-1],"categories":[],"categories_nodes":[],"categories_segments":[],"categories_sizes":[],"default_left":[0,0,0,0,0,0,0,0,0,0,0,0,0,0,0,0,0,0,0,0,0],"id":15,"left_children":[1,-1,3,5,7,-1,-1,9,11,-1,-1,13,15,-1,-1,17,19,-1,-1,-1,-1],"loss_changes":[1.3315369E2,0E0,2.3049026E1,1.0529556E1,8.936615E0,0E0,0E0,5.519162E0,6.799217E0,0E0,0E0,7.7952194E0,4.829158E1,0E0,0E0,1.2432814E0,3.3364449E0,0E0,0E0,0E0,0E0],"parents":[2147483647,0,0,2,2,3,3,4,4,7,7,8,8,11,11,12,12,15,15,16,16],"right_children":[2,-1,4,6,8,-1,-1,10,12,-1,-1,14,16,-1,-1,18,20,-1,-1,-1,-1],"split_conditions":[1.994E3,3.030684E0,3.78E-1,2.92E-1,1.77E-1,5.877442E-1,1.9301239E0,2.001E3,4.48E-1,4.249573E-1,-2.3869629E-1,2.644E0,2.01E3,1.5513611E-1,1.2455018E0,2E3,4.67E-1,-1.19448856E-1,-6.978607E-1,1.4601014E0,5.7992804E-1],"split_indices":[1,0,4,4,8,0,0,1,4,0,0,2,1,0,0,1,4,0,0,0,0],"split_type":[0,0,0,0,0,0,0,0,0,0,0,0,0,0,0,0,0,0,0,0,0],"sum_hessian":[2.4E1,3E0,2.1E1,5E0,1.6E1,2E0,3E0,3E0,1.3E1,2E0,1E0,6E0,7E0,1E0,5E0,2E0,5E0,1E0,1E0,1E0,4E0],"tree_param":{"num_deleted":"0","num_feature":"12","num_nodes":"21","size_leaf_vector":"0"}},{"base_weights":[3.5424206E0,2.6932924E0,2.6794605E0,4.107763E0,2.054501E0,1.6868958E0,5.833214E-1,1.6886543E0,1.2410843E0,2.4244108E0,2.9122925E-1,1.3186342E-1,2.5789428E0,-5.3071594E-1,4.4074586E-1,9.383942E-1,4.2129272E-1],"categories":[],"categories_nodes":[],"categories_segments":[],"categories_sizes":[],"default_left":[0,0,0,0,0,0,0,0,0,0,0,0,0,0,0,0,0],"id":16,"left_children":[1,-1,3,5,7,-1,-1,9,-1,11,13,-1,15,-1,-1,-1,-1],"loss_changes":[9.320422E1,0E0,1.209111E1,8.734459E0,6.727539E0,0E0,0E0,1.677274E1,0E0,2.2404175E0,1.9586998E1,0E0,2.0565338E0,0E0,0E0,0E0,0E0],"parents":[2147483647,0,0,2,2,3,3,4,4,7,7,9,9,10,10,12,12],"right_children":[2,-1,4,6,8,-1,-1,10,-1,12,14,-1,16,-1,-1,-1,-1],"split_conditions":[1.992E3,2.6932924E0,3.78E-1,2.002E3,2.27E-1,1.6868958E0,5.833214E-1,1.76E-1,1.2410843E0,3.95E-1,2.01E3,1.3186342E-1,4.38E-1,-5.3071594E-1,4.4074586E-1,9.383942E-1,4.2129272E-1],"split_indices":[1,0,4,1,10,0,0,10,0,4,1,0,4,0,0,0,0],"split_type":[0,0,0,0,0,0,0,0,0,0,0,0,0,0,0,0,0],"sum_hessian":[2.4E1,2E0,2.2E1,5E0,1.7E1,2E0,3E0,1.6E1,1E0,1E1,6E0,1E0,9E0,2E0,4E0,5E0,4E0],"tree_param":{"num_deleted":"0","num_feature":"12","num_nodes":"17","size_leaf_vector":"0"}},{"base_weights":[2.7839441E0,2.1546326E0,2.0892293E0,3.2538097E0,1.5849677E0,1.3495178E0,4.52076E-1,1.2645066E0,1.054921E0,1.832686E0,1.9100952E-1,6.796601E-1,1.0943909E0,-1.4152527E0,3.3496952E-1,4.598694E-1,-1.6472168E-1,-1.2328491E-1,-5.1357883E-1],"categories":[],"categories_nodes":[],"categories_segments":[],"categories_sizes":[],"default_left":[0,0,0,0,0,0,0,0,0,0,0,0,0,0,0,0,0,0,0],"id":17,"left_children":[1,-1,3,5,7,-1,-1,9,-1,11,13,-1,15,17,-1,-1,-1,-1,-1],"loss_changes":[6.1381668E1,0E0,8.34964E0,6.2661858E0,6.69458E0,0E0,0E0,1.0018904E1,0E0,1.035881E0,1.1987015E1,0E0,5.165693E0,1.9034338E-1,0E0,0E0,0E0,0E0,0E0],"parents":[2147483647,0,0,2,2,3,3,4,4,7,7,9,9,10,10,12,12,13,13],"right_children":[2,-1,4,6,8,-1,-1,10,-1,12,14,-1,16,18,-1,-1,-1,-1,-1],"split_conditions":[1.992E3,2.1546326E0,3.78E-1,2.002E3,2.27E-1,1.3495178E0,4.52076E-1,1.76E-1,1.054921E0,1.89E-1,2.01E3,6.796601E-1,4.37E-1,2.003E3,3.3496952E-1,4.598694E-1,-1.6472168E-1,-1.2328491E-1,-5.1357883E-1],"split_indices":[1,0,4,1,10,0,0,10,0,8,1,0,4,1,0,0,0,0,0],"split_type":[0,0,0,0,0,0,0,0,0,0,0,0,0,0,0,0,0,0,0],"sum_hessian":[2.4E1,2E0,2.2E1,5E0,1.7E1,2E0,3E0,1.6E1,1E0,1E1,6E0,5E0,5E0,2E0,4E0,4E0,1E0,1E0,1E0],"tree_param":{"num_deleted":"0","num_feature":"12","num_nodes":"19","size_leaf_vector":"0"}},{"base_weights":[2.1761134E0,1.7237122E0,1.6159004E0,2.5779164E0,1.2054563E0,8.9791626E-1,7.533417E-2,9.247257E-1,8.9668125E-1,1.3714767E0,9.058489E-2,4.3103028E-2,1.4798889E0,-1.2029623E0,2.545789E-1,6.134949E-1,2.2869875E-1,-1.0479126E-1,-4.3654177E-1],"categories":[],"categories_nodes":[],"categories_segments":[],"categories_sizes":[],"default_left":[0,0,0,0,0,0,0,0,0,0,0,0,0,0,0,0,0,0,0],"id":18,"left_children":[1,-1,3,5,7,-1,-1,9,-1,11,13,-1,15,17,-1,-1,-1,-1,-1],"loss_changes":[4.070881E1,0E0,5.974079E0,5.0440636E0,6.248249E0,0E0,0E0,6.210868E0,0E0,1.2515717E0,7.8844924E0,0E0,2.4959354E0,1.3753223E-1,0E0,0E0,0E0,0E0,0E0],"parents":[2147483647,0,0,2,2,3,3,4,4,7,7,9,9,10,10,12,12,13,13],"right_children":[2,-1,4,6,8,-1,-1,10,-1,12,14,-1,16,18,-1,-1,-1,-1,-1],"split_conditions":[1.992E3,1.7237122E0,3.78E-1,2.014E3,2.27E-1,8.9791626E-1,7.533417E-2,1.76E-1,8.9668125E-1,3.95E-1,2.01E3,4.3103028E-2,4.37E-1,2.003E3,2.545789E-1,6.134949E-1,2.2869875E-1,-1.0479126E-1,-4.3654177E-1],"split_indices":[1,0,4,1,10,0,0,10,0,4,1,0,4,1,0,0,0,0,0],"split_type":[0,0,0,0,0,0,0,0,0,0,0,0,0,0,0,0,0,0,0],"sum_hessian":[2.4E1,2E0,2.2E1,5E0,1.7E1,4E0,1E0,1.6E1,1E0,1E1,6E0,1E0,9E0,2E0,4E0,4E0,5E0,1E0,1E0],"tree_param":{"num_deleted":"0","num_feature":"12","num_nodes":"19","size_leaf_vector":"0"}},{"base_weights":[1.6909753E0,1.2633133E0,1.1559185E0,1.6018347E0,5.64381E-1,2.2190464E0,6.147817E-1,-1.3903427E-1,1.8301163E0,7.5532234E-1,6.403199E-2,-8.907166E-2,2.5695008E-1,3.8453674E-1,-5.3008425E-1,7.621811E-1,2.2392578E-1,-9.8995976E-2,2.1981202E-1,-3.635834E-1,3.2847086E-1,1.3062286E-1,1.7189026E-2],"categories":[],"categories_nodes":[],"categories_segments":[],"categories_sizes":[],"default_left":[0,0,0,0,0,0,0,0,0,0,0,0,0,0,0,0,0,0,0,0,0,0,0],"id":19,"left_children":[1,-1,3,5,7,9,11,13,15,-1,-1,-1,-1,17,19,-1,-1,-1,-1,-1,21,-1,-1],"loss_changes":[2.8841888E1,0E0,4.899029E0,5.946419E0,1.00481615E1,3.6560593E0,1.5765302E0,1.8417763E0,1.1834555E0,0E0,0E0,0E0,0E0,1.2368857E0,3.325162E0,0E0,0E0,0E0,0E0,0E0,6.204945E-2,0E0,0E0],"parents":[2147483647,0,0,2,2,3,3,4,4,5,5,6,6,7,7,8,8,13,13,14,14,20,20],"right_children":[2,-1,4,6,8,10,12,14,16,-1,-1,-1,-1,18,20,-1,-1,-1,-1,-1,22,-1,-1],"split_conditions":[1.994E3,1.2633133E0,4.37E-1,7.94E-1,2.016E3,2.005E3,2.003E3,4.48E-1,2.019E3,7.5532234E-1,6.403199E-2,-8.907166E-2,2.5695008E-1,1.995E3,2.01E3,7.621811E-1,2.2392578E-1,-9.8995976E-2,2.1981202E-1,-3.635834E-1,2.015E3,1.3062286E-1,1.7189026E-2],"split_indices":[1,0,4,9,1,1,1,4,1,0,0,0,0,1,1,0,0,0,0,0,1,0,0],"split_type":[0,0,0,0,0,0,0,0,0,0,0,0,0,0,0,0,0,0,0,0,0,0,0],"sum_hessian":[2.4E1,3E0,2.1E1,1.1E1,1E1,6E0,5E0,7E0,3E0,5E0,1E0,1E0,4E0,3E0,4E0,1E0,2E0,1E0,2E0,2E0,2E0,1E0,1E0],"tree_param":{"num_deleted":"0","num_feature":"12","num_nodes":"23","size_leaf_vector":"0"}},{"base_weights":[1.3093543E0,3.7543743E0,9.335102E-1,2.8466493E-1,1.4048035E0,1.6186676E0,6.532627E-1,7.4896854E-1,1.6667405E-1,4.3762925E-1,6.478546E-1,8.289359E-1,1.4883146E-1,2.777466E-1,4.4138187E-1,-1.4169312E-1,1.5773988E-1,2.4544679E-1,-1.0657349E-1,1.1500855E-1,-2.908661E-1],"categories":[],"categories_nodes":[],"categories_segments":[],"categories_sizes":[],"default_left":[0,0,0,0,0,0,0,0,0,0,0,0,0,0,0,0,0,0,0,0,0],"id":20,"left_children":[1,3,5,-1,-1,7,9,-1,-1,11,-1,13,15,17,-1,19,-1,-1,-1,-1,-1],"loss_changes":[1.946891E1,3.369732E0,3.3588982E0,0E0,0E0,4.2126293E0,4.901304E0,0E0,0E0,1.7977731E0,0E0,2.0697036E0,1.2792057E0,2.0010188E0,0E0,3.4143953E0,0E0,0E0,0E0,0E0,0E0],"parents":[2147483647,0,0,1,1,2,2,5,5,6,6,9,9,11,11,12,12,13,13,15,15],"right_children":[2,4,6,-1,-1,8,10,-1,-1,12,-1,14,16,18,-1,20,-1,-1,-1,-1,-1],"split_conditions":[1.992E3,1.991E3,3.78E-1,2.8466493E-1,1.4048035E0,2.002E3,2.27E-1,7.4896854E-1,1.6667405E-1,1.89E-1,6.478546E-1,1.77E-1,2.01E3,1.7E-1,4.4138187E-1,4.37E-1,1.5773988E-1,2.4544679E-1,-1.0657349E-1,1.1500855E-1,-2.908661E-1],"split_indices":[1,1,4,0,0,1,10,0,0,8,0,8,1,8,0,4,0,0,0,0,0],"split_type":[0,0,0,0,0,0,0,0,0,0,0,0,0,0,0,0,0,0,0,0,0],"sum_hessian":[2.4E1,2E0,2.2E1,1E0,1E0,5E0,1.7E1,2E0,3E0,1.6E1,1E0,6E0,1E1,4E0,2E0,6E0,4E0,2E0,2E0,4E0,2E0],"tree_param":{"num_deleted":"0","num_feature":"12","num_nodes":"21","size_leaf_vector":"0"}},{"base_weights":[1.069154E0,3.1912231E0,7.4587744E-1,2.4196473E-1,1.1940857E0,6.129095E-1,5.50676E-1,1.2856699E0,3.394111E-1,5.9917605E-1,4.3056488E-1,5.444946E-1,-3.1350274E-2,1.5260926E-1,2.942505E-2,3.1122437E-1,4.3157962E-1,-7.3915607E-1,3.9960328E-1,-9.390564E-2,1.2460938E-1,-5.9729006E-2,-2.7289125E-1,1.5333559E-1,4.6466067E-2],"categories":[],"categories_nodes":[],"categories_segments":[],"categories_sizes":[],"default_left":[0,0,0,0,0,0,0,0,0,0,0,0,0,0,0,0,0,0,0,0,0,0,0,0,0],"id":21,"left_children":[1,3,5,-1,-1,7,-1,9,11,-1,13,15,17,-1,-1,19,-1,21,23,-1,-1,-1,-1,-1,-1],"loss_changes":[1.4770117E1,2.434679E0,2.2075691E0,0E0,0E0,3.6116056E0,0E0,2.790925E0,1.3096997E0,0E0,5.4015756E-2,1.8465197E0,2.4305892E0,0E0,0E0,7.80105E-1,0E0,9.5104456E-2,5.7282567E-2,0E0,0E0,0E0,0E0,0E0,0E0],"parents":[2147483647,0,0,1,1,2,2,5,5,7,7,8,8,10,10,11,11,12,12,15,15,17,17,18,18],"right_children":[2,4,6,-1,-1,8,-1,10,12,-1,14,16,18,-1,-1,20,-1,22,24,-1,-1,-1,-1,-1,-1],"split_conditions":[1.992E3,1.991E3,2.27E-1,2.4196473E-1,1.1940857E0,3.78E-1,5.50676E-1,2.002E3,1.76E-1,5.9917605E-1,2.014E3,1.64E-1,2.01E3,1.5260926E-1,2.942505E-2,3.95E-1,4.3157962E-1,2.003E3,5.4E-1,-9.390564E-2,1.2460938E-1,-5.9729006E-2,-2.7289125E-1,1.5333559E-1,4.6466067E-2],"split_indices":[1,1,10,0,0,4,0,1,10,0,1,10,1,0,0,4,0,1,4,0,0,0,0,0,0],"split_type":[0,0,0,0,0,0,0,0,0,0,0,0,0,0,0,0,0,0,0,0,0,0,0,0,0],"sum_hessian":[2.4E1,2E0,2.2E1,1E0,1E0,2.1E1,1E0,5E0,1.6E1,2E0,3E0,1E1,6E0,2E0,1E0,9E0,1E0,2E0,4E0,1E0,8E0,1E0,1E0,2E0,2E0],"tree_param":{"num_deleted":"0","num_feature":"12","num_nodes":"25","size_leaf_vector":"0"}},{"base_weights":[8.7229615E-1,2.7125447E0,5.943378E-1,2.0567323E-1,1.014972E0,4.79513E-1,4.6807253E-1,7.887573E-1,9.8563455E-2,1.0465469E0,2.1854249E-1,-3.2254028E-1,5.032399E-1,1.1722325E0,2.5012208E-2,-5.0765995E-2,3.577881E-1,6.085205E-2,-2.1786499E-1,2.0228578E-1,1.07432045E-1,4.7933963E-1,2.047339E-1,1.22088626E-1,3.1539917E-2,-8.685608E-2,8.224487E-2,6.4366154E-2,-1.6021729E-2],"categories":[],"categories_nodes":[],"categories_segments":[],"categories_sizes":[],"default_left":[0,0,0,0,0,0,0,0,0,0,0,0,0,0,0,0,0,0,0,0,0,0,0,0,0,0,0,0,0],"id":22,"left_children":[1,3,5,-1,-1,7,-1,9,11,13,15,17,19,21,-1,-1,23,25,-1,-1,27,-1,-1,-1,-1,-1,-1,-1,-1],"loss_changes":[1.1175644E1,1.7589569E0,1.8027668E0,0E0,0E0,2.5140004E0,0E0,1.5352302E0,2.0368338E0,8.707218E-1,3.30516E-1,9.727903E-1,3.3376813E-1,3.6864376E-1,0E0,0E0,6.9110394E-3,3.783061E-1,0E0,0E0,6.3146114E-2,0E0,0E0,0E0,0E0,0E0,0E0,0E0,0E0],"parents":[2147483647,0,0,1,1,2,2,5,5,7,7,8,8,9,9,10,10,11,11,12,12,13,13,16,16,17,17,20,20],"right_children":[2,4,6,-1,-1,8,-1,10,12,14,16,18,20,22,-1,-1,24,26,-1,-1,28,-1,-1,-1,-1,-1,-1,-1,-1],"split_conditions":[1.992E3,1.991E3,2.27E-1,2.0567323E-1,1.014972E0,4.37E-1,4.6807253E-1,7.95E-1,4.6E-1,2.006E3,2.003E3,4.48E-1,4.52E-1,3.78E-1,2.5012208E-2,-5.0765995E-2,3.48E-1,1.995E3,-2.1786499E-1,2.0228578E-1,2.015E3,4.7933963E-1,2.047339E-1,1.22088626E-1,3.1539917E-2,-8.685608E-2,8.224487E-2,6.4366154E-2,-1.6021729E-2],"split_indices":[1,1,10,0,0,4,0,9,4,1,1,4,11,4,0,0,4,1,0,0,1,0,0,0,0,0,0,0,0],"split_type":[0,0,0,0,0,0,0,0,0,0,0,0,0,0,0,0,0,0,0,0,0,0,0,0,0,0,0,0,0],"sum_hessian":[2.4E1,2E0,2.2E1,1E0,1E0,2.1E1,1E0,1.1E1,1E1,7E0,4E0,5E0,5E0,6E0,1E0,1E0,3E0,3E0,2E0,3E0,2E0,2E0,4E0,2E0,1E0,1E0,2E0,1E0,1E0],"tree_param":{"num_deleted":"0","num_feature":"12","num_nodes":"29","size_leaf_vector":"0"}},{"base_weights":[7.117615E-1,2.305664E0,4.72915E-1,1.7481995E-1,8.627289E-1,3.7384728E-1,3.9786074E-1,8.2551575E-1,1.9244385E-1,3.8346562E-1,2.7960968E-1,4.768328E-1,-6.0258345E-3,9.767151E-2,2.1258546E-2,1.8282063E-1,3.3613586E-1,-1.7310007E-1,2.2908325E-1,-4.2659E-2,1.6657105E-1,3.1871337E-2,-1.7428894E-1,9.599915E-2,1.8542482E-2],"categories":[],"categories_nodes":[],"categories_segments":[],"categories_sizes":[],"default_left":[0,0,0,0,0,0,0,0,0,0,0,0,0,0,0,0,0,0,0,0,0,0,0,0,0],"id":23,"left_children":[1,3,5,-1,-1,7,-1,9,11,-1,13,15,17,-1,-1,19,-1,21,23,-1,-1,-1,-1,-1,-1],"loss_changes":[8.427069E0,1.2709208E0,1.4484668E0,0E0,0E0,1.6436872E0,0E0,1.1253972E0,9.623974E-1,0E0,1.5307277E-2,1.1197828E0,4.7174168E-1,0E0,0E0,8.0520296E-1,0E0,8.592415E-1,5.6259632E-2,0E0,0E0,0E0,0E0,0E0,0E0],"parents":[2147483647,0,0,1,1,2,2,5,5,7,7,8,8,10,10,11,11,12,12,15,15,17,17,18,18],"right_children":[2,4,6,-1,-1,8,-1,10,12,-1,14,16,18,-1,-1,20,-1,22,24,-1,-1,-1,-1,-1,-1],"split_conditions":[1.992E3,1.991E3,2.27E-1,1.7481995E-1,8.627289E-1,3.78E-1,3.9786074E-1,2.002E3,1.89E-1,3.8346562E-1,2.014E3,2.003E3,2.01E3,9.767151E-2,2.1258546E-2,4.4E-1,3.3613586E-1,4.37E-1,5.4E-1,-4.2659E-2,1.6657105E-1,3.1871337E-2,-1.7428894E-1,9.599915E-2,1.8542482E-2],"split_indices":[1,1,10,0,0,4,0,1,8,0,1,1,1,0,0,4,0,4,4,0,0,0,0,0,0],"split_type":[0,0,0,0,0,0,0,0,0,0,0,0,0,0,0,0,0,0,0,0,0,0,0,0,0],"sum_hessian":[2.4E1,2E0,2.2E1,1E0,1E0,2.1E1,1E0,5E0,1.6E1,2E0,3E0,6E0,1E1,2E0,1E0,5E0,1E0,6E0,4E0,3E0,2E0,4E0,2E0,2E0,2E0],"tree_param":{"num_deleted":"0","num_feature":"12","num_nodes":"25","size_leaf_vector":"0"}},{"base_weights":[5.930347E-1,1.9598185E0,3.889744E-1,1.4859925E-1,7.333191E-1,3.0417565E-1,3.381821E-1,5.027568E-1,5.988936E-2,6.687279E-1,1.366516E-1,-2.1829224E-1,3.280894E-1,3.6198425E-1,3.1779176E-1,-3.674927E-2,6.961899E-2,-3.1103516E-2,-1.7313538E-1,1.5514833E-1,3.1278994E-2,-6.482239E-2,2.1150972E-1,-6.895752E-2,5.3405765E-2],"categories":[],"categories_nodes":[],"categories_segments":[],"categories_sizes":[],"default_left":[0,0,0,0,0,0,0,0,0,0,0,0,0,0,0,0,0,0,0,0,0,0,0,0,0],"id":24,"left_children":[1,3,5,-1,-1,7,-1,9,11,13,15,17,19,21,-1,-1,-1,23,-1,-1,-1,-1,-1,-1,-1],"loss_changes":[6.2103376E0,9.1819286E-1,1.0970683E0,0E0,0E0,1.0371244E0,0E0,6.377716E-1,8.923108E-1,5.750065E-1,1.5205649E-1,3.8505834E-1,1.9999409E-1,1.3421516E0,0E0,0E0,0E0,2.4874003E-1,0E0,0E0,0E0,0E0,0E0,0E0,0E0],"parents":[2147483647,0,0,1,1,2,2,5,5,7,7,8,8,9,9,10,10,11,11,12,12,13,13,17,17],"right_children":[2,4,6,-1,-1,8,-1,10,12,14,16,18,20,22,-1,-1,-1,24,-1,-1,-1,-1,-1,-1,-1],"split_conditions":[1.992E3,1.991E3,2.27E-1,1.4859925E-1,7.333191E-1,4.37E-1,3.381821E-1,7.95E-1,4.6E-1,1.59E-1,2.003E3,2.001E3,5.1E-1,1.93E-1,3.1779176E-1,-3.674927E-2,6.961899E-2,7.5E-2,-1.7313538E-1,1.5514833E-1,3.1278994E-2,-6.482239E-2,2.1150972E-1,-6.895752E-2,5.3405765E-2],"split_indices":[1,1,10,0,0,4,0,9,4,10,1,1,4,8,0,0,0,5,0,0,0,0,0,0,0],"split_type":[0,0,0,0,0,0,0,0,0,0,0,0,0,0,0,0,0,0,0,0,0,0,0,0,0],"sum_hessian":[2.4E1,2E0,2.2E1,1E0,1E0,2.1E1,1E0,1.1E1,1E1,7E0,4E0,5E0,5E0,5E0,2E0,1E0,3E0,4E0,1E0,2E0,3E0,2E0,3E0,2E0,2E0],"tree_param":{"num_deleted":"0","num_feature":"12","num_nodes":"25","size_leaf_vector":"0"}},{"base_weights":[4.8372924E-1,1.6658325E0,3.0851015E-1,1.2630616E-1,6.233185E-1,2.3542647E-1,2.874527E-1,5.6096905E-1,1.06680475E-1,2.5383914E-1,6.2056735E-2,3.317871E-1,-4.6267424E-2,1.2258911E-1,2.3804627E-1,-1.6803415E-1,1.3345948E-1,-2.913666E-2,1.1240234E-1,-9.75647E-3,-1.4716645E-1,5.81543E-2,8.57544E-3],"categories":[],"categories_nodes":[],"categories_segments":[],"categories_sizes":[],"default_left":[0,0,0,0,0,0,0,0,0,0,0,0,0,0,0,0,0,0,0,0,0,0,0],"id":25,"left_children":[1,3,5,-1,-1,7,-1,9,11,-1,-1,13,15,17,-1,19,21,-1,-1,-1,-1,-1,-1],"loss_changes":[4.6642504E0,6.634321E-1,8.664589E-1,0E0,0E0,8.62226E-1,0E0,4.3084943E-1,6.006539E-1,0E0,0E0,5.7883483E-1,2.6315805E-1,3.6870524E-1,0E0,2.8998566E-1,2.6124857E-2,0E0,0E0,0E0,0E0,0E0,0E0],"parents":[2147483647,0,0,1,1,2,2,5,5,7,7,8,8,11,11,12,12,13,13,15,15,16,16],"right_children":[2,4,6,-1,-1,8,-1,10,12,-1,-1,14,16,18,-1,20,22,-1,-1,-1,-1,-1,-1],"split_conditions":[1.992E3,1.991E3,2.27E-1,1.2630616E-1,6.233185E-1,3.78E-1,2.874527E-1,2.002E3,1.89E-1,2.5383914E-1,6.2056735E-2,2.003E3,2.01E3,4.4E-1,2.3804627E-1,2.009E3,5.4E-1,-2.913666E-2,1.1240234E-1,-9.75647E-3,-1.4716645E-1,5.81543E-2,8.57544E-3],"split_indices":[1,1,10,0,0,4,0,1,8,0,0,1,1,4,0,1,4,0,0,0,0,0,0],"split_type":[0,0,0,0,0,0,0,0,0,0,0,0,0,0,0,0,0,0,0,0,0,0,0],"sum_hessian":[2.4E1,2E0,2.2E1,1E0,1E0,2.1E1,1E0,5E0,1.6E1,2E0,3E0,6E0,1E1,5E0,1E0,6E0,4E0,3E0,2E0,5E0,1E0,2E0,2E0],"tree_param":{"num_deleted":"0","num_feature":"12","num_nodes":"23","size_leaf_vector":"0"}},{"base_weights":[4.0197265E-1,1.415975E0,2.5223443E-1,1.07363895E-1,5.2982485E-1,1.8965842E-1,2.4433595E-1,4.4532776E-1,8.8265814E-2,2.0307007E-1,4.8094943E-2,3.0540976E-1,-2.7661642E-2,9.67041E-2,2.023407E-1,-1.0411377E-1,3.292292E-2,1.0140992E-1,-5.3057864E-2,4.941651E-2,-1.9776698E-2],"categories":[],"categories_nodes":[],"categories_segments":[],"categories_sizes":[],"default_left":[0,0,0,0,0,0,0,0,0,0,0,0,0,0,0,0,0,0,0,0,0],"id":26,"left_children":[1,3,5,-1,-1,7,-1,9,11,-1,-1,13,15,17,-1,-1,19,-1,-1,-1,-1],"loss_changes":[3.4387155E0,4.7929716E-1,6.547042E-1,0E0,0E0,5.309984E-1,0E0,2.8748643E-1,4.363882E-1,0E0,0E0,3.9692456E-1,2.4362282E-1,3.898785E-1,0E0,0E0,1.5416333E-1,0E0,0E0,0E0,0E0],"parents":[2147483647,0,0,1,1,2,2,5,5,7,7,8,8,11,11,12,12,13,13,16,16],"right_children":[2,4,6,-1,-1,8,-1,10,12,-1,-1,14,16,18,-1,-1,20,-1,-1,-1,-1],"split_conditions":[1.992E3,1.991E3,2.27E-1,1.07363895E-1,5.2982485E-1,3.78E-1,2.4433595E-1,2.002E3,1.81E-1,2.0307007E-1,4.8094943E-2,2.003E3,2.644E0,1.7E-1,2.023407E-1,-1.0411377E-1,4.48E-1,1.0140992E-1,-5.3057864E-2,4.941651E-2,-1.9776698E-2],"split_indices":[1,1,10,0,0,4,0,1,8,0,0,1,2,8,0,0,4,0,0,0,0],"split_type":[0,0,0,0,0,0,0,0,0,0,0,0,0,0,0,0,0,0,0,0,0],"sum_hessian":[2.4E1,2E0,2.2E1,1E0,1E0,2.1E1,1E0,5E0,1.6E1,2E0,3E0,5E0,1.1E1,4E0,1E0,1E0,1E1,2E0,2E0,4E0,6E0],"tree_param":{"num_deleted":"0","num_feature":"12","num_nodes":"21","size_leaf_vector":"0"}},{"base_weights":[3.3373046E-1,1.0734863E0,1.8405984E-1,4.5034793E-1,1.2916261E-1,1.2689209E-1,2.076874E-1,2.492981E-1,-6.401571E-2,1.4314575E-1,1.6449252E-1,-2.3781128E-1,1.2258301E-1,-8.8494875E-2,2.3993835E-1,-9.371948E-2,-1.2212677E-1,2.3213705E-2,5.4327395E-2,1.10888675E-1,2.7561951E-2,-4.3994144E-2,9.759522E-3,2.9859925E-2,-1.9413758E-2],"categories":[],"categories_nodes":[],"categories_segments":[],"categories_sizes":[],"default_left":[0,0,0,0,0,0,0,0,0,0,0,0,0,0,0,0,0,0,0,0,0,0,0,0,0],"id":27,"left_children":[1,3,5,-1,-1,7,-1,9,11,-1,13,15,17,-1,19,21,-1,23,-1,-1,-1,-1,-1,-1,-1],"loss_changes":[2.5704072E0,4.5356894E-1,5.5135155E-1,0E0,0E0,5.066924E-1,0E0,1.7271519E-1,3.2102188E-1,0E0,4.520983E-1,8.380562E-2,2.4865843E-2,0E0,1.5806758E-1,3.1499412E-2,0E0,2.657246E-2,0E0,0E0,0E0,0E0,0E0,0E0,0E0],"parents":[2147483647,0,0,1,1,2,2,5,5,7,7,8,8,10,10,11,11,12,12,14,14,15,15,17,17],"right_children":[2,4,6,-1,-1,8,-1,10,12,-1,14,16,18,-1,20,22,-1,24,-1,-1,-1,-1,-1,-1,-1],"split_conditions":[1.994E3,1.647E0,2.27E-1,4.5034793E-1,1.2916261E-1,4.38E-1,2.076874E-1,1.997E3,2.01E3,1.4314575E-1,1.998E3,2E3,2.016E3,-8.8494875E-2,7.94E-1,7.5E-2,-1.2212677E-1,2.015E3,5.4327395E-2,1.10888675E-1,2.7561951E-2,-4.3994144E-2,9.759522E-3,2.9859925E-2,-1.9413758E-2],"split_indices":[1,2,10,0,0,4,0,1,1,0,1,1,1,0,9,5,0,1,0,0,0,0,0,0,0],"split_type":[0,0,0,0,0,0,0,0,0,0,0,0,0,0,0,0,0,0,0,0,0,0,0,0,0],"sum_hessian":[2.4E1,3E0,2.1E1,1E0,2E0,2E1,1E0,1.2E1,8E0,2E0,1E1,4E0,4E0,1E0,9E0,3E0,1E0,2E0,2E0,4E0,5E0,2E0,1E0,1E0,1E0],"tree_param":{"num_deleted":"0","num_feature":"12","num_nodes":"25","size_leaf_vector":"0"}},{"base_weights":[2.691565E-1,8.963165E-1,1.4289302E-1,3.8279116E-1,1.0333253E-1,9.365554E-2,1.7653199E-1,2.0370992E-1,-4.777527E-2,1.21844485E-1,4.086914E-1,-1.6193135E-1,9.876709E-2,2.835795E-1,-9.660645E-2,1.5535584E-1,2.8555298E-2,-5.5908203E-2,-1.0380707E-1,1.9734701E-2,4.3463137E-2,1.3705444E-1,2.4819948E-2,-7.521973E-2,1.3824464E-3,-3.5192873E-2,7.23877E-3,2.5382997E-2,-1.650238E-2],"categories":[],"categories_nodes":[],"categories_segments":[],"categories_sizes":[],"default_left":[0,0,0,0,0,0,0,0,0,0,0,0,0,0,0,0,0,0,0,0,0,0,0,0,0,0,0,0,0],"id":28,"left_children":[1,3,5,-1,-1,7,-1,9,11,13,15,17,19,21,23,-1,-1,25,-1,27,-1,-1,-1,-1,-1,-1,-1,-1,-1],"loss_changes":[1.8516078E0,3.9858842E-1,4.2751658E-1,0E0,0E0,3.3659893E-1,0E0,1.5157399E-1,1.8328051E-1,3.8070723E-1,5.337715E-2,9.776266E-2,1.5361823E-2,1.7100579E-1,7.91544E-2,0E0,0E0,2.7402628E-2,0E0,1.9201068E-2,0E0,0E0,0E0,0E0,0E0,0E0,0E0,0E0,0E0],"parents":[2147483647,0,0,1,1,2,2,5,5,7,7,8,8,9,9,10,10,11,11,12,12,13,13,14,14,17,17,19,19],"right_children":[2,4,6,-1,-1,8,-1,10,12,14,16,18,20,22,24,-1,-1,26,-1,28,-1,-1,-1,-1,-1,-1,-1,-1,-1],"split_conditions":[1.994E3,1.647E0,2.27E-1,3.8279116E-1,1.0333253E-1,4.37E-1,1.7653199E-1,4.18E-1,2.01E3,3.78E-1,2.005E3,2.001E3,2.016E3,2.002E3,2.644E0,1.5535584E-1,2.8555298E-2,7.5E-2,-1.0380707E-1,2.015E3,4.3463137E-2,1.3705444E-1,2.4819948E-2,-7.521973E-2,1.3824464E-3,-3.5192873E-2,7.23877E-3,2.5382997E-2,-1.650238E-2],"split_indices":[1,2,10,0,0,4,0,4,1,4,1,1,1,1,2,0,0,5,0,1,0,0,0,0,0,0,0,0,0],"split_type":[0,0,0,0,0,0,0,0,0,0,0,0,0,0,0,0,0,0,0,0,0,0,0,0,0,0,0,0,0],"sum_hessian":[2.4E1,3E0,2.1E1,1E0,2E0,2E1,1E0,1.1E1,9E0,9E0,2E0,5E0,4E0,5E0,4E0,1E0,1E0,4E0,1E0,2E0,2E0,2E0,3E0,1E0,3E0,2E0,2E0,1E0,1E0],"tree_param":{"num_deleted":"0","num_feature":"12","num_nodes":"29","size_leaf_vector":"0"}},{"base_weights":[2.2261597E-1,8.4834796E-1,1.3131979E-1,5.638733E-2,3.2536927E-1,9.181907E-2,1.5005036E-1,2.4766846E-1,4.3426514E-2,9.8083496E-2,1.2690125E-1,-1.3729095E-1,8.8722736E-2,6.7611694E-2,-1.9470215E-2,-6.3940436E-2,-1.228943E-2,2.2508748E-1,-1.9683838E-3,-3.287659E-2,2.411499E-2,1.1308594E-1,1.6474916E-2,-5.796814E-2,2.0999908E-2],"categories":[],"categories_nodes":[],"categories_segments":[],"categories_sizes":[],"default_left":[0,0,0,0,0,0,0,0,0,0,0,0,0,0,0,0,0,0,0,0,0,0,0,0,0],"id":29,"left_children":[1,3,5,-1,-1,7,-1,9,11,13,-1,15,17,-1,19,-1,-1,21,23,-1,-1,-1,-1,-1,-1],"loss_changes":[1.3167686E0,2.641325E-1,2.8917965E-1,0E0,0E0,1.5516752E-1,0E0,8.964819E-2,1.5952557E-1,6.424114E-2,0E0,2.0491965E-2,1.8594913E-1,0E0,3.5805013E-2,0E0,0E0,1.3435796E-1,1.5117109E-1,0E0,0E0,0E0,0E0,0E0,0E0],"parents":[2147483647,0,0,1,1,2,2,5,5,7,7,8,8,9,9,11,11,12,12,14,14,17,17,18,18],"right_children":[2,4,6,-1,-1,8,-1,10,12,14,-1,16,18,-1,20,-1,-1,22,24,-1,-1,-1,-1,-1,-1],"split_conditions":[1.992E3,1.991E3,2.27E-1,5.638733E-2,3.2536927E-1,1.997E3,1.5005036E-1,1.996E3,7.5E-2,1.994E3,1.2690125E-1,1.998E3,7.95E-1,6.7611694E-2,1.995E3,-6.3940436E-2,-1.228943E-2,4.23E-1,1.81E-1,-3.287659E-2,2.411499E-2,1.1308594E-1,1.6474916E-2,-5.796814E-2,2.0999908E-2],"split_indices":[1,1,10,0,0,1,0,1,5,1,0,1,9,0,1,0,0,4,10,0,0,0,0,0,0],"split_type":[0,0,0,0,0,0,0,0,0,0,0,0,0,0,0,0,0,0,0,0,0,0,0,0,0],"sum_hessian":[2.4E1,2E0,2.2E1,1E0,1E0,2.1E1,1E0,4E0,1.7E1,3E0,1E0,3E0,1.4E1,1E0,2E0,1E0,2E0,5E0,9E0,1E0,1E0,2E0,3E0,2E0,7E0],"tree_param":{"num_deleted":"0","num_feature":"12","num_nodes":"25","size_leaf_vector":"0"}},{"base_weights":[1.851892E-1,7.2108966E-1,1.0723744E-1,4.792786E-2,2.765625E-1,7.346275E-2,1.2754212E-1,2.1052246E-1,3.130934E-2,8.337402E-2,1.07867435E-1,-5.9303284E-2,9.436312E-2,5.7467654E-2,-1.6540527E-2,-5.4345705E-2,-1.6017368E-2,1.15090944E-1,2.7072143E-2,-2.7941896E-2,2.0498658E-2,-1.24755865E-2,2.0608522E-2,-2.3879243E-2,2.524763E-2],"categories":[],"categories_nodes":[],"categories_segments":[],"categories_sizes":[],"default_left":[0,0,0,0,0,0,0,0,0,0,0,0,0,0,0,0,0,0,0,0,0,0,0,0,0],"id":30,"left_children":[1,3,5,-1,-1,7,-1,9,11,13,-1,15,17,-1,19,-1,21,-1,23,-1,-1,-1,-1,-1,-1],"loss_changes":[9.670317E-1,1.9084239E-1,2.1572077E-1,0E0,0E0,1.2051443E-1,0E0,6.477043E-2,1.0843849E-1,4.6405435E-2,0E0,3.9293204E-2,2.0373452E-1,0E0,2.5866887E-2,0E0,1.8018147E-2,0E0,6.75929E-2,0E0,0E0,0E0,0E0,0E0,0E0],"parents":[2147483647,0,0,1,1,2,2,5,5,7,7,8,8,9,9,11,11,12,12,14,14,16,16,18,18],"right_children":[2,4,6,-1,-1,8,-1,10,12,14,-1,16,18,-1,20,-1,22,-1,24,-1,-1,-1,-1,-1,-1],"split_conditions":[1.992E3,1.991E3,2.27E-1,4.792786E-2,2.765625E-1,1.997E3,1.2754212E-1,1.996E3,3.802E0,1.994E3,1.07867435E-1,1.998E3,7.94E-1,5.7467654E-2,1.995E3,-5.4345705E-2,1.99E-1,1.15090944E-1,1.81E-1,-2.7941896E-2,2.0498658E-2,-1.24755865E-2,2.0608522E-2,-2.3879243E-2,2.524763E-2],"split_indices":[1,1,10,0,0,1,0,1,2,1,0,1,9,0,1,0,10,0,10,0,0,0,0,0,0],"split_type":[0,0,0,0,0,0,0,0,0,0,0,0,0,0,0,0,0,0,0,0,0,0,0,0,0],"sum_hessian":[2.4E1,2E0,2.2E1,1E0,1E0,2.1E1,1E0,4E0,1.7E1,3E0,1E0,7E0,1E1,1E0,2E0,1E0,6E0,1E0,9E0,1E0,1E0,5E0,1E0,3E0,6E0],"tree_param":{"num_deleted":"0","num_feature":"12","num_nodes":"25","size_leaf_vector":"0"}},{"base_weights":[1.568335E-1,6.1293536E-1,9.05231E-2,4.0740967E-2,2.3507996E-1,6.1785612E-2,1.0841218E-1,1.0802409E-1,-3.2634735E-2,5.0187543E-2,2.1365967E-1,-7.595673E-2,3.50429E-2,9.169006E-2,-5.92041E-3,9.7824104E-2,3.1210328E-2,-1.989746E-3,2.5524903E-2,4.4238284E-2,-1.880951E-2,1.6558839E-2,-1.7553711E-2],"categories":[],"categories_nodes":[],"categories_segments":[],"categories_sizes":[],"default_left":[0,0,0,0,0,0,0,0,0,0,0,0,0,0,0,0,0,0,0,0,0,0,0],"id":31,"left_children":[1,3,5,-1,-1,7,-1,9,11,13,15,-1,17,-1,19,-1,-1,21,-1,-1,-1,-1,-1],"loss_changes":[7.006226E-1,1.3787317E-1,1.5669444E-1,0E0,0E0,9.95741E-2,0E0,8.092089E-2,1.2828526E-1,1.5946755E-1,2.7697146E-2,0E0,1.3141117E-2,0E0,9.633235E-2,0E0,0E0,1.9391133E-2,0E0,0E0,0E0,0E0,0E0],"parents":[2147483647,0,0,1,1,2,2,5,5,7,7,8,8,9,9,10,10,12,12,14,14,17,17],"right_children":[2,4,6,-1,-1,8,-1,10,12,14,16,-1,18,-1,20,-1,-1,22,-1,-1,-1,-1,-1],"split_conditions":[1.992E3,1.991E3,2.27E-1,4.0740967E-2,2.3507996E-1,2.009E3,1.0841218E-1,2.003E3,2.01E3,3.09E-1,7.94E-1,-7.595673E-2,1.675E1,9.169006E-2,1.69E-1,9.7824104E-2,3.1210328E-2,2.015E3,2.5524903E-2,4.4238284E-2,-1.880951E-2,1.6558839E-2,-1.7553711E-2],"split_indices":[1,1,10,0,0,1,0,1,1,4,9,0,2,0,8,0,0,1,0,0,0,0,0],"split_type":[0,0,0,0,0,0,0,0,0,0,0,0,0,0,0,0,0,0,0,0,0,0,0],"sum_hessian":[2.4E1,2E0,2.2E1,1E0,1E0,2.1E1,1E0,1.4E1,7E0,1E1,4E0,1E0,6E0,1E0,9E0,1E0,3E0,4E0,2E0,2E0,7E0,2E0,2E0],"tree_param":{"num_deleted":"0","num_feature":"12","num_nodes":"23","size_leaf_vector":"0"}},{"base_weights":[1.3293824E-1,4.6107483E-1,6.723439E-2,1.9981386E-1,5.1220704E-2,4.1181292E-2,9.215241E-2,1.0025787E-1,-3.3828735E-2,4.175822E-2,2.0681763E-1,-6.781387E-2,2.0422366E-2,7.793885E-2,-1.7971039E-2,8.31482E-2,2.7294923E-2,-8.907645E-2,1.2153626E-2,1.3862915E-2,-2.8111268E-2,-4.255371E-3,-5.5261232E-2],"categories":[],"categories_nodes":[],"categories_segments":[],"categories_sizes":[],"default_left":[0,0,0,0,0,0,0,0,0,0,0,0,0,0,0,0,0,0,0,0,0,0,0],"id":32,"left_children":[1,3,5,-1,-1,7,-1,9,11,13,15,17,-1,-1,19,-1,-1,21,-1,-1,-1,-1,-1],"loss_changes":[5.0799584E-1,1.24326944E-1,1.2487627E-1,0E0,0E0,9.644964E-2,0E0,6.616817E-2,3.924837E-2,1.21878E-1,7.3756725E-3,2.2034984E-2,0E0,0E0,4.3214947E-2,0E0,0E0,4.7257155E-2,0E0,0E0,0E0,0E0,0E0],"parents":[2147483647,0,0,1,1,2,2,5,5,7,7,8,8,9,9,10,10,11,11,14,14,17,17],"right_children":[2,4,6,-1,-1,8,-1,10,12,14,16,18,-1,-1,20,-1,-1,22,-1,-1,-1,-1,-1],"split_conditions":[1.994E3,1.647E0,2.27E-1,1.9981386E-1,5.1220704E-2,4.37E-1,9.215241E-2,4.16E-1,2.016E3,1.997E3,1.81E-1,4.68E-1,2.0422366E-2,7.793885E-2,3.78E-1,8.31482E-2,2.7294923E-2,2.001E3,1.2153626E-2,1.3862915E-2,-2.8111268E-2,-4.255371E-3,-5.5261232E-2],"split_indices":[1,2,10,0,0,4,0,4,1,1,8,11,0,0,4,0,0,1,0,0,0,0,0],"split_type":[0,0,0,0,0,0,0,0,0,0,0,0,0,0,0,0,0,0,0,0,0,0,0],"sum_hessian":[2.4E1,3E0,2.1E1,1E0,2E0,2E1,1E0,1.1E1,9E0,8E0,3E0,7E0,2E0,1E0,7E0,1E0,2E0,6E0,1E0,4E0,3E0,4E0,2E0],"tree_param":{"num_deleted":"0","num_feature":"12","num_nodes":"23","size_leaf_vector":"0"}},{"base_weights":[1.1268189E-1,4.3729654E-1,6.544163E-2,2.694397E-2,1.6983949E-1,4.468051E-2,7.832795E-2,7.915446E-2,-2.5543213E-2,3.6959562E-2,1.5615234E-1,-5.627289E-2,2.4400983E-2,-1.5862359E-2,1.8310547E-1,7.067871E-2,2.3217775E-2,1.4831543E-3,1.6339112E-2,2.3826601E-2,-2.3022462E-2,1.6149903E-2,6.624756E-2,1.0644531E-2,-9.902954E-3],"categories":[],"categories_nodes":[],"categories_segments":[],"categories_sizes":[],"default_left":[0,0,0,0,0,0,0,0,0,0,0,0,0,0,0,0,0,0,0,0,0,0,0,0,0],"id":33,"left_children":[1,3,5,-1,-1,7,-1,9,11,13,15,-1,17,19,21,-1,-1,23,-1,-1,-1,-1,-1,-1,-1],"loss_changes":[3.547546E-1,8.345801E-2,8.175895E-2,0E0,0E0,5.5281416E-2,0E0,4.2962454E-2,6.9317944E-2,8.782127E-2,1.3051346E-2,0E0,4.742028E-3,5.8302466E-2,2.7406812E-3,0E0,0E0,7.034819E-3,0E0,0E0,0E0,0E0,0E0,0E0,0E0],"parents":[2147483647,0,0,1,1,2,2,5,5,7,7,8,8,9,9,10,10,12,12,13,13,14,14,17,17],"right_children":[2,4,6,-1,-1,8,-1,10,12,14,16,-1,18,20,22,-1,-1,24,-1,-1,-1,-1,-1,-1,-1],"split_conditions":[1.992E3,1.991E3,2.27E-1,2.694397E-2,1.6983949E-1,2.009E3,7.832795E-2,2.003E3,2.01E3,1.93E-1,7.94E-1,-5.627289E-2,1.675E1,1.7E-1,1.996E3,7.067871E-2,2.3217775E-2,2.015E3,1.6339112E-2,2.3826601E-2,-2.3022462E-2,1.6149903E-2,6.624756E-2,1.0644531E-2,-9.902954E-3],"split_indices":[1,1,10,0,0,1,0,1,1,8,9,0,2,8,1,0,0,1,0,0,0,0,0,0,0],"split_type":[0,0,0,0,0,0,0,0,0,0,0,0,0,0,0,0,0,0,0,0,0,0,0,0,0],"sum_hessian":[2.4E1,2E0,2.2E1,1E0,1E0,2.1E1,1E0,1.4E1,7E0,1E1,4E0,1E0,6E0,8E0,2E0,1E0,3E0,4E0,2E0,3E0,5E0,1E0,1E0,2E0,2E0],"tree_param":{"num_deleted":"0","num_feature":"12","num_nodes":"25","size_leaf_vector":"0"}},{"base_weights":[9.540039E-2,3.3036804E-1,4.834262E-2,1.4436036E-1,3.5906985E-2,2.9509045E-2,6.657715E-2,6.793722E-2,-1.9555664E-2,2.6190864E-2,1.448822E-1,-6.7193605E-2,2.3401896E-2,5.631409E-2,-1.7463684E-2,6.0076907E-2,1.7901612E-2,-4.272461E-3,-4.783173E-2,4.1534424E-2,-8.575439E-3,-3.5705566E-2,4.214042E-3,-1.6836548E-2,9.515381E-3,1.272583E-3,1.5765382E-2,-8.555603E-3,4.6966556E-3],"categories":[],"categories_nodes":[],"categories_segments":[],"categories_sizes":[],"default_left":[0,0,0,0,0,0,0,0,0,0,0,0,0,0,0,0,0,0,0,0,0,0,0,0,0,0,0,0,0],"id":34,"left_children":[1,3,5,-1,-1,7,-1,9,11,13,15,17,19,-1,21,-1,-1,23,-1,25,27,-1,-1,-1,-1,-1,-1,-1,-1],"loss_changes":[2.604555E-1,6.951401E-2,6.537264E-2,0E0,0E0,4.0923372E-2,0E0,3.475148E-2,2.2036554E-2,6.673899E-2,6.9240555E-3,2.8339759E-2,3.8351556E-3,0E0,2.727218E-2,0E0,0E0,9.244385E-3,0E0,1.4204625E-3,1.8962058E-3,0E0,0E0,0E0,0E0,0E0,0E0,0E0,0E0],"parents":[2147483647,0,0,1,1,2,2,5,5,7,7,8,8,9,9,10,10,11,11,12,12,14,14,17,17,19,19,20,20],"right_children":[2,4,6,-1,-1,8,-1,10,12,14,16,18,20,-1,22,-1,-1,24,-1,26,28,-1,-1,-1,-1,-1,-1,-1,-1],"split_conditions":[1.994E3,1.647E0,2.27E-1,1.4436036E-1,3.5906985E-2,4.37E-1,6.657715E-2,4.16E-1,4.59E-1,1.997E3,1.81E-1,2.001E3,5.4E-1,5.631409E-2,1.998E3,6.0076907E-2,1.7901612E-2,1.995E3,-4.783173E-2,2E3,2.016E3,-3.5705566E-2,4.214042E-3,-1.6836548E-2,9.515381E-3,1.272583E-3,1.5765382E-2,-8.555603E-3,4.6966556E-3],"split_indices":[1,2,10,0,0,4,0,4,4,1,8,1,4,0,1,0,0,1,0,1,1,0,0,0,0,0,0,0,0],"split_type":[0,0,0,0,0,0,0,0,0,0,0,0,0,0,0,0,0,0,0,0,0,0,0,0,0,0,0,0,0],"sum_hessian":[2.4E1,3E0,2.1E1,1E0,2E0,2E1,1E0,1.1E1,9E0,8E0,3E0,4E0,5E0,1E0,7E0,1E0,2E0,3E0,1E0,3E0,2E0,1E0,6E0,1E0,2E0,1E0,2E0,1E0,1E0],"tree_param":{"num_deleted":"0","num_feature":"12","num_nodes":"29","size_leaf_vector":"0"}},{"base_weights":[7.908814E-2,2.7633667E-1,3.962985E-2,1.22708134E-1,2.8729249E-2,2.3552304E-2,5.6588747E-2,5.612691E-2,-1.7892456E-2,2.6342774E-2,1.3669841E-1,-5.806885E-2,1.8569946E-2,1.3090007E-1,-1.6159058E-2,5.1068116E-2,1.0446168E-2,-4.8217773E-3,-4.065857E-2,3.3325195E-2,-7.293701E-3,1.104126E-2,4.786377E-2,-1.776123E-2,1.2506104E-2,-9.985352E-3,1.2084962E-2,1.0803223E-3,1.2609865E-2,-7.273865E-3,3.9916993E-3],"categories":[],"categories_nodes":[],"categories_segments":[],"categories_sizes":[],"default_left":[0,0,0,0,0,0,0,0,0,0,0,0,0,0,0,0,0,0,0,0,0,0,0,0,0,0,0,0,0,0,0],"id":35,"left_children":[1,3,5,-1,-1,7,-1,9,11,13,15,17,19,21,23,-1,-1,25,-1,27,29,-1,-1,-1,-1,-1,-1,-1,-1,-1,-1],"loss_changes":[1.8362606E-1,5.6670845E-2,4.825929E-2,0E0,0E0,2.9355232E-2,0E0,2.5196016E-2,1.5727613E-2,4.6553984E-2,4.3200776E-3,1.9969026E-2,2.5328114E-3,2.2144057E-3,2.2387935E-2,0E0,0E0,6.4760493E-3,0E0,8.8394945E-4,1.3702451E-3,0E0,0E0,0E0,0E0,0E0,0E0,0E0,0E0,0E0,0E0],"parents":[2147483647,0,0,1,1,2,2,5,5,7,7,8,8,9,9,10,10,11,11,12,12,13,13,14,14,17,17,19,19,20,20],"right_children":[2,4,6,-1,-1,8,-1,10,12,14,16,18,20,22,24,-1,-1,26,-1,28,30,-1,-1,-1,-1,-1,-1,-1,-1,-1,-1],"split_conditions":[1.994E3,1.647E0,2.27E-1,1.22708134E-1,2.8729249E-2,4.37E-1,5.6588747E-2,4.18E-1,4.59E-1,1.997E3,2.005E3,2.001E3,5.4E-1,1.996E3,3.802E0,5.1068116E-2,1.0446168E-2,4.4E-1,-4.065857E-2,2E3,2.016E3,1.104126E-2,4.786377E-2,-1.776123E-2,1.2506104E-2,-9.985352E-3,1.2084962E-2,1.0803223E-3,1.2609865E-2,-7.273865E-3,3.9916993E-3],"split_indices":[1,2,10,0,0,4,0,4,4,1,1,1,4,1,2,0,0,4,0,1,1,0,0,0,0,0,0,0,0,0,0],"split_type":[0,0,0,0,0,0,0,0,0,0,0,0,0,0,0,0,0,0,0,0,0,0,0,0,0,0,0,0,0,0,0],"sum_hessian":[2.4E1,3E0,2.1E1,1E0,2E0,2E1,1E0,1.1E1,9E0,9E0,2E0,4E0,5E0,2E0,7E0,1E0,1E0,3E0,1E0,3E0,2E0,1E0,1E0,4E0,3E0,2E0,1E0,1E0,2E0,1E0,1E0],"tree_param":{"num_deleted":"0","num_feature":"12","num_nodes":"31","size_leaf_vector":"0"}},{"base_weights":[6.716309E-2,2.3129272E-1,3.4268465E-2,1.04306035E-1,2.2979736E-2,2.0629883E-2,4.810181E-2,4.8884075E-2,-1.5338135E-2,2.3803711E-2,1.1619059E-1,-4.835205E-2,1.4729817E-2,1.1126709E-1,-1.197052E-2,4.3405153E-2,8.880615E-3,-2.8381348E-3,-3.4561157E-2,2.6748657E-2,-6.2052407E-3,9.384155E-3,4.0686037E-2,-2.7685547E-2,3.8059782E-3,-1.2808228E-2,7.403565E-3,9.155274E-4,1.00891115E-2,-6.1843875E-3,3.3920289E-3],"categories":[],"categories_nodes":[],"categories_segments":[],"categories_sizes":[],"default_left":[0,0,0,0,0,0,0,0,0,0,0,0,0,0,0,0,0,0,0,0,0,0,0,0,0,0,0,0,0,0,0],"id":36,"left_children":[1,3,5,-1,-1,7,-1,9,11,13,15,17,19,21,23,-1,-1,25,-1,27,29,-1,-1,-1,-1,-1,-1,-1,-1,-1,-1],"loss_changes":[1.2704849E-1,4.5389146E-2,3.4519643E-2,0E0,0E0,2.2090983E-2,0E0,1.7491095E-2,1.0638826E-2,3.2621276E-2,3.1186268E-3,1.4886473E-2,1.6756725E-3,1.6014762E-3,1.70134E-2,0E0,0E0,5.4404433E-3,0E0,5.496694E-4,9.900961E-4,0E0,0E0,0E0,0E0,0E0,0E0,0E0,0E0,0E0,0E0],"parents":[2147483647,0,0,1,1,2,2,5,5,7,7,8,8,9,9,10,10,11,11,12,12,13,13,14,14,17,17,19,19,20,20],"right_children":[2,4,6,-1,-1,8,-1,10,12,14,16,18,20,22,24,-1,-1,26,-1,28,30,-1,-1,-1,-1,-1,-1,-1,-1,-1,-1],"split_conditions":[1.994E3,1.647E0,2.27E-1,1.04306035E-1,2.2979736E-2,4.37E-1,4.810181E-2,4.18E-1,4.59E-1,1.997E3,2.005E3,2.001E3,5.4E-1,1.996E3,1.998E3,4.3405153E-2,8.880615E-3,1.995E3,-3.4561157E-2,2E3,2.016E3,9.384155E-3,4.0686037E-2,-2.7685547E-2,3.8059782E-3,-1.2808228E-2,7.403565E-3,9.155274E-4,1.00891115E-2,-6.1843875E-3,3.3920289E-3],"split_indices":[1,2,10,0,0,4,0,4,4,1,1,1,4,1,1,0,0,1,0,1,1,0,0,0,0,0,0,0,0,0,0],"split_type":[0,0,0,0,0,0,0,0,0,0,0,0,0,0,0,0,0,0,0,0,0,0,0,0,0,0,0,0,0,0,0],"sum_hessian":[2.4E1,3E0,2.1E1,1E0,2E0,2E1,1E0,1.1E1,9E0,9E0,2E0,4E0,5E0,2E0,7E0,1E0,1E0,3E0,1E0,3E0,2E0,1E0,1E0,1E0,6E0,1E0,2E0,1E0,2E0,1E0,1E0],"tree_param":{"num_deleted":"0","num_feature":"12","num_nodes":"31","size_leaf_vector":"0"}},{"base_weights":[5.59021E-2,1.9372559E-1,2.830228E-2,8.8659674E-2,1.838379E-2,1.6669864E-2,4.0887453E-2,4.076131E-2,-1.3906861E-2,1.928711E-2,9.875488E-2,-4.182739E-2,1.167806E-2,9.4563805E-2,-1.1352539E-2,3.6895752E-2,7.5439457E-3,-3.326416E-3,-2.9374696E-2,-2.5253296E-3,8.016968E-3,7.974244E-3,3.457947E-2,-2.3529055E-2,2.8302874E-3,-1.08856205E-2,5.9265136E-3,2.4932863E-3,-5.2551273E-3],"categories":[],"categories_nodes":[],"categories_segments":[],"categories_sizes":[],"default_left":[0,0,0,0,0,0,0,0,0,0,0,0,0,0,0,0,0,0,0,0,0,0,0,0,0,0,0,0,0],"id":37,"left_children":[1,3,5,-1,-1,7,-1,9,11,13,15,17,19,21,23,-1,-1,25,-1,27,-1,-1,-1,-1,-1,-1,-1,-1,-1],"loss_changes":[8.9614704E-2,3.582564E-2,2.53639E-2,0E0,0E0,1.603625E-2,0E0,1.3039691E-2,7.631909E-3,2.4138054E-2,2.2581443E-3,1.04715545E-2,1.3496389E-3,1.1581313E-3,1.1894585E-2,0E0,0E0,3.759786E-3,0E0,7.9540355E-4,0E0,0E0,0E0,0E0,0E0,0E0,0E0,0E0,0E0],"parents":[2147483647,0,0,1,1,2,2,5,5,7,7,8,8,9,9,10,10,11,11,12,12,13,13,14,14,17,17,19,19],"right_children":[2,4,6,-1,-1,8,-1,10,12,14,16,18,20,22,24,-1,-1,26,-1,28,-1,-1,-1,-1,-1,-1,-1,-1,-1],"split_conditions":[1.994E3,1.647E0,2.27E-1,8.8659674E-2,1.838379E-2,4.37E-1,4.0887453E-2,4.18E-1,4.59E-1,1.997E3,2.005E3,2.001E3,2.016E3,1.996E3,1.998E3,3.6895752E-2,7.5439457E-3,1.995E3,-2.9374696E-2,2.015E3,8.016968E-3,7.974244E-3,3.457947E-2,-2.3529055E-2,2.8302874E-3,-1.08856205E-2,5.9265136E-3,2.4932863E-3,-5.2551273E-3],"split_indices":[1,2,10,0,0,4,0,4,4,1,1,1,1,1,1,0,0,1,0,1,0,0,0,0,0,0,0,0,0],"split_type":[0,0,0,0,0,0,0,0,0,0,0,0,0,0,0,0,0,0,0,0,0,0,0,0,0,0,0,0,0],"sum_hessian":[2.4E1,3E0,2.1E1,1E0,2E0,2E1,1E0,1.1E1,9E0,9E0,2E0,4E0,5E0,2E0,7E0,1E0,1E0,3E0,1E0,3E0,2E0,1E0,1E0,1E0,6E0,1E0,2E0,2E0,1E0],"tree_param":{"num_deleted":"0","num_feature":"12","num_nodes":"29","size_leaf_vector":"0"}},{"base_weights":[4.6535645E-2,1.6236877E-1,2.3359818E-2,7.535706E-2,1.4709473E-2,1.343936E-2,3.475342E-2,3.4057617E-2,-1.2646484E-2,1.5692139E-2,8.392334E-2,-3.614502E-2,9.043376E-3,8.036295E-2,-1.0520935E-2,3.135681E-2,6.408692E-3,-3.5705566E-3,-2.4966432E-2,1.8211365E-2,-6.1950684E-3,6.774903E-3,2.938843E-2,-1.1612549E-2,8.203126E-3,-6.9458014E-3,8.276368E-3,4.0283205E-4,7.0159915E-3,-4.4677737E-3,1.6799928E-3],"categories":[],"categories_nodes":[],"categories_segments":[],"categories_sizes":[],"default_left":[0,0,0,0,0,0,0,0,0,0,0,0,0,0,0,0,0,0,0,0,0,0,0,0,0,0,0,0,0,0,0],"id":38,"left_children":[1,3,5,-1,-1,7,-1,9,11,13,15,17,19,21,23,-1,-1,25,-1,27,29,-1,-1,-1,-1,-1,-1,-1,-1,-1,-1],"loss_changes":[6.332031E-2,2.7950823E-2,1.862796E-2,0E0,0E0,1.1725447E-2,0E0,9.672755E-3,5.4236725E-3,1.7797703E-2,1.6333088E-3,7.370298E-3,9.5105596E-4,8.382518E-4,9.59694E-3,0E0,0E0,3.0793264E-3,0E0,3.1779532E-4,3.911606E-4,0E0,0E0,0E0,0E0,0E0,0E0,0E0,0E0,0E0,0E0],"parents":[2147483647,0,0,1,1,2,2,5,5,7,7,8,8,9,9,10,10,11,11,12,12,13,13,14,14,17,17,19,19,20,20],"right_children":[2,4,6,-1,-1,8,-1,10,12,14,16,18,20,22,24,-1,-1,26,-1,28,30,-1,-1,-1,-1,-1,-1,-1,-1,-1,-1],"split_conditions":[1.994E3,1.647E0,2.27E-1,7.535706E-2,1.4709473E-2,4.37E-1,3.475342E-2,4.18E-1,4.59E-1,1.997E3,2.005E3,2.001E3,5.4E-1,1.996E3,3.802E0,3.135681E-2,6.408692E-3,4.4E-1,-2.4966432E-2,2E3,2.016E3,6.774903E-3,2.938843E-2,-1.1612549E-2,8.203126E-3,-6.9458014E-3,8.276368E-3,4.0283205E-4,7.0159915E-3,-4.4677737E-3,1.6799928E-3],"split_indices":[1,2,10,0,0,4,0,4,4,1,1,1,4,1,2,0,0,4,0,1,1,0,0,0,0,0,0,0,0,0,0],"split_type":[0,0,0,0,0,0,0,0,0,0,0,0,0,0,0,0,0,0,0,0,0,0,0,0,0,0,0,0,0,0,0],"sum_hessian":[2.4E1,3E0,2.1E1,1E0,2E0,2E1,1E0,1.1E1,9E0,9E0,2E0,4E0,5E0,2E0,7E0,1E0,1E0,3E0,1E0,3E0,2E0,1E0,1E0,4E0,3E0,2E0,1E0,1E0,2E0,1E0,1E0],"tree_param":{"num_deleted":"0","num_feature":"12","num_nodes":"31","size_leaf_vector":"0"}},{"base_weights":[3.9624024E-2,1.3616943E-1,2.026922E-2,6.4050294E-2,1.1767579E-2,1.18568055E-2,2.953949E-2,5.4908752E-2,1.630995E-3,2.2332763E-2,-5.538941E-4,-1.7645264E-2,1.2863159E-2,4.4265747E-2,-1.6479492E-2,6.152344E-3,2.310791E-2,-1.3796997E-2,1.7822267E-3],"categories":[],"categories_nodes":[],"categories_segments":[],"categories_sizes":[],"default_left":[0,0,0,0,0,0,0,0,0,0,0,0,0,0,0,0,0,0,0],"id":39,"left_children":[1,3,5,-1,-1,7,-1,9,11,-1,-1,-1,13,15,17,-1,-1,-1,-1],"loss_changes":[4.3955386E-2,2.1612741E-2,1.3304451E-2,0E0,0E0,9.155506E-3,0E0,4.5720115E-3,1.29780015E-2,0E0,0E0,0E0,1.547244E-2,4.646955E-3,6.2279096E-3,0E0,0E0,0E0,0E0],"parents":[2147483647,0,0,1,1,2,2,5,5,7,7,8,8,12,12,13,13,14,14],"right_children":[2,4,6,-1,-1,8,-1,10,12,-1,-1,-1,14,16,18,-1,-1,-1,-1],"split_conditions":[1.994E3,1.647E0,2.27E-1,6.4050294E-2,1.1767579E-2,3.09E-1,2.953949E-2,2.004E3,2.644E0,2.2332763E-2,-5.538941E-4,-1.7645264E-2,7.95E-1,1.64E-1,2.01E3,6.152344E-3,2.310791E-2,-1.3796997E-2,1.7822267E-3],"split_indices":[1,2,10,0,0,4,0,1,2,0,0,0,9,10,1,0,0,0,0],"split_type":[0,0,0,0,0,0,0,0,0,0,0,0,0,0,0,0,0,0,0],"sum_hessian":[2.4E1,3E0,2.1E1,1E0,2E0,2E1,1E0,3E0,1.7E1,2E0,1E0,2E0,1.5E1,7E0,8E0,5E0,2E0,3E0,5E0],"tree_param":{"num_deleted":"0","num_feature":"12","num_nodes":"19","size_leaf_vector":"0"}},{"base_weights":[3.2802735E-2,1.1427307E-1,1.6498912E-2,5.4446414E-2,9.411622E-3,9.313675E-3,2.510834E-2,2.4775187E-2,-1.0171508E-2,3.7200928E-2,-9.376526E-3,-1.9199371E-2,1.7293295E-2,1.7278036E-2,5.7785034E-2,7.944743E-3,-9.20105E-3,-1.4526367E-3,-3.6582947E-2,6.619263E-3,1.1627198E-3,1.763916E-2,-5.4542543E-3,2.0098876E-2,4.5227055E-3,4.5410157E-3,-9.658814E-4,-4.4067386E-3,3.68042E-3,-1.9152833E-2,-1.8646241E-3],"categories":[],"categories_nodes":[],"categories_segments":[],"categories_sizes":[],"default_left":[0,0,0,0,0,0,0,0,0,0,0,0,0,0,0,0,0,0,0,0,0,0,0,0,0,0,0,0,0,0,0],"id":40,"left_children":[1,3,5,-1,-1,7,-1,9,11,13,15,17,19,21,23,25,-1,27,29,-1,-1,-1,-1,-1,-1,-1,-1,-1,-1,-1,-1],"loss_changes":[3.1321563E-2,1.6595095E-2,9.84245E-3,0E0,0E0,6.578679E-3,0E0,5.4411395E-3,2.811505E-3,2.6924424E-3,1.718998E-3,2.414872E-3,1.0652718E-4,9.902322E-3,5.636066E-4,2.8961542E-4,0E0,1.088277E-3,2.9144455E-3,0E0,0E0,0E0,0E0,0E0,0E0,0E0,0E0,0E0,0E0,0E0,0E0],"parents":[2147483647,0,0,1,1,2,2,5,5,7,7,8,8,9,9,10,10,11,11,12,12,13,13,14,14,15,15,17,17,18,18],"right_children":[2,4,6,-1,-1,8,-1,10,12,14,16,18,20,22,24,26,-1,28,30,-1,-1,-1,-1,-1,-1,-1,-1,-1,-1,-1,-1],"split_conditions":[1.994E3,1.647E0,2.27E-1,5.4446414E-2,9.411622E-3,4.37E-1,2.510834E-2,1.82E-1,2.016E3,4.407E0,3.78E-1,2.001E3,2.02E3,1.997E3,4.23E-1,2.002E3,-9.20105E-3,4.4E-1,2.01E3,6.619263E-3,1.1627198E-3,1.763916E-2,-5.4542543E-3,2.0098876E-2,4.5227055E-3,4.5410157E-3,-9.658814E-4,-4.4067386E-3,3.68042E-3,-1.9152833E-2,-1.8646241E-3],"split_indices":[1,2,10,0,0,4,0,10,1,2,4,1,1,1,4,1,0,4,1,0,0,0,0,0,0,0,0,0,0,0,0],"split_type":[0,0,0,0,0,0,0,0,0,0,0,0,0,0,0,0,0,0,0,0,0,0,0,0,0,0,0,0,0,0,0],"sum_hessian":[2.4E1,3E0,2.1E1,1E0,2E0,2E1,1E0,1.1E1,9E0,8E0,3E0,7E0,2E0,5E0,3E0,2E0,1E0,4E0,3E0,1E0,1E0,2E0,3E0,2E0,1E0,1E0,1E0,2E0,2E0,1E0,2E0],"tree_param":{"num_deleted":"0","num_feature":"12","num_nodes":"31","size_leaf_vector":"0"}},{"base_weights":[2.7213134E-2,9.5962524E-2,1.3476285E-2,4.6279907E-2,2.5105795E-2,7.3431106E-3,2.1340944E-2,1.6204835E-3,9.677124E-3,4.219055E-2,-8.087158E-4,1.6644288E-2,3.479004E-4,-1.3134765E-2,7.299423E-3,2.8495789E-2,-1.2352837E-2,4.0073944E-3,2.0169068E-2,-1.24580385E-2,2.746582E-3],"categories":[],"categories_nodes":[],"categories_segments":[],"categories_sizes":[],"default_left":[0,0,0,0,0,0,0,0,0,0,0,0,0,0,0,0,0,0,0,0,0],"id":41,"left_children":[1,3,5,-1,7,9,-1,-1,-1,11,13,-1,-1,-1,15,17,19,-1,-1,-1,-1],"loss_changes":[2.2316782E-2,1.2651894E-2,7.257717E-3,0E0,2.4849048E-4,5.9995963E-3,0E0,0E0,0E0,2.1169288E-3,6.5914686E-3,0E0,0E0,0E0,7.016908E-3,3.7927763E-3,6.027479E-3,0E0,0E0,0E0,0E0],"parents":[2147483647,0,0,1,1,2,2,4,4,5,5,9,9,10,10,14,14,15,15,16,16],"right_children":[2,4,6,-1,8,10,-1,-1,-1,12,14,-1,-1,-1,16,18,20,-1,-1,-1,-1],"split_conditions":[1.994E3,1.647E0,2.27E-1,4.6279907E-2,1.991E3,3.09E-1,2.1340944E-2,1.6204835E-3,9.677124E-3,2.004E3,2.644E0,1.6644288E-2,3.479004E-4,-1.3134765E-2,1.76E-1,1.64E-1,1.99E-1,4.0073944E-3,2.0169068E-2,-1.24580385E-2,2.746582E-3],"split_indices":[1,2,10,0,1,4,0,0,0,1,2,0,0,0,10,10,10,0,0,0,0],"split_type":[0,0,0,0,0,0,0,0,0,0,0,0,0,0,0,0,0,0,0,0,0],"sum_hessian":[2.4E1,3E0,2.1E1,1E0,2E0,2E1,1E0,1E0,1E0,3E0,1.7E1,2E0,1E0,2E0,1.5E1,7E0,8E0,6E0,1E0,3E0,5E0],"tree_param":{"num_deleted":"0","num_feature":"12","num_nodes":"21","size_leaf_vector":"0"}},{"base_weights":[2.2930909E-2,8.155823E-2,1.1229082E-2,3.9340213E-2,2.1321615E-2,6.0046967E-3,1.8141175E-2,1.373291E-3,8.221436E-3,2.7516684E-2,-2.4375916E-3,1.6479492E-2,1.1047363E-2,-3.503418E-2,4.721505E-3,4.626465E-3,8.9721684E-4,-2.9388429E-3,-1.2826539E-2,2.2956848E-2,-1.6793387E-2,2.9715404E-3,1.7147828E-2,-1.3574219E-2,1.0913087E-3],"categories":[],"categories_nodes":[],"categories_segments":[],"categories_sizes":[],"default_left":[0,0,0,0,0,0,0,0,0,0,0,0,0,0,0,0,0,0,0,0,0,0,0,0,0],"id":42,"left_children":[1,3,5,-1,7,9,-1,-1,-1,11,13,-1,15,17,19,-1,-1,-1,-1,21,23,-1,-1,-1,-1],"loss_changes":[1.6235344E-2,9.149123E-3,5.2965367E-3,0E0,1.8012023E-4,3.8808926E-3,0E0,0E0,0E0,2.1021846E-3,3.899208E-3,0E0,1.3008463E-4,1.6574934E-4,5.8781635E-3,0E0,0E0,0E0,0E0,3.0050464E-3,4.2340197E-3,0E0,0E0,0E0,0E0],"parents":[2147483647,0,0,1,1,2,2,4,4,5,5,9,9,10,10,12,12,13,13,14,14,19,19,20,20],"right_children":[2,4,6,-1,8,10,-1,-1,-1,12,14,-1,16,18,20,-1,-1,-1,-1,22,24,-1,-1,-1,-1],"split_conditions":[1.994E3,1.647E0,2.27E-1,3.9340213E-2,1.991E3,3.78E-1,1.8141175E-2,1.373291E-3,8.221436E-3,1.997E3,2.644E0,1.6479492E-2,2.004E3,1.995E3,1.76E-1,4.626465E-3,8.9721684E-4,-2.9388429E-3,-1.2826539E-2,1.64E-1,2.01E3,2.9715404E-3,1.7147828E-2,-1.3574219E-2,1.0913087E-3],"split_indices":[1,2,10,0,1,4,0,0,0,1,2,0,1,1,10,0,0,0,0,10,1,0,0,0,0],"split_type":[0,0,0,0,0,0,0,0,0,0,0,0,0,0,0,0,0,0,0,0,0,0,0,0,0],"sum_hessian":[2.4E1,3E0,2.1E1,1E0,2E0,2E1,1E0,1E0,1E0,5E0,1.5E1,1E0,4E0,2E0,1.3E1,2E0,2E0,1E0,1E0,7E0,6E0,6E0,1E0,2E0,4E0],"tree_param":{"num_deleted":"0","num_feature":"12","num_nodes":"25","size_leaf_vector":"0"}},{"base_weights":[1.9282227E-2,6.932068E-2,9.307861E-3,3.343506E-2,1.8127441E-2,4.8552016E-3,1.5422058E-2,1.171875E-3,6.985474E-3,1.512146E-2,-7.949829E-3,6.5673827E-3,3.8594563E-2,-1.448822E-2,1.2135823E-2,2.2928873E-2,-1.4379883E-2,1.45751955E-2,2.7923584E-3,9.460449E-4,-2.3937989E-2,5.0491337E-3,4.1198733E-4,1.4007569E-2,2.6513673E-3,-1.0903931E-2,5.950928E-5,-2.6245117E-3,4.5043947E-3,-9.461976E-3,9.70459E-4],"categories":[],"categories_nodes":[],"categories_segments":[],"categories_sizes":[],"default_left":[0,0,0,0,0,0,0,0,0,0,0,0,0,0,0,0,0,0,0,0,0,0,0,0,0,0,0,0,0,0,0],"id":43,"left_children":[1,3,5,-1,7,9,-1,-1,-1,11,13,15,17,19,21,23,25,-1,-1,27,29,-1,-1,-1,-1,-1,-1,-1,-1,-1,-1],"loss_changes":[1.1832316E-2,6.6066794E-3,3.8743648E-3,0E0,1.2907945E-4,2.8808678E-3,0E0,0E0,0E0,2.1560239E-3,1.4891049E-3,3.7569995E-3,4.2545842E-4,1.1894482E-3,1.2846492E-4,1.5964082E-3,1.608379E-3,0E0,0E0,6.7690137E-4,1.1348578E-3,0E0,0E0,0E0,0E0,0E0,0E0,0E0,0E0,0E0,0E0],"parents":[2147483647,0,0,1,1,2,2,4,4,5,5,9,9,10,10,11,11,12,12,13,13,14,14,15,15,16,16,19,19,20,20],"right_children":[2,4,6,-1,8,10,-1,-1,-1,12,14,16,18,20,22,24,26,-1,-1,28,30,-1,-1,-1,-1,-1,-1,-1,-1,-1,-1],"split_conditions":[1.994E3,1.647E0,2.27E-1,3.343506E-2,1.991E3,4.37E-1,1.5422058E-2,1.171875E-3,6.985474E-3,4.18E-1,2.016E3,3.78E-1,2.005E3,4.48E-1,2.02E3,1.997E3,2.644E0,1.45751955E-2,2.7923584E-3,4.4E-1,4.68E-1,5.0491337E-3,4.1198733E-4,1.4007569E-2,2.6513673E-3,-1.0903931E-2,5.950928E-5,-2.6245117E-3,4.5043947E-3,-9.461976E-3,9.70459E-4],"split_indices":[1,2,10,0,1,4,0,0,0,4,1,4,1,4,1,1,2,0,0,4,11,0,0,0,0,0,0,0,0,0,0],"split_type":[0,0,0,0,0,0,0,0,0,0,0,0,0,0,0,0,0,0,0,0,0,0,0,0,0,0,0,0,0,0,0],"sum_hessian":[2.4E1,3E0,2.1E1,1E0,2E0,2E1,1E0,1E0,1E0,1.1E1,9E0,9E0,2E0,7E0,2E0,5E0,4E0,1E0,1E0,3E0,4E0,1E0,1E0,1E0,4E0,1E0,3E0,2E0,1E0,3E0,1E0],"tree_param":{"num_deleted":"0","num_feature":"12","num_nodes":"31","size_leaf_vector":"0"}},{"base_weights":[1.6660156E-2,5.8929443E-2,8.217552E-3,2.841797E-2,1.542155E-2,4.446847E-3,1.3110352E-2,9.979248E-4,5.941773E-3,1.2517293E-2,-5.682373E-3,5.181885E-3,3.2796223E-2,-1.0971069E-2,1.0314941E-2,1.8829346E-2,-1.2231445E-2,1.2387086E-2,2.371216E-3,-1.2207031E-4,-2.178955E-2,4.2938236E-3,3.479004E-4,1.1901856E-2,2.0178223E-3,-9.265137E-3,4.5776367E-5,-2.0996095E-3,2.0385743E-3,-9.265137E-3,8.2397467E-4],"categories":[],"categories_nodes":[],"categories_segments":[],"categories_sizes":[],"default_left":[0,0,0,0,0,0,0,0,0,0,0,0,0,0,0,0,0,0,0,0,0,0,0,0,0,0,0,0,0,0,0],"id":44,"left_children":[1,3,5,-1,7,9,-1,-1,-1,11,13,15,17,19,21,23,25,-1,-1,27,29,-1,-1,-1,-1,-1,-1,-1,-1,-1,-1],"loss_changes":[8.437317E-3,4.7689993E-3,2.7492289E-3,0E0,9.320554E-5,1.7878218E-3,0E0,0E0,0E0,1.6151046E-3,9.5921534E-4,2.6067875E-3,3.0794623E-4,9.362977E-4,9.32049E-5,1.2468051E-3,1.1596687E-3,0E0,0E0,2.8539696E-4,9.773746E-4,0E0,0E0,0E0,0E0,0E0,0E0,0E0,0E0,0E0,0E0],"parents":[2147483647,0,0,1,1,2,2,4,4,5,5,9,9,10,10,11,11,12,12,13,13,14,14,15,15,16,16,19,19,20,20],"right_children":[2,4,6,-1,8,10,-1,-1,-1,12,14,16,18,20,22,24,26,-1,-1,28,30,-1,-1,-1,-1,-1,-1,-1,-1,-1,-1],"split_conditions":[1.994E3,1.647E0,2.27E-1,2.841797E-2,1.991E3,4.37E-1,1.3110352E-2,9.979248E-4,5.941773E-3,4.18E-1,2.016E3,3.78E-1,2.005E3,2.001E3,2.02E3,1.997E3,2.644E0,1.2387086E-2,2.371216E-3,4.4E-1,4.68E-1,4.2938236E-3,3.479004E-4,1.1901856E-2,2.0178223E-3,-9.265137E-3,4.5776367E-5,-2.0996095E-3,2.0385743E-3,-9.265137E-3,8.2397467E-4],"split_indices":[1,2,10,0,1,4,0,0,0,4,1,4,1,1,1,1,2,0,0,4,11,0,0,0,0,0,0,0,0,0,0],"split_type":[0,0,0,0,0,0,0,0,0,0,0,0,0,0,0,0,0,0,0,0,0,0,0,0,0,0,0,0,0,0,0],"sum_hessian":[2.4E1,3E0,2.1E1,1E0,2E0,2E1,1E0,1E0,1E0,1.1E1,9E0,9E0,2E0,7E0,2E0,5E0,4E0,1E0,1E0,4E0,3E0,1E0,1E0,1E0,4E0,1E0,3E0,2E0,2E0,2E0,1E0],"tree_param":{"num_deleted":"0","num_feature":"12","num_nodes":"31","size_leaf_vector":"0"}},{"base_weights":[1.4224853E-2,5.0094604E-2,7.0564966E-3,2.4151612E-2,1.3122559E-2,3.8553874E-3,1.1141968E-2,8.514405E-4,5.053711E-3,1.9462585E-2,1.7293294E-4,1.0116577E-2,3.4688313E-3,-2.1484375E-2,4.22287E-3,2.0965578E-3,-5.3558353E-4,-1.7944337E-3,-7.873535E-3,1.5220642E-2,-6.0221353E-3,2.2103447E-3,1.0528564E-2,-6.642151E-3,1.7181397E-3],"categories":[],"categories_nodes":[],"categories_segments":[],"categories_sizes":[],"default_left":[0,0,0,0,0,0,0,0,0,0,0,0,0,0,0,0,0,0,0,0,0,0,0,0,0],"id":45,"left_children":[1,3,5,-1,7,9,-1,-1,-1,11,13,-1,15,17,19,-1,-1,-1,-1,21,23,-1,-1,-1,-1],"loss_changes":[6.074687E-3,3.4409566E-3,1.9754162E-3,0E0,6.706081E-5,1.203563E-3,0E0,0E0,0E0,7.9526566E-4,1.6695189E-3,0E0,6.795504E-5,6.443262E-5,1.8944165E-3,0E0,0E0,0E0,0E0,9.899975E-4,1.8312128E-3,0E0,0E0,0E0,0E0],"parents":[2147483647,0,0,1,1,2,2,4,4,5,5,9,9,10,10,12,12,13,13,14,14,19,19,20,20],"right_children":[2,4,6,-1,8,10,-1,-1,-1,12,14,-1,16,18,20,-1,-1,-1,-1,22,24,-1,-1,-1,-1],"split_conditions":[1.994E3,1.647E0,2.27E-1,2.4151612E-2,1.991E3,3.09E-1,1.1141968E-2,8.514405E-4,5.053711E-3,1.997E3,2.644E0,1.0116577E-2,2.004E3,1.995E3,1.76E-1,2.0965578E-3,-5.3558353E-4,-1.7944337E-3,-7.873535E-3,1.64E-1,1.99E-1,2.2103447E-3,1.0528564E-2,-6.642151E-3,1.7181397E-3],"split_indices":[1,2,10,0,1,4,0,0,0,1,2,0,1,1,10,0,0,0,0,10,10,0,0,0,0],"split_type":[0,0,0,0,0,0,0,0,0,0,0,0,0,0,0,0,0,0,0,0,0,0,0,0,0],"sum_hessian":[2.4E1,3E0,2.1E1,1E0,2E0,2E1,1E0,1E0,1E0,3E0,1.7E1,1E0,2E0,2E0,1.5E1,1E0,1E0,1E0,1E0,7E0,8E0,6E0,1E0,3E0,5E0],"tree_param":{"num_deleted":"0","num_feature":"12","num_nodes":"25","size_leaf_vector":"0"}},{"base_weights":[1.2001953E-2,4.257202E-2,5.8982153E-3,2.0526124E-2,1.1149089E-2,3.1723748E-3,9.471131E-3,7.232666E-4,4.2938236E-3,7.950846E-3,-7.5204032E-3,-2.280099E-3,1.5024821E-2,-8.564759E-3,7.425944E-4,5.2261353E-3,-2.7648928E-3,7.3471074E-3,6.210327E-3,-4.6081543E-3,7.6293945E-3,2.3925784E-3,-4.5318605E-4,-6.692505E-3,4.9127196E-3,-2.1392824E-3,4.4403077E-4,3.3920289E-3,4.119873E-5],"categories":[],"categories_nodes":[],"categories_segments":[],"categories_sizes":[],"default_left":[0,0,0,0,0,0,0,0,0,0,0,0,0,0,0,0,0,0,0,0,0,0,0,0,0,0,0,0,0],"id":46,"left_children":[1,3,5,-1,7,9,-1,-1,-1,11,13,15,17,-1,19,21,-1,-1,23,25,27,-1,-1,-1,-1,-1,-1,-1,-1],"loss_changes":[4.413693E-3,2.4861032E-3,1.439371E-3,0E0,4.8427522E-5,1.1327914E-3,0E0,0E0,0E0,1.1198597E-3,1.2375264E-3,4.1261938E-4,5.98812E-4,0E0,2.5625466E-4,8.612832E-5,0E0,0E0,2.104739E-3,7.1992006E-5,8.11005E-5,0E0,0E0,0E0,0E0,0E0,0E0,0E0,0E0],"parents":[2147483647,0,0,1,1,2,2,4,4,5,5,9,9,10,10,11,11,12,12,14,14,15,15,18,18,19,19,20,20],"right_children":[2,4,6,-1,8,10,-1,-1,-1,12,14,16,18,-1,20,22,-1,-1,24,26,28,-1,-1,-1,-1,-1,-1,-1,-1],"split_conditions":[1.994E3,1.647E0,2.27E-1,2.0526124E-2,1.991E3,4.48E-1,9.471131E-3,7.232666E-4,4.2938236E-3,1.77E-1,4.59E-1,3.78E-1,1.92E-1,-8.564759E-3,2.016E3,2.004E3,-2.7648928E-3,7.3471074E-3,1.93E-1,4.68E-1,2.02E3,2.3925784E-3,-4.5318605E-4,-6.692505E-3,4.9127196E-3,-2.1392824E-3,4.4403077E-4,3.3920289E-3,4.119873E-5],"split_indices":[1,2,10,0,1,4,0,0,0,8,4,4,8,0,1,1,0,0,8,11,1,0,0,0,0,0,0,0,0],"split_type":[0,0,0,0,0,0,0,0,0,0,0,0,0,0,0,0,0,0,0,0,0,0,0,0,0,0,0,0,0],"sum_hessian":[2.4E1,3E0,2.1E1,1E0,2E0,2E1,1E0,1E0,1E0,1.4E1,6E0,6E0,8E0,1E0,5E0,3E0,3E0,3E0,5E0,3E0,2E0,2E0,1E0,1E0,4E0,2E0,1E0,1E0,1E0],"tree_param":{"num_deleted":"0","num_feature":"12","num_nodes":"29","size_leaf_vector":"0"}},{"base_weights":[9.726563E-3,3.6193848E-2,4.4722124E-3,1.7449953E-2,9.480794E-3,2.1289643E-3,8.052063E-3,6.1340333E-4,3.6529542E-3,1.2034099E-2,-1.7185211E-3,7.86438E-3,3.9550783E-3,-5.685425E-3,6.937663E-4,5.584717E-3,-3.845215E-4,7.080078E-3,-7.6163155E-3,1.9165039E-3,4.7607423E-4,4.2800905E-4,7.8460695E-3,-6.5368656E-3,7.232666E-4],"categories":[],"categories_nodes":[],"categories_segments":[],"categories_sizes":[],"default_left":[0,0,0,0,0,0,0,0,0,0,0,0,0,0,0,0,0,0,0,0,0,0,0,0,0],"id":47,"left_children":[1,3,5,-1,7,9,-1,-1,-1,11,13,-1,15,-1,17,19,-1,21,23,-1,-1,-1,-1,-1,-1],"loss_changes":[3.314843E-3,1.7963625E-3,1.0959611E-3,0E0,3.5239995E-5,8.209879E-4,0E0,0E0,0E0,5.837065E-4,6.78279E-4,0E0,4.982874E-5,0E0,8.499857E-4,2.7132483E-6,0E0,9.33154E-4,1.0473577E-3,0E0,0E0,0E0,0E0,0E0,0E0],"parents":[2147483647,0,0,1,1,2,2,4,4,5,5,9,9,10,10,12,12,14,14,15,15,17,17,18,18],"right_children":[2,4,6,-1,8,10,-1,-1,-1,12,14,-1,16,-1,18,20,-1,22,24,-1,-1,-1,-1,-1,-1],"split_conditions":[1.994E3,1.647E0,2.27E-1,1.7449953E-2,1.991E3,3.78E-1,8.052063E-3,6.1340333E-4,3.6529542E-3,1.997E3,3.95E-1,7.86438E-3,2.014E3,-5.685425E-3,1.76E-1,2.004E3,-3.845215E-4,1.64E-1,2.01E3,1.9165039E-3,4.7607423E-4,4.2800905E-4,7.8460695E-3,-6.5368656E-3,7.232666E-4],"split_indices":[1,2,10,0,1,4,0,0,0,1,4,0,1,0,10,1,0,10,1,0,0,0,0,0,0],"split_type":[0,0,0,0,0,0,0,0,0,0,0,0,0,0,0,0,0,0,0,0,0,0,0,0,0],"sum_hessian":[2.4E1,3E0,2.1E1,1E0,2E0,2E1,1E0,1E0,1E0,5E0,1.5E1,1E0,4E0,1E0,1.4E1,3E0,1E0,8E0,6E0,2E0,1E0,7E0,1E0,2E0,4E0],"tree_param":{"num_deleted":"0","num_feature":"12","num_nodes":"25","size_leaf_vector":"0"}},{"base_weights":[8.26294E-3,3.0761719E-2,3.796664E-3,1.4831544E-2,8.056641E-3,1.8048967E-3,6.8435674E-3,5.218506E-4,3.1036378E-3,6.4570107E-3,-3.95813E-3,2.7130127E-3,1.6784668E-2,-7.1983337E-3,6.0017905E-3,1.0075887E-2,-6.665039E-3,6.6650393E-3,8.8806154E-4,2.2888184E-4,-1.1700439E-2,2.774048E-3,-7.324219E-5,6.68335E-3,9.539795E-4,-4.8339847E-3,-8.239746E-5,-1.2634278E-3,2.032471E-3,-6.2988284E-3,-1.2382508E-3],"categories":[],"categories_nodes":[],"categories_segments":[],"categories_sizes":[],"default_left":[0,0,0,0,0,0,0,0,0,0,0,0,0,0,0,0,0,0,0,0,0,0,0,0,0,0,0,0,0,0,0],"id":48,"left_children":[1,3,5,-1,7,9,-1,-1,-1,11,13,15,17,19,21,23,25,-1,-1,27,29,-1,-1,-1,-1,-1,-1,-1,-1,-1,-1],"loss_changes":[2.3953514E-3,1.297921E-3,7.920528E-4,0E0,2.5380403E-5,5.885731E-4,0E0,0E0,0E0,4.1846378E-4,3.6592458E-4,7.5765036E-4,1.5952252E-4,2.701829E-4,6.306233E-5,4.3402246E-4,2.9746367E-4,0E0,0E0,1.4479738E-4,2.6531558E-4,0E0,0E0,0E0,0E0,0E0,0E0,0E0,0E0,0E0,0E0],"parents":[2147483647,0,0,1,1,2,2,4,4,5,5,9,9,10,10,11,11,12,12,13,13,14,14,15,15,16,16,19,19,20,20],"right_children":[2,4,6,-1,8,10,-1,-1,-1,12,14,16,18,20,22,24,26,-1,-1,28,30,-1,-1,-1,-1,-1,-1,-1,-1,-1,-1],"split_conditions":[1.994E3,1.647E0,2.27E-1,1.4831544E-2,1.991E3,4.37E-1,6.8435674E-3,5.218506E-4,3.1036378E-3,4.18E-1,2.016E3,3.78E-1,2.005E3,4.48E-1,2.02E3,1.997E3,2.644E0,6.6650393E-3,8.8806154E-4,4.4E-1,4.59E-1,2.774048E-3,-7.324219E-5,6.68335E-3,9.539795E-4,-4.8339847E-3,-8.239746E-5,-1.2634278E-3,2.032471E-3,-6.2988284E-3,-1.2382508E-3],"split_indices":[1,2,10,0,1,4,0,0,0,4,1,4,1,4,1,1,2,0,0,4,4,0,0,0,0,0,0,0,0,0,0],"split_type":[0,0,0,0,0,0,0,0,0,0,0,0,0,0,0,0,0,0,0,0,0,0,0,0,0,0,0,0,0,0,0],"sum_hessian":[2.4E1,3E0,2.1E1,1E0,2E0,2E1,1E0,1E0,1E0,1.1E1,9E0,9E0,2E0,7E0,2E0,5E0,4E0,1E0,1E0,3E0,4E0,1E0,1E0,1E0,4E0,1E0,3E0,2E0,1E0,1E0,3E0],"tree_param":{"num_deleted":"0","num_feature":"12","num_nodes":"31","size_leaf_vector":"0"}},{"base_weights":[7.038574E-3,2.6138306E-2,3.2459607E-3,1.2606812E-2,6.8359375E-3,1.5534901E-3,5.8181765E-3,4.3945314E-4,2.6367188E-3,4.388428E-3,-4.7433036E-3,-1.4299665E-3,8.4262425E-3,-5.355835E-3,4.1707358E-4,2.5787354E-3,-1.524353E-3,4.931641E-3,3.7885394E-3,-3.1967163E-3,5.0964355E-3,1.3427736E-3,-4.6691895E-4,5.6762695E-3,-5.661011E-4,-1.5808106E-3,4.5318605E-4,2.357483E-3,-6.408692E-5],"categories":[],"categories_nodes":[],"categories_segments":[],"categories_sizes":[],"default_left":[0,0,0,0,0,0,0,0,0,0,0,0,0,0,0,0,0,0,0,0,0,0,0,0,0,0,0,0,0],"id":49,"left_children":[1,3,5,-1,7,9,-1,-1,-1,11,13,15,17,-1,19,21,-1,-1,23,25,27,-1,-1,-1,-1,-1,-1,-1,-1],"loss_changes":[1.7261037E-3,9.391615E-4,5.7113054E-4,0E0,1.859665E-5,3.95687E-4,0E0,0E0,0E0,3.644532E-4,4.8099496E-4,1.15559305E-4,2.7215976E-4,0E0,1.1775325E-4,3.834658E-5,0E0,0E0,6.368943E-4,4.69867E-5,4.567532E-5,0E0,0E0,0E0,0E0,0E0,0E0,0E0,0E0],"parents":[2147483647,0,0,1,1,2,2,4,4,5,5,9,9,10,10,11,11,12,12,14,14,15,15,18,18,19,19,20,20],"right_children":[2,4,6,-1,8,10,-1,-1,-1,12,14,16,18,-1,20,22,-1,-1,24,26,28,-1,-1,-1,-1,-1,-1,-1,-1],"split_conditions":[1.994E3,1.647E0,2.27E-1,1.2606812E-2,1.991E3,4.48E-1,5.8181765E-3,4.3945314E-4,2.6367188E-3,1.77E-1,4.59E-1,3.78E-1,1.89E-1,-5.355835E-3,2.016E3,2.004E3,-1.524353E-3,4.931641E-3,2.611E0,4.68E-1,2.02E3,1.3427736E-3,-4.6691895E-4,5.6762695E-3,-5.661011E-4,-1.5808106E-3,4.5318605E-4,2.357483E-3,-6.408692E-5],"split_indices":[1,2,10,0,1,4,0,0,0,8,4,4,8,0,1,1,0,0,2,11,1,0,0,0,0,0,0,0,0],"split_type":[0,0,0,0,0,0,0,0,0,0,0,0,0,0,0,0,0,0,0,0,0,0,0,0,0,0,0,0,0],"sum_hessian":[2.4E1,3E0,2.1E1,1E0,2E0,2E1,1E0,1E0,1E0,1.4E1,6E0,6E0,8E0,1E0,5E0,3E0,3E0,2E0,6E0,3E0,2E0,2E0,1E0,1E0,5E0,2E0,1E0,1E0,1E0],"tree_param":{"num_deleted":"0","num_feature":"12","num_nodes":"29","size_leaf_vector":"0"}},{"base_weights":[5.991211E-3,2.2216797E-2,2.7687766E-3,1.071167E-2,5.818685E-3,1.3311477E-3,4.9438477E-3,3.7536622E-4,2.243042E-3,4.6513877E-3,-2.786255E-3,1.7425537E-3,1.2797038E-2,-5.1078796E-3,4.333496E-3,7.095337E-3,-5.029297E-3,4.9255374E-3,8.331299E-4,-1.0681152E-4,-8.087158E-3,2.005005E-3,-5.4931643E-5,4.8248293E-3,6.243896E-4,-4.0283203E-3,1.2817384E-4,-7.019043E-4,9.887696E-4,-4.5547485E-3,-7.553101E-4],"categories":[],"categories_nodes":[],"categories_segments":[],"categories_sizes":[],"default_left":[0,0,0,0,0,0,0,0,0,0,0,0,0,0,0,0,0,0,0,0,0,0,0,0,0,0,0,0,0,0,0],"id":50,"left_children":[1,3,5,-1,7,9,-1,-1,-1,11,13,15,17,19,21,23,25,-1,-1,27,29,-1,-1,-1,-1,-1,-1,-1,-1,-1,-1],"loss_changes":[1.2456339E-3,6.770019E-4,4.1170366E-4,0E0,1.3365097E-5,3.00046E-4,0E0,0E0,0E0,2.6203258E-4,1.8742887E-4,3.9816703E-4,6.326352E-5,1.183328E-4,3.3063814E-5,2.3690675E-4,2.3486912E-4,0E0,0E0,3.8102582E-5,1.5936093E-4,0E0,0E0,0E0,0E0,0E0,0E0,0E0,0E0,0E0,0E0],"parents":[2147483647,0,0,1,1,2,2,4,4,5,5,9,9,10,10,11,11,12,12,13,13,14,14,15,15,16,16,19,19,20,20],"right_children":[2,4,6,-1,8,10,-1,-1,-1,12,14,16,18,20,22,24,26,-1,-1,28,30,-1,-1,-1,-1,-1,-1,-1,-1,-1,-1],"split_conditions":[1.994E3,1.647E0,2.27E-1,1.071167E-2,1.991E3,4.37E-1,4.9438477E-3,3.7536622E-4,2.243042E-3,4.18E-1,2.016E3,3.78E-1,2.005E3,4.48E-1,2.02E3,1.997E3,2.644E0,4.9255374E-3,8.331299E-4,4.4E-1,4.59E-1,2.005005E-3,-5.4931643E-5,4.8248293E-3,6.243896E-4,-4.0283203E-3,1.2817384E-4,-7.019043E-4,9.887696E-4,-4.5547485E-3,-7.553101E-4],"split_indices":[1,2,10,0,1,4,0,0,0,4,1,4,1,4,1,1,2,0,0,4,4,0,0,0,0,0,0,0,0,0,0],"split_type":[0,0,0,0,0,0,0,0,0,0,0,0,0,0,0,0,0,0,0,0,0,0,0,0,0,0,0,0,0,0,0],"sum_hessian":[2.4E1,3E0,2.1E1,1E0,2E0,2E1,1E0,1E0,1E0,1.1E1,9E0,9E0,2E0,7E0,2E0,5E0,4E0,1E0,1E0,3E0,4E0,1E0,1E0,1E0,4E0,1E0,3E0,2E0,1E0,1E0,3E0],"tree_param":{"num_deleted":"0","num_feature":"12","num_nodes":"31","size_leaf_vector":"0"}},{"base_weights":[5.098877E-3,1.889038E-2,2.3595637E-3,9.109497E-3,4.9438477E-3,1.1378697E-3,4.202271E-3,3.2043457E-4,1.9042969E-3,3.868103E-3,-2.2521974E-3,-3.3569336E-4,8.127849E-3,-4.196167E-3,3.6824543E-3,7.2250366E-3,-7.8125E-3,4.18396E-3,4.174805E-3,1.5258789E-5,-6.726074E-3,1.702881E-3,-4.5776367E-5,4.101563E-3,1.5563966E-4,6.408692E-5,-3.1677247E-3,1.437378E-3,2.5634767E-4,-5.5541995E-4,8.4228517E-4,-3.8726807E-3,-5.859375E-4],"categories":[],"categories_nodes":[],"categories_segments":[],"categories_sizes":[],"default_left":[0,0,0,0,0,0,0,0,0,0,0,0,0,0,0,0,0,0,0,0,0,0,0,0,0,0,0,0,0,0,0,0,0],"id":51,"left_children":[1,3,5,-1,7,9,-1,-1,-1,11,13,15,17,19,21,23,25,-1,27,29,31,-1,-1,-1,-1,-1,-1,-1,-1,-1,-1,-1,-1],"loss_changes":[8.9990825E-4,4.900042E-4,2.9712776E-4,0E0,9.542331E-6,2.0308088E-4,0E0,0E0,0E0,2.1761368E-4,1.3082003E-4,4.521564E-4,7.978504E-5,8.533876E-5,2.3805227E-5,1.6584317E-4,9.0433285E-5,0E0,6.1400206E-6,2.6047539E-5,1.2233965E-4,0E0,0E0,0E0,0E0,0E0,0E0,0E0,0E0,0E0,0E0,0E0,0E0],"parents":[2147483647,0,0,1,1,2,2,4,4,5,5,9,9,10,10,11,11,12,12,13,13,14,14,15,15,16,16,18,18,19,19,20,20],"right_children":[2,4,6,-1,8,10,-1,-1,-1,12,14,16,18,20,22,24,26,-1,28,30,32,-1,-1,-1,-1,-1,-1,-1,-1,-1,-1,-1,-1],"split_conditions":[1.994E3,1.647E0,2.27E-1,9.109497E-3,1.991E3,4.37E-1,4.202271E-3,3.2043457E-4,1.9042969E-3,3.802E0,2.016E3,3.78E-1,7.94E-1,4.48E-1,2.02E3,1.997E3,1.996E3,4.18396E-3,2.009E3,4.4E-1,4.59E-1,1.702881E-3,-4.5776367E-5,4.101563E-3,1.5563966E-4,6.408692E-5,-3.1677247E-3,1.437378E-3,2.5634767E-4,-5.5541995E-4,8.4228517E-4,-3.8726807E-3,-5.859375E-4],"split_indices":[1,2,10,0,1,4,0,0,0,2,1,4,9,4,1,1,1,0,1,4,4,0,0,0,0,0,0,0,0,0,0,0,0],"split_type":[0,0,0,0,0,0,0,0,0,0,0,0,0,0,0,0,0,0,0,0,0,0,0,0,0,0,0,0,0,0,0,0,0],"sum_hessian":[2.4E1,3E0,2.1E1,1E0,2E0,2E1,1E0,1E0,1E0,1.1E1,9E0,6E0,5E0,7E0,2E0,3E0,3E0,1E0,4E0,3E0,4E0,1E0,1E0,1E0,2E0,1E0,2E0,3E0,1E0,2E0,1E0,1E0,3E0],"tree_param":{"num_deleted":"0","num_feature":"12","num_nodes":"33","size_leaf_vector":"0"}},{"base_weights":[4.3676756E-3,1.6067505E-2,2.0419033E-3,7.7453614E-3,4.211426E-3,1.0056269E-3,3.5705569E-3,2.746582E-4,1.6204835E-3,3.2857258E-3,-1.8310547E-3,3.4332275E-4,7.3364256E-3,-3.4599304E-3,3.1229656E-3,5.5419924E-3,-6.2408447E-3,3.1982425E-3,4.6997072E-4,7.6293945E-5,-5.5969236E-3,1.4465332E-3,-4.119873E-5,3.4881593E-3,3.341675E-4,5.4931643E-5,-2.532959E-3,-4.4555668E-4,7.141114E-4,-2.3918152E-3,5.859375E-4],"categories":[],"categories_nodes":[],"categories_segments":[],"categories_sizes":[],"default_left":[0,0,0,0,0,0,0,0,0,0,0,0,0,0,0,0,0,0,0,0,0,0,0,0,0,0,0,0,0,0,0],"id":52,"left_children":[1,3,5,-1,7,9,-1,-1,-1,11,13,15,17,19,21,23,25,-1,-1,27,29,-1,-1,-1,-1,-1,-1,-1,-1,-1,-1],"loss_changes":[6.474701E-4,3.536744E-4,2.128192E-4,0E0,6.822869E-6,1.4184255E-4,0E0,0E0,0E0,1.4050676E-4,9.150007E-5,3.08418E-4,7.920514E-5,6.0882114E-5,1.7278051E-5,1.2177807E-4,5.8137186E-5,0E0,0E0,1.7926408E-5,1.052585E-4,0E0,0E0,0E0,0E0,0E0,0E0,0E0,0E0,0E0,0E0],"parents":[2147483647,0,0,1,1,2,2,4,4,5,5,9,9,10,10,11,11,12,12,13,13,14,14,15,15,16,16,19,19,20,20],"right_children":[2,4,6,-1,8,10,-1,-1,-1,12,14,16,18,20,22,24,26,-1,-1,28,30,-1,-1,-1,-1,-1,-1,-1,-1,-1,-1],"split_conditions":[1.994E3,1.647E0,2.27E-1,7.7453614E-3,1.991E3,4.37E-1,3.5705569E-3,2.746582E-4,1.6204835E-3,4.407E0,2.016E3,3.78E-1,1.92E-1,4.48E-1,2.02E3,1.997E3,1.996E3,3.1982425E-3,4.6997072E-4,4.4E-1,4.68E-1,1.4465332E-3,-4.119873E-5,3.4881593E-3,3.341675E-4,5.4931643E-5,-2.532959E-3,-4.4555668E-4,7.141114E-4,-2.3918152E-3,5.859375E-4],"split_indices":[1,2,10,0,1,4,0,0,0,2,1,4,8,4,1,1,1,0,0,4,11,0,0,0,0,0,0,0,0,0,0],"split_type":[0,0,0,0,0,0,0,0,0,0,0,0,0,0,0,0,0,0,0,0,0,0,0,0,0,0,0,0,0,0,0],"sum_hessian":[2.4E1,3E0,2.1E1,1E0,2E0,2E1,1E0,1E0,1E0,1.1E1,9E0,7E0,4E0,7E0,2E0,4E0,3E0,2E0,2E0,3E0,4E0,1E0,1E0,1E0,3E0,1E0,2E0,2E0,1E0,3E0,1E0],"tree_param":{"num_deleted":"0","num_feature":"12","num_nodes":"31","size_leaf_vector":"0"}},{"base_weights":[3.7817382E-3,1.3656616E-2,1.8144087E-3,6.582642E-3,3.5807292E-3,9.373256E-4,3.0349733E-3,2.3803712E-4,1.373291E-3,2.4850029E-3,-1.8882751E-3,5.8260834E-4,7.095337E-3,-2.9342652E-3,6.365095E-4,6.7596436E-3,-2.5787354E-3,3.076172E-3,7.8735355E-4,-7.019043E-4,2.6550293E-3,2.9663087E-3,7.263184E-4,-2.5634766E-3,-1.5171597E-4,4.333496E-4,-7.843018E-4,1.2313843E-3,-3.6621095E-5],"categories":[],"categories_nodes":[],"categories_segments":[],"categories_sizes":[],"default_left":[0,0,0,0,0,0,0,0,0,0,0,0,0,0,0,0,0,0,0,0,0,0,0,0,0,0,0,0,0],"id":53,"left_children":[1,3,5,-1,7,9,-1,-1,-1,11,13,15,17,-1,19,21,23,-1,-1,25,27,-1,-1,-1,-1,-1,-1,-1,-1],"loss_changes":[4.608998E-4,2.5536714E-4,1.507147E-4,0E0,4.703801E-6,9.6527845E-5,0E0,0E0,0E0,1.1865564E-4,1.6564272E-4,2.3223637E-4,2.9574148E-5,0E0,2.077488E-5,3.034652E-5,9.4622636E-5,0E0,0E0,2.430069E-5,1.2577977E-5,0E0,0E0,0E0,0E0,0E0,0E0,0E0,0E0],"parents":[2147483647,0,0,1,1,2,2,4,4,5,5,9,9,10,10,11,11,12,12,14,14,15,15,16,16,19,19,20,20],"right_children":[2,4,6,-1,8,10,-1,-1,-1,12,14,16,18,-1,20,22,24,-1,-1,26,28,-1,-1,-1,-1,-1,-1,-1,-1],"split_conditions":[1.994E3,1.647E0,2.27E-1,6.582642E-3,1.991E3,2.009E3,3.0349733E-3,2.3803712E-4,1.373291E-3,2.004E3,2.01E3,3.78E-1,2.005E3,-2.9342652E-3,1.675E1,1.997E3,3.95E-1,3.076172E-3,7.8735355E-4,2.015E3,2.02E3,2.9663087E-3,7.263184E-4,-2.5634766E-3,-1.5171597E-4,4.333496E-4,-7.843018E-4,1.2313843E-3,-3.6621095E-5],"split_indices":[1,2,10,0,1,1,0,0,0,1,1,4,1,0,2,1,4,0,0,1,1,0,0,0,0,0,0,0,0],"split_type":[0,0,0,0,0,0,0,0,0,0,0,0,0,0,0,0,0,0,0,0,0,0,0,0,0,0,0,0,0],"sum_hessian":[2.4E1,3E0,2.1E1,1E0,2E0,2E1,1E0,1E0,1E0,1.3E1,7E0,1E1,3E0,1E0,6E0,3E0,7E0,1E0,2E0,4E0,2E0,1E0,2E0,1E0,6E0,2E0,2E0,1E0,1E0],"tree_param":{"num_deleted":"0","num_feature":"12","num_nodes":"29","size_leaf_vector":"0"}},{"base_weights":[3.2006835E-3,1.16119385E-2,1.5258789E-3,5.593872E-3,3.0517578E-3,7.7892485E-4,2.5817873E-3,2.0141603E-4,1.171875E-3,2.0708356E-3,-1.5792847E-3,4.7718396E-4,5.935669E-3,-2.494812E-3,5.7111465E-4,5.645752E-3,-2.166748E-3,2.6184083E-3,6.286621E-4,-5.5541995E-4,2.2583008E-3,2.5177002E-3,5.79834E-4,-2.1789551E-3,-1.2032646E-4,3.479004E-4,-6.256104E-4,1.0482789E-3,-3.204346E-5],"categories":[],"categories_nodes":[],"categories_segments":[],"categories_sizes":[],"default_left":[0,0,0,0,0,0,0,0,0,0,0,0,0,0,0,0,0,0,0,0,0,0,0,0,0,0,0,0,0],"id":54,"left_children":[1,3,5,-1,7,9,-1,-1,-1,11,13,15,17,-1,19,21,23,-1,-1,25,27,-1,-1,-1,-1,-1,-1,-1,-1],"loss_changes":[3.344618E-4,1.8395577E-4,1.0964346E-4,0E0,3.4794211E-6,6.7248955E-5,0E0,0E0,0E0,8.339637E-5,1.2064313E-4,1.6255169E-4,2.4602123E-5,0E0,1.4559019E-5,2.4571389E-5,6.9075395E-5,0E0,0E0,1.553831E-5,9.142794E-6,0E0,0E0,0E0,0E0,0E0,0E0,0E0,0E0],"parents":[2147483647,0,0,1,1,2,2,4,4,5,5,9,9,10,10,11,11,12,12,14,14,15,15,16,16,19,19,20,20],"right_children":[2,4,6,-1,8,10,-1,-1,-1,12,14,16,18,-1,20,22,24,-1,-1,26,28,-1,-1,-1,-1,-1,-1,-1,-1],"split_conditions":[1.994E3,1.647E0,2.27E-1,5.593872E-3,1.991E3,2.009E3,2.5817873E-3,2.0141603E-4,1.171875E-3,2.004E3,2.01E3,3.78E-1,2.005E3,-2.494812E-3,1.675E1,1.997E3,3.95E-1,2.6184083E-3,6.286621E-4,2.015E3,2.02E3,2.5177002E-3,5.79834E-4,-2.1789551E-3,-1.2032646E-4,3.479004E-4,-6.256104E-4,1.0482789E-3,-3.204346E-5],"split_indices":[1,2,10,0,1,1,0,0,0,1,1,4,1,0,2,1,4,0,0,1,1,0,0,0,0,0,0,0,0],"split_type":[0,0,0,0,0,0,0,0,0,0,0,0,0,0,0,0,0,0,0,0,0,0,0,0,0,0,0,0,0],"sum_hessian":[2.4E1,3E0,2.1E1,1E0,2E0,2E1,1E0,1E0,1E0,1.3E1,7E0,1E1,3E0,1E0,6E0,3E0,7E0,1E0,2E0,4E0,2E0,1E0,2E0,1E0,6E0,2E0,2E0,1E0,1E0],"tree_param":{"num_deleted":"0","num_feature":"12","num_nodes":"29","size_leaf_vector":"0"}},{"base_weights":[2.7197266E-3,9.8724365E-3,1.2956099E-3,4.7515873E-3,2.6041667E-3,6.612142E-4,2.1926882E-3,1.739502E-4,9.979248E-4,1.7438616E-3,-1.3160706E-3,4.1060013E-4,4.9743652E-3,-2.119446E-3,5.144392E-4,4.7302246E-3,-1.8005371E-3,2.2247315E-3,5.065918E-4,-4.333496E-4,1.9226074E-3,2.1423341E-3,4.638672E-4,-1.5441895E-3,5.1879884E-5,2.807617E-4,-4.9743656E-4,8.926392E-4,-2.7465821E-5],"categories":[],"categories_nodes":[],"categories_segments":[],"categories_sizes":[],"default_left":[0,0,0,0,0,0,0,0,0,0,0,0,0,0,0,0,0,0,0,0,0,0,0,0,0,0,0,0,0],"id":55,"left_children":[1,3,5,-1,7,9,-1,-1,-1,11,13,15,17,-1,19,21,23,-1,-1,25,27,-1,-1,-1,-1,-1,-1,-1,-1],"loss_changes":[2.4186652E-4,1.3220898E-4,7.909377E-5,0E0,2.4574492E-6,4.7249792E-5,0E0,0E0,0E0,5.825701E-5,8.781954E-5,1.1358105E-4,1.9564606E-5,0E0,1.0175684E-5,1.9663326E-5,5.3728E-5,0E0,0E0,9.936714E-6,6.6342764E-6,0E0,0E0,0E0,0E0,0E0,0E0,0E0,0E0],"parents":[2147483647,0,0,1,1,2,2,4,4,5,5,9,9,10,10,11,11,12,12,14,14,15,15,16,16,19,19,20,20],"right_children":[2,4,6,-1,8,10,-1,-1,-1,12,14,16,18,-1,20,22,24,-1,-1,26,28,-1,-1,-1,-1,-1,-1,-1,-1],"split_conditions":[1.994E3,1.647E0,2.27E-1,4.7515873E-3,1.991E3,2.009E3,2.1926882E-3,1.739502E-4,9.979248E-4,2.004E3,2.01E3,3.78E-1,2.005E3,-2.119446E-3,1.675E1,1.997E3,2.644E0,2.2247315E-3,5.065918E-4,2.015E3,2.02E3,2.1423341E-3,4.638672E-4,-1.5441895E-3,5.1879884E-5,2.807617E-4,-4.9743656E-4,8.926392E-4,-2.7465821E-5],"split_indices":[1,2,10,0,1,1,0,0,0,1,1,4,1,0,2,1,2,0,0,1,1,0,0,0,0,0,0,0,0],"split_type":[0,0,0,0,0,0,0,0,0,0,0,0,0,0,0,0,0,0,0,0,0,0,0,0,0,0,0,0,0],"sum_hessian":[2.4E1,3E0,2.1E1,1E0,2E0,2E1,1E0,1E0,1E0,1.3E1,7E0,1E1,3E0,1E0,6E0,3E0,7E0,1E0,2E0,4E0,2E0,1E0,2E0,2E0,5E0,2E0,2E0,1E0,1E0],"tree_param":{"num_deleted":"0","num_feature":"12","num_nodes":"29","size_leaf_vector":"0"}},{"base_weights":[2.3205567E-3,8.392334E-3,1.1111173E-3,4.0374757E-3,2.2176106E-3,5.725679E-4,1.8630982E-3,1.4648438E-4,8.514405E-4,1.4910017E-3,-1.1062622E-3,3.7730823E-4,4.180908E-3,-1.8035889E-3,4.53404E-4,3.9520264E-3,-1.4572144E-3,1.8951417E-3,4.0893556E-4,-3.4790038E-4,1.6377767E-3,1.8218994E-3,3.6621094E-4,-1.3793947E-3,1.0681153E-4,2.2583008E-4,-3.997803E-4,7.5988774E-4,-2.2888184E-5],"categories":[],"categories_nodes":[],"categories_segments":[],"categories_sizes":[],"default_left":[0,0,0,0,0,0,0,0,0,0,0,0,0,0,0,0,0,0,0,0,0,0,0,0,0,0,0,0,0],"id":56,"left_children":[1,3,5,-1,7,9,-1,-1,-1,11,13,15,17,-1,19,21,23,-1,-1,25,27,-1,-1,-1,-1,-1,-1,-1,-1],"loss_changes":[1.742613E-4,9.527741E-5,5.6860044E-5,0E0,1.833464E-6,3.4029217E-5,0E0,0E0,0E0,4.0362745E-5,6.393589E-5,7.7895864E-5,1.5466787E-5,0E0,7.2130842E-6,1.575891E-5,4.71971E-5,0E0,0E0,6.422277E-6,4.796467E-6,0E0,0E0,0E0,0E0,0E0,0E0,0E0,0E0],"parents":[2147483647,0,0,1,1,2,2,4,4,5,5,9,9,10,10,11,11,12,12,14,14,15,15,16,16,19,19,20,20],"right_children":[2,4,6,-1,8,10,-1,-1,-1,12,14,16,18,-1,20,22,24,-1,-1,26,28,-1,-1,-1,-1,-1,-1,-1,-1],"split_conditions":[1.994E3,1.647E0,2.27E-1,4.0374757E-3,1.991E3,2.009E3,1.8630982E-3,1.4648438E-4,8.514405E-4,2.004E3,2.01E3,3.78E-1,2.005E3,-1.8035889E-3,1.675E1,1.997E3,4.16E-1,1.8951417E-3,4.0893556E-4,2.015E3,2.02E3,1.8218994E-3,3.6621094E-4,-1.3793947E-3,1.0681153E-4,2.2583008E-4,-3.997803E-4,7.5988774E-4,-2.2888184E-5],"split_indices":[1,2,10,0,1,1,0,0,0,1,1,4,1,0,2,1,4,0,0,1,1,0,0,0,0,0,0,0,0],"split_type":[0,0,0,0,0,0,0,0,0,0,0,0,0,0,0,0,0,0,0,0,0,0,0,0,0,0,0,0,0],"sum_hessian":[2.4E1,3E0,2.1E1,1E0,2E0,2E1,1E0,1E0,1E0,1.3E1,7E0,1E1,3E0,1E0,6E0,3E0,7E0,1E0,2E0,4E0,2E0,1E0,2E0,2E0,5E0,2E0,2E0,1E0,1E0],"tree_param":{"num_deleted":"0","num_feature":"12","num_nodes":"29","size_leaf_vector":"0"}},{"base_weights":[1.9787597E-3,7.1411133E-3,9.502064E-4,3.4332278E-3,1.8920898E-3,4.926409E-4,1.5838624E-3,1.2817384E-4,7.232666E-4,1.2686594E-3,-9.2697144E-4,3.4401633E-4,3.4942627E-3,-1.5335084E-3,4.0108818E-4,3.3111572E-3,-1.1825562E-3,1.3549805E-3,6.408692E-5,-2.746582E-4,1.3936361E-3,1.5472412E-3,2.9296876E-4,-1.4099121E-3,-2.6157927E-6,-2.586365E-4,3.1127932E-4,6.454468E-4,-1.8310548E-5],"categories":[],"categories_nodes":[],"categories_segments":[],"categories_sizes":[],"default_left":[0,0,0,0,0,0,0,0,0,0,0,0,0,0,0,0,0,0,0,0,0,0,0,0,0,0,0,0,0],"id":57,"left_children":[1,3,5,-1,7,9,-1,-1,-1,11,13,15,17,-1,19,21,23,-1,-1,25,27,-1,-1,-1,-1,-1,-1,-1,-1],"loss_changes":[1.2595837E-4,6.869249E-5,4.0980078E-5,0E0,1.2498349E-6,2.4310564E-5,0E0,0E0,0E0,2.7608354E-5,4.6510733E-5,5.3740743E-5,1.24508515E-5,0E0,5.077748E-6,1.2204982E-5,3.298751E-5,0E0,0E0,4.7490466E-6,3.438598E-6,0E0,0E0,0E0,0E0,0E0,0E0,0E0,0E0],"parents":[2147483647,0,0,1,1,2,2,4,4,5,5,9,9,10,10,11,11,12,12,14,14,15,15,16,16,19,19,20,20],"right_children":[2,4,6,-1,8,10,-1,-1,-1,12,14,16,18,-1,20,22,24,-1,-1,26,28,-1,-1,-1,-1,-1,-1,-1,-1],"split_conditions":[1.994E3,1.647E0,2.27E-1,3.4332278E-3,1.991E3,2.009E3,1.5838624E-3,1.2817384E-4,7.232666E-4,2.004E3,2.01E3,3.78E-1,4.23E-1,-1.5335084E-3,1.675E1,1.997E3,3.95E-1,1.3549805E-3,6.408692E-5,4.68E-1,2.02E3,1.5472412E-3,2.9296876E-4,-1.4099121E-3,-2.6157927E-6,-2.586365E-4,3.1127932E-4,6.454468E-4,-1.8310548E-5],"split_indices":[1,2,10,0,1,1,0,0,0,1,1,4,4,0,2,1,4,0,0,11,1,0,0,0,0,0,0,0,0],"split_type":[0,0,0,0,0,0,0,0,0,0,0,0,0,0,0,0,0,0,0,0,0,0,0,0,0,0,0,0,0],"sum_hessian":[2.4E1,3E0,2.1E1,1E0,2E0,2E1,1E0,1E0,1E0,1.3E1,7E0,1E1,3E0,1E0,6E0,3E0,7E0,2E0,1E0,4E0,2E0,1E0,2E0,1E0,6E0,3E0,1E0,1E0,1E0],"tree_param":{"num_deleted":"0","num_feature":"12","num_nodes":"29","size_leaf_vector":"0"}},{"base_weights":[1.6589356E-3,6.072998E-3,7.809726E-4,2.9205324E-3,4.8217777E-4,3.9091564E-4,1.3458253E-3,1.020159E-3,-7.5912476E-4,2.7743253E-4,2.8076172E-3,-1.3046265E-3,3.7493024E-4,2.7770996E-3,-1.0070801E-3,1.4099121E-3,1.8310547E-4,8.4838865E-4,-1.6174317E-4,1.3183594E-3,2.319336E-4,-1.1993409E-3,-2.6157927E-6,-1.1901856E-4,5.432129E-4],"categories":[],"categories_nodes":[],"categories_segments":[],"categories_sizes":[],"default_left":[0,0,0,0,0,0,0,0,0,0,0,0,0,0,0,0,0,0,0,0,0,0,0,0,0],"id":58,"left_children":[1,3,5,-1,-1,7,-1,9,11,13,15,-1,17,19,21,-1,-1,23,-1,-1,-1,-1,-1,-1,-1],"loss_changes":[9.2141745E-5,4.9769253E-5,3.0040816E-5,0E0,0E0,1.5971189E-5,0E0,1.7807371E-5,3.4197183E-5,3.8116155E-5,1.3761222E-5,0E0,3.4868362E-6,9.567786E-6,2.3851702E-5,0E0,0E0,6.7093715E-6,0E0,0E0,0E0,0E0,0E0,0E0,0E0],"parents":[2147483647,0,0,1,1,2,2,5,5,7,7,8,8,9,9,10,10,12,12,13,13,14,14,17,17],"right_children":[2,4,6,-1,-1,8,-1,10,12,14,16,-1,18,20,22,-1,-1,24,-1,-1,-1,-1,-1,-1,-1],"split_conditions":[1.994E3,1.647E0,2.27E-1,2.9205324E-3,4.8217777E-4,2.009E3,1.3458253E-3,2.004E3,2.01E3,3.78E-1,2.005E3,-1.3046265E-3,5.4E-1,1.997E3,3.95E-1,1.4099121E-3,1.8310547E-4,1.3332E1,-1.6174317E-4,1.3183594E-3,2.319336E-4,-1.1993409E-3,-2.6157927E-6,-1.1901856E-4,5.432129E-4],"split_indices":[1,2,10,0,0,1,0,1,1,4,1,0,4,1,4,0,0,2,0,0,0,0,0,0,0],"split_type":[0,0,0,0,0,0,0,0,0,0,0,0,0,0,0,0,0,0,0,0,0,0,0,0,0],"sum_hessian":[2.4E1,3E0,2.1E1,1E0,2E0,2E1,1E0,1.3E1,7E0,1E1,3E0,1E0,6E0,3E0,7E0,1E0,2E0,4E0,2E0,1E0,2E0,1E0,6E0,2E0,2E0],"tree_param":{"num_deleted":"0","num_feature":"12","num_nodes":"25","size_leaf_vector":"0"}},{"base_weights":[1.3842774E-3,5.0964355E-3,6.464178E-4,2.4810792E-3,1.2817383E-3,3.1389509E-4,1.1444092E-3,3.6621095E-5,5.4016116E-4,7.9956057E-4,-7.716588E-4,-3.880092E-4,1.6343859E-3,-1.1077882E-3,3.306071E-4,-2.182007E-4,2.471924E-4,1.2084962E-3,3.7493024E-4,-2.975464E-4,1.0579427E-3,1.1169434E-3,-2.4108888E-4,-2.4108888E-4,1.8310547E-4,4.6691895E-4,9.155274E-6],"categories":[],"categories_nodes":[],"categories_segments":[],"categories_sizes":[],"default_left":[0,0,0,0,0,0,0,0,0,0,0,0,0,0,0,0,0,0,0,0,0,0,0,0,0,0,0],"id":59,"left_children":[1,3,5,-1,7,9,-1,-1,-1,11,13,15,17,-1,19,-1,-1,-1,21,23,25,-1,-1,-1,-1,-1,-1],"loss_changes":[6.5181855E-5,3.782846E-5,2.1980133E-5,0E0,1.585111E-6,1.1688524E-5,0E0,0E0,0E0,1.5505357E-5,2.3758592E-5,3.4781133E-6,2.5625148E-5,0E0,3.0560573E-6,0E0,0E0,0E0,3.0614527E-5,2.328384E-6,1.4888744E-6,0E0,0E0,0E0,0E0,0E0,0E0],"parents":[2147483647,0,0,1,1,2,2,4,4,5,5,9,9,10,10,11,11,12,12,14,14,18,18,19,19,20,20],"right_children":[2,4,6,-1,8,10,-1,-1,-1,12,14,16,18,-1,20,-1,-1,-1,22,24,26,-1,-1,-1,-1,-1,-1],"split_conditions":[1.994E3,1.647E0,2.27E-1,2.4810792E-3,1.991E3,4.48E-1,1.1444092E-3,3.6621095E-5,5.4016116E-4,1.77E-1,4.59E-1,1.99E-1,1.89E-1,-1.1077882E-3,2.016E3,-2.182007E-4,2.471924E-4,1.2084962E-3,2.611E0,4.68E-1,2.02E3,1.1169434E-3,-2.4108888E-4,-2.4108888E-4,1.8310547E-4,4.6691895E-4,9.155274E-6],"split_indices":[1,2,10,0,1,4,0,0,0,8,4,10,8,0,1,0,0,0,2,11,1,0,0,0,0,0,0],"split_type":[0,0,0,0,0,0,0,0,0,0,0,0,0,0,0,0,0,0,0,0,0,0,0,0,0,0,0],"sum_hessian":[2.4E1,3E0,2.1E1,1E0,2E0,2E1,1E0,1E0,1E0,1.4E1,6E0,6E0,8E0,1E0,5E0,5E0,1E0,2E0,6E0,3E0,2E0,1E0,5E0,2E0,1E0,1E0,1E0],"tree_param":{"num_deleted":"0","num_feature":"12","num_nodes":"27","size_leaf_vector":"0"}},{"base_weights":[1.1975098E-3,4.3182373E-3,5.756725E-4,2.105713E-3,1.0782877E-3,2.9355002E-4,9.7503664E-4,2.7465821E-5,4.577637E-4,7.0800784E-4,-6.365095E-4,-2.5285993E-4,1.3766818E-3,-9.429932E-4,3.0517578E-4,2.0751954E-4,-2.807617E-4,9.6435554E-4,3.9236885E-4,-2.2125244E-4,9.053548E-4,-7.934571E-5,1.8310547E-4,9.5214846E-4,-1.8005371E-4,-1.9226075E-4,1.5563966E-4,3.982544E-4,9.155274E-6],"categories":[],"categories_nodes":[],"categories_segments":[],"categories_sizes":[],"default_left":[0,0,0,0,0,0,0,0,0,0,0,0,0,0,0,0,0,0,0,0,0,0,0,0,0,0,0,0,0],"id":60,"left_children":[1,3,5,-1,7,9,-1,-1,-1,11,13,15,17,-1,19,21,-1,-1,23,25,27,-1,-1,-1,-1,-1,-1,-1,-1],"loss_changes":[4.6028723E-5,2.743335E-5,1.5645415E-5,0E0,1.1852633E-6,8.545532E-6,0E0,0E0,0E0,9.985719E-6,1.7483586E-5,2.395326E-6,1.5019779E-5,0E0,2.096019E-6,1.1121234E-6,0E0,0E0,2.1229986E-5,1.5746336E-6,1.067451E-6,0E0,0E0,0E0,0E0,0E0,0E0,0E0,0E0],"parents":[2147483647,0,0,1,1,2,2,4,4,5,5,9,9,10,10,11,11,12,12,14,14,15,15,18,18,19,19,20,20],"right_children":[2,4,6,-1,8,10,-1,-1,-1,12,14,16,18,-1,20,22,-1,-1,24,26,28,-1,-1,-1,-1,-1,-1,-1,-1],"split_conditions":[1.994E3,1.647E0,2.27E-1,2.105713E-3,1.991E3,4.48E-1,9.7503664E-4,2.7465821E-5,4.577637E-4,1.77E-1,4.59E-1,1.7E-1,1.89E-1,-9.429932E-4,2.016E3,3.27E0,-2.807617E-4,9.6435554E-4,2.611E0,4.68E-1,2.02E3,-7.934571E-5,1.8310547E-4,9.5214846E-4,-1.8005371E-4,-1.9226075E-4,1.5563966E-4,3.982544E-4,9.155274E-6],"split_indices":[1,2,10,0,1,4,0,0,0,8,4,8,8,0,1,2,0,0,2,11,1,0,0,0,0,0,0,0,0],"split_type":[0,0,0,0,0,0,0,0,0,0,0,0,0,0,0,0,0,0,0,0,0,0,0,0,0,0,0,0,0],"sum_hessian":[2.4E1,3E0,2.1E1,1E0,2E0,2E1,1E0,1E0,1E0,1.4E1,6E0,6E0,8E0,1E0,5E0,4E0,2E0,2E0,6E0,3E0,2E0,2E0,2E0,1E0,5E0,2E0,1E0,1E0,1E0],"tree_param":{"num_deleted":"0","num_feature":"12","num_nodes":"29","size_leaf_vector":"0"}},{"base_weights":[1.0192872E-3,3.6621094E-3,4.9244275E-4,1.7852784E-3,2.746582E-4,2.5285993E-4,8.285523E-4,1.1037191E-3,-8.201599E-5,8.056641E-4,7.507324E-5,-9.5214846E-4,3.3569336E-4,1.0172526E-3,-5.885533E-4,1.2588501E-4,8.6975103E-4,-6.378174E-4,1.3549805E-4],"categories":[],"categories_nodes":[],"categories_segments":[],"categories_sizes":[],"default_left":[0,0,0,0,0,0,0,0,0,0,0,0,0,0,0,0,0,0,0],"id":61,"left_children":[1,3,5,-1,-1,7,-1,9,11,-1,-1,-1,13,15,17,-1,-1,-1,-1],"loss_changes":[3.3005523E-5,1.9697472E-5,1.1263234E-5,0E0,0E0,6.0740995E-6,0E0,7.4282602E-6,2.1729094E-5,0E0,0E0,0E0,1.004764E-5,8.905772E-6,1.2155587E-5,0E0,0E0,0E0,0E0],"parents":[2147483647,0,0,1,1,2,2,5,5,7,7,8,8,12,12,13,13,14,14],"right_children":[2,4,6,-1,-1,8,-1,10,12,-1,-1,-1,14,16,18,-1,-1,-1,-1],"split_conditions":[1.994E3,1.647E0,2.27E-1,1.7852784E-3,2.746582E-4,3.78E-1,8.285523E-4,1.997E3,3.95E-1,8.056641E-4,7.507324E-5,-9.5214846E-4,1.76E-1,1.64E-1,2.01E3,1.2588501E-4,8.6975103E-4,-6.378174E-4,1.3549805E-4],"split_indices":[1,2,10,0,0,4,0,1,4,0,0,0,10,10,1,0,0,0,0],"split_type":[0,0,0,0,0,0,0,0,0,0,0,0,0,0,0,0,0,0,0],"sum_hessian":[2.4E1,3E0,2.1E1,1E0,2E0,2E1,1E0,5E0,1.5E1,1E0,4E0,1E0,1.4E1,8E0,6E0,7E0,1E0,2E0,4E0],"tree_param":{"num_deleted":"0","num_feature":"12","num_nodes":"19","size_leaf_vector":"0"}},{"base_weights":[8.5327146E-4,3.0822754E-3,4.0921298E-4,1.5197755E-3,7.324219E-4,2.0490374E-4,7.0495607E-4,-1.8310548E-5,3.479004E-4,5.3100585E-4,-5.2315847E-4,-5.79834E-4,9.876598E-4,-7.0495607E-4,1.7293294E-4,-1.8692017E-3,6.866455E-4,5.4931643E-5,1.4212473E-3,-2.593994E-4,2.0751954E-4,-2.1057129E-4,-8.056641E-4,6.2255864E-4,1.235962E-4,-1.8005371E-4,1.14440925E-4],"categories":[],"categories_nodes":[],"categories_segments":[],"categories_sizes":[],"default_left":[0,0,0,0,0,0,0,0,0,0,0,0,0,0,0,0,0,0,0,0,0,0,0,0,0,0,0],"id":62,"left_children":[1,3,5,-1,7,9,-1,-1,-1,11,13,15,17,-1,19,21,-1,-1,23,25,-1,-1,-1,-1,-1,-1,-1],"loss_changes":[2.3483899E-5,1.4934689E-5,8.2413035E-6,0E0,1.0877848E-6,5.2636756E-6,0E0,0E0,0E0,8.18172E-6,9.307195E-6,2.2772001E-5,3.5770536E-6,0E0,1.525196E-6,1.9266736E-6,0E0,0E0,3.7650707E-6,1.1025307E-6,0E0,0E0,0E0,0E0,0E0,0E0,0E0],"parents":[2147483647,0,0,1,1,2,2,4,4,5,5,9,9,10,10,11,11,12,12,14,14,15,15,18,18,19,19],"right_children":[2,4,6,-1,8,10,-1,-1,-1,12,14,16,18,-1,20,22,-1,-1,24,26,-1,-1,-1,-1,-1,-1,-1],"split_conditions":[1.994E3,1.647E0,2.27E-1,1.5197755E-3,1.991E3,4.48E-1,7.0495607E-4,-1.8310548E-5,3.479004E-4,2.644E0,4.59E-1,1.93E-1,1.77E-1,-7.0495607E-4,2.016E3,2.581E0,6.866455E-4,5.4931643E-5,1.92E-1,4.68E-1,2.0751954E-4,-2.1057129E-4,-8.056641E-4,6.2255864E-4,1.235962E-4,-1.8005371E-4,1.14440925E-4],"split_indices":[1,2,10,0,1,4,0,0,0,2,4,8,8,0,1,2,0,0,8,11,0,0,0,0,0,0,0],"split_type":[0,0,0,0,0,0,0,0,0,0,0,0,0,0,0,0,0,0,0,0,0,0,0,0,0,0,0],"sum_hessian":[2.4E1,3E0,2.1E1,1E0,2E0,2E1,1E0,1E0,1E0,1.4E1,6E0,4E0,1E1,1E0,5E0,3E0,1E0,4E0,6E0,3E0,2E0,2E0,1E0,3E0,3E0,2E0,1E0],"tree_param":{"num_deleted":"0","num_feature":"12","num_nodes":"27","size_leaf_vector":"0"}},{"base_weights":[6.9335935E-4,2.609253E-3,3.1349875E-4,1.2908936E-3,1.8310547E-4,1.3805571E-4,5.9967046E-4,8.1380206E-4,-1.2397766E-4,5.004883E-4,-9.155274E-6,-5.6762696E-4,2.6375908E-4,8.544922E-4,-4.4904437E-4,-5.4931643E-5,3.692627E-4,-5.9967046E-4,4.272461E-5],"categories":[],"categories_nodes":[],"categories_segments":[],"categories_sizes":[],"default_left":[0,0,0,0,0,0,0,0,0,0,0,0,0,0,0,0,0,0,0],"id":63,"left_children":[1,3,5,-1,-1,7,-1,9,11,-1,-1,-1,13,15,17,-1,-1,-1,-1],"loss_changes":[1.7376315E-5,1.0916032E-5,6.2292675E-6,0E0,0E0,3.8193234E-6,0E0,4.3796995E-6,1.1468049E-5,0E0,0E0,0E0,6.278777E-6,3.3496572E-6,6.7014207E-6,0E0,0E0,0E0,0E0],"parents":[2147483647,0,0,1,1,2,2,5,5,7,7,8,8,12,12,13,13,14,14],"right_children":[2,4,6,-1,-1,8,-1,10,12,-1,-1,-1,14,16,18,-1,-1,-1,-1],"split_conditions":[1.994E3,1.647E0,2.27E-1,1.2908936E-3,1.8310547E-4,3.78E-1,5.9967046E-4,2.002E3,2.644E0,5.004883E-4,-9.155274E-6,-5.6762696E-4,4.48E-1,1.77E-1,4.59E-1,-5.4931643E-5,3.692627E-4,-5.9967046E-4,4.272461E-5],"split_indices":[1,2,10,0,0,4,0,1,2,0,0,0,4,8,4,0,0,0,0],"split_type":[0,0,0,0,0,0,0,0,0,0,0,0,0,0,0,0,0,0,0],"sum_hessian":[2.4E1,3E0,2.1E1,1E0,2E0,2E1,1E0,5E0,1.5E1,2E0,3E0,2E0,1.3E1,7E0,6E0,2E0,5E0,1E0,5E0],"tree_param":{"num_deleted":"0","num_feature":"12","num_nodes":"19","size_leaf_vector":"0"}},{"base_weights":[5.566406E-4,2.1972656E-3,2.3304332E-4,-4.5776367E-5,9.0942386E-4,8.030942E-6,1.2435913E-3,2.9703777E-4,-8.605957E-4,5.2795414E-4,-4.5776367E-5,-4.4389206E-5,9.887696E-4,-3.6849978E-4,9.1552734E-5,-4.5437284E-4,1.200358E-3,5.950928E-4,7.324219E-5,-2.2888185E-6,-6.042481E-4,2.7465821E-5,5.1269535E-4],"categories":[],"categories_nodes":[],"categories_segments":[],"categories_sizes":[],"default_left":[0,0,0,0,0,0,0,0,0,0,0,0,0,0,0,0,0,0,0,0,0,0,0],"id":64,"left_children":[1,3,5,-1,-1,7,9,11,13,-1,-1,15,17,-1,-1,19,21,-1,-1,-1,-1,-1,-1],"loss_changes":[1.2760486E-5,8.303052E-6,4.9925006E-6,0E0,0E0,5.0253707E-6,3.151673E-6,3.586529E-6,2.5183429E-6,0E0,0E0,6.158996E-6,3.2197686E-6,0E0,0E0,6.2560557E-6,1.5354403E-6,0E0,0E0,0E0,0E0,0E0,0E0],"parents":[2147483647,0,0,1,1,2,2,5,5,6,6,7,7,8,8,11,11,12,12,15,15,16,16],"right_children":[2,4,6,-1,-1,8,10,12,14,-1,-1,16,18,-1,-1,20,22,-1,-1,-1,-1,-1,-1],"split_conditions":[1.994E3,1.991E3,1.675E1,-4.5776367E-5,9.0942386E-4,4.48E-1,2.02E3,4.407E0,4.68E-1,5.2795414E-4,-4.5776367E-5,1.93E-1,2.005E3,-3.6849978E-4,9.1552734E-5,1.89E-1,1.996E3,5.950928E-4,7.324219E-5,-2.2888185E-6,-6.042481E-4,2.7465821E-5,5.1269535E-4],"split_indices":[1,1,2,0,0,4,1,2,11,0,0,8,1,0,0,8,1,0,0,0,0,0,0],"split_type":[0,0,0,0,0,0,0,0,0,0,0,0,0,0,0,0,0,0,0,0,0,0,0],"sum_hessian":[2.4E1,3E0,2.1E1,1E0,2E0,1.8E1,3E0,1.4E1,4E0,2E0,1E0,1E1,4E0,3E0,1E0,8E0,2E0,1E0,3E0,7E0,1E0,1E0,1E0],"tree_param":{"num_deleted":"0","num_feature":"12","num_nodes":"23","size_leaf_vector":"0"}},{"base_weights":[4.5898437E-4,2.0548503E-3,2.3087212E-4,-3.6621095E-5,9.6130377E-4,1.10973015E-4,4.3029786E-4,6.8359374E-4,-5.4253473E-5,3.6621095E-5,4.3945314E-4,-5.1269535E-4,1.4361214E-4,4.699707E-4,-2.822876E-4,3.6621095E-5,2.8839114E-4,-3.631592E-4,6.866455E-5],"categories":[],"categories_nodes":[],"categories_segments":[],"categories_sizes":[],"default_left":[0,0,0,0,0,0,0,0,0,0,0,0,0,0,0,0,0,0,0],"id":65,"left_children":[1,3,5,-1,-1,7,-1,9,11,-1,-1,-1,13,15,17,-1,-1,-1,-1],"loss_changes":[8.626506E-6,7.898237E-6,3.1595691E-6,0E0,0E0,2.1185538E-6,0E0,2.014637E-6,6.138889E-6,0E0,0E0,0E0,2.4955993E-6,1.5920027E-6,4.072984E-6,0E0,0E0,0E0,0E0],"parents":[2147483647,0,0,1,1,2,2,5,5,7,7,8,8,12,12,13,13,14,14],"right_children":[2,4,6,-1,-1,8,-1,10,12,-1,-1,-1,14,16,18,-1,-1,-1,-1],"split_conditions":[1.992E3,1.991E3,2.27E-1,-3.6621095E-5,9.6130377E-4,1.997E3,4.3029786E-4,1.996E3,1.998E3,3.6621095E-5,4.3945314E-4,-5.1269535E-4,2.009E3,2.004E3,7.94E0,3.6621095E-5,2.8839114E-4,-3.631592E-4,6.866455E-5],"split_indices":[1,1,10,0,0,1,0,1,1,0,0,0,1,1,2,0,0,0,0],"split_type":[0,0,0,0,0,0,0,0,0,0,0,0,0,0,0,0,0,0,0],"sum_hessian":[2.4E1,2E0,2.2E1,1E0,1E0,2.1E1,1E0,4E0,1.7E1,3E0,1E0,1E0,1.6E1,9E0,7E0,6E0,3E0,2E0,5E0],"tree_param":{"num_deleted":"0","num_feature":"12","num_nodes":"19","size_leaf_vector":"0"}},{"base_weights":[3.6621094E-4,1.7496744E-3,1.6983696E-4,-2.7465821E-5,8.1481936E-4,6.658381E-5,3.6621094E-4,3.7841796E-4,-1.7841045E-4,-0E0,3.78418E-4,3.7536622E-4,-4.018148E-4,-8.414132E-4,1.7801921E-4,-6.103516E-6,-3.4973148E-4,1.5106202E-4,-9.46045E-5],"categories":[],"categories_nodes":[],"categories_segments":[],"categories_sizes":[],"default_left":[0,0,0,0,0,0,0,0,0,0,0,0,0,0,0,0,0,0,0],"id":66,"left_children":[1,3,5,-1,-1,7,-1,9,11,-1,-1,-1,13,15,17,-1,-1,-1,-1],"loss_changes":[6.4947462E-6,5.586694E-6,2.4143415E-6,0E0,0E0,1.7482605E-6,0E0,3.341337E-6,4.654774E-6,0E0,0E0,0E0,3.208517E-6,1.8405244E-6,1.122399E-6,0E0,0E0,0E0,0E0],"parents":[2147483647,0,0,1,1,2,2,5,5,7,7,8,8,12,12,13,13,14,14],"right_children":[2,4,6,-1,-1,8,-1,10,12,-1,-1,-1,14,16,18,-1,-1,-1,-1],"split_conditions":[1.992E3,1.991E3,2.27E-1,-2.7465821E-5,8.1481936E-4,1.89E-1,3.6621094E-4,1.77E-1,2.611E0,-0E0,3.78418E-4,3.7536622E-4,2.01E3,1.92E-1,5.4E-1,-6.103516E-6,-3.4973148E-4,1.5106202E-4,-9.46045E-5],"split_indices":[1,1,10,0,0,8,0,8,2,0,0,0,1,8,4,0,0,0,0],"split_type":[0,0,0,0,0,0,0,0,0,0,0,0,0,0,0,0,0,0,0],"sum_hessian":[2.4E1,2E0,2.2E1,1E0,1E0,2.1E1,1E0,9E0,1.2E1,7E0,2E0,1E0,1.1E1,6E0,5E0,2E0,4E0,3E0,2E0],"tree_param":{"num_deleted":"0","num_feature":"12","num_nodes":"19","size_leaf_vector":"0"}},{"base_weights":[3.2226564E-4,1.0375977E-3,4.1760897E-5,6.7749026E-4,2.9296876E-5,-3.845215E-4,1.8649631E-4,7.539637E-5,3.1127932E-4,4.272461E-4,-4.6608668E-5,1.5258789E-5,4.0283205E-4],"categories":[],"categories_nodes":[],"categories_segments":[],"categories_sizes":[],"default_left":[0,0,0,0,0,0,0,0,0,0,0,0,0],"id":67,"left_children":[1,3,5,-1,-1,-1,7,9,-1,11,-1,-1,-1],"loss_changes":[4.9730197E-6,7.811188E-6,3.878626E-6,0E0,0E0,0E0,1.6238005E-6,1.4466477E-6,0E0,2.3438286E-6,0E0,0E0,0E0],"parents":[2147483647,0,0,1,1,2,2,6,6,7,7,9,9],"right_children":[2,4,6,-1,-1,-1,8,10,-1,12,-1,-1,-1],"split_conditions":[1.997E3,4.12E-1,1.998E3,6.7749026E-4,2.9296876E-5,-3.845215E-4,2.27E-1,7.94E-1,3.1127932E-4,3.575E0,-4.6608668E-5,1.5258789E-5,4.0283205E-4],"split_indices":[1,4,1,0,0,0,10,9,0,2,0,0,0],"split_type":[0,0,0,0,0,0,0,0,0,0,0,0,0],"sum_hessian":[2.4E1,6E0,1.8E1,2E0,4E0,1E0,1.7E1,1.6E1,1E0,6E0,1E1,5E0,1E0],"tree_param":{"num_deleted":"0","num_feature":"12","num_nodes":"13","size_leaf_vector":"0"}},{"base_weights":[2.783203E-4,1.1444092E-3,1.08198685E-4,5.950928E-4,6.1035156E-5,-2.2486636E-5,7.019043E-4,1.4851888E-4,-5.3100585E-4,2.990723E-4,-2.7465821E-5,-3.173828E-4,1.040372E-4,-3.3874513E-4,-2.975464E-5,-2.2888185E-4,2.1972657E-4],"categories":[],"categories_nodes":[],"categories_segments":[],"categories_sizes":[],"default_left":[0,0,0,0,0,0,0,0,0,0,0,0,0,0,0,0,0],"id":68,"left_children":[1,3,5,-1,-1,7,9,11,13,-1,-1,15,-1,-1,-1,-1,-1],"loss_changes":[3.5596875E-6,2.7551623E-6,1.7227328E-6,0E0,0E0,1.7310966E-6,1.0275592E-6,1.4956929E-6,1.1794734E-6,0E0,0E0,2.8975307E-6,0E0,0E0,0E0,0E0,0E0],"parents":[2147483647,0,0,1,1,2,2,5,5,6,6,7,7,8,8,11,11],"right_children":[2,4,6,-1,-1,8,10,12,14,-1,-1,16,-1,-1,-1,-1,-1],"split_conditions":[1.994E3,1.647E0,1.675E1,5.950928E-4,6.1035156E-5,4.48E-1,2.02E3,2.644E0,4.59E-1,2.990723E-4,-2.7465821E-5,1.93E-1,1.040372E-4,-3.3874513E-4,-2.975464E-5,-2.2888185E-4,2.1972657E-4],"split_indices":[1,2,2,0,0,4,1,2,4,0,0,8,0,0,0,0,0],"split_type":[0,0,0,0,0,0,0,0,0,0,0,0,0,0,0,0,0],"sum_hessian":[2.4E1,3E0,2.1E1,1E0,2E0,1.8E1,3E0,1.4E1,4E0,2E0,1E0,4E0,1E1,1E0,3E0,3E0,1E0],"tree_param":{"num_deleted":"0","num_feature":"12","num_nodes":"17","size_leaf_vector":"0"}},{"base_weights":[2.1362305E-4,1.1189779E-3,8.624533E-5,5.0354004E-4,-0E0,-5.56497E-5,4.185268E-4,8.544922E-5,-2.2277834E-4,2.1057129E-4,-5.79834E-5,-9.432706E-5,4.6386718E-4,-2.916124E-4,1.5869141E-4,3.2043457E-4,1.3732911E-5,-2.5177003E-5,-2.9296876E-4],"categories":[],"categories_nodes":[],"categories_segments":[],"categories_sizes":[],"default_left":[0,0,0,0,0,0,0,0,0,0,0,0,0,0,0,0,0,0,0],"id":69,"left_children":[1,3,5,-1,-1,7,9,11,-1,-1,-1,13,15,17,-1,-1,-1,-1,-1],"loss_changes":[2.786544E-6,1.8781673E-6,1.1077199E-6,0E0,0E0,1.7112158E-6,1.3492646E-6,1.0642138E-6,0E0,0E0,0E0,1.5068987E-6,1.2142584E-6,1.1983534E-6,0E0,0E0,0E0,0E0,0E0],"parents":[2147483647,0,0,1,1,2,2,5,5,6,6,7,7,11,11,12,12,13,13],"right_children":[2,4,6,-1,-1,8,10,12,-1,-1,-1,14,16,18,-1,-1,-1,-1,-1],"split_conditions":[1.647E0,1.992E3,4.6E-1,5.0354004E-4,-0E0,4.5E-1,5.4E-1,2.004E3,-2.2277834E-4,2.1057129E-4,-5.79834E-5,1.93E-1,2.005E3,1.89E-1,1.5869141E-4,3.2043457E-4,1.3732911E-5,-2.5177003E-5,-2.9296876E-4],"split_indices":[2,1,4,0,0,4,4,1,0,0,0,8,1,8,0,0,0,0,0],"split_type":[0,0,0,0,0,0,0,0,0,0,0,0,0,0,0,