{"learner":{"attributes":{"best_iteration":"75","best_ntree_limit":"76","best_score":"30.393257508515664"},"feature_names":["Country","Year","Coal","Cement","Flaring","Other","Total energy consumption of primary fuels and equivalents","Fraction from renewable sources and waste","Landfill gas","Poultry litter","Straw","Bioethanol","Biomass","Cross-boundary Adjustment"],"feature_types":["int","int","float","float","float","float","float","float","float","float","float","float","float","float"],"gradient_booster":{"model":{"gbtree_model_param":{"num_parallel_tree":"1","num_trees":"176","size_leaf_vector":"0"},"tree_info":[0,0,0,0,0,0,0,0,0,0,0,0,0,0,0,0,0,0,0,0,0,0,0,0,0,0,0,0,0,0,0,0,0,0,0,0,0,0,0,0,0,0,0,0,0,0,0,0,0,0,0,0,0,0,0,0,0,0,0,0,0,0,0,0,0,0,0,0,0,0,0,0,0,0,0,0,0,0,0,0,0,0,0,0,0,0,0,0,0,0,0,0,0,0,0,0,0,0,0,0,0,0,0,0,0,0,0,0,0,0,0,0,0,0,0,0,0,0,0,0,0,0,0,0,0,0,0,0,0,0,0,0,0,0,0,0,0,0,0,0,0,0,0,0,0,0,0,0,0,0,0,0,0,0,0,0,0,0,0,0,0,0,0,0,0,0,0,0,0,0,0,0,0,0,0,0],"trees":[{"base_weights":[5.771235E1,3.2767586E1,2.3644326E4,1.7663595E1,4.1936816E3,1.8117033E4,8.803557E3,9.939679E0,7.6641315E2,3.1965164E3,7.2774614E3,3.047235E3,5.706121E3,5.233171E0,2.498923E2,6.2143823E2,1.9254291E3,2.324819E3,4.810764E3,1.2679845E3,2.4765654E3,3.1259935E0,9.58753E1,1.755613E2,3.3465067E2,4.6901898E2,9.394453E2,1.5289281E3,7.128387E2,1.8162815E3,9.5546344E2,8.469688E2,1.5307781E3,4.5677638E-1,1.267228E1,2.2094875E1,5.9023537E1,4.2443398E1,1.0646386E2,7.98151E1,1.2264257E2,1.3198575E2,3.0443134E2,2.8986288E2,1.3454025E2,1.1841643E2,4.780615E2,4.1264603E2,6.052121E2],"categories":[],"categories_nodes":[],"categories_segments":[],"categories_sizes":[],"default_left":[0,0,0,0,0,0,0,0,0,0,0,0,0,0,0,0,0,0,0,0,0,0,0,0,0,0,0,0,0,0,0,0,0,0,0,0,0,0,0,0,0,0,0,0,0,0,0,0,0],"id":0,"left_children":[1,3,5,7,9,11,-1,13,15,17,19,-1,-1,21,23,25,27,29,31,-1,-1,33,35,37,39,41,43,45,-1,47,-1,-1,-1,-1,-1,-1,-1,-1,-1,-1,-1,-1,-1,-1,-1,-1,-1,-1,-1],"loss_changes":[2.7845833E10,2.9713042E9,1.0438697E9,2.7244266E8,5.025692E8,8.133632E6,0E0,5.2659772E7,7.962506E7,1.7315046E8,8.741069E7,0E0,0E0,8.73485E6,5.5925E6,2.03532E7,5.83832E6,3.226672E7,1.1695232E7,0E0,0E0,2.8031398E6,2.314847E6,2.883439E6,2.017712E6,4.185576E6,1.380096E6,1.64272E6,0E0,2.277632E6,0E0,0E0,0E0,0E0,0E0,0E0,0E0,0E0,0E0,0E0,0E0,0E0,0E0,0E0,0E0,0E0,0E0,0E0,0E0],"parents":[2147483647,0,0,1,1,2,2,3,3,4,4,5,5,7,7,8,8,9,9,10,10,13,13,14,14,15,15,16,16,17,17,18,18,21,21,22,22,23,23,24,24,25,25,26,26,27,27,29,29],"right_children":[2,4,6,8,10,12,-1,14,16,18,20,-1,-1,22,24,26,28,30,32,-1,-1,34,36,38,40,42,44,46,-1,48,-1,-1,-1,-1,-1,-1,-1,-1,-1,-1,-1,-1,-1,-1,-1,-1,-1,-1,-1],"split_conditions":[1.4456609E2,1.0249879E3,1.996E3,2.1731917E2,3.2851724E3,1.97E3,8.803557E3,3.45257E0,8.709235E0,4.174089E0,1.95E3,3.047235E3,5.706121E3,2.9584738E1,4.5519424E1,9.913558E0,7.473934E2,1.8945956E3,1.969E3,1.2679845E3,2.4765654E3,6.72343E-1,1.1445686E2,1.2272913E1,2.396256E0,7.473934E2,3.886827E0,3.52658E2,7.128387E2,1.922E3,9.5546344E2,8.469688E2,1.5307781E3,4.5677638E-1,1.267228E1,2.2094875E1,5.9023537E1,4.2443398E1,1.0646386E2,7.98151E1,1.2264257E2,1.3198575E2,3.0443134E2,2.8986288E2,1.3454025E2,1.1841643E2,4.780615E2,4.1264603E2,6.052121E2],"split_indices":[4,2,1,2,2,1,0,3,4,4,1,0,0,2,2,3,2,2,1,0,0,3,2,3,4,2,4,2,0,1,0,0,0,0,0,0,0,0,0,0,0,0,0,0,0,0,0,0,0],"split_type":[0,0,0,0,0,0,0,0,0,0,0,0,0,0,0,0,0,0,0,0,0,0,0,0,0,0,0,0,0,0,0,0,0,0,0,0,0,0,0,0,0,0,0,0,0,0,0,0,0],"sum_hessian":[4.7328E4,4.7279E4,4.9E1,4.7109E4,1.7E2,2.7E1,2.2E1,4.6629E4,4.8E2,1.3E2,4E1,4E0,2.3E1,4.5733E4,8.96E2,4.28E2,5.2E1,8.6E1,4.4E1,1.1E1,2.9E1,4.4695E4,1.038E3,4.79E2,4.17E2,2.91E2,1.37E2,3E1,2.2E1,5.6E1,3E1,7E0,3.7E1,4.2936E4,1.759E3,8.52E2,1.86E2,4.04E2,7.5E1,2.19E2,1.98E2,2.78E2,1.3E1,1.29E2,8E0,2E0,2.8E1,2E1,3.6E1],"tree_param":{"num_deleted":"0","num_feature":"14","num_nodes":"49","size_leaf_vector":"0"}},{"base_weights":[4.0995914E1,2.3163862E1,1.6902166E4,1.2420041E1,2.98292E3,1.3629403E4,6.9014844E3,7.197376E0,5.7020087E2,2.2707756E3,5.185553E3,2.7488315E3,4.44694E3,3.2082777E0,1.6059117E2,4.582729E2,1.3725044E3,1.6500552E3,3.4203735E3,1.0397158E3,6.3808267E3,2.3657672E0,9.233083E1,1.0829121E2,2.3181635E2,3.3348337E2,6.6480615E2,1.02378467E3,1.6257971E3,1.2892542E3,2.2602358E3,4.8489944E2,1.0670865E3,1.0670587E3,2.0902976E3,2.2861709E-1,6.9726586E0,2.5449764E1,5.066145E1,1.947405E1,5.6327297E1,5.629527E1,8.6564964E1,8.934329E1,1.8195341E2,1.5897523E2,2.2895322E2,9.473314E1,3.2148633E2,4.0983475E2,6.410089E2,3.0133475E2,4.487164E2,3.0831766E2,7.066759E2],"categories":[],"categories_nodes":[],"categories_segments":[],"categories_sizes":[],"default_left":[0,0,0,0,0,0,0,0,0,0,0,0,0,0,0,0,0,0,0,0,0,0,0,0,0,0,0,0,0,0,0,0,0,0,0,0,0,0,0,0,0,0,0,0,0,0,0,0,0,0,0,0,0,0,0],"id":1,"left_children":[1,3,5,7,9,11,-1,13,15,17,19,-1,-1,21,23,25,27,29,31,-1,33,35,37,39,41,43,45,47,49,51,53,-1,-1,-1,-1,-1,-1,-1,-1,-1,-1,-1,-1,-1,-1,-1,-1,-1,-1,-1,-1,-1,-1,-1,-1],"loss_changes":[1.4229985E10,1.5034239E9,6.851031E8,1.3723216E8,2.5645414E8,5.0797056E7,0E0,2.8559446E7,3.861371E7,8.783501E7,6.216845E7,0E0,0E0,3.4156252E6,4.381658E6,9.700968E6,3.01692E6,1.623936E7,5.338688E6,0E0,1.3332352E7,1.5088139E6,2.3016625E5,2.3456085E6,1.198686E6,2.176348E6,1.506344E6,5.08322E5,9.28496E5,1.849392E6,1.22224E6,0E0,0E0,0E0,0E0,0E0,0E0,0E0,0E0,0E0,0E0,0E0,0E0,0E0,0E0,0E0,0E0,0E0,0E0,0E0,0E0,0E0,0E0,0E0,0E0],"parents":[2147483647,0,0,1,1,2,2,3,3,4,4,5,5,7,7,8,8,9,9,10,10,13,13,14,14,15,15,16,16,17,17,18,18,20,20,21,21,22,22,23,23,24,24,25,25,26,26,27,27,28,28,29,29,30,30],"right_children":[2,4,6,8,10,12,-1,14,16,18,20,-1,-1,22,24,26,28,30,32,-1,34,36,38,40,42,44,46,48,50,52,54,-1,-1,-1,-1,-1,-1,-1,-1,-1,-1,-1,-1,-1,-1,-1,-1,-1,-1,-1,-1,-1,-1,-1,-1],"split_conditions":[1.4456609E2,1.0249879E3,2.003E3,2.4589503E2,3.2851724E3,1.976E3,6.9014844E3,2.773311E0,8.709235E0,4.174089E0,6E-6,2.7488315E3,4.44694E3,6.2240368E1,4.8034996E1,8.736787E0,4.7582993E2,1.8945956E3,1.965E3,1.0397158E3,1.956E3,2.81815E-1,3.99376E-1,6.49462E0,2.396256E0,5.8208344E2,3.8374536E2,1.99E3,1.72E2,1.315721E3,1.907E3,4.8489944E2,1.0670865E3,1.0670587E3,2.0902976E3,2.2861709E-1,6.9726586E0,2.5449764E1,5.066145E1,1.947405E1,5.6327297E1,5.629527E1,8.6564964E1,8.934329E1,1.8195341E2,1.5897523E2,2.2895322E2,9.473314E1,3.2148633E2,4.0983475E2,6.410089E2,3.0133475E2,4.487164E2,3.0831766E2,7.066759E2],"split_indices":[4,2,1,2,2,1,0,3,4,4,4,0,0,2,2,3,2,2,1,0,1,3,4,3,4,2,2,1,0,2,1,0,0,0,0,0,0,0,0,0,0,0,0,0,0,0,0,0,0,0,0,0,0,0,0],"split_type":[0,0,0,0,0,0,0,0,0,0,0,0,0,0,0,0,0,0,0,0,0,0,0,0,0,0,0,0,0,0,0,0,0,0,0,0,0,0,0,0,0,0,0,0,0,0,0,0,0,0,0,0,0,0,0],"sum_hessian":[4.7328E4,4.7279E4,4.9E1,4.7109E4,1.7E2,3.4E1,1.5E1,4.6673E4,4.36E2,1.3E2,4E1,9E0,2.5E1,4.5491E4,1.182E3,3.84E2,5.2E1,8.6E1,4.4E1,1.8E1,2.2E1,4.5066E4,4.25E2,6.83E2,4.99E2,2.41E2,1.43E2,2.4E1,2.8E1,5.6E1,3E1,4E0,4E1,5E0,1.7E1,4.1852E4,3.214E3,3.89E2,3.6E1,4.43E2,2.4E2,2.83E2,2.16E2,2.15E2,2.6E1,6.3E1,8E1,2E0,2.2E1,2.1E1,7E0,2.6E1,3E1,3E0,2.7E1],"tree_param":{"num_deleted":"0","num_feature":"14","num_nodes":"55","size_leaf_vector":"0"}},{"base_weights":[2.9205067E1,1.642499E1,1.2113461E4,8.745573E0,2.1319858E3,9.891713E3,5.135993E3,5.415614E0,4.536126E2,1.6148636E3,3.7322546E3,2.2752222E3,3.3866304E3,3.0013692E0,1.6496622E2,3.572184E2,9.9915594E2,1.1753264E3,2.42875E3,2.4807253E3,4.603855E3,1.4035785E0,5.272912E1,1.4215932E2,3.3908737E2,2.7242825E2,5.1358044E2,8.744356E2,4.7274402E2,9.156367E2,1.6149067E3,5.4815076E2,8.5107837E2,4.1917175E2,8.3036456E2,8.9437384E2,1.581149E3,1.2517284E-1,7.283176E0,1.2702598E1,4.2809624E1,2.6847368E1,5.7958607E1,1.3908102E2,5.8889606E1,7.4687126E1,1.679313E2,1.362577E2,1.9756671E2,4.905029E1,2.660632E2,2.0542358E2,3.3448636E2,1.12869514E2,4.9309647E2],"categories":[],"categories_nodes":[],"categories_segments":[],"categories_sizes":[],"default_left":[0,0,0,0,0,0,0,0,0,0,0,0,0,0,0,0,0,0,0,0,0,0,0,0,0,0,0,0,0,0,0,0,0,0,0,0,0,0,0,0,0,0,0,0,0,0,0,0,0,0,0,0,0,0,0],"id":2,"left_children":[1,3,5,7,9,11,-1,13,15,17,19,-1,-1,21,23,25,27,29,31,33,35,37,39,41,43,45,47,49,-1,51,53,-1,-1,-1,-1,-1,-1,-1,-1,-1,-1,-1,-1,-1,-1,-1,-1,-1,-1,-1,-1,-1,-1,-1,-1],"loss_changes":[7.309184E9,7.681052E8,3.8681498E8,6.9785784E7,1.3548134E8,3.366912E7,0E0,1.801157E7,1.8048608E7,4.400848E7,3.3303296E7,0E0,0E0,3.6599995E6,2.719696E6,3.824216E6,2.361944E6,8.45276E6,5.866304E6,2.04408E6,9.166432E6,1.00693775E6,1.3340685E6,1.643877E6,1.331354E6,1.182519E6,5.96308E5,2.53028E5,0E0,1.859724E6,4.85504E5,0E0,0E0,0E0,0E0,0E0,0E0,0E0,0E0,0E0,0E0,0E0,0E0,0E0,0E0,0E0,0E0,0E0,0E0,0E0,0E0,0E0,0E0,0E0,0E0],"parents":[2147483647,0,0,1,1,2,2,3,3,4,4,5,5,7,7,8,8,9,9,10,10,13,13,14,14,15,15,16,16,17,17,18,18,19,19,20,20,21,21,22,22,23,23,24,24,25,25,26,26,27,27,29,29,30,30],"right_children":[2,4,6,8,10,12,-1,14,16,18,20,-1,-1,22,24,26,28,30,32,34,36,38,40,42,44,46,48,50,-1,52,54,-1,-1,-1,-1,-1,-1,-1,-1,-1,-1,-1,-1,-1,-1,-1,-1,-1,-1,-1,-1,-1,-1,-1,-1],"split_conditions":[1.4456609E2,1.0249879E3,2.005E3,3.1779944E2,3.2851724E3,1.984E3,5.135993E3,5.430054E0,7.892256E0,4.174089E0,6E-6,2.2752222E3,3.3866304E3,2.25336E1,2.287895E1,1.0752723E1,1.72E2,1.8945956E3,1.988E3,1.937E3,1.959E3,4.955E-3,8.7942E-1,1.88696E0,1.83E2,7.473934E2,2.667176E1,9.4E1,4.7274402E2,1.94E3,1.902E3,5.4815076E2,8.5107837E2,4.1917175E2,8.3036456E2,8.9437384E2,1.581149E3,1.2517284E-1,7.283176E0,1.2702598E1,4.2809624E1,2.6847368E1,5.7958607E1,1.3908102E2,5.8889606E1,7.4687126E1,1.679313E2,1.362577E2,1.9756671E2,4.905029E1,2.660632E2,2.0542358E2,3.3448636E2,1.12869514E2,4.9309647E2],"split_indices":[4,2,1,2,2,1,0,3,4,4,4,0,0,2,3,3,0,2,1,1,1,4,4,4,0,2,3,0,0,1,1,0,0,0,0,0,0,0,0,0,0,0,0,0,0,0,0,0,0,0,0,0,0,0,0],"split_type":[0,0,0,0,0,0,0,0,0,0,0,0,0,0,0,0,0,0,0,0,0,0,0,0,0,0,0,0,0,0,0,0,0,0,0,0,0,0,0,0,0,0,0,0,0,0,0,0,0,0,0,0,0,0,0],"sum_hessian":[4.7328E4,4.7279E4,4.9E1,4.7109E4,1.7E2,3.6E1,1.3E1,4.676E4,3.49E2,1.3E2,4E1,1.6E1,2E1,4.6064E4,6.96E2,2.98E2,5.1E1,8.6E1,4.4E1,1.8E1,2.2E1,4.4631E4,1.433E3,6.17E2,7.9E1,1.95E2,1.03E2,4.4E1,7E0,5.6E1,3E1,2E1,2.4E1,5E0,1.3E1,8E0,1.4E1,4.2787E4,1.844E3,1.286E3,1.47E2,3.05E2,3.12E2,4.1E1,3.8E1,1.82E2,1.3E1,7.6E1,2.7E1,1E0,4.3E1,2.8E1,2.8E1,1E0,2.9E1],"tree_param":{"num_deleted":"0","num_feature":"14","num_nodes":"55","size_leaf_vector":"0"}},{"base_weights":[2.08403E1,1.1666278E1,8.695379E3,5.486225E0,1.3644974E3,7.189278E3,3.859678E3,2.7834873E0,1.9728543E2,1.0430067E3,2.7034333E3,1.1762126E3,2.2994263E3,1.594775E0,8.699743E1,1.3677995E2,3.534492E2,8.700383E2,1.883812E3,1.8022727E3,3.3303298E3,6.4372236E-1,2.6754778E1,4.5457092E1,1.3475577E2,1.1103952E2,1.8597237E2,3.8770688E2,1.4242514E2,4.3968494E2,9.956342E2,2.1183562E2,6.29923E2,1.4095297E3,7.860142E2,6.7151794E2,1.1617212E3,1.1736407E-2,4.630225E0,7.101209E0,1.9189774E1,5.6578552E1,1.0837718E1,3.4410034E1,6.0070892E1,2.5840158E1,5.27332E1,4.878713E1,7.174352E1,7.7812706E1,1.4755492E2,6.647053E1,1.9301794E1,8.7609924E1,1.5120708E2,1.9823088E2,3.2216064E2,1.1677398E2,4.363811E2],"categories":[],"categories_nodes":[],"categories_segments":[],"categories_sizes":[],"default_left":[0,0,0,0,0,0,0,0,0,0,0,0,0,0,0,0,0,0,0,0,0,0,0,0,0,0,0,0,0,0,0,0,0,0,0,0,0,0,0,0,0,0,0,0,0,0,0,0,0,0,0,0,0,0,0,0,0,0,0],"id":3,"left_children":[1,3,5,7,9,11,-1,13,15,17,19,-1,-1,21,23,25,27,29,31,33,35,37,39,41,43,45,47,49,51,53,55,-1,-1,57,-1,-1,-1,-1,-1,-1,-1,-1,-1,-1,-1,-1,-1,-1,-1,-1,-1,-1,-1,-1,-1,-1,-1,-1,-1],"loss_changes":[3.7663598E9,3.9528016E8,2.2154394E8,2.4397662E7,8.972822E7,3.0559616E7,0E0,4.6460885E6,6.131144E6,2.3811744E7,1.716016E7,0E0,0E0,1.0951415E6,1.275472E6,5.78279E5,1.260496E6,7.50768E6,5.892056E6,2.409296E6,4.945968E6,3.9437125E5,1.8979438E5,4.5666575E5,3.710095E5,4.895215E5,1.60992E5,1.95733E6,1.5260356E5,1.85298E5,2.250792E6,0E0,0E0,1.23626E5,0E0,0E0,0E0,0E0,0E0,0E0,0E0,0E0,0E0,0E0,0E0,0E0,0E0,0E0,0E0,0E0,0E0,0E0,0E0,0E0,0E0,0E0,0E0,0E0,0E0],"parents":[2147483647,0,0,1,1,2,2,3,3,4,4,5,5,7,7,8,8,9,9,10,10,13,13,14,14,15,15,16,16,17,17,18,18,19,19,20,20,21,21,22,22,23,23,24,24,25,25,26,26,27,27,28,28,29,29,30,30,33,33],"right_children":[2,4,6,8,10,12,-1,14,16,18,20,-1,-1,22,24,26,28,30,32,34,36,38,40,42,44,46,48,50,52,54,56,-1,-1,58,-1,-1,-1,-1,-1,-1,-1,-1,-1,-1,-1,-1,-1,-1,-1,-1,-1,-1,-1,-1,-1,-1,-1,-1,-1],"split_conditions":[1.4456609E2,7.473934E2,2.007E3,1.4199844E2,3.2851724E3,1.972E3,3.859678E3,4.36209E0,1.1526808E1,3.4732235E1,6E-6,1.1762126E3,2.2994263E3,1.04304E0,2.058E0,3.52658E2,1.72E2,1.3573E-2,1.958E3,2.006E3,1.96E3,7.349984E0,2.15E2,8.6E-5,1.4762256E1,2.19E2,5.430054E0,9.5E1,2.1731917E2,1.895E3,7.8E1,2.1183562E2,6.29923E2,1.914E3,7.860142E2,6.7151794E2,1.1617212E3,1.1736407E-2,4.630225E0,7.101209E0,1.9189774E1,5.6578552E1,1.0837718E1,3.4410034E1,6.0070892E1,2.5840158E1,5.27332E1,4.878713E1,7.174352E1,7.7812706E1,1.4755492E2,6.647053E1,1.9301794E1,8.7609924E1,1.5120708E2,1.9823088E2,3.2216064E2,1.1677398E2,4.363811E2],"split_indices":[4,2,1,2,2,1,0,3,3,4,4,0,0,3,4,2,0,3,1,1,1,2,0,2,4,0,3,0,2,1,0,0,0,1,0,0,0,0,0,0,0,0,0,0,0,0,0,0,0,0,0,0,0,0,0,0,0,0,0],"split_type":[0,0,0,0,0,0,0,0,0,0,0,0,0,0,0,0,0,0,0,0,0,0,0,0,0,0,0,0,0,0,0,0,0,0,0,0,0,0,0,0,0,0,0,0,0,0,0,0,0,0,0,0,0,0,0,0,0,0,0],"sum_hessian":[4.7328E4,4.7279E4,4.9E1,4.7065E4,2.14E2,3.8E1,1.1E1,4.6412E4,6.53E2,1.74E2,4E1,6E0,3.2E1,4.5767E4,6.45E2,4.72E2,1.81E2,1.46E2,2.8E1,1.8E1,2.2E1,4.4101E4,1.666E3,3.46E2,2.99E2,3.12E2,1.6E2,1.55E2,2.6E1,3.4E1,1.12E2,5E0,2.3E1,1.4E1,4E0,9E0,1.3E1,4.237E4,1.731E3,1.54E3,1.26E2,2E1,3.26E2,2.31E2,6.8E1,2.27E2,8.5E1,1.14E2,4.6E1,7.1E1,8.4E1,1.2E1,1.4E1,1.2E1,2.2E1,2.3E1,8.9E1,1E0,1.3E1],"tree_param":{"num_deleted":"0","num_feature":"14","num_nodes":"59","size_leaf_vector":"0"}},{"base_weights":[1.4858906E1,8.282225E0,6.2334717E3,4.8050423E0,1.2891517E3,1.1572457E3,7.68888E3,2.7513735E0,2.8021234E2,8.9099384E2,1.8539403E3,1.898942E3,2.9322139E3,1.4713367E0,8.730322E1,1.9401906E2,6.2098254E2,8.034294E2,5.9737085E2,2.4109368E3,1.3651117E3,9.242903E-1,5.0090553E1,5.783277E1,1.4330168E2,1.3875906E2,2.594995E2,4.145608E2,9.5436694E2,5.408372E2,9.5480145E2,5.1314825E2,8.7314044E2,1.23243126E2,4.255813E2,1.3224155E-1,7.013994E0,1.1758623E1,2.4372292E1,9.329457E0,3.5746887E1,3.7284855E1,7.646343E1,2.8773201E1,6.424271E1,6.2925396E1,9.5074196E1,5.327541E1,1.3393958E2,1.600809E2,3.3351855E2,1.1192584E2,1.9614513E2,1.711132E2,3.1871948E2],"categories":[],"categories_nodes":[],"categories_segments":[],"categories_sizes":[],"default_left":[0,0,0,0,0,0,0,0,0,0,0,0,0,0,0,0,0,0,0,0,0,0,0,0,0,0,0,0,0,0,0,0,0,0,0,0,0,0,0,0,0,0,0,0,0,0,0,0,0,0,0,0,0,0,0],"id":4,"left_children":[1,3,5,7,9,-1,11,13,15,17,19,-1,-1,21,23,25,27,29,-1,31,33,35,37,39,41,43,45,47,49,51,53,-1,-1,-1,-1,-1,-1,-1,-1,-1,-1,-1,-1,-1,-1,-1,-1,-1,-1,-1,-1,-1,-1,-1,-1],"loss_changes":[1.9356022E9,2.1057026E8,1.432416E8,2.6668746E7,2.7132176E7,0E0,2.3149056E7,5.065552E6,1.0130386E7,5.81852E6,1.0867136E7,0E0,0E0,1.2262868E6,1.143622E6,9.77158E5,4.421602E6,2.385296E6,0E0,3.0692E6,9.48664E5,4.9502506E5,1.7092188E5,7.48806E5,4.776165E5,4.768895E5,2.96272E5,2.60941E5,1.128292E6,3.05692E5,1.255356E6,0E0,0E0,0E0,0E0,0E0,0E0,0E0,0E0,0E0,0E0,0E0,0E0,0E0,0E0,0E0,0E0,0E0,0E0,0E0,0E0,0E0,0E0,0E0,0E0],"parents":[2147483647,0,0,1,1,2,2,3,3,4,4,6,6,7,7,8,8,9,9,10,10,13,13,14,14,15,15,16,16,17,17,19,19,20,20,21,21,22,22,23,23,24,24,25,25,26,26,27,27,28,28,29,29,30,30],"right_children":[2,4,6,8,10,-1,12,14,16,18,20,-1,-1,22,24,26,28,30,-1,32,34,36,38,40,42,44,46,48,50,52,54,-1,-1,-1,-1,-1,-1,-1,-1,-1,-1,-1,-1,-1,-1,-1,-1,-1,-1,-1,-1,-1,-1,-1,-1],"split_conditions":[1.4456609E2,1.315721E3,1.988E3,3.52658E2,3.350856E0,1.1572457E3,2.009E3,5.69139E0,4.174089E0,1.110558E2,8E1,1.898942E3,2.9322139E3,7.6445694E1,9.241707E1,6.791115E0,1.72E2,1.8945956E3,5.9737085E2,1.962E3,9.4E1,7.42074E-1,6E-6,1.4337371E1,3.3185726E1,4.7582993E2,9.4E1,1.977E3,8.812165E0,1.943E3,1.92E3,5.1314825E2,8.7314044E2,1.23243126E2,4.255813E2,1.3224155E-1,7.013994E0,1.1758623E1,2.4372292E1,9.329457E0,3.5746887E1,3.7284855E1,7.646343E1,2.8773201E1,6.424271E1,6.2925396E1,9.5074196E1,5.327541E1,1.3393958E2,1.600809E2,3.3351855E2,1.1192584E2,1.9614513E2,1.711132E2,3.1871948E2],"split_indices":[4,2,1,2,4,0,1,3,4,5,0,0,0,2,2,3,0,2,0,1,0,4,4,3,3,2,0,1,5,1,1,0,0,0,0,0,0,0,0,0,0,0,0,0,0,0,0,0,0,0,0,0,0,0,0],"split_type":[0,0,0,0,0,0,0,0,0,0,0,0,0,0,0,0,0,0,0,0,0,0,0,0,0,0,0,0,0,0,0,0,0,0,0,0,0,0,0,0,0,0,0,0,0,0,0,0,0,0,0,0,0,0,0],"sum_hessian":[4.7328E4,4.7279E4,4.9E1,4.7152E4,1.27E2,2E1,2.9E1,4.6804E4,3.48E2,7.6E1,5.1E1,2E1,9E0,4.6107E4,6.97E2,2.79E2,6.9E1,7.2E1,4E0,2.2E1,2.9E1,4.5595E4,5.12E2,4.58E2,2.39E2,1.53E2,1.26E2,4.4E1,2.5E1,2.8E1,4.4E1,1.1E1,1.1E1,2E0,2.7E1,4.4635E4,9.6E2,3.81E2,1.31E2,3.2E2,1.38E2,2.06E2,3.3E1,9.9E1,5.4E1,7E1,5.6E1,6E0,3.8E1,8E0,1.7E1,1.3E1,1.5E1,1.1E1,3.3E1],"tree_param":{"num_deleted":"0","num_feature":"14","num_nodes":"55","size_leaf_vector":"0"}},{"base_weights":[1.0622087E1,5.89198E0,4.4831987E3,3.3875773E0,9.284248E2,2.6792617E3,5.5024097E3,2.0116389E0,2.1402997E2,6.821655E2,1.4343369E3,3.3004688E2,8.3807947E2,1.3689792E3,2.1873206E3,5.6724924E-1,4.552818E1,1.4665878E2,4.5216516E2,5.331539E2,1.0573152E3,8.880207E2,1.7153646E3,-7.875718E-2,1.3870096E1,3.1611004E1,9.5960976E1,1.19034004E2,2.2577026E2,2.9212378E2,7.0934973E2,3.0596063E2,5.840683E2,2.2667108E2,3.5639728E2,1.1216142E2,2.9337338E2,1.0234638E3,5.749227E2,-3.3426008E-1,1.2755247E0,3.0870311E0,1.0237219E1,7.1269126E0,2.7536976E1,3.684178E1,1.9717747E1,2.8539576E1,6.265237E1,8.450086E1,1.067037E1,7.6481346E1,1.5712488E2,1.5471706E2,2.8446503E2,2.3730238E1,1.0115366E2,2.0606317E2,1.390305E2,8.275723E1,5.1063177E2],"categories":[],"categories_nodes":[],"categories_segments":[],"categories_sizes":[],"default_left":[0,0,0,0,0,0,0,0,0,0,0,0,0,0,0,0,0,0,0,0,0,0,0,0,0,0,0,0,0,0,0,0,0,0,0,0,0,0,0,0,0,0,0,0,0,0,0,0,0,0,0,0,0,0,0,0,0,0,0,0,0],"id":5,"left_children":[1,3,5,7,9,11,13,15,17,19,21,-1,-1,-1,-1,23,25,27,29,31,33,35,37,39,41,43,45,47,49,51,53,55,57,-1,-1,-1,-1,59,-1,-1,-1,-1,-1,-1,-1,-1,-1,-1,-1,-1,-1,-1,-1,-1,-1,-1,-1,-1,-1,-1,-1],"loss_changes":[1.0012548E9,1.0923227E8,7.718714E7,1.3665968E7,1.4968496E7,5.37584E5,1.8803072E7,2.944598E6,4.842982E6,4.355632E6,4.771448E6,0E0,0E0,0E0,0E0,3.8967497E5,1.053299E6,4.976305E5,2.550513E6,5.73178E5,4.8728E4,3.7386E5,1.655296E6,1.9391498E5,1.5191788E5,5.5605825E5,2.557185E5,3.6651675E5,6.38544E5,2.368455E5,6.67255E5,7.2479125E4,3.26592E5,0E0,0E0,0E0,0E0,3.5893185E6,0E0,0E0,0E0,0E0,0E0,0E0,0E0,0E0,0E0,0E0,0E0,0E0,0E0,0E0,0E0,0E0,0E0,0E0,0E0,0E0,0E0,0E0,0E0],"parents":[2147483647,0,0,1,1,2,2,3,3,4,4,5,5,6,6,7,7,8,8,9,9,10,10,15,15,16,16,17,17,18,18,19,19,20,20,21,21,22,22,23,23,24,24,25,25,26,26,27,27,28,28,29,29,30,30,31,31,32,32,37,37],"right_children":[2,4,6,8,10,12,14,16,18,20,22,-1,-1,-1,-1,24,26,28,30,32,34,36,38,40,42,44,46,48,50,52,54,56,58,-1,-1,-1,-1,60,-1,-1,-1,-1,-1,-1,-1,-1,-1,-1,-1,-1,-1,-1,-1,-1,-1,-1,-1,-1,-1,-1,-1],"split_conditions":[1.4456609E2,1.315721E3,1.987E3,3.8374536E2,3.2851724E3,1.968E3,2.011E3,2.32603E0,4.174089E0,5.312335E0,1.955E3,3.3004688E2,8.3807947E2,1.3689792E3,2.1873206E3,8.94016E0,2.049271E0,1.7571653E1,1.72E2,1.16297E-1,1.996E3,1.929E3,6E-6,1.96E3,2.7711E-2,1.810105E2,1.03E2,7.473934E2,2.442012E0,2.3493975E1,1.327635E1,1.895E3,1.75E-4,2.2667108E2,3.5639728E2,1.1216142E2,2.9337338E2,2.007E3,5.749227E2,-3.3426008E-1,1.2755247E0,3.0870311E0,1.0237219E1,7.1269126E0,2.7536976E1,3.684178E1,1.9717747E1,2.8539576E1,6.265237E1,8.450086E1,1.067037E1,7.6481346E1,1.5712488E2,1.5471706E2,2.8446503E2,2.3730238E1,1.0115366E2,2.0606317E2,1.390305E2,8.275723E1,5.1063177E2],"split_indices":[4,2,1,2,2,1,1,3,4,4,1,0,0,0,0,2,5,3,0,3,1,1,4,1,4,2,0,2,4,5,5,1,5,0,0,0,0,1,0,0,0,0,0,0,0,0,0,0,0,0,0,0,0,0,0,0,0,0,0,0,0],"split_type":[0,0,0,0,0,0,0,0,0,0,0,0,0,0,0,0,0,0,0,0,0,0,0,0,0,0,0,0,0,0,0,0,0,0,0,0,0,0,0,0,0,0,0,0,0,0,0,0,0,0,0,0,0,0,0,0,0,0,0,0,0],"sum_hessian":[4.7328E4,4.7279E4,4.9E1,4.7152E4,1.27E2,1.9E1,3E1,4.6847E4,3.05E2,8.7E1,4E1,2E0,1.7E1,2.2E1,8E0,4.5343E4,1.504E3,2.39E2,6.6E1,6.4E1,2.3E1,1.5E1,2.5E1,4.3244E4,2.099E3,1.18E3,3.24E2,1.79E2,6E1,4.2E1,2.4E1,1.3E1,5.1E1,9E0,1.4E1,3E0,1.2E1,7E0,1.8E1,3.49E4,8.344E3,1.785E3,3.14E2,1.045E3,1.35E2,1.7E2,1.54E2,1.43E2,3.6E1,4.6E1,1.4E1,3.8E1,4E0,1.5E1,9E0,2E0,1.1E1,2.5E1,2.6E1,4E0,3E0],"tree_param":{"num_deleted":"0","num_feature":"14","num_nodes":"61","size_leaf_vector":"0"}},{"base_weights":[7.611166E0,4.200349E0,3.2327278E3,2.7352936E0,8.273196E2,2.5609158E3,1.4843445E3,1.880896E0,3.073591E2,7.148507E2,4.764313E2,4.5769543E2,8.628497E2,7.052401E-1,6.1112133E1,1.9686284E2,4.6331918E2,5.192884E2,1.0071465E3,5.0918406E-1,7.40675E1,3.5697495E1,1.0856305E2,1.6476962E2,3.340978E2,2.6271896E2,1.7790656E2,8.495501E1,6.012349E2,1.0124473E2,1.0442518E3,9.23745E-2,1.244425E1,6.6999435E1,1.7224085E1,9.60244E0,5.3087055E1,2.6426632E1,5.327333E1,1.17181015E1,5.7594505E1,1.15623436E2,4.9395294E1,6.2580975E1,1.1438389E2,1.1512591E2,2.2028539E2,2.0852121E2,3.3951355E2],"categories":[],"categories_nodes":[],"categories_segments":[],"categories_sizes":[],"default_left":[0,0,0,0,0,0,0,0,0,0,0,0,0,0,0,0,0,0,0,0,0,0,0,0,0,0,0,0,0,0,0,0,0,0,0,0,0,0,0,0,0,0,0,0,0,0,0,0,0],"id":6,"left_children":[1,3,5,7,9,11,-1,13,15,17,-1,-1,-1,19,21,23,25,27,29,31,33,35,37,39,41,43,-1,-1,45,-1,47,-1,-1,-1,-1,-1,-1,-1,-1,-1,-1,-1,-1,-1,-1,-1,-1,-1,-1],"loss_changes":[5.2061885E8,5.701341E7,4.4939904E7,1.2283377E7,6.052172E6,8.013904E6,0E0,3.2774238E6,2.183546E6,3.764152E6,0E0,0E0,0E0,6.637573E5,1.1007728E6,2.9289125E5,1.249196E6,7.39095E5,3.6818E5,3.795573E5,2.9293412E5,3.0598788E5,4.351125E5,2.182745E5,5.8270625E4,6.803175E4,0E0,0E0,7.02036E5,0E0,3.7942E4,0E0,0E0,0E0,0E0,0E0,0E0,0E0,0E0,0E0,0E0,0E0,0E0,0E0,0E0,0E0,0E0,0E0,0E0],"parents":[2147483647,0,0,1,1,2,2,3,3,4,4,5,5,7,7,8,8,9,9,13,13,14,14,15,15,16,16,17,17,18,18,19,19,20,20,21,21,22,22,23,23,24,24,25,25,28,28,30,30],"right_children":[2,4,6,8,10,12,-1,14,16,18,-1,-1,-1,20,22,24,26,28,30,32,34,36,38,40,42,44,-1,-1,46,-1,48,-1,-1,-1,-1,-1,-1,-1,-1,-1,-1,-1,-1,-1,-1,-1,-1,-1,-1],"split_conditions":[1.4456609E2,1.8945956E3,2.006E3,7.473934E2,5.5151196E2,1.977E3,1.4843445E3,9.241707E1,4.174089E0,6E-6,4.764313E2,4.5769543E2,8.628497E2,1.5310154E1,6.791115E0,7.324473E1,9.200753E0,1.923E3,1.953E3,1.090495E0,8.6E-5,1.69439E2,8.812165E0,7.8E1,2.86168E0,1.985E3,1.7790656E2,8.495501E1,4.2E1,1.0124473E2,4.0261246E1,9.23745E-2,1.244425E1,6.6999435E1,1.7224085E1,9.60244E0,5.3087055E1,2.6426632E1,5.327333E1,1.17181015E1,5.7594505E1,1.15623436E2,4.9395294E1,6.2580975E1,1.1438389E2,1.1512591E2,2.2028539E2,2.0852121E2,3.3951355E2],"split_indices":[4,2,1,2,3,1,0,2,4,4,0,0,0,3,3,3,5,1,1,5,2,6,5,0,4,1,0,0,0,0,3,0,0,0,0,0,0,0,0,0,0,0,0,0,0,0,0,0,0],"split_type":[0,0,0,0,0,0,0,0,0,0,0,0,0,0,0,0,0,0,0,0,0,0,0,0,0,0,0,0,0,0,0,0,0,0,0,0,0,0,0,0,0,0,0,0,0,0,0,0,0],"sum_hessian":[4.7328E4,4.7279E4,4.9E1,4.7196E4,8.3E1,3.7E1,1.2E1,4.7065E4,1.31E2,7.4E1,9E0,1E1,2.7E1,4.615E4,9.15E2,7.8E1,5.3E1,4.6E1,2.8E1,4.6028E4,1.22E2,5.97E2,3.18E2,6.5E1,1.3E1,2.2E1,3.1E1,1.3E1,3.3E1,2E0,2.6E1,4.5804E4,2.24E2,1.1E1,1.11E2,5.83E2,1.4E1,2.47E2,7.1E1,1.2E1,5.3E1,9E0,4E0,1.7E1,5E0,1.4E1,1.9E1,7E0,1.9E1],"tree_param":{"num_deleted":"0","num_feature":"14","num_nodes":"49","size_leaf_vector":"0"}},{"base_weights":[5.4372487E0,2.9904647E0,2.3190076E3,1.6835871E0,4.8439835E2,1.897716E3,1.2082102E3,1.0492858E0,1.3577074E2,4.1631537E2,1.107841E3,1.2845063E3,6.9123065E2,3.6012024E-1,3.296451E1,8.567318E1,2.5545753E2,2.9664328E2,6.480533E2,8.405838E1,3.4728278E2,1.0109165E2,3.9552792E2,2.1589088E-1,5.9375042E1,2.6240973E1,7.4733734E1,1.2730929E2,9.663426E0,2.2524226E2,6.5992993E2,1.9212622E2,3.5671237E2,5.2877686E2,8.723604E2,2.2560738E-2,9.277597E0,1.258062E1,5.353715E1,4.736445E0,1.8765495E1,1.775245E1,3.659241E1,2.7942033E0,5.3609154E1,2.609899E1,-4.5486646E0,5.194457E1,9.362631E1,2.6316467E2,8.852886E1,6.508872E1,-8.927536E0,1.529068E2,6.713295E1,1.7931186E2,1.1037385E2,1.7809644E2,3.8440738E2],"categories":[],"categories_nodes":[],"categories_segments":[],"categories_sizes":[],"default_left":[0,0,0,0,0,0,0,0,0,0,0,0,0,0,0,0,0,0,0,0,0,0,0,0,0,0,0,0,0,0,0,0,0,0,0,0,0,0,0,0,0,0,0,0,0,0,0,0,0,0,0,0,0,0,0,0,0,0,0],"id":7,"left_children":[1,3,5,7,9,11,-1,13,15,17,19,21,-1,23,25,27,29,31,33,-1,-1,-1,-1,35,37,39,41,43,45,47,49,51,53,55,57,-1,-1,-1,-1,-1,-1,-1,-1,-1,-1,-1,-1,-1,-1,-1,-1,-1,-1,-1,-1,-1,-1,-1,-1],"loss_changes":[2.6791339E8,2.9744978E7,2.834304E7,4.0102985E6,4.971856E6,7.506768E6,0E0,1.0322513E6,1.3092292E6,3.052466E6,1.69931E5,1.66396E5,0E0,3.9102244E5,2.7662938E5,4.9880038E5,6.45737E5,4.27447E5,5.82145E5,0E0,0E0,0E0,0E0,1.9800444E5,2.2511234E5,3.239065E5,9.347956E4,6.168154E5,1.10750305E5,2.2645675E5,5.8229625E4,1.7729012E5,8.824135E5,9.05675E4,6.07194E5,0E0,0E0,0E0,0E0,0E0,0E0,0E0,0E0,0E0,0E0,0E0,0E0,0E0,0E0,0E0,0E0,0E0,0E0,0E0,0E0,0E0,0E0,0E0,0E0],"parents":[2147483647,0,0,1,1,2,2,3,3,4,4,5,5,7,7,8,8,9,9,10,10,11,11,13,13,14,14,15,15,16,16,17,17,18,18,23,23,24,24,25,25,26,26,27,27,28,28,29,29,30,30,31,31,32,32,33,33,34,34],"right_children":[2,4,6,8,10,12,-1,14,16,18,20,22,-1,24,26,28,30,32,34,-1,-1,-1,-1,36,38,40,42,44,46,48,50,52,54,56,58,-1,-1,-1,-1,-1,-1,-1,-1,-1,-1,-1,-1,-1,-1,-1,-1,-1,-1,-1,-1,-1,-1,-1,-1],"split_conditions":[1.4456609E2,1.315721E3,2.011E3,2.099113E1,1.110558E2,1.986E3,1.2082102E3,7.2659256E1,5.8208344E2,5.312335E0,2.007E3,1.967E3,6.9123065E2,2.0758282E1,4.4401776E2,1.83E2,2.018E3,1.93E3,8.593079E1,8.405838E1,3.4728278E2,1.0109165E2,3.9552792E2,1.090495E0,7.924656E0,2.707425E0,1.75E-4,9.5E1,2.007E3,1.72E2,1.0249879E3,2.734706E0,1.982E3,4.502361E1,1.963E3,2.2560738E-2,9.277597E0,1.258062E1,5.353715E1,4.736445E0,1.8765495E1,1.775245E1,3.659241E1,2.7942033E0,5.3609154E1,2.609899E1,-4.5486646E0,5.194457E1,9.362631E1,2.6316467E2,8.852886E1,6.508872E1,-8.927536E0,1.529068E2,6.713295E1,1.7931186E2,1.1037385E2,1.7809644E2,3.8440738E2],"split_indices":[4,2,1,3,5,1,0,2,2,4,1,1,0,4,2,0,1,1,4,0,0,0,0,5,3,4,5,0,1,0,2,5,1,4,1,0,0,0,0,0,0,0,0,0,0,0,0,0,0,0,0,0,0,0,0,0,0,0,0],"split_type":[0,0,0,0,0,0,0,0,0,0,0,0,0,0,0,0,0,0,0,0,0,0,0,0,0,0,0,0,0,0,0,0,0,0,0,0,0,0,0,0,0,0,0,0,0,0,0,0,0,0,0,0,0,0,0,0,0,0,0],"sum_hessian":[4.7328E4,4.7279E4,4.9E1,4.7152E4,1.27E2,4.1E1,8E0,4.6931E4,2.21E2,1.16E2,1.1E1,1.8E1,2.3E1,4.594E4,9.91E2,1.57E2,6.4E1,7.8E1,3.8E1,1E0,1E1,1E0,1.7E1,4.5829E4,1.11E2,8.55E2,1.36E2,1.01E2,5.6E1,6.1E1,3E0,3E1,4.8E1,2.7E1,1.1E1,4.5621E4,2.08E2,9.8E1,1.3E1,6.65E2,1.9E2,1.04E2,3.2E1,3.1E1,7E1,1.3E1,4.3E1,4E1,2.1E1,1E0,2E0,2.7E1,3E0,2.1E1,2.7E1,1.7E1,1E1,8E0,3E0],"tree_param":{"num_deleted":"0","num_feature":"14","num_nodes":"59","size_leaf_vector":"0"}},{"base_weights":[3.9050465E0,2.1417222E0,1.6712264E3,1.3550777E0,4.441074E2,1.371033E3,9.2275903E2,7.8672755E-1,1.2326909E2,1.833324E2,5.514979E2,2.822834E2,5.0169406E2,4.6512344E-1,3.9809326E1,7.976557E1,2.37224E2,6.562801E1,2.153623E2,5.0205063E2,3.3176575E2,3.4634054E-1,4.497909E1,3.4524033E1,1.1765026E2,6.905087E1,1.8657234E2,9.331035E1,3.0684805E2,2.747504E1,2.3265564E1,7.010639E1,8.3637634E1,3.3103152E2,1.7635977E2,-1.01423904E-1,2.138008E0,8.602129E0,4.1821915E1,8.785943E0,3.6708015E1,4.9562138E1,1.3928362E1,2.2964703E1,-4.2377763E0,7.00285E1,2.5557888E1,5.149339E0,6.447056E1,8.279446E1,1.7866255E2,-1.4608521E0,1.0280128E1,3.0250025E1,4.807544E0,-9.769732E1,1.3757156E2],"categories":[],"categories_nodes":[],"categories_segments":[],"categories_sizes":[],"default_left":[0,0,0,0,0,0,0,0,0,0,0,0,0,0,0,0,0,0,0,0,0,0,0,0,0,0,0,0,0,0,0,0,0,0,0,0,0,0,0,0,0,0,0,0,0,0,0,0,0,0,0,0,0,0,0,0,0],"id":8,"left_children":[1,3,5,7,9,11,-1,13,15,17,19,-1,-1,21,23,25,27,29,31,33,-1,35,37,39,41,43,45,47,49,-1,51,-1,53,55,-1,-1,-1,-1,-1,-1,-1,-1,-1,-1,-1,-1,-1,-1,-1,-1,-1,-1,-1,-1,-1,-1,-1],"loss_changes":[1.3914502E8,1.6437228E7,1.6866048E7,3.2701762E6,2.251293E6,3.998264E6,0E0,5.895599E5,1.0667568E6,8.388769E4,1.062156E6,0E0,0E0,2.4636066E5,1.5392056E5,1.7022138E5,5.7255925E5,5.5660137E3,2.8733812E4,6.27258E5,0E0,2.1566552E5,1.8692153E5,1.6249319E5,7.362053E4,9.2760875E4,4.6616844E4,1.9074388E5,1.9208075E5,0E0,1.4049788E3,0E0,3.0347285E3,1.9081785E6,0E0,0E0,0E0,0E0,0E0,0E0,0E0,0E0,0E0,0E0,0E0,0E0,0E0,0E0,0E0,0E0,0E0,0E0,0E0,0E0,0E0,0E0,0E0],"parents":[2147483647,0,0,1,1,2,2,3,3,4,4,5,5,7,7,8,8,9,9,10,10,13,13,14,14,15,15,16,16,17,17,18,18,19,19,21,21,22,22,23,23,24,24,25,25,26,26,27,27,28,28,30,30,32,32,33,33],"right_children":[2,4,6,8,10,12,-1,14,16,18,20,-1,-1,22,24,26,28,30,32,34,-1,36,38,40,42,44,46,48,50,-1,52,-1,54,56,-1,-1,-1,-1,-1,-1,-1,-1,-1,-1,-1,-1,-1,-1,-1,-1,-1,-1,-1,-1,-1,-1,-1],"split_conditions":[1.4456609E2,1.8945956E3,2.012E3,4.7582993E2,1.941E3,1.987E3,9.2275903E2,2.049271E0,4.174089E0,1.912E3,2.019E3,2.822834E2,5.0169406E2,1.9041807E1,2.9977053E1,7.324473E1,6.29667E0,1.907E3,3.5613052E1,4.2E1,3.3176575E2,3.693152E0,7.924656E0,2.21E2,1.03E2,1.1879941E1,2.810288E0,1.983E3,2.019E3,2.747504E1,1.91E3,7.010639E1,1.93E3,1.993E3,1.7635977E2,-1.01423904E-1,2.138008E0,8.602129E0,4.1821915E1,8.785943E0,3.6708015E1,4.9562138E1,1.3928362E1,2.2964703E1,-4.2377763E0,7.00285E1,2.5557888E1,5.149339E0,6.447056E1,8.279446E1,1.7866255E2,-1.4608521E0,1.0280128E1,3.0250025E1,4.807544E0,-9.769732E1,1.3757156E2],"split_indices":[4,2,1,2,1,1,0,5,4,1,1,0,0,4,3,3,5,1,3,0,0,2,3,0,0,5,4,1,1,0,1,0,1,1,0,0,0,0,0,0,0,0,0,0,0,0,0,0,0,0,0,0,0,0,0,0,0],"split_type":[0,0,0,0,0,0,0,0,0,0,0,0,0,0,0,0,0,0,0,0,0,0,0,0,0,0,0,0,0,0,0,0,0,0,0,0,0,0,0,0,0,0,0,0,0,0,0,0,0,0,0,0,0,0,0,0,0],"sum_hessian":[4.7328E4,4.7279E4,4.9E1,4.7196E4,8.3E1,4.2E1,7E0,4.6978E4,2.18E2,2.5E1,5.8E1,1.9E1,2.3E1,4.6595E4,3.83E2,1.59E2,5.9E1,6E0,1.9E1,5.5E1,3E0,4.6472E4,1.23E2,3.6E2,2.3E1,1.46E2,1.3E1,2E1,3.9E1,3E0,3E0,1.6E1,3E0,2E1,3.5E1,4.2212E4,4.26E3,1.06E2,1.7E1,3.41E2,1.9E1,1.3E1,1E1,1.34E2,1.2E1,8E0,5E0,1.3E1,7E0,3.7E1,2E0,1E0,2E0,2E0,1E0,3E0,1.7E1],"tree_param":{"num_deleted":"0","num_feature":"14","num_nodes":"57","size_leaf_vector":"0"}},{"base_weights":[2.7969832E0,1.568494E0,1.2655164E3,9.61412E-1,3.2714667E2,8.296995E2,1.7905933E3,4.3540463E-1,7.197873E1,2.4703026E2,5.4282214E2,1.0634628E3,5.36672E2,4.2235242E2,7.3471234E2,7.695345E-2,1.7318966E1,3.9406143E1,1.2879727E2,1.9422289E2,5.233292E2,8.357482E1,1.995533E2,2.0421388E2,4.3810315E2,-2.675293E1,6.9276544E2,-7.566152E-1,3.4570494E0,1.0920244E1,3.621063E1,-3.313361E1,5.803565E1,1.16169075E2,4.1116583E2,2.1871225E2,-9.5846924E1,1.7048105E2,6.871309E1,-1.4884961E1,6.275684E0,1.21514404E2,8.917953E2,-3.042854E-1,5.053921E-1,2.391777E0,8.57826E-3,8.968444E0,-3.633697E0,2.7949166E0,2.6674435E1,-1.8513336E1,9.012194E0,3.0589775E1,-9.207172E-1,2.6867922E1,5.115084E1,1.9689061E2,5.5741886E1,5.4729214E1,1.3243153E2,8.954737E0,4.263594E1,2.8554514E2,7.074639E1],"categories":[],"categories_nodes":[],"categories_segments":[],"categories_sizes":[],"default_left":[0,0,0,0,0,0,0,0,0,0,0,0,0,0,0,0,0,0,0,0,0,0,0,0,0,0,0,0,0,0,0,0,0,0,0,0,0,0,0,0,0,0,0,0,0,0,0,0,0,0,0,0,0,0,0,0,0,0,0,0,0,0,0,0,0],"id":9,"left_children":[1,3,5,7,9,11,13,15,17,19,21,23,25,-1,-1,27,29,31,33,35,37,-1,-1,-1,-1,39,41,43,45,47,49,51,53,55,57,59,-1,-1,-1,-1,-1,61,63,-1,-1,-1,-1,-1,-1,-1,-1,-1,-1,-1,-1,-1,-1,-1,-1,-1,-1,-1,-1,-1,-1],"loss_changes":[7.341652E7,9.345492E6,9.040864E6,1.7630426E6,1.386471E6,1.278746E6,1.592576E6,2.8353775E5,6.3712675E5,8.6133875E5,5.583095E5,1.132611E6,1.2497905E6,0E0,0E0,1.29265805E5,1.17344125E5,3.0192928E5,4.0152688E5,7.869645E5,2.09625E3,0E0,0E0,0E0,0E0,5.3977295E3,1.14229E6,2.3152154E4,1.405083E5,3.1895912E5,3.4786138E5,8.490053E4,4.7544212E5,1.6111538E5,1.5427381E5,3.6391475E5,0E0,0E0,0E0,0E0,0E0,3.3130469E3,9.0524E4,0E0,0E0,0E0,0E0,0E0,0E0,0E0,0E0,0E0,0E0,0E0,0E0,0E0,0E0,0E0,0E0,0E0,0E0,0E0,0E0,0E0,0E0],"parents":[2147483647,0,0,1,1,2,2,3,3,4,4,5,5,6,6,7,7,8,8,9,9,10,10,11,11,12,12,15,15,16,16,17,17,18,18,19,19,20,20,25,25,26,26,27,27,28,28,29,29,30,30,31,31,32,32,33,33,34,34,35,35,41,41,42,42],"right_children":[2,4,6,8,10,12,14,16,18,20,22,24,26,-1,-1,28,30,32,34,36,38,-1,-1,-1,-1,40,42,44,46,48,50,52,54,56,58,60,-1,-1,-1,-1,-1,62,64,-1,-1,-1,-1,-1,-1,-1,-1,-1,-1,-1,-1,-1,-1,-1,-1,-1,-1,-1,-1,-1,-1],"split_conditions":[6.840287E3,1.8945956E3,2.8296484E2,1.6077715E1,8.593079E1,1.996E3,2.014E3,7.2659256E1,4.4401776E2,2.005E3,1.963E3,1.989E3,1.999E3,4.2235242E2,7.3471234E2,1.965E3,2.15E2,9.5E1,6.2621426E1,2.003E3,4.2894447E1,8.357482E1,1.995533E2,2.0421388E2,4.3810315E2,2.236785E2,1.7153888E2,3.95712E-1,1.01E2,8E1,4.930259E0,1.0189584E1,1.83E2,1.72E2,1.0249879E3,1.999E3,-9.5846924E1,1.7048105E2,6.871309E1,-1.4884961E1,6.275684E0,2.013E3,2.1655153E2,-3.042854E-1,5.053921E-1,2.391777E0,8.57826E-3,8.968444E0,-3.633697E0,2.7949166E0,2.6674435E1,-1.8513336E1,9.012194E0,3.0589775E1,-9.207172E-1,2.6867922E1,5.115084E1,1.9689061E2,5.5741886E1,5.4729214E1,1.3243153E2,8.954737E0,4.263594E1,2.8554514E2,7.074639E1],"split_indices":[2,2,4,3,4,1,1,2,2,1,1,1,1,0,0,1,0,0,4,1,4,0,0,0,0,5,5,2,0,0,3,4,0,0,2,1,0,0,0,0,0,1,5,0,0,0,0,0,0,0,0,0,0,0,0,0,0,0,0,0,0,0,0,0,0],"split_type":[0,0,0,0,0,0,0,0,0,0,0,0,0,0,0,0,0,0,0,0,0,0,0,0,0,0,0,0,0,0,0,0,0,0,0,0,0,0,0,0,0,0,0,0,0,0,0,0,0,0,0,0,0,0,0,0,0,0,0,0,0,0,0,0,0],"sum_hessian":[4.7328E4,4.7283E4,4.5E1,4.7196E4,8.7E1,2.6E1,1.9E1,4.685E4,3.46E2,6.5E1,2.2E1,1.3E1,1.3E1,1.4E1,5E0,4.5877E4,9.73E2,2.21E2,1.25E2,5.6E1,9E0,8E0,1.4E1,8E0,5E0,3E0,1E1,3.6802E4,9.075E3,7.28E2,2.45E2,4.5E1,1.76E2,1.21E2,4E0,5.4E1,2E0,7E0,2E0,2E0,1E0,3E0,7E0,3.3289E4,3.513E3,3.916E3,5.159E3,3.99E2,3.29E2,1.63E2,8.2E1,3.1E1,1.4E1,1.02E2,7.4E1,8.3E1,3.8E1,1E0,3E0,4.8E1,6E0,1E0,2E0,6E0,1E0],"tree_param":{"num_deleted":"0","num_feature":"14","num_nodes":"65","size_leaf_vector":"0"}},{"base_weights":[2.025511E0,1.1191338E0,9.336585E2,6.81214E-1,2.3597575E2,7.6167017E2,5.349208E2,4.247056E-1,7.95489E1,8.114909E1,2.9612683E2,2.1370898E2,8.3384436E2,2.7023453E-1,3.4227345E1,7.033066E1,3.3834268E2,4.213745E0,1.04019005E2,3.9091946E2,1.9208023E2,7.611475E0,7.389065E1,5.7696094E2,2.782628E2,-4.7340926E-2,1.3672899E1,2.6459743E1,6.450177E1,7.9050095E1,-2.2226519E1,1.6735701E2,1.44E2,2.9930206E1,-2.2556152E1,1.2939175E2,3.8413643E1,2.9361237E2,5.1055197E2,-7.866083E1,2.7103418E2,3.2136954E2,1.9937564E2,-2.1335852E-1,4.7905067E-1,3.07502E0,1.5010828E1,1.0499002E1,-1.6903105E0,5.049816E1,1.6599474E1,7.012512E0,2.9163857E1,5.1504543E1,9.143188E0,-1.9141847E-1,1.8245253E1,-9.931348E0,1.3633301E0,4.759403E1,1.3501026E1,-4.9485977E1,2.99401E1,1.3739502E2,5.0962616E1,2.1333531E2,1.1378116E2,-7.560009E1,4.7303616E1,6.5459076E1,1.7573257E2,1.1414341E2,1.2740333E1],"categories":[],"categories_nodes":[],"categories_segments":[],"categories_sizes":[],"default_left":[0,0,0,0,0,0,0,0,0,0,0,0,0,0,0,0,0,0,0,0,0,0,0,0,0,0,0,0,0,0,0,0,0,0,0,0,0,0,0,0,0,0,0,0,0,0,0,0,0,0,0,0,0,0,0,0,0,0,0,0,0,0,0,0,0,0,0,0,0,0,0,0,0],"id":10,"left_children":[1,3,5,7,9,11,-1,13,15,17,19,21,23,25,27,29,31,33,35,37,39,-1,-1,41,-1,43,45,47,49,51,-1,-1,53,55,57,59,61,63,65,67,69,71,-1,-1,-1,-1,-1,-1,-1,-1,-1,-1,-1,-1,-1,-1,-1,-1,-1,-1,-1,-1,-1,-1,-1,-1,-1,-1,-1,-1,-1,-1,-1],"loss_changes":[3.996408E7,4.8629215E6,5.361972E6,9.54772E5,7.95513E5,1.403746E6,0E0,2.4563766E5,3.4120462E5,4.5308844E4,5.462715E5,3.0582E4,3.07278E5,1.9933439E5,4.861747E4,1.9348538E5,1.3297331E5,5.4940996E3,2.8321344E4,2.22611E5,7.053541E5,0E0,0E0,5.51755E4,0E0,4.9935863E4,1.3440728E5,4.7322633E4,3.1626469E4,1.4030856E5,0E0,0E0,7.337664E3,3.8154897E3,1.2939061E3,2.7423281E4,1.0385053E5,3.289755E5,7.2591E4,3.6747084E5,2.87937E5,6.626922E4,0E0,0E0,0E0,0E0,0E0,0E0,0E0,0E0,0E0,0E0,0E0,0E0,0E0,0E0,0E0,0E0,0E0,0E0,0E0,0E0,0E0,0E0,0E0,0E0,0E0,0E0,0E0,0E0,0E0,0E0,0E0],"parents":[2147483647,0,0,1,1,2,2,3,3,4,4,5,5,7,7,8,8,9,9,10,10,11,11,12,12,13,13,14,14,15,15,16,16,17,17,18,18,19,19,20,20,23,23,25,25,26,26,27,27,28,28,29,29,32,32,33,33,34,34,35,35,36,36,37,37,38,38,39,39,40,40,41,41],"right_children":[2,4,6,8,10,12,-1,14,16,18,20,22,24,26,28,30,32,34,36,38,40,-1,-1,42,-1,44,46,48,50,52,-1,-1,54,56,58,60,62,64,66,68,70,72,-1,-1,-1,-1,-1,-1,-1,-1,-1,-1,-1,-1,-1,-1,-1,-1,-1,-1,-1,-1,-1,-1,-1,-1,-1,-1,-1,-1,-1,-1,-1],"split_conditions":[6.840287E3,1.8945956E3,2.9412115E2,2.667176E1,1.941E3,3.886827E0,5.349208E2,4.1642276E2,6.2621426E1,1.912E3,1.976E3,2.013E3,2.4025243E2,1.777E0,1.7571653E1,2.19E2,1.0249879E3,1.907E3,1.931E3,1.963E3,1.995E3,7.611475E0,7.389065E1,1.985E3,2.782628E2,1.938E3,2.22E2,9.36688E0,1.95E3,9.5E1,-2.2226519E1,1.6735701E2,2.019E3,1.906E3,1.911E3,3.2851724E3,2.475589E1,1.95E3,1.966E3,4.2E1,5.5151196E2,1.984E3,1.9937564E2,-2.1335852E-1,4.7905067E-1,3.07502E0,1.5010828E1,1.0499002E1,-1.6903105E0,5.049816E1,1.6599474E1,7.012512E0,2.9163857E1,5.1504543E1,9.143188E0,-1.9141847E-1,1.8245253E1,-9.931348E0,1.3633301E0,4.759403E1,1.3501026E1,-4.9485977E1,2.99401E1,1.3739502E2,5.0962616E1,2.1333531E2,1.1378116E2,-7.560009E1,4.7303616E1,6.5459076E1,1.7573257E2,1.1414341E2,1.2740333E1],"split_indices":[2,2,5,3,1,4,0,2,4,1,1,1,4,4,3,0,2,1,1,1,1,0,0,1,0,1,0,3,1,0,0,0,1,1,1,2,3,1,1,0,3,1,0,0,0,0,0,0,0,0,0,0,0,0,0,0,0,0,0,0,0,0,0,0,0,0,0,0,0,0,0,0,0],"split_type":[0,0,0,0,0,0,0,0,0,0,0,0,0,0,0,0,0,0,0,0,0,0,0,0,0,0,0,0,0,0,0,0,0,0,0,0,0,0,0,0,0,0,0,0,0,0,0,0,0,0,0,0,0,0,0,0,0,0,0,0,0,0,0,0,0,0,0,0,0,0,0,0,0],"sum_hessian":[4.7328E4,4.7283E4,4.5E1,4.7196E4,8.7E1,3.9E1,6E0,4.7044E4,1.52E2,2.5E1,6.2E1,5E0,3.4E1,4.6831E4,2.13E2,1.48E2,4E0,6E0,1.9E1,3.1E1,3.1E1,1E0,4E0,1.1E1,2.3E1,4.5748E4,1.083E3,1.71E2,4.2E1,1.4E2,8E0,1E0,3E0,3E0,3E0,1.3E1,6E0,1.9E1,1.2E1,7E0,2.4E1,4E0,7E0,3.259E4,1.3158E4,9.91E2,9.2E1,1.35E2,3.6E1,2E0,4E1,3.5E1,1.05E2,2E0,1E0,2E0,1E0,2E0,1E0,9E0,4E0,1E0,5E0,7E0,1.2E1,3E0,9E0,4E0,3E0,2.2E1,2E0,3E0,1E0],"tree_param":{"num_deleted":"0","num_feature":"14","num_nodes":"73","size_leaf_vector":"0"}},{"base_weights":[1.467226E0,6.626336E-1,5.606611E2,3.1319892E-1,8.4144005E1,4.6537094E2,3.9736942E2,2.167249E-1,4.2257732E1,4.8765038E1,1.4906781E2,3.2241095E2,6.387483E2,-5.420684E-2,8.905468E0,1.9369179E1,9.601276E1,2.1091677E1,8.22774E1,-3.7244965E1,1.8504515E2,3.924554E2,1.2754119E2,2.8119034E2,5.0881412E2,-6.885013E-2,7.403384E1,2.1887222E1,3.8285346E0,5.0513073E1,2.5014482E0,8.077417E1,8.526136E1,-2.3314445E1,5.5235683E1,4.6418484E1,1.2775443E2,-8.04611E1,3.576714E1,1.2028381E1,1.9426372E2,4.0380484E2,1.630796E1,-8.9769394E1,2.5562744E2,-6.8873146E1,6.446336E2,-3.9029443E-1,2.101412E-1,9.917853E0,2.6703325E1,2.4995964E0,1.8228355E1,2.0250258E0,-6.1365438E0,5.5815315E0,2.364389E1,-1.9059719E0,7.9070783E0,1.7716753E1,4.0749718E1,-1.2306986E1,3.327098E1,-2.4298555E1,2.2921951E1,-1.403888E1,1.6112038E1,4.524607E1,8.872804E0,7.649506E0,-5.7456066E1,1.055398E1,-8.613941E0,1.1447332E2,5.1627155E1,1.7581328E2,1.05694695E2,1.03210434E2,1.7732887E1,4.122876E1,1.9991554E2],"categories":[],"categories_nodes":[],"categories_segments":[],"categories_sizes":[],"default_left":[0,0,0,0,0,0,0,0,0,0,0,0,0,0,0,0,0,0,0,0,0,0,0,0,0,0,0,0,0,0,0,0,0,0,0,0,0,0,0,0,0,0,0,0,0,0,0,0,0,0,0,0,0,0,0,0,0,0,0,0,0,0,0,0,0,0,0,0,0,0,0,0,0,0,0,0,0,0,0,0,0],"id":11,"left_children":[1,3,5,7,9,11,-1,13,15,17,19,21,23,25,27,29,31,33,35,37,39,41,43,-1,45,47,49,51,53,55,57,59,-1,61,63,65,67,69,-1,71,73,75,-1,-1,77,-1,79,-1,-1,-1,-1,-1,-1,-1,-1,-1,-1,-1,-1,-1,-1,-1,-1,-1,-1,-1,-1,-1,-1,-1,-1,-1,-1,-1,-1,-1,-1,-1,-1,-1,-1],"loss_changes":[2.129404E7,1.3786669E6,4.333472E6,1.904461E5,4.4522738E5,1.330793E6,0E0,1.1054462E5,1.3102078E5,1.1789919E5,4.694015E5,4.4133E5,5.70478E5,4.94111E4,9.350486E4,4.032381E4,6.88125E4,1.104544E5,8.865375E4,9.073658E4,9.0171625E4,7.7816E4,6.777923E5,0E0,2.2540395E6,4.3160883E4,2.5804766E3,2.0974505E5,7.264489E4,2.2914453E4,1.0940324E4,2.9047234E4,0E0,8.0608484E4,1.24437414E5,2.5612117E4,5.215347E4,1.22561086E5,0E0,4.783043E3,1.627685E5,2.81115E4,0E0,0E0,1.3602675E5,0E0,1.070035E5,0E0,0E0,0E0,0E0,0E0,0E0,0E0,0E0,0E0,0E0,0E0,0E0,0E0,0E0,0E0,0E0,0E0,0E0,0E0,0E0,0E0,0E0,0E0,0E0,0E0,0E0,0E0,0E0,0E0,0E0,0E0,0E0,0E0,0E0],"parents":[2147483647,0,0,1,1,2,2,3,3,4,4,5,5,7,7,8,8,9,9,10,10,11,11,12,12,13,13,14,14,15,15,16,16,17,17,18,18,19,19,20,20,21,21,22,22,24,24,25,25,26,26,27,27,28,28,29,29,30,30,31,31,33,33,34,34,35,35,36,36,37,37,39,39,40,40,41,41,44,44,46,46],"right_children":[2,4,6,8,10,12,-1,14,16,18,20,22,24,26,28,30,32,34,36,38,40,42,44,-1,46,48,50,52,54,56,58,60,-1,62,64,66,68,70,-1,72,74,76,-1,-1,78,-1,80,-1,-1,-1,-1,-1,-1,-1,-1,-1,-1,-1,-1,-1,-1,-1,-1,-1,-1,-1,-1,-1,-1,-1,-1,-1,-1,-1,-1,-1,-1,-1,-1,-1,-1],"split_conditions":[2.1136871E2,7.473934E2,2.9412115E2,2.4925135E1,3.5613052E1,1.7153888E2,3.9736942E2,4.8034996E1,2.421347E0,1.315721E3,4.2E1,2.003E3,1.996E3,2.475589E1,7E1,8.6E-5,5.8208344E2,1.72E2,1.7571653E1,1.995E3,1.937E3,9.285192E1,2.005E3,2.8119034E2,1.999E3,9E1,2.015E3,4.17929E0,2.013E3,1.98E3,4.1111034E1,2.016E3,8.526136E1,1.985E3,1.912E3,1.895E3,4.2894447E1,1.989E3,3.576714E1,1.93E3,1.95E3,1.4456609E2,1.630796E1,-8.9769394E1,2.011E3,-6.8873146E1,3.422176E0,-3.9029443E-1,2.101412E-1,9.917853E0,2.6703325E1,2.4995964E0,1.8228355E1,2.0250258E0,-6.1365438E0,5.5815315E0,2.364389E1,-1.9059719E0,7.9070783E0,1.7716753E1,4.0749718E1,-1.2306986E1,3.327098E1,-2.4298555E1,2.2921951E1,-1.403888E1,1.6112038E1,4.524607E1,8.872804E0,7.649506E0,-5.7456066E1,1.055398E1,-8.613941E0,1.1447332E2,5.1627155E1,1.7581328E2,1.05694695E2,1.03210434E2,1.7732887E1,4.122876E1,1.9991554E2],"split_indices":[3,2,5,4,3,5,0,2,2,2,0,1,1,3,0,2,2,0,3,1,1,5,1,0,1,0,1,3,1,1,4,1,0,1,1,1,4,1,0,1,1,4,0,0,1,0,4,0,0,0,0,0,0,0,0,0,0,0,0,0,0,0,0,0,0,0,0,0,0,0,0,0,0,0,0,0,0,0,0,0,0],"split_type":[0,0,0,0,0,0,0,0,0,0,0,0,0,0,0,0,0,0,0,0,0,0,0,0,0,0,0,0,0,0,0,0,0,0,0,0,0,0,0,0,0,0,0,0,0,0,0,0,0,0,0,0,0,0,0,0,0,0,0,0,0,0,0,0,0,0,0,0,0,0,0,0,0,0,0,0,0,0,0,0,0],"sum_hessian":[4.7328E4,4.7261E4,6.7E1,4.7065E4,1.96E2,6.1E1,6E0,4.6958E4,1.07E2,1.28E2,6.8E1,3.5E1,2.6E1,4.5539E4,1.419E3,7.6E1,3.1E1,7.1E1,5.7E1,1.1E1,5.7E1,2.5E1,1E1,6E0,2E1,4.5531E4,8E0,3.98E2,1.021E3,2.6E1,5E1,3E1,1E0,3.1E1,4E1,3.3E1,2.4E1,9E0,2E0,3E0,5.4E1,2.4E1,1E0,2E0,8E0,3E0,1.7E1,1.7501E4,2.803E4,3E0,5E0,2.96E2,1.02E2,9.12E2,1.09E2,1.3E1,1.3E1,3.7E1,1.3E1,2.3E1,7E0,2.8E1,3E0,5E0,3.5E1,2E0,3.1E1,1.9E1,5E0,5E0,4E0,2E0,1E0,4E0,5E1,3E0,2.1E1,5E0,3E0,1E0,1.6E1],"tree_param":{"num_deleted":"0","num_feature":"14","num_nodes":"81","size_leaf_vector":"0"}},{"base_weights":[1.0617431E0,5.7485163E-1,5.0152075E2,2.9529503E-1,1.0864168E2,3.834999E2,8.880459E2,1.2931855E-1,3.0947502E1,1.8617654E2,6.854935E1,1.1412305E2,4.2202368E2,1.4978526E2,3.5308527E2,-1.2421721E-1,6.5388007E0,2.4044643E1,7.982792E1,1.2435634E2,2.391312E2,5.5270084E1,3.9981332E2,4.5810303E1,5.014971E1,4.9100897E2,3.2235034E2,-3.5433503E-4,-1.2204363E1,-6.5333766E-1,1.3788305E1,1.6089767E1,5.366003E1,6.417458E1,6.1360256E1,1.16926506E2,9.1598656E1,1.776836E2,1.7078522E2,2.1499142E1,1.4912659E2,3.5199024E1,1.4471698E2,5.672624E1,1.959375E0,2.7716296E2,1.9508952E2,-5.3376713E1,4.5148422E2,3.2210636E-1,-2.3308127E-1,2.7024359E1,-4.1284294E0,-2.8347054E0,1.4045652E0,1.8070239E0,1.0803066E1,6.1214986E0,-1.0775263E1,8.643744E0,3.142419E1,3.2947357E1,1.2466319E1,2.6714356E0,3.1700367E1,-1.7426075E1,6.0338474E1,-9.857287E0,1.210447E1,7.89291E1,3.2050117E1,3.8099122E0,2.1716896E1,4.973391E1,9.9934105E1,4.3075783E1,1.4832375E2],"categories":[],"categories_nodes":[],"categories_segments":[],"categories_sizes":[],"default_left":[0,0,0,0,0,0,0,0,0,0,0,0,0,0,0,0,0,0,0,0,0,0,0,0,0,0,0,0,0,0,0,0,0,0,0,0,0,0,0,0,0,0,0,0,0,0,0,0,0,0,0,0,0,0,0,0,0,0,0,0,0,0,0,0,0,0,0,0,0,0,0,0,0,0,0,0,0],"id":12,"left_children":[1,3,5,7,9,11,13,15,17,19,21,23,25,-1,-1,27,29,31,33,35,37,39,41,43,-1,45,47,49,51,53,55,57,59,61,-1,-1,63,-1,65,67,69,-1,-1,71,-1,73,-1,-1,75,-1,-1,-1,-1,-1,-1,-1,-1,-1,-1,-1,-1,-1,-1,-1,-1,-1,-1,-1,-1,-1,-1,-1,-1,-1,-1,-1,-1],"loss_changes":[1.1532332E7,1.4284551E6,1.757864E6,2.3993986E5,3.6648138E5,3.35802E5,5.35519E5,7.623111E4,8.378389E4,1.04482875E5,3.3861553E5,1.4083023E4,6.1755E4,0E0,0E0,6.75212E4,9.307791E4,5.1908055E4,4.7388234E4,1.4686972E5,4.0570788E5,2.5036367E5,1.33806875E4,1.3445771E3,0E0,3.988395E5,1.1139639E6,3.7258496E4,7.418325E4,4.213767E4,1.5318073E5,4.0680258E4,5.6643453E4,2.5382E4,0E0,0E0,2.2327828E4,0E0,1.4363162E5,6.2800285E4,7.311516E4,0E0,0E0,1.1494902E3,0E0,8.643125E2,0E0,0E0,1.00837E5,0E0,0E0,0E0,0E0,0E0,0E0,0E0,0E0,0E0,0E0,0E0,0E0,0E0,0E0,0E0,0E0,0E0,0E0,0E0,0E0,0E0,0E0,0E0,0E0,0E0,0E0,0E0,0E0],"parents":[2147483647,0,0,1,1,2,2,3,3,4,4,5,5,6,6,7,7,8,8,9,9,10,10,11,11,12,12,15,15,16,16,17,17,18,18,19,19,20,20,21,21,22,22,23,23,25,25,26,26,27,27,28,28,29,29,30,30,31,31,32,32,33,33,36,36,38,38,39,39,40,40,43,43,45,45,48,48],"right_children":[2,4,6,8,10,12,14,16,18,20,22,24,26,-1,-1,28,30,32,34,36,38,40,42,44,-1,46,48,50,52,54,56,58,60,62,-1,-1,64,-1,66,68,70,-1,-1,72,-1,74,-1,-1,76,-1,-1,-1,-1,-1,-1,-1,-1,-1,-1,-1,-1,-1,-1,-1,-1,-1,-1,-1,-1,-1,-1,-1,-1,-1,-1,-1,-1],"split_conditions":[6.840287E3,3.5613052E1,3.7407416E2,4.4401776E2,1.98E3,3.886827E0,2.015E3,3.45521E-1,1.985E3,1.964E3,5.5151196E2,2.016E3,1.996E3,1.4978526E2,3.5308527E2,3.45257E0,2.013393E0,1.315721E3,3.2424717E1,3.2851724E3,1.966E3,4.174089E0,2.01E3,2.015E3,5.014971E1,2.4025243E2,1.999E3,9.8E1,8.6E-5,7.9E1,1.71E2,3.3185726E1,1.935E3,1.99E3,6.1360256E1,1.16926506E2,1.937E3,1.776836E2,1.968E3,1.991E3,1.0249879E3,3.5199024E1,1.4471698E2,2.013E3,1.959375E0,1.985E3,1.9508952E2,-5.3376713E1,2.001E3,3.2210636E-1,-2.3308127E-1,2.7024359E1,-4.1284294E0,-2.8347054E0,1.4045652E0,1.8070239E0,1.0803066E1,6.1214986E0,-1.0775263E1,8.643744E0,3.142419E1,3.2947357E1,1.2466319E1,2.6714356E0,3.1700367E1,-1.7426075E1,6.0338474E1,-9.857287E0,1.210447E1,7.89291E1,3.2050117E1,3.8099122E0,2.1716896E1,4.973391E1,9.9934105E1,4.3075783E1,1.4832375E2],"split_indices":[2,3,4,2,1,4,1,4,1,1,3,1,1,0,0,3,3,2,5,2,1,4,1,1,0,4,1,0,2,0,0,3,1,1,0,0,1,0,1,1,2,0,0,1,0,1,0,0,1,0,0,0,0,0,0,0,0,0,0,0,0,0,0,0,0,0,0,0,0,0,0,0,0,0,0,0,0],"split_type":[0,0,0,0,0,0,0,0,0,0,0,0,0,0,0,0,0,0,0,0,0,0,0,0,0,0,0,0,0,0,0,0,0,0,0,0,0,0,0,0,0,0,0,0,0,0,0,0,0,0,0,0,0,0,0,0,0,0,0,0,0,0,0,0,0,0,0,0,0,0,0,0,0,0,0,0,0],"sum_hessian":[4.7328E4,4.7283E4,4.5E1,4.7162E4,1.21E2,3.6E1,9E0,4.6909E4,2.53E2,4E1,8.1E1,5E0,3.1E1,5E0,4E0,4.5125E4,1.784E3,2.23E2,3E1,2E1,2E1,7.9E1,2E0,3E0,2E0,1.6E1,1.5E1,4.4668E4,4.57E2,8.96E2,8.88E2,1.77E2,4.6E1,2.8E1,2E0,1E0,1.9E1,2E0,1.8E1,5.9E1,2E1,1E0,1E0,2E0,1E0,8E0,8E0,3E0,1.2E1,1.8744E4,2.5924E4,6E0,4.51E2,3.38E2,5.58E2,6.59E2,2.29E2,1.64E2,1.3E1,3.2E1,1.4E1,8E0,2E1,3E0,1.6E1,2E0,1.6E1,1.5E1,4.4E1,4E0,1.6E1,1E0,1E0,4E0,4E0,2E0,1E1],"tree_param":{"num_deleted":"0","num_feature":"14","num_nodes":"77","size_leaf_vector":"0"}},{"base_weights":[7.834632E-1,3.3924916E-1,3.0951376E2,1.5388942E-1,4.4175594E1,2.5598586E2,7.394018E2,6.867345E-2,1.5260097E1,2.818454E1,9.389361E1,1.7985484E2,3.480129E2,7.034024E1,2.6834464E2,4.9298182E-2,4.5385925E1,-3.0333015E1,2.1904709E1,1.338009E2,1.7344154E1,-1.6919092E1,1.05166245E2,2.2036368E2,6.7756256E1,1.587185E2,2.7109128E2,-3.382177E-1,1.9932004E0,3.1615393E1,2.4112331E1,-5.5979454E1,2.135041E1,7.900739E1,1.8137085E1,6.352439E1,7.427813E1,-1.6631655E1,3.1728233E1,6.117459E1,1.5252934E2,1.3389493E2,1.9347292E2,-7.423638E1,1.6529807E2,-4.1366898E1,3.469153E2,-1.2434772E-1,1.6646259E0,1.9018598E0,-3.8061276E-1,1.1421793E1,8.1764376E-1,-1.9030018E1,-4.937584E0,8.671499E-1,1.7264282E1,-7.526743E0,5.600643E1,-1.8622597E1,7.0579596E0,3.0897907E1,6.013941E0,-2.3042751E1,2.9998968E0,1.2113728E1,-1.7491707E1,1.0352434E1,3.744474E1,1.2267005E2,3.577974E1,8.250545E0,7.3331215E1,7.969239E-1,6.3416286E1,3.446055E1,1.1062257E2],"categories":[],"categories_nodes":[],"categories_segments":[],"categories_sizes":[],"default_left":[0,0,0,0,0,0,0,0,0,0,0,0,0,0,0,0,0,0,0,0,0,0,0,0,0,0,0,0,0,0,0,0,0,0,0,0,0,0,0,0,0,0,0,0,0,0,0,0,0,0,0,0,0,0,0,0,0,0,0,0,0,0,0,0,0,0,0,0,0,0,0,0,0,0,0,0,0],"id":13,"left_children":[1,3,5,7,9,11,13,15,17,19,21,23,25,-1,-1,27,29,31,33,35,37,-1,39,41,43,-1,45,47,49,51,-1,53,55,57,59,61,-1,63,65,67,69,-1,71,-1,73,-1,75,-1,-1,-1,-1,-1,-1,-1,-1,-1,-1,-1,-1,-1,-1,-1,-1,-1,-1,-1,-1,-1,-1,-1,-1,-1,-1,-1,-1,-1,-1],"loss_changes":[6.4907045E6,3.840203E5,1.375472E6,6.058397E4,1.5556731E5,3.71787E5,3.3841025E5,4.109062E4,8.064287E4,1.717075E5,8.725125E4,1.4854438E5,2.3259325E5,0E0,0E0,3.5241227E4,7.0951406E3,4.6262035E4,4.8264727E4,9.622925E4,6.84585E4,0E0,8.443019E4,7.1627E4,3.7911238E5,0E0,6.9905825E5,1.751748E4,1.1025108E5,2.8810234E3,0E0,5.731453E3,7.8520234E3,1.6161247E5,9.570191E4,1.5095488E4,0E0,6.8077516E4,7.868362E4,3.8120023E4,1.3031606E5,0E0,2.0474331E5,0E0,6.690319E4,0E0,4.880925E4,0E0,0E0,0E0,0E0,0E0,0E0,0E0,0E0,0E0,0E0,0E0,0E0,0E0,0E0,0E0,0E0,0E0,0E0,0E0,0E0,0E0,0E0,0E0,0E0,0E0,0E0,0E0,0E0,0E0,0E0],"parents":[2147483647,0,0,1,1,2,2,3,3,4,4,5,5,6,6,7,7,8,8,9,9,10,10,11,11,12,12,15,15,16,16,17,17,18,18,19,19,20,20,22,22,23,23,24,24,26,26,27,27,28,28,29,29,31,31,32,32,33,33,34,34,35,35,37,37,38,38,39,39,40,40,42,42,44,44,46,46],"right_children":[2,4,6,8,10,12,14,16,18,20,22,24,26,-1,-1,28,30,32,34,36,38,-1,40,42,44,-1,46,48,50,52,-1,54,56,58,60,62,-1,64,66,68,70,-1,72,-1,74,-1,76,-1,-1,-1,-1,-1,-1,-1,-1,-1,-1,-1,-1,-1,-1,-1,-1,-1,-1,-1,-1,-1,-1,-1,-1,-1,-1,-1,-1,-1,-1],"split_conditions":[2.1136871E2,2.667176E1,2.9412115E2,1.4337371E1,2.6769184E1,1.7153888E2,2.015E3,1.69439E2,6.1E1,1.95E3,1.954E3,2.003E3,1.996E3,7.034024E1,2.6834464E2,1.975E3,2.014E3,5.910032E1,1.95E3,1.945E3,9.5E1,-1.6919092E1,4.0261246E1,1.966E3,2.005E3,1.587185E2,1.999E3,1.388297E0,1.01E2,2.009E3,2.4112331E1,1.3553136E1,3.5624523E1,1.943E3,1.965E3,3.2851724E3,7.427813E1,1.993E3,2.19E2,3.0450653E1,1.0249879E3,1.3389493E2,1.972E3,-7.423638E1,2.007E3,-4.1366898E1,2.001E3,-1.2434772E-1,1.6646259E0,1.9018598E0,-3.8061276E-1,1.1421793E1,8.1764376E-1,-1.9030018E1,-4.937584E0,8.671499E-1,1.7264282E1,-7.526743E0,5.600643E1,-1.8622597E1,7.0579596E0,3.0897907E1,6.013941E0,-2.3042751E1,2.9998968E0,1.2113728E1,-1.7491707E1,1.0352434E1,3.744474E1,1.2267005E2,3.577974E1,8.250545E0,7.3331215E1,7.969239E-1,6.3416286E1,3.446055E1,1.1062257E2],"split_indices":[3,3,5,3,4,5,1,6,0,1,1,1,1,0,0,1,1,2,1,1,0,0,3,1,1,0,1,3,0,1,0,4,5,1,1,2,0,1,0,5,2,0,1,0,1,0,1,0,0,0,0,0,0,0,0,0,0,0,0,0,0,0,0,0,0,0,0,0,0,0,0,0,0,0,0,0,0],"split_type":[0,0,0,0,0,0,0,0,0,0,0,0,0,0,0,0,0,0,0,0,0,0,0,0,0,0,0,0,0,0,0,0,0,0,0,0,0,0,0,0,0,0,0,0,0,0,0,0,0,0,0,0,0,0,0,0,0,0,0,0,0,0,0,0,0,0,0,0,0,0,0,0,0,0,0,0,0],"sum_hessian":[4.7328E4,4.7261E4,6.7E1,4.7063E4,1.98E2,6.1E1,6E0,4.68E4,2.63E2,1.51E2,4.7E1,3.5E1,2.6E1,2E0,4E0,4.6781E4,1.9E1,3.3E1,2.3E2,1.3E1,1.38E2,3E0,4.4E1,2.5E1,1E1,6E0,2E1,3.9006E4,7.775E3,1.5E1,4E0,2.2E1,1.1E1,1.3E1,2.17E2,9E0,4E0,4.1E1,9.7E1,2.4E1,2E1,1E0,2.4E1,2E0,8E0,3E0,1.7E1,3.8508E4,4.98E2,3.333E3,4.442E3,1.2E1,3E0,1.8E1,4E0,8E0,3E0,7E0,6E0,1.3E1,2.04E2,4E0,5E0,1.2E1,2.9E1,8.9E1,8E0,1.8E1,6E0,1E0,1.9E1,6E0,1.8E1,2E0,6E0,2E0,1.5E1],"tree_param":{"num_deleted":"0","num_feature":"14","num_nodes":"77","size_leaf_vector":"0"}},{"base_weights":[5.727676E-1,3.2642338E-1,3.071396E2,1.438718E-1,6.6552216E1,2.4330205E2,2.0394211E2,4.8579004E-2,1.7742458E1,4.7836784E1,1.2477775E2,1.14812744E2,2.7236176E2,2.242644E-2,3.959644E1,9.910627E0,3.347461E1,8.637181E1,3.088062E1,1.13810745E2,1.0364573E2,1.3514195E2,2.507952E0,1.071814E2,2.0139902E2,-1.1129986E0,7.974144E-1,3.071951E1,2.7550755E1,1.8127996E1,-1.7454456E1,7.793196E1,9.854292E0,1.2680038E2,5.2374973E1,2.0420214E1,1.6487393E2,5.5837242E1,1.811479E2,-9.399361E1,1.0736328E2,3.9561392E2,1.4912943E2,-3.611031E-1,8.721659E0,4.3755074E1,-8.648056E-2,1.021853E1,-2.5459595E0,4.096369E0,1.9828337E1,5.985183E0,-1.7954079E1,-6.4983983E0,2.8420002E1,-1.14417095E1,1.0077489E1,7.172058E-1,4.9165268E1,-4.105518E0,2.8697184E1,2.180372E0,1.5979372E1,1.0426956E2,9.692945E0,3.1954885E1,-3.525094E1,8.502811E1,3.220946E1,5.9853283E1,-5.3006252E1,3.6420704E1,1.4160558E2,-3.9037853E1,7.875197E1],"categories":[],"categories_nodes":[],"categories_segments":[],"categories_sizes":[],"default_left":[0,0,0,0,0,0,0,0,0,0,0,0,0,0,0,0,0,0,0,0,0,0,0,0,0,0,0,0,0,0,0,0,0,0,0,0,0,0,0,0,0,0,0,0,0,0,0,0,0,0,0,0,0,0,0,0,0,0,0,0,0,0,0,0,0,0,0,0,0,0,0,0,0,0,0],"id":14,"left_children":[1,3,5,7,9,11,-1,13,15,17,19,21,23,25,27,29,31,33,35,-1,37,-1,39,-1,41,43,45,47,-1,49,51,53,55,57,59,61,63,65,67,-1,69,71,73,-1,-1,-1,-1,-1,-1,-1,-1,-1,-1,-1,-1,-1,-1,-1,-1,-1,-1,-1,-1,-1,-1,-1,-1,-1,-1,-1,-1,-1,-1,-1,-1],"loss_changes":[3.574232E6,5.717329E5,7.38628E5,7.909236E4,1.3569419E5,9.568075E4,0E0,4.8517094E4,3.0963977E4,6.2673406E4,1.2746094E5,3.004404E5,9.0732125E4,4.1252508E4,1.155434E4,3.8769008E4,8.744017E4,3.459214E4,9.614857E4,0E0,1.0104309E5,0E0,2.6544603E5,0E0,1.135785E5,5.2089996E4,4.3879465E6,3.9580898E3,0E0,2.7421379E4,6.462171E4,5.0577875E4,6.507824E4,5.958489E4,5.2775215E4,2.8555475E4,1.0986175E5,1.8821045E5,5.258097E4,0E0,1.9229878E5,5.5489375E3,5.09077E5,0E0,0E0,0E0,0E0,0E0,0E0,0E0,0E0,0E0,0E0,0E0,0E0,0E0,0E0,0E0,0E0,0E0,0E0,0E0,0E0,0E0,0E0,0E0,0E0,0E0,0E0,0E0,0E0,0E0,0E0,0E0,0E0],"parents":[2147483647,0,0,1,1,2,2,3,3,4,4,5,5,7,7,8,8,9,9,10,10,11,11,12,12,13,13,14,14,15,15,16,16,17,17,18,18,20,20,22,22,24,24,25,25,26,26,27,27,29,29,30,30,31,31,32,32,33,33,34,34,35,35,36,36,37,37,38,38,40,40,41,41,42,42],"right_children":[2,4,6,8,10,12,-1,14,16,18,20,22,24,26,28,30,32,34,36,-1,38,-1,40,-1,42,44,46,48,-1,50,52,54,56,58,60,62,64,66,68,-1,70,72,74,-1,-1,-1,-1,-1,-1,-1,-1,-1,-1,-1,-1,-1,-1,-1,-1,-1,-1,-1,-1,-1,-1,-1,-1,-1,-1,-1,-1,-1,-1,-1,-1],"split_conditions":[2.4025243E2,3.5613052E1,2.015E3,4.4401776E2,2.1136871E2,1.977E3,2.0394211E2,4.2894447E1,2.099113E1,1.981E3,1.966E3,1.97E3,2.2038205E2,9.5E1,2.014E3,1.953E3,2.226079E0,8.405802E0,6.2621426E1,1.13810745E2,2.007E3,1.3514195E2,1.971E3,1.071814E2,1.996E3,1.3553136E1,9.6E1,2.667176E1,2.7550755E1,1.4337371E1,5.8208344E2,1.935E3,5.737109E0,1.937E3,8.593079E1,3.644884E0,1.0249879E3,2.003E3,2.011E3,-9.399361E1,1.976E3,1.991E3,2.004E3,-3.611031E-1,8.721659E0,4.3755074E1,-8.648056E-2,1.021853E1,-2.5459595E0,4.096369E0,1.9828337E1,5.985183E0,-1.7954079E1,-6.4983983E0,2.8420002E1,-1.14417095E1,1.0077489E1,7.172058E-1,4.9165268E1,-4.105518E0,2.8697184E1,2.180372E0,1.5979372E1,1.0426956E2,9.692945E0,3.1954885E1,-3.525094E1,8.502811E1,3.220946E1,5.9853283E1,-5.3006252E1,3.6420704E1,1.4160558E2,-3.9037853E1,7.875197E1],"split_indices":[4,3,1,2,3,1,0,4,3,1,1,1,5,0,1,1,4,4,4,0,1,0,1,0,1,4,0,3,0,3,2,1,5,1,4,4,2,1,1,0,1,1,1,0,0,0,0,0,0,0,0,0,0,0,0,0,0,0,0,0,0,0,0,0,0,0,0,0,0,0,0,0,0,0,0],"split_type":[0,0,0,0,0,0,0,0,0,0,0,0,0,0,0,0,0,0,0,0,0,0,0,0,0,0,0,0,0,0,0,0,0,0,0,0,0,0,0,0,0,0,0,0,0,0,0,0,0,0,0,0,0,0,0,0,0,0,0,0,0,0,0,0,0,0,0,0,0,0,0,0,0,0,0],"sum_hessian":[4.7328E4,4.7291E4,3.7E1,4.7162E4,1.29E2,3.3E1,4E0,4.6909E4,2.53E2,9.9E1,3E1,7E0,2.6E1,4.6879E4,3E1,1.7E2,8.3E1,2.9E1,7E1,1E0,2.9E1,1E0,6E0,1E1,1.6E1,1.9017E4,2.7862E4,2.7E1,3E0,1.31E2,3.9E1,2.8E1,5.5E1,1.2E1,1.7E1,6.6E1,4E0,1.9E1,1E1,1E0,5E0,2E0,1.4E1,1.8961E4,5.6E1,2.06E2,2.7656E4,2.5E1,2E0,1.21E2,1E1,2.1E1,1.8E1,4E0,2.4E1,1.8E1,3.7E1,3E0,9E0,7E0,1E1,4.8E1,1.8E1,1E0,3E0,1.5E1,4E0,3E0,7E0,4E0,1E0,1E0,1E0,4E0,1E1],"tree_param":{"num_deleted":"0","num_feature":"14","num_nodes":"75","size_leaf_vector":"0"}},{"base_weights":[4.2483303E-1,2.503652E-1,2.5046664E2,1.6223599E-1,9.077278E1,1.7923596E2,3.9637363E2,7.078397E-2,2.907226E1,1.1776681E1,1.2153559E2,9.190145E1,1.1984977E2,6.9023346E1,1.5499619E2,2.4251806E-2,2.0318947E1,2.1403444E1,6.625345E1,-1.9081726E1,4.536105E1,1.1092871E2,9.359314E1,2.5501111E2,1.0655185E1,-2.5150985E-1,2.053759E0,-4.7629482E-1,4.2722984E1,2.6006664E1,-1.7446306E2,1.4616568E2,1.2167465E1,2.213688E1,-9.515836E1,3.299795E1,1.6256836E1,-5.183423E1,1.1102586E2,1.1553419E1,9.6227745E1,-1.0039486E2,1.1992936E2,-8.1650764E-2,1.1578442E1,3.8024523E0,3.4016845E-1,-2.1869023E0,7.7044053E0,6.060394E1,8.654343E0,6.5607305E0,5.5265846E1,-6.897737E1,-9.531006E0,1.703294E1,5.888872E1,2.8830225E1,-1.0416138E1,-8.161466E0,4.032686E1,-4.1007645E1,-1.8136231E0,-4.2288575E0,7.544004E0,-2.198213E1,1.8726563E0,1.14870705E2,2.603244E1,-3.3739338E1,-6.0070314E0,1.0247608E2,2.1841407E0],"categories":[],"categories_nodes":[],"categories_segments":[],"categories_sizes":[],"default_left":[0,0,0,0,0,0,0,0,0,0,0,0,0,0,0,0,0,0,0,0,0,0,0,0,0,0,0,0,0,0,0,0,0,0,0,0,0,0,0,0,0,0,0,0,0,0,0,0,0,0,0,0,0,0,0,0,0,0,0,0,0,0,0,0,0,0,0,0,0,0,0,0,0],"id":15,"left_children":[1,3,5,7,9,11,13,15,17,19,21,-1,23,-1,-1,25,27,29,31,33,35,-1,37,39,41,43,45,47,49,51,53,55,57,59,61,-1,63,65,67,-1,-1,69,71,-1,-1,-1,-1,-1,-1,-1,-1,-1,-1,-1,-1,-1,-1,-1,-1,-1,-1,-1,-1,-1,-1,-1,-1,-1,-1,-1,-1,-1,-1],"loss_changes":[2.0646294E6,3.7730506E5,2.7192675E5,1.24926555E5,1.1035522E5,1.4444019E5,8.1150375E4,4.4380473E4,4.1067164E4,1.5374608E4,1.942829E5,0E0,2.6294275E5,0E0,0E0,2.6302873E4,5.033726E4,1.1723926E5,1.0627482E5,2.7192695E4,1.1379327E4,0E0,8.4346E4,1.015225E5,1.4552422E5,3.3216383E4,5.4912316E4,1.034586E4,1.09101625E5,7.6488984E4,1.643721E4,3.366589E4,6.630398E4,3.6899285E4,1.027723E4,0E0,1.9734745E3,5.437913E3,1.51386E5,0E0,0E0,3.568379E3,1.4732995E5,0E0,0E0,0E0,0E0,0E0,0E0,0E0,0E0,0E0,0E0,0E0,0E0,0E0,0E0,0E0,0E0,0E0,0E0,0E0,0E0,0E0,0E0,0E0,0E0,0E0,0E0,0E0,0E0,0E0,0E0],"parents":[2147483647,0,0,1,1,2,2,3,3,4,4,5,5,6,6,7,7,8,8,9,9,10,10,12,12,15,15,16,16,17,17,18,18,19,19,20,20,22,22,23,23,24,24,25,25,26,26,27,27,28,28,29,29,30,30,31,31,32,32,33,33,34,34,36,36,37,37,38,38,41,41,42,42],"right_children":[2,4,6,8,10,12,14,16,18,20,22,-1,24,-1,-1,26,28,30,32,34,36,-1,38,40,42,44,46,48,50,52,54,56,58,60,62,-1,64,66,68,-1,-1,70,72,-1,-1,-1,-1,-1,-1,-1,-1,-1,-1,-1,-1,-1,-1,-1,-1,-1,-1,-1,-1,-1,-1,-1,-1,-1,-1,-1,-1,-1,-1],"split_conditions":[1.7153888E2,6.2621426E1,3.7407416E2,1.0249879E3,1.964E3,1.996E3,2.015E3,2.4925135E1,2.005E3,1.958E3,1.966E3,9.190145E1,2.1655153E2,6.9023346E1,1.5499619E2,1.909095E0,1.989E3,2.003E3,2.810288E0,1.956E3,1.959E3,1.1092871E2,1.969E3,3.840458E0,2.004E3,1.1526808E1,1.9E1,1.715382E0,1.992E3,2.002E3,2.004E3,2.01E3,2.011E3,1.955E3,1.957E3,3.299795E1,1.96E3,1.968E3,1.97E3,1.1553419E1,9.6227745E1,2.236785E2,2.005E3,-8.1650764E-2,1.1578442E1,3.8024523E0,3.4016845E-1,-2.1869023E0,7.7044053E0,6.060394E1,8.654343E0,6.5607305E0,5.5265846E1,-6.897737E1,-9.531006E0,1.703294E1,5.888872E1,2.8830225E1,-1.0416138E1,-8.161466E0,4.032686E1,-4.1007645E1,-1.8136231E0,-4.2288575E0,7.544004E0,-2.198213E1,1.8726563E0,1.14870705E2,2.603244E1,-3.3739338E1,-6.0070314E0,1.0247608E2,2.1841407E0],"split_indices":[5,4,4,2,1,1,1,4,1,1,1,0,5,0,0,2,1,1,4,1,1,0,1,4,1,3,0,3,1,1,1,1,1,1,1,0,1,1,1,0,0,5,1,0,0,0,0,0,0,0,0,0,0,0,0,0,0,0,0,0,0,0,0,0,0,0,0,0,0,0,0,0,0],"split_type":[0,0,0,0,0,0,0,0,0,0,0,0,0,0,0,0,0,0,0,0,0,0,0,0,0,0,0,0,0,0,0,0,0,0,0,0,0,0,0,0,0,0,0,0,0,0,0,0,0,0,0,0,0,0,0,0,0,0,0,0,0,0,0,0,0,0,0,0,0,0,0,0,0],"sum_hessian":[4.7328E4,4.7296E4,3.2E1,4.7251E4,4.5E1,2.3E1,9E0,4.7103E4,1.48E2,1.3E1,3.2E1,6E0,1.7E1,5E0,4E0,4.6996E4,1.07E2,1.24E2,2.4E1,7E0,6E0,2E0,3E1,7E0,1E1,4.1375E4,5.621E3,5.6E1,5.1E1,1.22E2,2E0,9E0,1.5E1,5E0,2E0,1E0,5E0,3E0,2.7E1,2E0,5E0,5E0,5E0,4.1354E4,2.1E1,4.47E2,5.174E3,4.5E1,1.1E1,3E0,4.8E1,1.2E2,2E0,1E0,1E0,4E0,5E0,5E0,1E1,4E0,1E0,1E0,1E0,1E0,4E0,2E0,1E0,1E0,2.6E1,4E0,1E0,1E0,4E0],"tree_param":{"num_deleted":"0","num_feature":"14","num_nodes":"73","size_leaf_vector":"0"}},{"base_weights":[3.1669587E-1,1.6967186E-1,1.7412791E2,1.0251941E-1,6.913594E1,1.0018748E2,2.589336E2,2.539626E-2,1.1555959E1,4.8758106E1,1.4749393E2,1.7435905E2,6.989765E1,1.9267996E2,1.1779712E2,-8.3060694E-1,6.086171E-1,-7.6374354E0,1.7456572E1,5.587467E1,-3.2183205E1,1.9977971E2,-2.3670898E1,1.997168E1,9.662676E1,1.1208297E2,-6.2200783E1,1.2042012E2,1.244432E2,-2.1344292E-1,-5.572809E0,1.023878E2,-1.5180081E-1,-2.302972E0,-1.0174841E2,1.1750276E1,4.1514915E1,-1.4689087E1,7.2829185E1,1.3961499E1,6.5269066E1,4.853687E0,-1.5505591E1,1.7172363E1,-1.1531901E1,1.6000285E2,5.61427E1,-2.0772364E1,-5.1058598E0,-2.2559473E1,1.4942862E2,-8.9149065E-2,1.2722049E1,-2.0786195E0,3.995663E0,-8.755428E0,1.8599246E2,-7.772578E-2,4.5432186E0,-2.5367546E0,6.518269E1,-5.863074E1,-1.612207E0,5.134406E0,-4.628355E0,3.5151083E0,2.497278E1,6.2570558E0,-2.4265383E1,3.765462E1,9.219588E0,-2.006045E1,1.4871095E1,2.5364529E1,9.1909424E1,-3.7221682E-1,4.5658596E1,8.710459E1,3.1890528E1],"categories":[],"categories_nodes":[],"categories_segments":[],"categories_sizes":[],"default_left":[0,0,0,0,0,0,0,0,0,0,0,0,0,0,0,0,0,0,0,0,0,0,0,0,0,0,0,0,0,0,0,0,0,0,0,0,0,0,0,0,0,0,0,0,0,0,0,0,0,0,0,0,0,0,0,0,0,0,0,0,0,0,0,0,0,0,0,0,0,0,0,0,0,0,0,0,0,0,0],"id":16,"left_children":[1,3,5,7,9,11,13,15,17,19,21,23,25,27,-1,29,31,33,35,37,-1,39,41,43,-1,45,47,-1,49,51,53,55,57,59,61,63,65,67,69,-1,-1,-1,-1,-1,71,73,75,-1,-1,-1,77,-1,-1,-1,-1,-1,-1,-1,-1,-1,-1,-1,-1,-1,-1,-1,-1,-1,-1,-1,-1,-1,-1,-1,-1,-1,-1,-1,-1],"loss_changes":[1.2094358E6,2.1900498E5,2.2488088E5,4.173241E4,6.62597E4,3.948553E4,8.381675E4,2.342979E4,3.592121E4,4.8190664E4,8.527436E4,1.3041333E5,1.0727871E5,1.4944216E5,0E0,5.5659113E4,2.1603342E6,3.741804E4,3.273493E4,4.533564E4,0E0,8.9515E3,4.185324E3,5.3565947E3,0E0,2.8546125E4,4.1202344E2,0E0,7.109428E4,6.006177E4,5.619057E4,1.4114847E7,4.5471613E4,9.911213E4,3.506598E4,2.8985588E4,5.62209E4,2.0510852E4,6.2680953E4,0E0,0E0,0E0,0E0,0E0,1.3458181E4,5.140292E4,4.4283453E4,0E0,0E0,0E0,3.5987266E4,0E0,0E0,0E0,0E0,0E0,0E0,0E0,0E0,0E0,0E0,0E0,0E0,0E0,0E0,0E0,0E0,0E0,0E0,0E0,0E0,0E0,0E0,0E0,0E0,0E0,0E0,0E0,0E0],"parents":[2147483647,0,0,1,1,2,2,3,3,4,4,5,5,6,6,7,7,8,8,9,9,10,10,11,11,12,12,13,13,15,15,16,16,17,17,18,18,19,19,21,21,22,22,23,23,25,25,26,26,28,28,29,29,30,30,31,31,32,32,33,33,34,34,35,35,36,36,37,37,38,38,44,44,45,45,46,46,50,50],"right_children":[2,4,6,8,10,12,14,16,18,20,22,24,26,28,-1,30,32,34,36,38,-1,40,42,44,-1,46,48,-1,50,52,54,56,58,60,62,64,66,68,70,-1,-1,-1,-1,-1,72,74,76,-1,-1,-1,78,-1,-1,-1,-1,-1,-1,-1,-1,-1,-1,-1,-1,-1,-1,-1,-1,-1,-1,-1,-1,-1,-1,-1,-1,-1,-1,-1,-1],"split_conditions":[1.110558E2,6.2621426E1,2.8296484E2,4.4401776E2,1.985E3,1.996E3,2.015E3,9.5E1,7.8E1,1.984E3,2.565297E1,1.994E3,2.1655153E2,2.003E3,1.1779712E2,1.99E3,9.6E1,2.003E3,1.8945956E3,1.958E3,-3.2183205E1,4.0261246E1,2.015E3,1.991E3,9.662676E1,2.011E3,2.236785E2,1.2042012E2,2.004E3,9.36688E0,1.940991E0,1.966E3,1.5310154E1,2.001E3,2.004E3,1.5498808E1,1.945E3,1.956E3,1.97E3,1.3961499E1,6.5269066E1,4.853687E0,-1.5505591E1,1.7172363E1,1.993E3,2.01E3,3.886827E0,-2.0772364E1,-5.1058598E0,-2.2559473E1,2.005E3,-8.9149065E-2,1.2722049E1,-2.0786195E0,3.995663E0,-8.755428E0,1.8599246E2,-7.772578E-2,4.5432186E0,-2.5367546E0,6.518269E1,-5.863074E1,-1.612207E0,5.134406E0,-4.628355E0,3.5151083E0,2.497278E1,6.2570558E0,-2.4265383E1,3.765462E1,9.219588E0,-2.006045E1,1.4871095E1,2.5364529E1,9.1909424E1,-3.7221682E-1,4.5658596E1,8.710459E1,3.1890528E1],"split_indices":[5,4,4,2,1,1,1,0,0,1,5,1,5,1,0,1,0,1,2,1,0,3,1,1,0,1,5,0,1,3,5,1,3,1,1,4,1,1,1,0,0,0,0,0,1,1,4,0,0,0,1,0,0,0,0,0,0,0,0,0,0,0,0,0,0,0,0,0,0,0,0,0,0,0,0,0,0,0,0],"split_type":[0,0,0,0,0,0,0,0,0,0,0,0,0,0,0,0,0,0,0,0,0,0,0,0,0,0,0,0,0,0,0,0,0,0,0,0,0,0,0,0,0,0,0,0,0,0,0,0,0,0,0,0,0,0,0,0,0,0,0,0,0,0,0,0,0,0,0,0,0,0,0,0,0,0,0,0,0,0,0],"sum_hessian":[4.7328E4,4.7289E4,3.9E1,4.7244E4,4.5E1,2.2E1,1.7E1,4.6929E4,3.15E2,3.7E1,8E0,5E0,1.7E1,1.3E1,4E0,1.9017E4,2.7912E4,7.4E1,2.41E2,3.6E1,1E0,6E0,2E0,3E0,2E0,1.3E1,4E0,2E0,1.1E1,1.6828E4,2.189E3,2.06E2,2.7706E4,7.1E1,3E0,1.96E2,4.5E1,7E0,2.9E1,1E0,5E0,1E0,1E0,1E0,2E0,6E0,7E0,3E0,1E0,1E0,1E1,1.6796E4,3.2E1,2.043E3,1.46E2,1.65E2,4.1E1,2.7514E4,1.92E2,7E1,1E0,1E0,2E0,1.64E2,3.2E1,2.7E1,1.8E1,5E0,2E0,1.2E1,1.7E1,1E0,1E0,5E0,1E0,5E0,2E0,1E0,9E0],"tree_param":{"num_deleted":"0","num_feature":"14","num_nodes":"79","size_leaf_vector":"0"}},{"base_weights":[2.4012962E-1,1.24964565E-1,1.3638802E2,6.994268E-2,4.493055E1,1.1728688E2,1.3219981E2,5.5813774E-2,3.3420555E1,-4.8292413E0,5.9412914E1,8.07959E1,1.5975781E2,-3.179332E-4,8.439818E0,2.2730757E1,1.828314E1,-1.1760022E1,8.108265E0,8.121211E1,4.328977E1,1.40153E2,5.6521538E1,9.633614E1,1.1683476E2,8.325994E-2,-3.5229673E0,-1.70248E1,1.0992385E1,2.6392813E1,-5.807282E-1,8.355241E1,-1.79407E1,-4.9680107E1,5.970867E1,1.6976074E1,2.5767123E2,9.0069405E1,-4.8716797E1,1.1024089E1,1.686377E2,-9.093765E-3,1.6932031E0,1.5251737E1,-1.7758346E0,4.132088E-1,-2.6338797E1,2.8520656E0,2.3619379E1,8.77457E0,3.5823853E0,4.259253E0,3.3339333E1,-3.1216627E1,1.74917E0,2.0104279E1,-6.82832E1,2.1200968E1,-7.3731446E0,1.4596582E1,-2.940625E0,2.38667E1,9.208536E1,3.862655E1,1.3488209E1,-1.609878E1,-4.3400393E0,2.8683634E1,-6.1787403E1,6.3783474E1,-1.4515625E0],"categories":[],"categories_nodes":[],"categories_segments":[],"categories_sizes":[],"default_left":[0,0,0,0,0,0,0,0,0,0,0,0,0,0,0,0,0,0,0,0,0,0,0,0,0,0,0,0,0,0,0,0,0,0,0,0,0,0,0,0,0,0,0,0,0,0,0,0,0,0,0,0,0,0,0,0,0,0,0,0,0,0,0,0,0,0,0,0,0,0,0],"id":17,"left_children":[1,3,5,7,9,11,-1,13,15,17,19,21,23,25,27,29,-1,-1,31,-1,33,35,37,-1,39,41,43,45,47,49,-1,51,53,55,57,59,61,63,65,67,69,-1,-1,-1,-1,-1,-1,-1,-1,-1,-1,-1,-1,-1,-1,-1,-1,-1,-1,-1,-1,-1,-1,-1,-1,-1,-1,-1,-1,-1,-1],"loss_changes":[7.42077E5,1.1658032E5,1.8079775E5,2.2254688E4,4.2084008E4,4.7534688E4,0E0,2.2219309E4,4.4990605E3,6.5432646E3,1.4158381E5,2.5218E4,8.022697E4,1.3808677E4,2.0597186E4,1.4963721E3,0E0,0E0,2.311665E4,0E0,6.8604266E4,8.247896E4,6.793729E4,0E0,8.036047E4,2.8934555E4,1.419128E5,3.7888863E4,2.8030586E4,2.2851562E2,0E0,4.160367E3,1.9030207E4,1.6059761E5,3.592028E4,3.8701655E3,1.912875E3,1.8641977E4,7.064258E1,1.298166E5,7.731297E4,0E0,0E0,0E0,0E0,0E0,0E0,0E0,0E0,0E0,0E0,0E0,0E0,0E0,0E0,0E0,0E0,0E0,0E0,0E0,0E0,0E0,0E0,0E0,0E0,0E0,0E0,0E0,0E0,0E0,0E0],"parents":[2147483647,0,0,1,1,2,2,3,3,4,4,5,5,7,7,8,8,9,9,10,10,11,11,12,12,13,13,14,14,15,15,18,18,20,20,21,21,22,22,24,24,25,25,26,26,27,27,28,28,29,29,31,31,32,32,33,33,34,34,35,35,36,36,37,37,38,38,39,39,40,40],"right_children":[2,4,6,8,10,12,-1,14,16,18,20,22,24,26,28,30,-1,-1,32,-1,34,36,38,-1,40,42,44,46,48,50,-1,52,54,56,58,60,62,64,66,68,70,-1,-1,-1,-1,-1,-1,-1,-1,-1,-1,-1,-1,-1,-1,-1,-1,-1,-1,-1,-1,-1,-1,-1,-1,-1,-1,-1,-1,-1,-1],"split_conditions":[1.110558E2,5.1184937E1,4.39254E2,1.69439E2,1.964E3,2.8296484E2,1.3219981E2,4.4401776E2,2.014E3,1.954E3,1.966E3,1.996E3,2.003E3,3.45257E0,4.2E1,2.012E3,1.828314E1,-1.1760022E1,1.956E3,8.121211E1,1.972E3,1.994E3,2.1655153E2,9.633614E1,2.008E3,1.673E0,8.6E-5,2.548714E0,3.0450653E1,3.93E-1,-5.807282E-1,1.955E3,1.957E3,1.97E3,2.565297E1,1.991E3,1.995E3,2.011E3,2.236785E2,2.007E3,2.019E3,-9.093765E-3,1.6932031E0,1.5251737E1,-1.7758346E0,4.132088E-1,-2.6338797E1,2.8520656E0,2.3619379E1,8.77457E0,3.5823853E0,4.259253E0,3.3339333E1,-3.1216627E1,1.74917E0,2.0104279E1,-6.82832E1,2.1200968E1,-7.3731446E0,1.4596582E1,-2.940625E0,2.38667E1,9.208536E1,3.862655E1,1.3488209E1,-1.609878E1,-4.3400393E0,2.8683634E1,-6.1787403E1,6.3783474E1,-1.4515625E0],"split_indices":[5,4,4,6,1,4,0,2,1,1,1,1,1,3,0,1,0,0,1,0,1,1,5,0,1,3,2,4,5,12,0,1,1,1,5,1,1,1,5,1,1,0,0,0,0,0,0,0,0,0,0,0,0,0,0,0,0,0,0,0,0,0,0,0,0,0,0,0,0,0,0],"split_type":[0,0,0,0,0,0,0,0,0,0,0,0,0,0,0,0,0,0,0,0,0,0,0,0,0,0,0,0,0,0,0,0,0,0,0,0,0,0,0,0,0,0,0,0,0,0,0,0,0,0,0,0,0,0,0,0,0,0,0,0,0,0,0,0,0,0,0,0,0,0,0],"sum_hessian":[4.7328E4,4.7289E4,3.9E1,4.7232E4,5.7E1,3.8E1,1E0,4.7213E4,1.9E1,1.3E1,4.4E1,2.2E1,1.6E1,4.69E4,3.13E2,1.5E1,4E0,3E0,1E1,2E0,4.2E1,5E0,1.7E1,2E0,1.4E1,4.5814E4,1.086E3,2.8E1,2.85E2,1.3E1,2E0,2E0,8E0,6E0,3.6E1,3E0,2E0,1.3E1,4E0,5E0,9E0,4.4898E4,9.16E2,4.5E1,1.041E3,2.3E1,5E0,2.8E2,5E0,1E1,3E0,1E0,1E0,1E0,7E0,4E0,2E0,3.2E1,4E0,1E0,2E0,1E0,1E0,6E0,7E0,3E0,1E0,4E0,1E0,7E0,2E0],"tree_param":{"num_deleted":"0","num_feature":"14","num_nodes":"71","size_leaf_vector":"0"}},{"base_weights":[1.7878288E-1,9.629726E-2,1.1839527E2,2.9058293E-2,2.3585888E1,9.868472E1,1.1236993E2,-1.7988896E-1,1.5444784E0,3.9524666E1,9.090505E0,1.494707E2,8.121601E1,-5.3186007E-2,-5.8497176E0,6.746673E0,5.293849E-1,8.035255E1,2.953487E1,-9.01767E1,1.7844425E1,8.7413086E1,7.827246E1,-1.7788736E1,1.0563565E2,-2.301669E-1,3.9466338E0,4.584315E0,-1.07942505E1,3.3018377E0,3.1969067E1,1.7575634E0,-3.2647743E0,1.489506E2,1.0075265E1,-1.5630158E1,3.3757835E1,-6.3482983E1,7.0327244E0,-1.134929E1,3.6634323E1,3.8887108E1,4.9506447E1,1.2631934E1,-1.1456719E1,5.1975708E1,7.953452E1,-5.8509722E-2,-1.7355249E0,-1.253821E0,2.9314075E0,-1.12273745E-1,1.4370467E1,-2.3493545E0,-2.4122833E1,1.5514776E0,-9.463592E0,2.4737804E0,2.0533405E1,4.0809476E-1,4.3922405E0,-1.9897447E0,4.2094975E0,5.3982643E1,-9.010529E-1,-7.5359473E0,1.9612598E1,-1.0918632E0,1.3994237E1,-8.750337E0,4.006345E0,3.4561066E1,5.1209903E0,-2.8019533E0,2.224551E1,-2.213921E1,3.5298782E1],"categories":[],"categories_nodes":[],"categories_segments":[],"categories_sizes":[],"default_left":[0,0,0,0,0,0,0,0,0,0,0,0,0,0,0,0,0,0,0,0,0,0,0,0,0,0,0,0,0,0,0,0,0,0,0,0,0,0,0,0,0,0,0,0,0,0,0,0,0,0,0,0,0,0,0,0,0,0,0,0,0,0,0,0,0,0,0,0,0,0,0,0,0,0,0,0,0],"id":18,"left_children":[1,3,5,7,9,11,-1,13,15,17,19,21,23,25,27,29,31,33,35,37,39,41,-1,43,45,47,49,51,53,55,57,59,61,63,65,-1,67,-1,-1,69,71,73,-1,-1,-1,-1,75,-1,-1,-1,-1,-1,-1,-1,-1,-1,-1,-1,-1,-1,-1,-1,-1,-1,-1,-1,-1,-1,-1,-1,-1,-1,-1,-1,-1,-1,-1],"loss_changes":[4.615013E5,7.470094E4,1.29662125E5,1.4934106E4,3.0830922E4,1.6249906E4,0E0,2.9775992E4,3.0175709E4,2.3729969E4,6.4175508E4,2.5602016E4,6.4738297E4,2.8701668E4,4.6791312E4,8.0960016E4,2.2294062E4,5.6349906E4,2.0030215E4,8.774347E4,3.716842E4,1.617893E4,0E0,8.939293E3,2.3282781E4,7.5767065E3,8.135707E4,6.2736945E4,1.2622919E5,5.372103E4,9.635097E4,1.8475941E4,6.824477E4,2.8796203E4,1.5266251E4,0E0,2.4753707E4,0E0,0E0,1.2274492E4,6.105689E4,9.19608E3,0E0,0E0,0E0,0E0,1.08069445E5,0E0,0E0,0E0,0E0,0E0,0E0,0E0,0E0,0E0,0E0,0E0,0E0,0E0,0E0,0E0,0E0,0E0,0E0,0E0,0E0,0E0,0E0,0E0,0E0,0E0,0E0,0E0,0E0,0E0,0E0],"parents":[2147483647,0,0,1,1,2,2,3,3,4,4,5,5,7,7,8,8,9,9,10,10,11,11,12,12,13,13,14,14,15,15,16,16,17,17,18,18,19,19,20,20,21,21,23,23,24,24,25,25,26,26,27,27,28,28,29,29,30,30,31,31,32,32,33,33,34,34,36,36,39,39,40,40,41,41,46,46],"right_children":[2,4,6,8,10,12,-1,14,16,18,20,22,24,26,28,30,32,34,36,38,40,42,-1,44,46,48,50,52,54,56,58,60,62,64,66,-1,68,-1,-1,70,72,74,-1,-1,-1,-1,76,-1,-1,-1,-1,-1,-1,-1,-1,-1,-1,-1,-1,-1,-1,-1,-1,-1,-1,-1,-1,-1,-1,-1,-1,-1,-1,-1,-1,-1,-1],"split_conditions":[1.7153888E2,3.5613052E1,4.39254E2,1.909095E0,1.989E3,1.996E3,1.1236993E2,6.61647E-1,3.7E1,6E-6,1.991E3,1.995E3,2.001E3,2.004E3,8.6E-5,3.5E1,2.834652E0,3.2851724E3,7.3433E-2,4.2E1,7.560075E0,2.8296484E2,7.827246E1,2.1655153E2,2.005E3,6.70512E-1,9.3E1,5.430054E0,5.69139E0,5.238919E0,1.97E3,9.93E-1,2.15E2,8E1,1.948E3,-1.5630158E1,1.964E3,-6.3482983E1,7.0327244E0,7.324473E1,1.0249879E3,1.993E3,4.9506447E1,1.2631934E1,-1.1456719E1,5.1975708E1,2.008E3,-5.8509722E-2,-1.7355249E0,-1.253821E0,2.9314075E0,-1.12273745E-1,1.4370467E1,-2.3493545E0,-2.4122833E1,1.5514776E0,-9.463592E0,2.4737804E0,2.0533405E1,4.0809476E-1,4.3922405E0,-1.9897447E0,4.2094975E0,5.3982643E1,-9.010529E-1,-7.5359473E0,1.9612598E1,-1.0918632E0,1.3994237E1,-8.750337E0,4.006345E0,3.4561066E1,5.1209903E0,-2.8019533E0,2.224551E1,-2.213921E1,3.5298782E1],"split_indices":[5,3,4,2,1,1,0,3,0,4,1,1,1,1,2,0,3,2,4,0,5,4,0,5,1,4,0,3,3,3,1,5,0,0,1,0,1,0,0,3,2,1,0,0,0,0,1,0,0,0,0,0,0,0,0,0,0,0,0,0,0,0,0,0,0,0,0,0,0,0,0,0,0,0,0,0,0],"split_type":[0,0,0,0,0,0,0,0,0,0,0,0,0,0,0,0,0,0,0,0,0,0,0,0,0,0,0,0,0,0,0,0,0,0,0,0,0,0,0,0,0,0,0,0,0,0,0,0,0,0,0,0,0,0,0,0,0,0,0,0,0,0,0,0,0,0,0,0,0,0,0,0,0,0,0,0,0],"sum_hessian":[4.7328E4,4.7296E4,3.2E1,4.7162E4,1.34E2,3.1E1,1E0,4.1448E4,5.714E3,6.3E1,7.1E1,6E0,2.5E1,4.0543E4,9.05E2,9.32E2,4.782E3,1.1E1,5.2E1,5E0,6.6E1,5E0,1E0,5E0,2E1,3.8826E4,1.717E3,2.91E2,6.14E2,8.21E2,1.11E2,3.613E3,1.169E3,5E0,6E0,2E0,5E1,2E0,3E0,2.6E1,4E1,4E0,1E0,1E0,4E0,4E0,1.6E1,3.8583E4,2.43E2,7.17E2,1E3,2.62E2,2.9E1,5.9E2,2.4E1,7.8E2,4.1E1,6.8E1,4.3E1,3.506E3,1.07E2,9.79E2,1.9E2,4E0,1E0,4E0,2E0,1.3E1,3.7E1,1.5E1,1.1E1,7E0,3.3E1,2E0,2E0,3E0,1.3E1],"tree_param":{"num_deleted":"0","num_feature":"14","num_nodes":"77","size_leaf_vector":"0"}},{"base_weights":[1.3310546E-1,6.301296E-2,8.736156E1,2.5822276E-2,1.8346613E1,7.251291E1,9.551426E1,-2.3132011E-2,1.3410116E1,3.3568768E1,3.0606914E0,8.6877106E1,5.84388E1,1.9283295E-2,-8.432588E0,-1.2878974E1,2.1215782E1,2.1512867E1,6.2170902E1,-4.5066906E1,3.245952E1,-7.703906E1,7.478259E1,-2.1784047E-2,7.095267E0,3.894254E1,-1.4230316E1,2.1956371E1,-3.7017387E1,1.704116E1,7.683932E1,-2.4355677E1,3.3328342E1,-1.05762764E2,3.4124348E1,1.7287996E1,6.259092E1,8.180587E1,-8.220313E0,-4.8037965E-4,-3.7068293E0,1.1513501E0,1.991569E1,-3.6582654E0,1.752726E1,-3.0848043E1,-3.6064677E0,-2.519458E0,1.3213316E1,-2.7322547E0,-2.0752148E1,9.467762E0,-7.8954303E-1,2.9143768E1,-1.2841992E1,-1.1530669E1,6.3927736E0,2.719742E1,-4.5080265E-1,-4.089639E1,6.3501225E0,-1.8944532E0,2.0321602E1,1.5947345E1,-1.5638673E1,7.156091E1,4.961214E0,2.0375574E1,7.8929886E1],"categories":[],"categories_nodes":[],"categories_segments":[],"categories_sizes":[],"default_left":[0,0,0,0,0,0,0,0,0,0,0,0,0,0,0,0,0,0,0,0,0,0,0,0,0,0,0,0,0,0,0,0,0,0,0,0,0,0,0,0,0,0,0,0,0,0,0,0,0,0,0,0,0,0,0,0,0,0,0,0,0,0,0,0,0,0,0,0,0],"id":19,"left_children":[1,3,5,7,9,11,-1,13,15,17,19,-1,21,23,25,27,29,31,-1,33,35,-1,37,39,41,43,45,47,49,51,53,55,57,59,61,63,65,67,-1,-1,-1,-1,-1,-1,-1,-1,-1,-1,-1,-1,-1,-1,-1,-1,-1,-1,-1,-1,-1,-1,-1,-1,-1,-1,-1,-1,-1,-1,-1],"loss_changes":[2.8936684E5,3.2157115E4,1.0726566E5,3.0924662E4,2.2234986E4,9.6118E4,0E0,1.6773848E4,3.5568297E4,9.6040266E4,7.079271E4,0E0,2.0468112E5,1.3597237E4,6.537584E4,3.4447566E4,2.9574121E4,2.5741828E4,0E0,9.493411E4,1.3089242E4,0E0,2.7359828E4,1.1581201E4,5.1891508E4,2.6614383E4,4.005406E4,1.1767916E4,2.0909559E4,3.578469E4,2.602489E4,7.248602E3,7.401978E4,4.5552203E4,1.2661785E4,5.7550434E4,7.708434E4,6.5214062E4,0E0,0E0,0E0,0E0,0E0,0E0,0E0,0E0,0E0,0E0,0E0,0E0,0E0,0E0,0E0,0E0,0E0,0E0,0E0,0E0,0E0,0E0,0E0,0E0,0E0,0E0,0E0,0E0,0E0,0E0,0E0],"parents":[2147483647,0,0,1,1,2,2,3,3,4,4,5,5,7,7,8,8,9,9,10,10,12,12,13,13,14,14,15,15,16,16,17,17,19,19,20,20,22,22,23,23,24,24,25,25,26,26,27,27,28,28,29,29,30,30,31,31,32,32,33,33,34,34,35,35,36,36,37,37],"right_children":[2,4,6,8,10,12,-1,14,16,18,20,-1,22,24,26,28,30,32,-1,34,36,-1,38,40,42,44,46,48,50,52,54,56,58,60,62,64,66,68,-1,-1,-1,-1,-1,-1,-1,-1,-1,-1,-1,-1,-1,-1,-1,-1,-1,-1,-1,-1,-1,-1,-1,-1,-1,-1,-1,-1,-1,-1,-1],"split_conditions":[2.4025243E2,1.8945956E3,4.39254E2,5.737109E0,1.966E3,1.97E3,9.551426E1,2.773007E0,3.45521E-1,1.964E3,1.996E3,8.6877106E1,1.971E3,1.0842073E1,4.5519424E1,2.008E3,2.019E3,1.916E3,6.2170902E1,6.840287E3,2.01E3,-7.703906E1,2.019E3,2.287895E1,1.6137E0,2.9E1,1.94E3,1.971E3,3.1779944E2,1.3204492E1,1.0249879E3,1.63543E-1,3.2851724E3,8.975964E1,1.985E3,3.2851724E3,6E-6,2.015E3,-8.220313E0,-4.8037965E-4,-3.7068293E0,1.1513501E0,1.991569E1,-3.6582654E0,1.752726E1,-3.0848043E1,-3.6064677E0,-2.519458E0,1.3213316E1,-2.7322547E0,-2.0752148E1,9.467762E0,-7.8954303E-1,2.9143768E1,-1.2841992E1,-1.1530669E1,6.3927736E0,2.719742E1,-4.5080265E-1,-4.089639E1,6.3501225E0,-1.8944532E0,2.0321602E1,1.5947345E1,-1.5638673E1,7.156091E1,4.961214E0,2.0375574E1,7.8929886E1],"split_indices":[4,2,4,5,1,1,0,5,4,1,1,0,1,4,2,1,1,1,0,2,1,0,1,3,5,0,1,1,2,4,2,3,2,5,1,2,4,1,0,0,0,0,0,0,0,0,0,0,0,0,0,0,0,0,0,0,0,0,0,0,0,0,0,0,0,0,0,0,0],"split_type":[0,0,0,0,0,0,0,0,0,0,0,0,0,0,0,0,0,0,0,0,0,0,0,0,0,0,0,0,0,0,0,0,0,0,0,0,0,0,0,0,0,0,0,0,0,0,0,0,0,0,0,0,0,0,0,0,0,0,0,0,0,0,0,0,0,0,0,0,0],"sum_hessian":[4.7328E4,4.7291E4,3.7E1,4.7196E4,9.5E1,3.6E1,1E0,4.7025E4,1.71E2,4.7E1,4.8E1,1E0,3.5E1,4.679E4,2.35E2,3.9E1,1.32E2,4.5E1,2E0,1.8E1,3E1,1E0,3.4E1,4.6521E4,2.69E2,2.5E1,2.1E2,1.6E1,2.3E1,1.24E2,8E0,9E0,3.6E1,1E1,8E0,2.1E1,9E0,3.2E1,2E0,4.6446E4,7.5E1,2.56E2,1.3E1,7E0,1.8E1,4E0,2.06E2,7E0,9E0,1.3E1,1E1,7.1E1,5.3E1,7E0,1E0,7E0,2E0,1.3E1,2.3E1,8E0,2E0,4E0,4E0,1.4E1,7E0,1E0,8E0,3.1E1,1E0],"tree_param":{"num_deleted":"0","num_feature":"14","num_nodes":"69","size_leaf_vector":"0"}},{"base_weights":[1.0056689E-1,4.037757E-2,6.3343933E1,1.6420593E-2,2.4642271E1,5.248252E1,8.118692E1,2.7264683E-2,-3.4126205E1,1.1845511E1,7.5935005E1,9.932422E1,4.0936142E1,-2.861014E-2,6.093833E0,-1.355406E1,-4.832044E1,1.799463E1,-3.2350784E1,6.2198074E1,3.3595154E1,5.1046875E1,1.6277083E2,1.3054432E1,7.2970245E1,-3.804126E-2,2.2030792E1,1.9809784E1,-1.2234951E0,-4.1357216E1,5.218305E1,-1.4927192E1,2.9109758E1,1.4637116E1,-1.0915723E1,3.902432E1,9.223828E0,9.771387E0,6.347549E1,5.559894E1,-3.0676847E1,6.3012505E1,4.0691277E1,6.8127643E-4,-2.813774E0,7.7104387E0,2.7682573E-1,2.2169535E1,2.2007587E0,-6.859168E-1,4.461746E1,-8.214007E-1,-2.2220476E1,-1.1626026E1,-2.3921695E0,1.4853223E1,5.284931E-1,-1.9245996E1,1.3081934E1,7.298804E0,5.524424E1,1.0515625E0,-3.689922E1,-9.189551E0,2.3824806E1],"categories":[],"categories_nodes":[],"categories_segments":[],"categories_sizes":[],"default_left":[0,0,0,0,0,0,0,0,0,0,0,0,0,0,0,0,0,0,0,0,0,0,0,0,0,0,0,0,0,0,0,0,0,0,0,0,0,0,0,0,0,0,0,0,0,0,0,0,0,0,0,0,0,0,0,0,0,0,0,0,0,0,0,0,0],"id":20,"left_children":[1,3,5,7,9,11,-1,13,15,17,19,21,23,25,27,29,-1,31,-1,-1,33,35,37,39,41,43,45,47,49,51,-1,53,55,-1,-1,-1,57,-1,-1,59,61,-1,63,-1,-1,-1,-1,-1,-1,-1,-1,-1,-1,-1,-1,-1,-1,-1,-1,-1,-1,-1,-1,-1,-1],"loss_changes":[1.8015886E5,2.7868758E4,8.71075E4,1.7491334E4,2.929403E4,1.9731555E4,0E0,1.6008297E4,3.6988883E4,2.9906014E4,4.3102844E4,1.6195328E4,3.2094547E4,9.736504E3,4.328117E4,8.017614E4,0E0,1.3973946E4,0E0,0E0,1.0282282E4,1.8632855E4,1.2175141E4,4.0776645E4,6.667004E4,1.7614572E4,1.5258965E3,1.0066257E5,4.5284977E4,1.6219773E4,0E0,1.3476919E3,1.5534775E4,0E0,0E0,0E0,1.541199E4,0E0,0E0,3.9736082E4,3.51439E4,0E0,4.38622E4,0E0,0E0,0E0,0E0,0E0,0E0,0E0,0E0,0E0,0E0,0E0,0E0,0E0,0E0,0E0,0E0,0E0,0E0,0E0,0E0,0E0,0E0],"parents":[2147483647,0,0,1,1,2,2,3,3,4,4,5,5,7,7,8,8,9,9,10,10,11,11,12,12,13,13,14,14,15,15,17,17,20,20,21,21,22,22,23,23,24,24,25,25,26,26,27,27,28,28,29,29,31,31,32,32,36,36,39,39,40,40,42,42],"right_children":[2,4,6,8,10,12,-1,14,16,18,20,22,24,26,28,30,-1,32,-1,-1,34,36,38,40,42,44,46,48,50,52,-1,54,56,-1,-1,-1,58,-1,-1,60,62,-1,64,-1,-1,-1,-1,-1,-1,-1,-1,-1,-1,-1,-1,-1,-1,-1,-1,-1,-1,-1,-1,-1,-1],"split_conditions":[9.285192E1,6.2621426E1,4.39254E2,3.7775585E1,1.985E3,1.996E3,8.118692E1,1.4337371E1,2.003E3,1.984E3,1.0249879E3,2.2038205E2,2.01E3,1.69439E2,1.99E3,2.001E3,-4.832044E1,8.593079E1,-3.2350784E1,6.2198074E1,2.019E3,1.992E3,1.991E3,2.1655153E2,2.011E3,2.573941E0,1.711E0,2.1731917E2,3.2424717E1,1.989E3,5.218305E1,1.952E3,1.97E3,1.4637116E1,-1.0915723E1,3.902432E1,1.993E3,9.771387E0,6.347549E1,2.8296484E2,2.007E3,6.3012505E1,3.886827E0,6.8127643E-4,-2.813774E0,7.7104387E0,2.7682573E-1,2.2169535E1,2.2007587E0,-6.859168E-1,4.461746E1,-8.214007E-1,-2.2220476E1,-1.1626026E1,-2.3921695E0,1.4853223E1,5.284931E-1,-1.9245996E1,1.3081934E1,7.298804E0,5.524424E1,1.0515625E0,-3.689922E1,-9.189551E0,2.3824806E1],"split_indices":[5,4,4,5,1,1,0,3,1,1,2,5,1,6,1,1,0,4,0,0,1,1,1,5,1,5,8,2,5,1,0,1,1,0,0,0,1,0,0,4,1,0,4,0,0,0,0,0,0,0,0,0,0,0,0,0,0,0,0,0,0,0,0,0,0],"split_type":[0,0,0,0,0,0,0,0,0,0,0,0,0,0,0,0,0,0,0,0,0,0,0,0,0,0,0,0,0,0,0,0,0,0,0,0,0,0,0,0,0,0,0,0,0,0,0,0,0,0,0,0,0,0,0,0,0,0,0,0,0,0,0,0,0],"sum_hessian":[4.7328E4,4.7284E4,4.4E1,4.7239E4,4.5E1,4.3E1,1E0,4.7225E4,1.4E1,3.7E1,8E0,7E0,3.6E1,4.6795E4,4.3E2,1.3E1,1E0,3.6E1,1E0,1E0,7E0,5E0,2E0,2E1,1.6E1,4.6776E4,1.9E1,1.49E2,2.81E2,1.2E1,1E0,9E0,2.7E1,6E0,1E0,1E0,4E0,1E0,1E0,1E1,1E1,2E0,1.4E1,4.6576E4,2E2,1.6E1,3E0,2.7E1,1.22E2,2.8E2,1E0,6E0,6E0,1E0,8E0,1.5E1,1.2E1,1E0,3E0,9E0,1E0,8E0,2E0,5E0,9E0],"tree_param":{"num_deleted":"0","num_feature":"14","num_nodes":"65","size_leaf_vector":"0"}},{"base_weights":[7.844411E-2,3.6927357E-2,5.9579636E1,3.980184E-3,1.1546932E1,4.7064667E1,6.900879E1,-5.301603E-1,3.6840576E-1,8.147202E1,8.789891E0,9.117048E1,3.3379845E1,-6.454644E-2,-3.2272587E0,7.242142E1,-1.6753897E-1,-3.503601E0,6.320618E1,5.8080125E0,4.856558E1,4.641634E1,5.39543E1,-1.3768213E1,4.571531E1,-1.2598874E-1,2.1202398E1,-2.4783185E0,-5.146756E1,7.406691E0,6.799388E2,-4.0922037E-1,4.1884575E0,1.7114176E1,-9.80354E0,9.572699E0,-1.996662E1,-7.153534E0,7.761739E1,9.216992E1,4.970703E-1,5.0911533E1,-1.0290235E1,-2.218378E-2,-6.533773E0,1.7286116E1,-1.6703026E0,-1.0539308E0,5.9558344E0,-3.1447319E1,-8.229561E0,-1.070368E1,6.1082584E1,1.2207877E2,2.386925E2,-8.4723935E-2,-2.5016193E0,3.8314114E0,-1.4211042E-1,-4.4273806E0,1.212876E1,1.5255394E0,3.0299868E1,-4.76896E1,-3.0704958E-2,-7.1671146E-1,-3.2170534E0,5.2868336E1,6.794927E0,8.305664E0,3.3170803E1,-1.6359083E1,1.1104883E1,2.2826698E1,1.0226837E1],"categories":[],"categories_nodes":[],"categories_segments":[],"categories_sizes":[],"default_left":[0,0,0,0,0,0,0,0,0,0,0,0,0,0,0,0,0,0,0,0,0,0,0,0,0,0,0,0,0,0,0,0,0,0,0,0,0,0,0,0,0,0,0,0,0,0,0,0,0,0,0,0,0,0,0,0,0,0,0,0,0,0,0,0,0,0,0,0,0,0,0,0,0,0,0],"id":21,"left_children":[1,3,5,7,9,11,-1,13,15,17,19,21,23,25,27,29,31,33,-1,35,37,39,-1,-1,41,43,45,47,49,51,53,55,57,59,-1,61,63,65,67,69,71,73,-1,-1,-1,-1,-1,-1,-1,-1,-1,-1,-1,-1,-1,-1,-1,-1,-1,-1,-1,-1,-1,-1,-1,-1,-1,-1,-1,-1,-1,-1,-1,-1,-1],"loss_changes":[1.1691444E5,1.7936023E4,5.9568414E4,9.180685E3,2.5310025E4,1.62713125E4,0E0,2.402086E4,1.0826624E6,5.5638895E4,1.5255353E4,1.9432824E4,2.7522951E4,2.1318703E4,1.01612E5,8.1709625E6,2.9300117E4,2.9653486E3,0E0,1.2126242E4,1.5123906E4,1.2560011E4,0E0,0E0,1.1309277E4,1.832961E4,4.614167E4,6.4170965E4,5.2270617E4,1.5965191E6,3.0799E5,2.6511186E4,5.854786E4,2.8259485E3,0E0,4.3797094E4,4.4161453E4,4.2417694E1,2.853077E4,4.9825195E2,1.0056727E4,6.7239844E3,0E0,0E0,0E0,0E0,0E0,0E0,0E0,0E0,0E0,0E0,0E0,0E0,0E0,0E0,0E0,0E0,0E0,0E0,0E0,0E0,0E0,0E0,0E0,0E0,0E0,0E0,0E0,0E0,0E0,0E0,0E0,0E0,0E0],"parents":[2147483647,0,0,1,1,2,2,3,3,4,4,5,5,7,7,8,8,9,9,10,10,11,11,12,12,13,13,14,14,15,15,16,16,17,17,19,19,20,20,21,21,24,24,25,25,26,26,27,27,28,28,29,29,30,30,31,31,32,32,33,33,35,35,36,36,37,37,38,38,39,39,40,40,41,41],"right_children":[2,4,6,8,10,12,-1,14,16,18,20,22,24,26,28,30,32,34,-1,36,38,40,-1,-1,42,44,46,48,50,52,54,56,58,60,-1,62,64,66,68,70,72,74,-1,-1,-1,-1,-1,-1,-1,-1,-1,-1,-1,-1,-1,-1,-1,-1,-1,-1,-1,-1,-1,-1,-1,-1,-1,-1,-1,-1,-1,-1,-1,-1,-1],"split_conditions":[1.7153888E2,3.5613052E1,4.39254E2,9.5E1,1.947E3,1.996E3,6.900879E1,1.981E3,9.6E1,1.937E3,2.019E3,1.995E3,1.999E3,1.1526808E1,9.3E1,1.994E3,2.7711E-2,1.93E3,6.320618E1,2.013E3,1.9927763E2,1.992E3,5.39543E1,-1.3768213E1,1.5051513E4,5.430054E0,5.8208344E2,7.2659256E1,9.4E1,1.95E3,2.002E3,2.834652E0,1.46E2,1.929E3,-9.80354E0,2.01E3,2.014E3,2.15E2,1.0249879E3,1.991E3,1.993E3,2.1655153E2,-1.0290235E1,-2.218378E-2,-6.533773E0,1.7286116E1,-1.6703026E0,-1.0539308E0,5.9558344E0,-3.1447319E1,-8.229561E0,-1.070368E1,6.1082584E1,1.2207877E2,2.386925E2,-8.4723935E-2,-2.5016193E0,3.8314114E0,-1.4211042E-1,-4.4273806E0,1.212876E1,1.5255394E0,3.0299868E1,-4.76896E1,-3.0704958E-2,-7.1671146E-1,-3.2170534E0,5.2868336E1,6.794927E0,8.305664E0,3.3170803E1,-1.6359083E1,1.1104883E1,2.2826698E1,1.0226837E1],"split_indices":[5,3,4,0,1,1,0,1,0,1,1,1,1,3,0,1,4,1,0,1,2,1,0,0,2,3,2,2,0,1,1,3,0,1,0,1,1,0,2,1,1,5,0,0,0,0,0,0,0,0,0,0,0,0,0,0,0,0,0,0,0,0,0,0,0,0,0,0,0,0,0,0,0,0,0],"split_type":[0,0,0,0,0,0,0,0,0,0,0,0,0,0,0,0,0,0,0,0,0,0,0,0,0,0,0,0,0,0,0,0,0,0,0,0,0,0,0,0,0,0,0,0,0,0,0,0,0,0,0,0,0,0,0,0,0,0,0,0,0,0,0,0,0,0,0,0,0,0,0,0,0,0,0],"sum_hessian":[4.7328E4,4.7296E4,3.2E1,4.7162E4,1.34E2,3.1E1,1E0,1.9127E4,2.8035E4,4E0,1.3E2,6E0,2.5E1,1.6312E4,2.815E3,2.06E2,2.7829E4,3E0,1E0,1.22E2,8E0,5E0,1E0,3E0,2.2E1,1.6266E4,4.6E1,2.773E3,4.2E1,1.87E2,1.9E1,2.6367E4,1.462E3,2E0,1E0,1.07E2,1.5E1,3E0,5E0,2E0,3E0,2.1E1,1E0,1.6228E4,3.8E1,1.9E1,2.7E1,2.651E3,1.22E2,1.2E1,3E1,1.54E2,3.3E1,7E0,1.2E1,2.5953E4,4.14E2,5.14E2,9.48E2,1E0,1E0,1.03E2,4E0,1E0,1.4E1,2E0,1E0,1E0,4E0,1E0,1E0,1E0,2E0,7E0,1.4E1],"tree_param":{"num_deleted":"0","num_feature":"14","num_nodes":"75","size_leaf_vector":"0"}},{"base_weights":[6.8764254E-2,3.8107585E-2,5.58424E1,-3.1695873E-2,4.6787386E0,4.2434063E1,5.865762E1,-3.570839E-3,-7.8995676E0,5.897175E0,-5.55329E1,5.1944294E1,-1.3386719E1,1.1495971E-2,-2.1191507E1,-2.0743305E1,5.6142544E1,-1.6691385E1,9.36828E0,-1.9051666E1,-5.1313376E0,3.5522728E1,6.1982815E1,-1.4078152E-1,1.1582778E0,1.28815565E1,-3.8813564E1,-3.178295E1,3.0235734E0,6.1313103E1,-1.2519388E1,-2.745439E1,2.1005173E1,6.9971054E1,7.1463976E0,4.2539522E-1,-2.734497E0,6.697431E1,-8.916601E0,-1.0485814E-2,-8.6394256E-1,4.1705556E0,2.3754679E-1,5.462782E0,-6.8584995E0,-1.4000924E1,2.4620087E0,-5.472554E0,-2.2765686E1,7.258659E0,-9.023567E0,9.50047E0,2.4875338E1,-6.807224E0,-3.0829103E1,9.254287E0,-2.6376564E1,2.3708515E1,-3.2147095E0,1.5406941E1,1.2328737E0,1.2234669E1,5.71919E1,-2.1433594E1,8.426368E0],"categories":[],"categories_nodes":[],"categories_segments":[],"categories_sizes":[],"default_left":[0,0,0,0,0,0,0,0,0,0,0,0,0,0,0,0,0,0,0,0,0,0,0,0,0,0,0,0,0,0,0,0,0,0,0,0,0,0,0,0,0,0,0,0,0,0,0,0,0,0,0,0,0,0,0,0,0,0,0,0,0,0,0,0,0],"id":22,"left_children":[1,3,5,7,9,11,-1,13,15,17,19,21,-1,23,25,27,29,31,33,-1,35,37,-1,39,41,43,45,47,49,51,-1,53,55,57,59,-1,-1,61,63,-1,-1,-1,-1,-1,-1,-1,-1,-1,-1,-1,-1,-1,-1,-1,-1,-1,-1,-1,-1,-1,-1,-1,-1,-1,-1],"loss_changes":[8.092261E4,1.5323431E4,4.0398883E4,1.0312698E4,5.1755695E4,2.3016059E4,0E0,1.4825181E4,1.3770623E5,5.410058E4,5.2998086E3,5.1077055E4,0E0,8.1041743E3,2.0314414E4,3.656663E4,1.672843E4,3.790368E4,7.988739E4,0E0,9.119558E1,3.13463E4,0E0,1.187521E4,2.539351E4,2.7014512E3,8.509797E3,5.534958E4,3.2265422E4,1.4666781E4,0E0,2.3497984E4,2.522646E4,1.6193773E4,7.7255805E4,0E0,0E0,3.433298E4,2.514518E4,0E0,0E0,0E0,0E0,0E0,0E0,0E0,0E0,0E0,0E0,0E0,0E0,0E0,0E0,0E0,0E0,0E0,0E0,0E0,0E0,0E0,0E0,0E0,0E0,0E0,0E0],"parents":[2147483647,0,0,1,1,2,2,3,3,4,4,5,5,7,7,8,8,9,9,10,10,11,11,13,13,14,14,15,15,16,16,17,17,18,18,20,20,21,21,23,23,24,24,25,25,26,26,27,27,28,28,29,29,31,31,32,32,33,33,34,34,37,37,38,38],"right_children":[2,4,6,8,10,12,-1,14,16,18,20,22,-1,24,26,28,30,32,34,-1,36,38,-1,40,42,44,46,48,50,52,-1,54,56,58,60,-1,-1,62,64,-1,-1,-1,-1,-1,-1,-1,-1,-1,-1,-1,-1,-1,-1,-1,-1,-1,-1,-1,-1,-1,-1,-1,-1,-1,-1],"split_conditions":[2.8296484E2,9.36688E0,4.39254E2,7.119563E0,2.23E2,2.019E3,5.865762E1,4.250876E0,2.15E2,6.1E1,2.018E3,2.015E3,-1.3386719E1,1.352016E0,1.997E3,1.75E-4,2.23E2,8.975964E1,7E1,-1.9051666E1,2.019E3,2.005E3,6.1982815E1,2.81815E-1,9E0,4.1642276E2,1.67E2,2.009E3,1.01E2,2.22E2,-1.2519388E1,1.8945956E3,4.710883E0,1.989E3,1.3234368E1,4.2539522E-1,-2.734497E0,2.004E3,2.008E3,-1.0485814E-2,-8.6394256E-1,4.1705556E0,2.3754679E-1,5.462782E0,-6.8584995E0,-1.4000924E1,2.4620087E0,-5.472554E0,-2.2765686E1,7.258659E0,-9.023567E0,9.50047E0,2.4875338E1,-6.807224E0,-3.0829103E1,9.254287E0,-2.6376564E1,2.3708515E1,-3.2147095E0,1.5406941E1,1.2328737E0,1.2234669E1,5.71919E1,-2.1433594E1,8.426368E0],"split_indices":[4,3,4,3,0,1,0,5,0,0,1,1,0,2,1,5,0,5,0,0,1,1,0,3,0,2,0,1,0,0,0,2,4,1,2,0,0,1,1,0,0,0,0,0,0,0,0,0,0,0,0,0,0,0,0,0,0,0,0,0,0,0,0,0,0],"split_type":[0,0,0,0,0,0,0,0,0,0,0,0,0,0,0,0,0,0,0,0,0,0,0,0,0,0,0,0,0,0,0,0,0,0,0,0,0,0,0,0,0,0,0,0,0,0,0,0,0,0,0,0,0,0,0,0,0,0,0,0,0,0,0,0,0],"sum_hessian":[4.7328E4,4.7303E4,2.5E1,4.6603E4,7E2,2.4E1,1E0,4.6438E4,1.65E2,6.87E2,1.3E1,2.2E1,2E0,4.6406E4,3.2E1,1.38E2,2.7E1,9.1E1,5.96E2,1.1E1,2E0,2.1E1,1E0,4.0967E4,5.439E3,1.1E1,2.1E1,9.4E1,4.4E1,2.6E1,1E0,7.1E1,2E1,2E1,5.76E2,1E0,1E0,1.2E1,9E0,3.9444E4,1.523E3,1.51E2,5.288E3,1E1,1E0,1.8E1,3E0,7.3E1,2.1E1,2.7E1,1.7E1,1.2E1,1.4E1,6.8E1,3E0,1.9E1,1E0,1.8E1,2E0,3.6E1,5.4E2,1.1E1,1E0,3E0,6E0],"tree_param":{"num_deleted":"0","num_feature":"14","num_nodes":"65","size_leaf_vector":"0"}},{"base_weights":[5.0399046E-2,2.1773513E-2,4.1076202E1,-3.5978055E-3,7.225263E0,3.1972504E1,4.985918E1,6.434822E-4,-1.4992383E1,6.2001926E1,5.490025E0,7.407366E1,1.9407866E1,-4.987582E-3,8.8458824E1,5.2269062E1,-2.8838065E0,4.1323886E0,5.8083557E1,3.566797E1,4.5676174E1,-2.4802084E1,3.1115095E1,1.47220455E-2,-7.6618924E0,-5.6353273E0,4.54418E1,-1.0530906E0,1.8145615E1,3.776122E1,-6.4690757E0,7.385612E1,-1.8901367E0,2.9771485E0,-1.011961E1,9.716992E1,1.9047749E1,-3.2517097E-3,2.7275674E0,5.329558E-1,-1.506465E1,1.2407916E0,-1.02202635E1,-2.5504966E0,8.271387E0,-5.1170654E0,2.2059815E0,6.8750978E0,2.6360157E1,-1.4090039E1,8.637305E0,2.0279298E0,4.1698536E1,-3.7857716E1,1.0238201E1],"categories":[],"categories_nodes":[],"categories_segments":[],"categories_sizes":[],"default_left":[0,0,0,0,0,0,0,0,0,0,0,0,0,0,0,0,0,0,0,0,0,0,0,0,0,0,0,0,0,0,0,0,0,0,0,0,0,0,0,0,0,0,0,0,0,0,0,0,0,0,0,0,0,0,0],"id":23,"left_children":[1,3,5,7,9,11,-1,13,-1,15,17,19,21,23,25,-1,-1,27,29,31,-1,33,35,37,39,-1,-1,41,43,-1,45,47,49,-1,-1,51,53,-1,-1,-1,-1,-1,-1,-1,-1,-1,-1,-1,-1,-1,-1,-1,-1,-1,-1],"loss_changes":[5.5581598E4,8.644122E3,3.2275379E4,9.989256E3,1.5438001E4,1.54899375E4,0E0,2.3476043E4,0E0,4.186074E4,1.1327244E4,1.5587375E4,1.4228696E4,7.1122725E3,2.311875E4,0E0,0E0,1.1572891E4,1.8317629E4,8.745246E3,0E0,2.1953542E3,1.4888367E4,1.0906768E4,4.8687457E4,0E0,0E0,2.0184645E4,1.1034646E4,0E0,5.6446906E2,1.2748242E2,6.884238E3,0E0,0E0,1.0404693E4,4.5919664E4,0E0,0E0,0E0,0E0,0E0,0E0,0E0,0E0,0E0,0E0,0E0,0E0,0E0,0E0,0E0,0E0,0E0,0E0],"parents":[2147483647,0,0,1,1,2,2,3,3,4,4,5,5,7,7,9,9,10,10,11,11,12,12,13,13,14,14,17,17,18,18,19,19,21,21,22,22,23,23,24,24,27,27,28,28,30,30,31,31,32,32,35,35,36,36],"right_children":[2,4,6,8,10,12,-1,14,-1,16,18,20,22,24,26,-1,-1,28,30,32,-1,34,36,38,40,-1,-1,42,44,-1,46,48,50,-1,-1,52,54,-1,-1,-1,-1,-1,-1,-1,-1,-1,-1,-1,-1,-1,-1,-1,-1,-1,-1],"split_conditions":[1.7153888E2,2.6769184E1,4.39254E2,6.840287E3,9.14E-4,1.996E3,4.985918E1,5.5151196E2,-1.4992383E1,1.1E2,3.2424717E1,1.995E3,2.001E3,1.6376724E1,2.01E3,5.2269062E1,-2.8838065E0,2.005E3,7.473934E2,1.992E3,4.5676174E1,2.1655153E2,2.003E3,1.0842073E1,1.5385344E2,-5.6353273E0,4.54418E1,1.254285E1,1.0992E-1,3.776122E1,1.72E2,1.991E3,1.993E3,2.9771485E0,-1.011961E1,2.002E3,2.004E3,-3.2517097E-3,2.7275674E0,5.329558E-1,-1.506465E1,1.2407916E0,-1.02202635E1,-2.5504966E0,8.271387E0,-5.1170654E0,2.2059815E0,6.8750978E0,2.6360157E1,-1.4090039E1,8.637305E0,2.0279298E0,4.1698536E1,-3.7857716E1,1.0238201E1],"split_indices":[5,4,4,2,3,1,0,3,0,0,5,1,1,4,1,0,0,1,2,1,0,5,1,4,2,0,0,5,2,0,0,1,1,0,0,1,1,0,0,0,0,0,0,0,0,0,0,0,0,0,0,0,0,0,0],"split_type":[0,0,0,0,0,0,0,0,0,0,0,0,0,0,0,0,0,0,0,0,0,0,0,0,0,0,0,0,0,0,0,0,0,0,0,0,0,0,0,0,0,0,0,0,0,0,0,0,0,0,0,0,0,0,0],"sum_hessian":[4.7328E4,4.7296E4,3.2E1,4.7131E4,1.65E2,3.1E1,1E0,4.7128E4,3E0,4E0,1.61E2,6E0,2.5E1,4.7126E4,2E0,1E0,3E0,1.58E2,3E0,5E0,1E0,5E0,2E1,4.7006E4,1.2E2,1E0,1E0,1.16E2,4.2E1,1E0,2E0,2E0,3E0,1E0,4E0,2E0,1.8E1,4.6875E4,1.31E2,9.9E1,2.1E1,1.01E2,1.5E1,1.1E1,3.1E1,1E0,1E0,1E0,1E0,1E0,2E0,1E0,1E0,1E0,1.7E1],"tree_param":{"num_deleted":"0","num_feature":"14","num_nodes":"55","size_leaf_vector":"0"}},{"base_weights":[4.006019E-2,3.409131E-2,4.2380276E1,1.4947813E-2,2.4501663E1,-1.5489298E-2,6.4394317E0,7.101768E1,1.2030843E1,-3.155446E-2,1.2785713E1,5.234988E0,2.1322191E1,-1.7921582E2,2.85517E1,2.6528165E-3,-5.9096823E0,-1.6925829E1,2.0731762E1,1.8393127E1,2.560607E0,-6.616231E1,-1.4484815E1,3.890874E1,1.4579826E1,-1.6989066E-3,7.772227E0,5.261301E0,-3.0441763E0,8.580792E0,-1.4686936E1,2.5101696E1,1.0868659E0,1.7853976E0,1.693191E1,-1.1245111E1,1.2362994E0,-6.1008106E1,8.586953E0],"categories":[],"categories_nodes":[],"categories_segments":[],"categories_sizes":[],"default_left":[0,0,0,0,0,0,0,0,0,0,0,0,0,0,0,0,0,0,0,0,0,0,0,0,0,0,0,0,0,0,0,0,0,0,0,0,0,0,0],"id":24,"left_children":[1,3,-1,5,7,9,11,-1,13,15,17,19,-1,21,23,25,27,29,31,33,35,-1,-1,-1,37,-1,-1,-1,-1,-1,-1,-1,-1,-1,-1,-1,-1,-1,-1],"loss_changes":[3.989211E4,2.2167826E4,0E0,9.247706E3,9.507642E4,9.680509E3,1.6988176E4,0E0,1.1886104E5,9.452941E3,1.4280176E4,7.6946763E3,0E0,5.5841875E3,4.615692E4,1.0069087E4,2.7203836E4,2.0358252E4,5.0308438E4,1.7178719E4,1.1651669E4,0E0,0E0,0E0,1.0069974E5,0E0,0E0,0E0,0E0,0E0,0E0,0E0,0E0,0E0,0E0,0E0,0E0,0E0,0E0],"parents":[2147483647,0,0,1,1,3,3,4,4,5,5,6,6,8,8,9,9,10,10,11,11,13,13,14,14,15,15,16,16,17,17,18,18,19,19,20,20,24,24],"right_children":[2,4,-1,6,8,10,12,-1,14,16,18,20,-1,22,24,26,28,30,32,34,36,-1,-1,-1,38,-1,-1,-1,-1,-1,-1,-1,-1,-1,-1,-1,-1,-1,-1],"split_conditions":[4.39254E2,2.4025243E2,4.2380276E1,5.09403E0,1.97E3,1.8945956E3,2.19E2,7.101768E1,1.972E3,2.210246E0,1.94404E-1,2.4589503E2,2.1322191E1,1.971E3,1.976E3,1.315721E3,4.5519424E1,1.19931E-1,3.2851724E3,1.6423462E2,6.29667E0,-6.616231E1,-1.4484815E1,3.890874E1,1.977E3,-1.6989066E-3,7.772227E0,5.261301E0,-3.0441763E0,8.580792E0,-1.4686936E1,2.5101696E1,1.0868659E0,1.7853976E0,1.693191E1,-1.1245111E1,1.2362994E0,-6.1008106E1,8.586953E0],"split_indices":[4,4,0,5,1,2,0,0,1,5,3,2,0,1,1,2,2,3,2,2,5,0,0,0,1,0,0,0,0,0,0,0,0,0,0,0,0,0,0],"split_type":[0,0,0,0,0,0,0,0,0,0,0,0,0,0,0,0,0,0,0,0,0,0,0,0,0,0,0,0,0,0,0,0,0,0,0,0,0,0,0],"sum_hessian":[4.7328E4,4.7327E4,1E0,4.7291E4,3.6E1,4.7069E4,2.22E2,1E0,3.5E1,4.7011E4,5.8E1,2.19E2,3E0,2E0,3.3E1,4.674E4,2.71E2,1.2E1,4.6E1,3.6E1,1.83E2,1E0,1E0,3E0,3E1,4.6726E4,1.4E1,4.1E1,2.3E2,5E0,7E0,9E0,3.7E1,2.8E1,8E0,6E0,1.77E2,1E0,2.9E1],"tree_param":{"num_deleted":"0","num_feature":"14","num_nodes":"39","size_leaf_vector":"0"}},{"base_weights":[2.9718423E-2,2.4644755E-2,3.6023438E1,9.93583E-3,1.5831165E1,1.6451726E-2,-2.0524923E1,4.632617E1,6.6659875E0,-1.48254465E-2,4.913568E0,-1.5746591E0,-4.2874294E1,1.6934376E1,6.309831E1,-9.573705E0,2.4424116E1,1.2053434E-2,-1.1063094E1,-5.8269444E0,8.912693E0,-2.3518147E1,4.2553604E1,5.7052734E1,-2.8828775E1,7.808508E1,2.208317E1,8.35944E0,-6.1458397E1,3.8039257E1,2.321159E0,-2.3158896E-3,3.2298486E0,-3.0416578E1,-2.563465E0,1.9670376E0,-4.84645E0,3.9185303E1,2.1567192E0,7.0477563E-1,-1.3807744E1,4.555664E0,2.1118067E1,-1.3264747E1,2.917969E-1,6.2096195E0,3.753662E1,2.3044264E1,-1.3106836E1,-6.767549E0,1.7548828E1,-4.7862892E1,8.845459E-1,-1.2084425E1,8.295176E0],"categories":[],"categories_nodes":[],"categories_segments":[],"categories_sizes":[],"default_left":[0,0,0,0,0,0,0,0,0,0,0,0,0,0,0,0,0,0,0,0,0,0,0,0,0,0,0,0,0,0,0,0,0,0,0,0,0,0,0,0,0,0,0,0,0,0,0,0,0,0,0,0,0,0,0],"id":25,"left_children":[1,3,-1,5,7,9,11,13,15,17,19,21,-1,23,25,27,29,31,33,35,37,39,-1,41,43,45,47,49,51,-1,53,-1,-1,-1,-1,-1,-1,-1,-1,-1,-1,-1,-1,-1,-1,-1,-1,-1,-1,-1,-1,-1,-1,-1,-1],"loss_changes":[2.8824457E4,1.1003458E4,0E0,6.3272134E3,1.1988846E4,7.2404756E3,3.456463E4,3.8610996E3,1.0327357E4,1.3949178E4,1.293773E4,4.7395824E4,0E0,1.0824474E4,1.9637441E3,1.8192416E4,3.817252E4,9.96426E3,2.506393E4,1.0593548E4,4.500156E4,7.6769175E3,0E0,6.066631E2,1.4186748E3,8.207256E3,1.4155384E4,2.4571412E4,3.2057018E4,0E0,1.7300287E4,0E0,0E0,0E0,0E0,0E0,0E0,0E0,0E0,0E0,0E0,0E0,0E0,0E0,0E0,0E0,0E0,0E0,0E0,0E0,0E0,0E0,0E0,0E0,0E0],"parents":[2147483647,0,0,1,1,3,3,4,4,5,5,6,6,7,7,8,8,9,9,10,10,11,11,13,13,14,14,15,15,16,16,17,17,18,18,19,19,20,20,21,21,23,23,24,24,25,25,26,26,27,27,28,28,30,30],"right_children":[2,4,-1,6,8,10,12,14,16,18,20,22,-1,24,26,28,30,32,34,36,38,40,-1,42,44,46,48,50,52,-1,54,-1,-1,-1,-1,-1,-1,-1,-1,-1,-1,-1,-1,-1,-1,-1,-1,-1,-1,-1,-1,-1,-1,-1,-1],"split_conditions":[4.39254E2,9.285192E1,3.6023438E1,3.7775585E1,1.997E3,3.876211E0,2.003E3,1.994E3,2.01E3,2.773007E0,1.2272913E1,2.001E3,-4.2874294E1,1.992E3,1.996E3,2.007E3,2.011E3,1.315721E3,1.929E3,7E1,3.964926E0,1.989E3,4.2553604E1,1.991E3,1.993E3,2.2038205E2,4.2E1,2.8296484E2,2.008E3,3.8039257E1,3.886827E0,-2.3158896E-3,3.2298486E0,-3.0416578E1,-2.563465E0,1.9670376E0,-4.84645E0,3.9185303E1,2.1567192E0,7.0477563E-1,-1.3807744E1,4.555664E0,2.1118067E1,-1.3264747E1,2.917969E-1,6.2096195E0,3.753662E1,2.3044264E1,-1.3106836E1,-6.767549E0,1.7548828E1,-4.7862892E1,8.845459E-1,-1.2084425E1,8.295176E0],"split_indices":[4,5,0,5,1,5,1,1,1,5,3,1,0,1,1,1,1,2,1,0,5,1,0,1,1,5,0,4,1,0,4,0,0,0,0,0,0,0,0,0,0,0,0,0,0,0,0,0,0,0,0,0,0,0,0],"split_type":[0,0,0,0,0,0,0,0,0,0,0,0,0,0,0,0,0,0,0,0,0,0,0,0,0,0,0,0,0,0,0,0,0,0,0,0,0,0,0,0,0,0,0,0,0,0,0,0,0,0,0,0,0,0,0],"sum_hessian":[4.7328E4,4.7327E4,1E0,4.7284E4,4.3E1,4.727E4,1.4E1,9E0,3.4E1,4.6971E4,2.99E2,1.3E1,1E0,4E0,5E0,1.8E1,1.6E1,4.6858E4,1.13E2,8.1E1,2.18E2,1.2E1,1E0,2E0,2E0,3E0,2E0,1.4E1,4E0,2E0,1.4E1,4.6773E4,8.5E1,2E0,1.11E2,3.7E1,4.4E1,2E0,2.16E2,6E0,6E0,1E0,1E0,1E0,1E0,2E0,1E0,1E0,1E0,9E0,5E0,1E0,3E0,5E0,9E0],"tree_param":{"num_deleted":"0","num_feature":"14","num_nodes":"55","size_leaf_vector":"0"}},{"base_weights":[2.2825727E-2,1.8513057E-2,3.0619923E1,1.0097661E-2,1.9923786E1,-2.7598492E-3,1.2669713E1,2.1880571E1,4.6254578E-1,3.2721737E-3,-2.5913885E1,4.0704506E1,-7.101512E0,2.8584723E1,1.20003395E1,-4.1674286E-1,2.8500974E-1,-5.261841E-1,-7.0210815E1,2.015549E1,4.5129128E1,-4.836182E1,1.0284234E1,9.0355215E0,2.217238E0,-1.4071655E-1,1.3617645E1,-9.666714E-2,-2.7331364E0,7.7873015E0,-3.1717654E-2,1.27062235E1,-1.619849E1,-2.9787378E1,2.5545778E0,1.1680232E1,-2.455362E0,2.3287695E1,5.375684E-1,5.695526E0,2.5992951E0],"categories":[],"categories_nodes":[],"categories_segments":[],"categories_sizes":[],"default_left":[0,0,0,0,0,0,0,0,0,0,0,0,0,0,0,0,0,0,0,0,0,0,0,0,0,0,0,0,0,0,0,0,0,0,0,0,0,0,0,0,0],"id":26,"left_children":[1,3,-1,5,7,9,11,13,-1,15,17,19,21,23,25,27,29,31,33,35,-1,-1,37,-1,-1,-1,39,-1,-1,-1,-1,-1,-1,-1,-1,-1,-1,-1,-1,-1,-1],"loss_changes":[2.0826666E4,7.927749E3,0E0,7.7005747E3,6.856548E2,7.3869697E3,2.6894605E4,8.4926855E2,0E0,5.5916377E3,1.2333625E4,4.2063188E4,7.935533E4,1.0244824E2,1.8788892E2,1.5585943E4,2.837055E5,2.062895E4,1.0003049E4,9.898014E3,0E0,0E0,1.5301828E4,0E0,0E0,0E0,4.8200928E1,0E0,0E0,0E0,0E0,0E0,0E0,0E0,0E0,0E0,0E0,0E0,0E0,0E0,0E0],"parents":[2147483647,0,0,1,1,3,3,4,4,5,5,6,6,7,7,9,9,10,10,11,11,12,12,13,13,14,14,15,15,16,16,17,17,18,18,19,19,22,22,26,26],"right_children":[2,4,-1,6,8,10,12,14,-1,16,18,20,22,24,26,28,30,32,34,36,-1,-1,38,-1,-1,-1,40,-1,-1,-1,-1,-1,-1,-1,-1,-1,-1,-1,-1,-1,-1],"split_conditions":[4.39254E2,1.69439E2,3.0619923E1,8.975964E1,4.63E-1,3.7775585E1,2.003E3,2.40756E2,4.6254578E-1,9.4E1,1.8945956E3,2.002E3,2.004E3,1.711E0,2.43392E2,9.3E1,9.6E1,1.674448E0,1.991E3,1.997E3,4.5129128E1,-4.836182E1,2.005E3,9.0355215E0,2.217238E0,-1.4071655E-1,1.999E3,-9.666714E-2,-2.7331364E0,7.7873015E0,-3.1717654E-2,1.27062235E1,-1.619849E1,-2.9787378E1,2.5545778E0,1.1680232E1,-2.455362E0,2.3287695E1,5.375684E-1,5.695526E0,2.5992951E0],"split_indices":[4,6,0,5,11,5,1,6,0,0,2,1,1,8,6,0,0,4,1,1,0,0,1,0,0,0,1,0,0,0,0,0,0,0,0,0,0,0,0,0,0],"split_type":[0,0,0,0,0,0,0,0,0,0,0,0,0,0,0,0,0,0,0,0,0,0,0,0,0,0,0,0,0,0,0,0,0,0,0,0,0,0,0,0,0],"sum_hessian":[4.7328E4,4.7327E4,1E0,4.7308E4,1.9E1,4.7261E4,4.7E1,1.7E1,2E0,4.7251E4,1E1,1.9E1,2.8E1,9E0,8E0,1.897E4,2.8281E4,7E0,3E0,1.7E1,2E0,2E0,2.6E1,8E0,1E0,1E0,7E0,1.8767E4,2.03E2,4.23E2,2.7858E4,4E0,3E0,2E0,1E0,1E1,7E0,2E0,2.4E1,2E0,5E0],"tree_param":{"num_deleted":"0","num_feature":"14","num_nodes":"41","size_leaf_vector":"0"}},{"base_weights":[1.712943E-2,1.3463639E-2,2.6026758E1,-6.358396E-3,5.645109E0,-3.916562E-1,2.5651726E-1,5.1383232E1,3.6087842E0,-2.8976735E-1,-1.2545363E1,4.4949223E1,-7.591701E-2,4.930562E1,5.163086E0,-2.3386204E-1,3.0519001E1,-3.366739E-1,2.6637691E1,-4.7005944E0,-4.235568E1,-1.03394375E1,4.3024103E2,1.0220291E-1,-3.8603706E0,-2.4735352E1,2.3198292E1,3.7680883E0,-3.680642E1,6.4104943E0,5.927268E1,-8.368583E-2,-4.286934E0,-3.2731028E0,1.4583976E1,-8.195627E0,1.8037709E0,-2.7496058E1,-7.667414E0,-9.829121E0,3.4249294E1,7.002632E1,1.6159941E2,-1.0765946E-2,2.7698793E0,-1.34307E0,6.1642394E0,3.27417E0,-1.5641846E1,9.490221E-2,1.6651428E1,-3.4062626E1,-4.366591E0,7.2362633E0,-4.59601E0,4.6612793E1,8.351331E0],"categories":[],"categories_nodes":[],"categories_segments":[],"categories_sizes":[],"default_left":[0,0,0,0,0,0,0,0,0,0,0,0,0,0,0,0,0,0,0,0,0,0,0,0,0,0,0,0,0,0,0,0,0,0,0,0,0,0,0,0,0,0,0,0,0,0,0,0,0,0,0,0,0,0,0,0,0],"id":27,"left_children":[1,3,-1,5,7,9,11,13,15,17,19,21,23,-1,25,27,29,31,33,35,37,39,41,43,45,47,-1,49,51,53,55,-1,-1,-1,-1,-1,-1,-1,-1,-1,-1,-1,-1,-1,-1,-1,-1,-1,-1,-1,-1,-1,-1,-1,-1,-1,-1],"loss_changes":[1.5047851E4,5.2832925E3,0E0,4.7770244E3,1.5275422E4,2.3683086E4,4.1654512E5,3.5701484E4,1.6552168E4,2.3969488E4,3.6983855E4,4.414018E6,1.8760227E4,0E0,1.485837E4,2.0775668E4,1.3484197E4,1.5248479E4,2.7759975E4,3.0937889E4,2.4984387E4,5.1186784E5,4.291025E5,3.3513902E4,1.8917223E4,5.45373E3,0E0,2.2840932E4,2.2251715E4,4.9878037E3,2.2863664E4,0E0,0E0,0E0,0E0,0E0,0E0,0E0,0E0,0E0,0E0,0E0,0E0,0E0,0E0,0E0,0E0,0E0,0E0,0E0,0E0,0E0,0E0,0E0,0E0,0E0,0E0],"parents":[2147483647,0,0,1,1,3,3,4,4,5,5,6,6,7,7,8,8,9,9,10,10,11,11,12,12,14,14,15,15,16,16,17,17,18,18,19,19,20,20,21,21,22,22,23,23,24,24,25,25,27,27,28,28,29,29,30,30],"right_children":[2,4,-1,6,8,10,12,14,16,18,20,22,24,-1,26,28,30,32,34,36,38,40,42,44,46,48,-1,50,52,54,56,-1,-1,-1,-1,-1,-1,-1,-1,-1,-1,-1,-1,-1,-1,-1,-1,-1,-1,-1,-1,-1,-1,-1,-1,-1,-1],"split_conditions":[4.39254E2,3.5613052E1,2.6026758E1,9.5E1,1.949E3,1.0752723E1,9.6E1,3.2851724E3,2.018E3,1.4762256E1,8E1,1.986E3,2.01E3,4.930562E1,1.948E3,2.013E3,3.840458E0,6.771072E0,3.171746E0,6.2240368E1,3.840458E0,1.95E3,1.998E3,6.49462E0,3.52658E2,1.93E3,2.3198292E1,2.01E3,2.014E3,1.75E-4,4.710883E0,-8.368583E-2,-4.286934E0,-3.2731028E0,1.4583976E1,-8.195627E0,1.8037709E0,-2.7496058E1,-7.667414E0,-9.829121E0,3.4249294E1,7.002632E1,1.6159941E2,-1.0765946E-2,2.7698793E0,-1.34307E0,6.1642394E0,3.27417E0,-1.5641846E1,