{"learner":{"attributes":{"best_iteration":"64","best_ntree_limit":"65","best_score":"26.953214580167398"},"feature_names":["Country","Year","Coal","Oil","Gas","Cement","Per Capita","Energy from renewable & waste sources","Fraction from renewable sources and waste","Hydroelectric power","Wind, wave, tidal","Solar photovoltaic","Geothermal aquifers","Sewage gas","Municipal solid waste (MSW)","Poultry litter","Bioethanol"],"feature_types":["int","int","float","float","float","float","float","float","float","float","float","float","float","float","float","float","float"],"gradient_booster":{"model":{"gbtree_model_param":{"num_parallel_tree":"1","num_trees":"165","size_leaf_vector":"0"},"tree_info":[0,0,0,0,0,0,0,0,0,0,0,0,0,0,0,0,0,0,0,0,0,0,0,0,0,0,0,0,0,0,0,0,0,0,0,0,0,0,0,0,0,0,0,0,0,0,0,0,0,0,0,0,0,0,0,0,0,0,0,0,0,0,0,0,0,0,0,0,0,0,0,0,0,0,0,0,0,0,0,0,0,0,0,0,0,0,0,0,0,0,0,0,0,0,0,0,0,0,0,0,0,0,0,0,0,0,0,0,0,0,0,0,0,0,0,0,0,0,0,0,0,0,0,0,0,0,0,0,0,0,0,0,0,0,0,0,0,0,0,0,0,0,0,0,0,0,0,0,0,0,0,0,0,0,0,0,0,0,0,0,0,0,0,0,0],"trees":[{"base_weights":[2.938708E2,6.9600235E1,4.8692624E2,3.6738052E1,2.0084499E2,4.1554398E2,1.7114136E2,2.1392038E1,7.250495E1,3.0781342E1,6.3855694E1,9.398078E1,4.4097836E2,1.3557979E1,9.864884E0,1.2557021E1,2.3607895E1,3.6880653E1,1.3353888E2,2.75925E0,4.808097E0],"categories":[],"categories_nodes":[],"categories_segments":[],"categories_sizes":[],"default_left":[0,0,0,0,0,0,0,0,0,0,0,0,0,0,0,0,0,0,0,0,0],"id":0,"left_children":[1,3,5,7,9,11,-1,13,15,-1,-1,-1,17,19,-1,-1,-1,-1,-1,-1,-1],"loss_changes":[8.841922E6,4.0666834E5,4.18944E5,4.1261562E4,5.72875E2,2.5736E4,0E0,4.5953223E3,1.0681641E3,0E0,0E0,0E0,8.65E3,2.2940479E2,0E0,0E0,0E0,0E0,0E0,0E0,0E0],"parents":[2147483647,0,0,1,1,2,2,3,3,4,4,5,5,7,7,8,8,12,12,13,13],"right_children":[2,4,6,8,10,12,-1,14,16,-1,-1,-1,18,20,-1,-1,-1,-1,-1,-1,-1],"split_conditions":[1.88E3,1.1714967E2,4.899051E0,1.824E3,1.861E3,1.897E3,1.7114136E2,1.798E3,1.83E3,3.0781342E1,6.3855694E1,9.398078E1,5.715981E0,1.771E3,9.864884E0,1.2557021E1,2.3607895E1,3.6880653E1,1.3353888E2,2.75925E0,4.808097E0],"split_indices":[1,2,5,1,1,1,0,1,1,0,0,0,6,1,0,0,0,0,0,0,0],"split_type":[0,0,0,0,0,0,0,0,0,0,0,0,0,0,0,0,0,0,0,0,0],"sum_hessian":[2.04E2,9.5E1,1.09E2,7.7E1,1.8E1,6.2E1,4.7E1,5.5E1,2.2E1,3E0,1.5E1,1.5E1,4.7E1,3.4E1,2.1E1,5E0,1.7E1,1E0,4.6E1,1.4E1,2E1],"tree_param":{"num_deleted":"0","num_feature":"17","num_nodes":"21","size_leaf_vector":"0"}},{"base_weights":[2.0855724E2,4.0146683E1,3.3742267E2,2.1804014E1,1.0754276E2,2.8758868E2,1.213393E2,1.2056227E1,3.76038E1,2.1784842E1,3.6559586E1,6.3072224E1,9.309597E1,2.3831446E0,5.1015515E0,8.220374E0,1.2598042E1],"categories":[],"categories_nodes":[],"categories_segments":[],"categories_sizes":[],"default_left":[0,0,0,0,0,0,0,0,0,0,0,0,0,0,0,0,0],"id":1,"left_children":[1,3,5,7,9,11,-1,13,15,-1,-1,-1,-1,-1,-1,-1,-1],"loss_changes":[4.435426E6,1.0891528E5,2.7123E5,1.0635574E4,6.55125E2,5.7833E4,0E0,8.0111084E2,5.8539062E1,0E0,0E0,0E0,0E0,0E0,0E0,0E0,0E0],"parents":[2147483647,0,0,1,1,2,2,3,3,4,4,5,5,7,7,8,8],"right_children":[2,4,6,8,10,12,-1,14,16,-1,-1,-1,-1,-1,-1,-1,-1],"split_conditions":[1.872E3,1.844E3,5.135278E0,1.811E3,1.854E3,1.894E3,1.213393E2,1.786E3,1.824E3,2.1784842E1,3.6559586E1,6.3072224E1,9.309597E1,2.3831446E0,5.1015515E0,8.220374E0,1.2598042E1],"split_indices":[1,1,5,1,1,1,0,1,1,0,0,0,0,0,0,0,0],"split_type":[0,0,0,0,0,0,0,0,0,0,0,0,0,0,0,0,0],"sum_hessian":[2.04E2,8.9E1,1.15E2,7.1E1,1.8E1,6.9E1,4.6E1,4.5E1,2.6E1,7E0,1.1E1,1.8E1,5.1E1,2.6E1,1.9E1,1E1,1.6E1],"tree_param":{"num_deleted":"0","num_feature":"17","num_nodes":"17","size_leaf_vector":"0"}},{"base_weights":[1.4776642E2,3.1230528E1,2.4051674E2,1.6548716E1,8.6768616E1,1.9246799E2,2.7377707E2,8.9888315E0,2.9375593E1,1.9273216E1,3.1397305E1,4.1751225E1,6.2229805E1,8.319342E1,3.248902E1,5.958982E0,3.9899123E0,7.151466E0,1.1340496E1,1.2166066E0,2.100831E0],"categories":[],"categories_nodes":[],"categories_segments":[],"categories_sizes":[],"default_left":[0,0,0,0,0,0,0,0,0,0,0,0,0,0,0,0,0,0,0,0,0],"id":2,"left_children":[1,3,5,7,9,11,13,15,17,-1,-1,-1,-1,-1,-1,19,-1,-1,-1,-1,-1],"loss_changes":[2.2082805E6,7.358087E4,1.29492E5,6.911705E3,9.322969E2,1.101025E4,7.984E3,5.4768994E2,3.5864844E2,0E0,0E0,0E0,0E0,0E0,0E0,3.1210693E1,0E0,0E0,0E0,0E0,0E0],"parents":[2147483647,0,0,1,1,2,2,3,3,4,4,5,5,6,6,7,7,8,8,15,15],"right_children":[2,4,6,8,10,12,14,16,18,-1,-1,-1,-1,-1,-1,20,-1,-1,-1,-1,-1],"split_conditions":[1.875E3,1.847E3,5.411728E0,1.814E3,1.864E3,3.3203534E2,2.016E3,1.791E3,6.786461E1,1.9273216E1,3.1397305E1,4.1751225E1,6.2229805E1,8.319342E1,3.248902E1,1.766E3,3.9899123E0,7.151466E0,1.1340496E1,1.2166066E0,2.100831E0],"split_indices":[1,1,3,1,1,2,1,1,2,0,0,0,0,0,0,1,0,0,0,0,0],"split_type":[0,0,0,0,0,0,0,0,0,0,0,0,0,0,0,0,0,0,0,0,0],"sum_hessian":[2.04E2,9.1E1,1.13E2,7.3E1,1.8E1,4.9E1,6.4E1,4.7E1,2.6E1,1E1,8E0,1.3E1,3.6E1,6.2E1,2E0,2.9E1,1.8E1,1.8E1,8E0,1.2E1,1.7E1],"tree_param":{"num_deleted":"0","num_feature":"17","num_nodes":"21","size_leaf_vector":"0"}},{"base_weights":[1.0488105E2,2.0038948E1,1.6852264E2,1.0531526E1,5.231298E1,3.3929127E1,1.8468913E2,5.2263904E0,1.7430826E1,9.785078E0,1.7527311E1,1.7016838E2,6.788321E1,9.945466E-1,2.0178943E0,3.716892E0,5.7995815E0,1.1121476E1,5.146802E1],"categories":[],"categories_nodes":[],"categories_segments":[],"categories_sizes":[],"default_left":[0,0,0,0,0,0,0,0,0,0,0,0,0,0,0,0,0,0,0],"id":3,"left_children":[1,3,5,7,9,-1,11,13,15,-1,-1,17,-1,-1,-1,-1,-1,-1,-1],"loss_changes":[1.1035178E6,2.6758078E4,8.394825E4,2.47102E3,5.0178125E2,0E0,1.524125E4,9.5236206E1,4.8E1,0E0,0E0,6.606E3,0E0,0E0,0E0,0E0,0E0,0E0,0E0],"parents":[2147483647,0,0,1,1,2,2,3,3,4,4,6,6,7,7,8,8,11,11],"right_children":[2,4,6,8,10,-1,12,14,16,-1,-1,18,-1,-1,-1,-1,-1,-1,-1],"split_conditions":[1.871E3,1.841E3,1.906E3,1.805E3,1.85E3,3.3929127E1,7.043243E0,1.776E3,1.817E3,9.785078E0,1.7527311E1,5.715981E0,6.788321E1,9.945466E-1,2.0178943E0,3.716892E0,5.7995815E0,1.1121476E1,5.146802E1],"split_indices":[1,1,1,1,1,0,5,1,1,0,0,6,0,0,0,0,0,0,0],"split_type":[0,0,0,0,0,0,0,0,0,0,0,0,0,0,0,0,0,0,0],"sum_hessian":[2.04E2,8.8E1,1.16E2,6.9E1,1.9E1,2.8E1,8.8E1,4E1,2.9E1,6E0,1.3E1,6.9E1,1.9E1,1.9E1,2.1E1,1E1,1.9E1,1E0,6.8E1],"tree_param":{"num_deleted":"0","num_feature":"17","num_nodes":"19","size_leaf_vector":"0"}},{"base_weights":[7.441304E1,1.8848608E1,1.231776E2,8.851288E0,5.062906E1,1.03469826E2,4.4375805E1,5.7817783E0,1.8983625E1,1.0080994E1,1.8342276E1,2.6622E1,3.4886215E1,3.4727273E0,2.938408E0,4.033024E0,6.7243643E0,2.5146549E0,1.4078372E0,3.5971493E-1,8.153471E-1],"categories":[],"categories_nodes":[],"categories_segments":[],"categories_sizes":[],"default_left":[0,0,0,0,0,0,0,0,0,0,0,0,0,0,0,0,0,0,0,0,0],"id":4,"left_children":[1,3,5,7,9,11,-1,13,15,-1,-1,-1,-1,17,-1,-1,-1,19,-1,-1,-1],"loss_changes":[5.5314125E5,3.0370645E4,3.7843625E4,2.2228389E3,2.0618203E3,1.7638125E3,0E0,5.12681E2,2.1809082E1,0E0,0E0,0E0,0E0,3.3786713E1,0E0,0E0,0E0,3.1561432E0,0E0,0E0,0E0],"parents":[2147483647,0,0,1,1,2,2,3,3,4,4,5,5,7,7,8,8,13,13,17,17],"right_children":[2,4,6,8,10,12,-1,14,16,-1,-1,-1,-1,18,-1,-1,-1,20,-1,-1,-1],"split_conditions":[1.881E3,1.848E3,5.456386E0,1.827E3,1.865E3,4.3407776E2,4.4375805E1,1.803E3,1.836E3,1.0080994E1,1.8342276E1,2.6622E1,3.4886215E1,1.782E3,2.938408E0,4.033024E0,6.7243643E0,1.756E3,1.4078372E0,3.5971493E-1,8.153471E-1],"split_indices":[1,1,5,1,1,2,0,1,1,0,0,0,0,1,0,0,0,1,0,0,0],"split_type":[0,0,0,0,0,0,0,0,0,0,0,0,0,0,0,0,0,0,0,0,0],"sum_hessian":[2.04E2,9.6E1,1.08E2,7.4E1,2.2E1,6.3E1,4.5E1,5.8E1,1.6E1,1E1,1.2E1,3.3E1,3E1,3.8E1,2E1,8E0,8E0,2.3E1,1.5E1,4E0,1.9E1],"tree_param":{"num_deleted":"0","num_feature":"17","num_nodes":"21","size_leaf_vector":"0"}},{"base_weights":[5.2823696E1,1.1162878E1,8.533075E1,5.247988E0,2.8422205E1,6.9306E1,1.0625475E2,2.4971375E0,8.539446E0,6.425392E0,1.1081371E1,1.5625497E1,2.3617954E1,2.692394E1,3.6961815E1,1.8092195E0,1.011883E0,2.0988626E0,3.2127938E0,3.383043E-1,6.428892E-1],"categories":[],"categories_nodes":[],"categories_segments":[],"categories_sizes":[],"default_left":[0,0,0,0,0,0,0,0,0,0,0,0,0,0,0,0,0,0,0,0,0],"id":5,"left_children":[1,3,5,7,9,11,13,15,17,-1,-1,-1,-1,-1,-1,19,-1,-1,-1,-1,-1],"loss_changes":[2.7667294E5,9.14076E3,3.1195562E4,6.034232E2,5.807207E2,6.9312188E3,2.374875E3,1.739441E1,2.8882568E1,0E0,0E0,0E0,0E0,0E0,0E0,3.04245E0,0E0,0E0,0E0,0E0,0E0],"parents":[2147483647,0,0,1,1,2,2,3,3,4,4,5,5,6,6,7,7,8,8,15,15],"right_children":[2,4,6,8,10,12,14,16,18,-1,-1,-1,-1,-1,-1,20,-1,-1,-1,-1,-1],"split_conditions":[7.186864E0,1.839E3,1.956E3,1.803E3,1.863E3,9.32219E0,1.0469687E1,1.782E3,1.827E3,6.425392E0,1.1081371E1,1.5625497E1,2.3617954E1,2.692394E1,3.6961815E1,1.763E3,1.011883E0,2.0988626E0,3.2127938E0,3.383043E-1,6.428892E-1],"split_indices":[6,1,1,1,1,6,6,1,1,0,0,0,0,0,0,1,0,0,0,0,0],"split_type":[0,0,0,0,0,0,0,0,0,0,0,0,0,0,0,0,0,0,0,0,0],"sum_hessian":[2.04E2,9E1,1.14E2,6.8E1,2.2E1,6.7E1,4.7E1,3.8E1,3E1,1.4E1,8E0,2.6E1,4.1E1,2.7E1,2E1,2.3E1,1.5E1,2E1,1E1,9E0,1.4E1],"tree_param":{"num_deleted":"0","num_feature":"17","num_nodes":"21","size_leaf_vector":"0"}},{"base_weights":[3.760069E1,9.661876E0,6.211871E1,4.248194E0,2.5083351E1,5.3651012E1,8.262861E1,2.3892596E0,7.9439664E0,5.2207546E0,9.25041E0,4.7813023E1,6.6040245E1,2.1114094E1,3.1016382E1,1.7686607E0,1.2058587E0,1.7430862E0,2.8780367E0,1.0088674E1,1.5234649E1,2.029079E1,4.640177E0,2.4696212E-1,2.033691E0,4.6288022E-1,7.1666044E-1],"categories":[],"categories_nodes":[],"categories_segments":[],"categories_sizes":[],"default_left":[0,0,0,0,0,0,0,0,0,0,0,0,0,0,0,0,0,0,0,0,0,0,0,0,0,0,0],"id":6,"left_children":[1,3,5,7,9,11,13,15,17,-1,-1,19,21,-1,-1,23,-1,-1,-1,-1,-1,-1,-1,-1,25,-1,-1],"loss_changes":[1.3982569E5,7.991676E3,1.4497094E4,4.825443E2,5.6777734E2,2.6286875E3,3.5153125E2,4.3477966E1,2.8726929E1,0E0,0E0,7.348906E2,8.0996094E2,0E0,0E0,7.8476562E0,0E0,0E0,0E0,0E0,0E0,0E0,0E0,0E0,1.368988E0,0E0,0E0],"parents":[2147483647,0,0,1,1,2,2,3,3,4,4,5,5,6,6,7,7,8,8,11,11,12,12,15,15,24,24],"right_children":[2,4,6,8,10,12,14,16,18,-1,-1,20,22,-1,-1,24,-1,-1,-1,-1,-1,-1,-1,-1,26,-1,-1],"split_conditions":[1.881E3,1.846E3,1.0521595E1,1.816E3,1.865E3,1.07940735E2,1.1328244E1,1.802E3,1.831E3,5.2207546E0,9.25041E0,9.155648E0,2.018E3,2.1114094E1,3.1016382E1,1.763E3,1.2058587E0,1.7430862E0,2.8780367E0,1.0088674E1,1.5234649E1,2.029079E1,4.640177E0,2.4696212E-1,1.782E3,4.6288022E-1,7.1666044E-1],"split_indices":[1,1,6,1,1,4,6,1,1,0,0,6,1,0,0,1,0,0,0,0,0,0,0,0,1,0,0],"split_type":[0,0,0,0,0,0,0,0,0,0,0,0,0,0,0,0,0,0,0,0,0,0,0,0,0,0,0],"sum_hessian":[2.04E2,9.6E1,1.08E2,7.2E1,2.4E1,7.9E1,2.9E1,4.9E1,2.3E1,1.2E1,1.2E1,5.7E1,2.2E1,2.1E1,8E0,3.7E1,1.2E1,1.2E1,1.1E1,1.2E1,4.5E1,2.1E1,1E0,9E0,2.8E1,1.4E1,1.4E1],"tree_param":{"num_deleted":"0","num_feature":"17","num_nodes":"27","size_leaf_vector":"0"}},{"base_weights":[2.6925896E1,5.765768E0,4.343586E1,2.8506773E0,1.534699E1,3.5796936E1,5.6863914E1,1.36563E0,4.834721E0,3.0730023E0,5.496335E0,8.527118E0,1.2959955E1,4.5154408E1,2.0600086E1,9.4471234E-1,5.4763216E-1,1.1604096E0,1.7887257E0,1.3958449E1,2.2397554E0,1.8028222E-1,3.3327377E-1],"categories":[],"categories_nodes":[],"categories_segments":[],"categories_sizes":[],"default_left":[0,0,0,0,0,0,0,0,0,0,0,0,0,0,0,0,0,0,0,0,0,0,0],"id":7,"left_children":[1,3,5,7,9,11,13,15,17,-1,-1,-1,-1,19,-1,21,-1,-1,-1,-1,-1,-1,-1],"loss_changes":[7.136692E4,2.4978923E3,9.760672E3,2.025918E2,1.3108789E2,2.920414E3,2.4277031E3,6.4042664E0,9.641174E0,0E0,0E0,0E0,0E0,8.434492E2,0E0,7.036457E-1,0E0,0E0,0E0,0E0,0E0,0E0,0E0],"parents":[2147483647,0,0,1,1,2,2,3,3,4,4,5,5,6,6,7,7,8,8,13,13,15,15],"right_children":[2,4,6,8,10,12,14,16,18,-1,-1,-1,-1,20,-1,22,-1,-1,-1,-1,-1,-1,-1],"split_conditions":[7.186864E0,1.842E3,1.7308711E2,1.806E3,1.859E3,4.3731305E2,1.0282998E1,1.782E3,1.828E3,3.0730023E0,5.496335E0,8.527118E0,1.2959955E1,2.208416E2,2.0600086E1,1.763E3,5.4763216E-1,1.1604096E0,1.7887257E0,1.3958449E1,2.2397554E0,1.8028222E-1,3.3327377E-1],"split_indices":[6,1,3,1,1,2,6,1,1,0,0,0,0,3,0,1,0,0,0,0,0,0,0],"split_type":[0,0,0,0,0,0,0,0,0,0,0,0,0,0,0,0,0,0,0,0,0,0,0],"sum_hessian":[2.04E2,9E1,1.14E2,7E1,2E1,7.5E1,3.9E1,4.1E1,2.9E1,9E0,1.1E1,4E1,3.5E1,2.2E1,1.7E1,2.3E1,1.8E1,1.8E1,1.1E1,2.1E1,1E0,9E0,1.4E1],"tree_param":{"num_deleted":"0","num_feature":"17","num_nodes":"23","size_leaf_vector":"0"}},{"base_weights":[1.9193808E1,5.0091887E0,3.1887316E1,1.9058285E0,1.1979943E1,2.937954E1,1.786862E1,9.8120725E-1,3.224695E0,2.6007943E0,4.6927075E0,1.8413591E1,3.1227087E1,6.2286407E-1,3.7504467E-1,6.538906E-1,1.0601212E0,6.2934546E0,4.8341293E0,1.4599984E0,9.44489E0,8.965142E-2,2.0555796E-1,-1.6989167E0,3.066263E0],"categories":[],"categories_nodes":[],"categories_segments":[],"categories_sizes":[],"default_left":[0,0,0,0,0,0,0,0,0,0,0,0,0,0,0,0,0,0,0,0,0,0,0,0,0],"id":8,"left_children":[1,3,5,7,9,11,-1,13,15,-1,-1,17,19,21,-1,-1,-1,-1,23,-1,-1,-1,-1,-1,-1],"loss_changes":[3.6751047E4,2.0971787E3,5.7455156E3,8.09781E1,2.2813818E2,1.4712656E3,0E0,3.2690086E0,1.3408203E0,0E0,0E0,4.9062695E2,4.201172E2,1.9916344E-1,0E0,0E0,0E0,0E0,2.840641E2,0E0,0E0,0E0,0E0,0E0,0E0],"parents":[2147483647,0,0,1,1,2,2,3,3,4,4,5,5,7,7,8,8,11,11,12,12,13,13,18,18],"right_children":[2,4,6,8,10,12,-1,14,16,-1,-1,18,20,22,-1,-1,-1,-1,24,-1,-1,-1,-1,-1,-1],"split_conditions":[1.882E3,2.972806E0,1.1338446E1,1.806E3,1.866E3,1.902E3,1.786862E1,1.776E3,1.816E3,2.6007943E0,4.6927075E0,1.897E3,5.715981E0,1.756E3,3.7504467E-1,6.538906E-1,1.0601212E0,6.2934546E0,1.899E3,1.4599984E0,9.44489E0,8.965142E-2,2.0555796E-1,-1.6989167E0,3.066263E0],"split_indices":[1,6,6,1,1,1,0,1,1,0,0,1,6,1,0,0,0,0,1,0,0,0,0,0,0],"split_type":[0,0,0,0,0,0,0,0,0,0,0,0,0,0,0,0,0,0,0,0,0,0,0,0,0],"sum_hessian":[2.04E2,9.7E1,1.07E2,6.8E1,2.9E1,1E2,7E0,4.1E1,2.7E1,1.7E1,1.2E1,1.6E1,8.4E1,1.9E1,2.2E1,8E0,1.9E1,1.3E1,3E0,1E0,8.3E1,4E0,1.5E1,1E0,2E0],"tree_param":{"num_deleted":"0","num_feature":"17","num_nodes":"25","size_leaf_vector":"0"}},{"base_weights":[1.3660605E1,3.502943E0,2.2574665E1,1.6425943E0,9.416995E0,2.0673077E1,1.4199073E1,9.547568E-1,3.2562597E0,1.5797849E0,3.0832534E0,1.8397135E1,2.739817E1,6.449277E-1,4.950879E-1,7.191709E-1,1.2692133E0,1.2342325E1,2.1975845E1,3.2148173E0,8.781313E0,9.001411E-2,7.383903E-1,1.3222542E1,-5.739543E-1,2.4971928E1,1.8100727E1,2.4203826E-1,7.0503734E-2,4.9781675E0,3.015928E0,-1.4440796E0,1.1858002E0,5.1036983E0,9.303184E0,1.3116333E0,6.394283E0],"categories":[],"categories_nodes":[],"categories_segments":[],"categories_sizes":[],"default_left":[0,0,0,0,0,0,0,0,0,0,0,0,0,0,0,0,0,0,0,0,0,0,0,0,0,0,0,0,0,0,0,0,0,0,0,0,0],"id":9,"left_children":[1,3,5,7,9,11,-1,13,15,-1,-1,17,19,21,-1,-1,-1,23,25,-1,-1,-1,27,29,31,33,35,-1,-1,-1,-1,-1,-1,-1,-1,-1,-1],"loss_changes":[1.8482852E4,1.051745E3,4.152711E3,8.013652E1,2.803601E1,1.0724609E3,0E0,1.0572536E1,8.273666E0,0E0,0E0,1.4622402E3,4.3617383E2,1.035553E0,0E0,0E0,0E0,3.7140137E2,1.1688672E2,0E0,0E0,0E0,8.433819E-1,1.5373926E2,7.660035E1,6.740752E2,1.009751E3,0E0,0E0,0E0,0E0,0E0,0E0,0E0,0E0,0E0,0E0],"parents":[2147483647,0,0,1,1,2,2,3,3,4,4,5,5,7,7,8,8,11,11,12,12,13,13,17,17,18,18,22,22,23,23,24,24,25,25,26,26],"right_children":[2,4,6,8,10,12,-1,14,16,-1,-1,18,20,22,-1,-1,-1,24,26,-1,-1,-1,28,30,32,34,36,-1,-1,-1,-1,-1,-1,-1,-1,-1,-1],"split_conditions":[1.881E3,1.848E3,2.5326445E2,1.821E3,1.859E3,1.0826684E2,1.4199073E1,1.803E3,1.836E3,1.5797849E0,3.0832534E0,9.660192E0,7.427593E0,1.763E3,4.950879E-1,7.191709E-1,1.2692133E0,9.652373E0,1.3534816E1,3.2148173E0,8.781313E0,9.001411E-2,1.798E3,1.890624E0,1.899E3,4.6304532E2,1.954E3,2.4203826E-1,7.0503734E-2,4.9781675E0,3.015928E0,-1.4440796E0,1.1858002E0,5.1036983E0,9.303184E0,1.3116333E0,6.394283E0],"split_indices":[1,1,3,1,1,4,0,1,1,0,0,6,6,1,0,0,0,6,3,0,0,0,1,3,1,2,1,0,0,0,0,0,0,0,0,0,0],"split_type":[0,0,0,0,0,0,0,0,0,0,0,0,0,0,0,0,0,0,0,0,0,0,0,0,0,0,0,0,0,0,0,0,0,0,0,0,0],"sum_hessian":[2.04E2,9.6E1,1.08E2,7.4E1,2.2E1,1.02E2,6E0,5.3E1,2.1E1,5E0,1.7E1,7.9E1,2.3E1,3.8E1,1.5E1,1.3E1,8E0,3.1E1,4.8E1,3E0,2E1,9E0,2.9E1,2.9E1,2E0,2.4E1,2.4E1,2.5E1,4E0,1.2E1,1.7E1,1E0,1E0,1.2E1,1.2E1,5E0,1.9E1],"tree_param":{"num_deleted":"0","num_feature":"17","num_nodes":"37","size_leaf_vector":"0"}},{"base_weights":[9.87263E0,3.623974E0,1.7508219E1,1.3561974E0,8.499819E0,1.4941923E1,2.8764256E1,8.1119794E-1,3.158073E0,9.08648E0,1.5349045E0,1.3395706E0,1.5161765E1,3.4671023E-2,9.19994E0,3.817949E-1,1.2565014E0,5.452637E-1,1.0601548E0,4.832451E0,1.0045933E1,-1.2274659E0,1.4322723E0,1.8472994E1,1.3872732E1,3.0182895E-1,1.6066012E-1,8.290154E-1,4.2006984E-1,1.7433213E0,1.2643942E0,1.0552883E1,1.3858452E0,5.7338276E0,1.1395478E0,1.02004795E1,1.6742098E1,4.6531677E-2,9.70255E-2,4.5167887E-1,1.4150119E-1,-1.7285156E-1,7.418289E-1,2.6520216E0,4.4852967E0,1.8983002E-1,3.3969886E0,5.098963E0,1.3663148E0],"categories":[],"categories_nodes":[],"categories_segments":[],"categories_sizes":[],"default_left":[0,0,0,0,0,0,0,0,0,0,0,0,0,0,0,0,0,0,0,0,0,0,0,0,0,0,0,0,0,0,0,0,0,0,0,0,0,0,0,0,0,0,0,0,0,0,0,0,0],"id":10,"left_children":[1,3,5,7,9,11,13,15,17,19,21,-1,23,-1,-1,25,27,-1,-1,29,31,-1,-1,33,35,37,-1,39,-1,-1,41,43,-1,-1,-1,45,47,-1,-1,-1,-1,-1,-1,-1,-1,-1,-1,-1,-1],"loss_changes":[9.717545E3,1.2490079E3,2.227748E3,7.501784E1,1.3315112E2,1.09646484E2,8.683877E2,1.1375584E1,2.6443634E0,8.614404E1,9.243801E1,0E0,6.384961E1,0E0,0E0,2.4405766E-1,6.8247986E-1,0E0,0E0,2.05867E1,2.2775879E1,0E0,0E0,9.638867E1,4.4037012E2,2.5859833E-2,0E0,1.7075806E0,0E0,0E0,8.096985E0,4.1093994E1,0E0,0E0,0E0,2.9363257E2,1.8725586E1,0E0,0E0,0E0,0E0,0E0,0E0,0E0,0E0,0E0,0E0,0E0,0E0],"parents":[2147483647,0,0,1,1,2,2,3,3,4,4,5,5,6,6,7,7,8,8,9,9,10,10,12,12,15,15,16,16,19,19,20,20,23,23,24,24,25,25,27,27,30,30,31,31,35,35,36,36],"right_children":[2,4,6,8,10,12,14,16,18,20,22,-1,24,-1,-1,26,28,-1,-1,30,32,-1,-1,34,36,38,-1,40,-1,-1,42,44,-1,-1,-1,46,48,-1,-1,-1,-1,-1,-1,-1,-1,-1,-1,-1,-1],"split_conditions":[1.902E3,1.854E3,2.1839034E2,1.831E3,1.897E3,5.764123E0,1.801369E2,1.796E3,1.836E3,1.866E3,1.899E3,1.3395706E0,1.925E3,3.4671023E-2,9.19994E0,1.782E3,1.806E3,5.452637E-1,1.0601548E0,6.2288E-2,1.894E3,-1.2274659E0,1.4322723E0,1.3534816E1,1.96E3,1.756E3,1.6066012E-1,1.798E3,4.2006984E-1,1.7433213E0,1.863E3,9.068779E0,1.3858452E0,5.7338276E0,1.1395478E0,9.033582E0,8.431539E0,4.6531677E-2,9.70255E-2,4.5167887E-1,1.4150119E-1,-1.7285156E-1,7.418289E-1,2.6520216E0,4.4852967E0,1.8983002E-1,3.3969886E0,5.098963E0,1.3663148E0],"split_indices":[1,1,3,1,1,6,2,1,1,1,1,0,1,0,0,1,1,0,0,3,1,0,0,3,1,1,0,1,0,0,1,6,0,0,0,6,5,0,0,0,0,0,0,0,0,0,0,0,0],"split_type":[0,0,0,0,0,0,0,0,0,0,0,0,0,0,0,0,0,0,0,0,0,0,0,0,0,0,0,0,0,0,0,0,0,0,0,0,0,0,0,0,0,0,0,0,0,0,0,0,0],"sum_hessian":[2.04E2,1.13E2,9.1E1,7.8E1,3.5E1,7.6E1,1.5E1,6.1E1,1.7E1,3.2E1,3E0,2E0,7.4E1,1E0,1.4E1,3.2E1,2.9E1,5E0,1.2E1,7E0,2.5E1,1E0,2E0,1.7E1,5.7E1,2.3E1,9E0,9E0,2E1,5E0,2E0,2.2E1,3E0,1.6E1,1E0,2.7E1,3E1,4E0,1.9E1,2E0,7E0,1E0,1E0,1.8E1,4E0,3E0,2.4E1,2.9E1,1E0],"tree_param":{"num_deleted":"0","num_feature":"17","num_nodes":"49","size_leaf_vector":"0"}},{"base_weights":[7.113101E0,1.8736186E0,1.1801584E1,8.5525125E-1,4.9779487E0,1.0624055E1,8.182176E0,4.9216992E-1,1.7075759E0,3.5958946E0,5.8707724E0,9.391806E0,1.46780615E1,2.4909194E-1,7.641767E-1,3.3154237E-1,5.918657E-1,1.1977961E0,1.0747324E0,2.4832811E0,3.8813357E0,7.577538E0,1.3384961E1,1.908492E0,1.6172731E1,4.557252E-2,2.835083E-1,5.109737E-1,2.5027716E-1,-1.4692384E-1,6.305535E-1,7.735545E-1,1.3976296E0,5.607356E0,1.1326472E1,1.6297264E1,1.9318441E0,5.355125E0,1.751468E0,1.2284546E-1,6.556435E-2,2.6321736E-1,-1.17655754E-1,9.169007E-3,3.3893052E-1,2.7546928E0,1.1804123E0,3.5750716E0,1.2615601E0,5.584133E0,3.2356007E0,-1.2930481E0,1.839116E0],"categories":[],"categories_nodes":[],"categories_segments":[],"categories_sizes":[],"default_left":[0,0,0,0,0,0,0,0,0,0,0,0,0,0,0,0,0,0,0,0,0,0,0,0,0,0,0,0,0,0,0,0,0,0,0,0,0,0,0,0,0,0,0,0,0,0,0,0,0,0,0,0,0],"id":11,"left_children":[1,3,5,7,9,11,-1,13,15,17,19,21,23,25,27,-1,-1,-1,29,-1,31,33,35,-1,37,-1,39,41,-1,-1,-1,43,-1,45,47,49,51,-1,-1,-1,-1,-1,-1,-1,-1,-1,-1,-1,-1,-1,-1,-1,-1],"loss_changes":[5.013759E3,3.055548E2,1.6779062E3,2.2369324E1,8.503601E0,3.716914E2,0E0,3.3800688E0,1.3359756E0,7.712494E0,3.0118927E1,4.8539258E2,1.7058154E2,5.7273865E-2,1.733017E-2,0E0,0E0,0E0,5.8500547E0,0E0,1.814093E1,3.648811E2,7.6903467E2,0E0,2.0787012E2,0E0,8.236134E-2,2.9915679E0,0E0,0E0,0E0,7.5946176E-1,0E0,2.0305591E2,2.9774902E1,4.1844727E1,1.8366687E2,0E0,0E0,0E0,0E0,0E0,0E0,0E0,0E0,0E0,0E0,0E0,0E0,0E0,0E0,0E0,0E0],"parents":[2147483647,0,0,1,1,2,2,3,3,4,4,5,5,7,7,8,8,9,9,10,10,11,11,12,12,13,13,14,14,18,18,20,20,21,21,22,22,24,24,26,26,27,27,31,31,33,33,34,34,35,35,36,36],"right_children":[2,4,6,8,10,12,-1,14,16,18,20,22,24,26,28,-1,-1,-1,30,-1,32,34,36,-1,38,-1,40,42,-1,-1,-1,44,-1,46,48,50,52,-1,-1,-1,-1,-1,-1,-1,-1,-1,-1,-1,-1,-1,-1,-1,-1],"split_conditions":[1.882E3,1.848E3,2.5326445E2,1.821E3,1.866E3,1.991E3,8.182176E0,1.791E3,1.831E3,6.2288E-2,1.872E3,4.5775085E2,7.638836E0,1.763E3,1.8E3,3.3154237E-1,5.918657E-1,1.1977961E0,1.863E3,2.4832811E0,1.875E3,1.0178125E1,1.952E3,1.908492E0,6.410877E0,4.557252E-2,1.771E3,1.798E3,2.5027716E-1,-1.4692384E-1,6.305535E-1,1.874E3,1.3976296E0,1.890624E0,4.4944452E2,5.704848E0,1.954E3,5.355125E0,1.751468E0,1.2284546E-1,6.556435E-2,2.6321736E-1,-1.17655754E-1,9.169007E-3,3.3893052E-1,2.7546928E0,1.1804123E0,3.5750716E0,1.2615601E0,5.584133E0,3.2356007E0,-1.2930481E0,1.839116E0],"split_indices":[1,1,3,1,1,1,0,1,1,3,1,2,6,1,1,0,0,0,1,0,1,6,1,0,5,0,1,1,0,0,0,1,0,3,2,3,1,0,0,0,0,0,0,0,0,0,0,0,0,0,0,0,0],"split_type":[0,0,0,0,0,0,0,0,0,0,0,0,0,0,0,0,0,0,0,0,0,0,0,0,0,0,0,0,0,0,0,0,0,0,0,0,0,0,0,0,0,0,0,0,0,0,0,0,0,0,0,0,0],"sum_hessian":[2.04E2,9.7E1,1.07E2,7.4E1,2.3E1,1.01E2,6E0,5.3E1,2.1E1,1.1E1,1.2E1,8E1,2.1E1,2.9E1,2.4E1,8E0,1.3E1,9E0,2E0,4E0,8E0,5.7E1,2.3E1,4E0,1.7E1,9E0,2E1,7E0,1.7E1,1E0,1E0,2E0,6E0,3.9E1,1.8E1,1.8E1,5E0,1.4E1,3E0,5E0,1.5E1,5E0,2E0,1E0,1E0,1.1E1,2.8E1,1.6E1,2E0,1.1E1,7E0,2E0,3E0],"tree_param":{"num_deleted":"0","num_feature":"17","num_nodes":"53","size_leaf_vector":"0"}},{"base_weights":[5.187942E0,1.024147E0,8.310932E0,4.865742E-1,2.6391833E0,7.3078566E0,5.8607564E0,1.9170226E-1,7.4335754E-1,5.5880874E-1,3.246335E0,6.281552E0,1.1080901E1,1.4732498E-1,2.6706365E-1,5.508819E-1,2.6597366E-1,1.339834E0,1.9113028E0,4.900668E0,9.759713E0,1.3092318E1,6.7208185E0,1.9677429E-1,4.854001E-2,3.5326958E-1,1.6733606E-1,6.411805E-1,-1.1433792E-1,-1.248848E-1,7.105843E-1,3.9709418E0,2.0827765E0,1.1872281E1,1.4432983E0,1.5561279E1,7.206823E0,2.418863E0,9.082581E-1,4.00784E-2,1.21488385E-1,-8.026839E-3,4.4804767E-2,3.170185E-2,1.1662517E-1,2.3256684E-2,6.4594746E-2,3.0869943E-1,1.5368345E-1,-8.838043E-2,3.692837E-2,1.7192374E0,6.13691E-1,1.8401734E0,3.8980758E0,-1.0344422E0,1.4253159E0,5.513922E0,2.2329805E0,2.6903412E0,-2.3971254E-1],"categories":[],"categories_nodes":[],"categories_segments":[],"categories_sizes":[],"default_left":[0,0,0,0,0,0,0,0,0,0,0,0,0,0,0,0,0,0,0,0,0,0,0,0,0,0,0,0,0,0,0,0,0,0,0,0,0,0,0,0,0,0,0,0,0,0,0,0,0,0,0,0,0,0,0,0,0,0,0,0,0],"id":12,"left_children":[1,3,5,7,9,11,-1,13,15,-1,17,19,21,23,25,27,-1,-1,29,31,33,35,37,39,41,43,45,47,49,-1,-1,51,-1,53,55,57,59,-1,-1,-1,-1,-1,-1,-1,-1,-1,-1,-1,-1,-1,-1,-1,-1,-1,-1,-1,-1,-1,-1,-1,-1],"loss_changes":[2.657204E3,7.59856E1,1.1745903E3,5.0063343E0,4.324875E0,3.524751E2,0E0,7.101798E-2,5.039978E-1,0E0,9.376785E0,3.748291E2,1.04947754E2,1.028001E-1,3.54535E-2,1.1545424E0,0E0,0E0,8.437033E0,9.582922E1,4.045205E2,9.128735E1,2.0198914E1,1.4319694E-1,7.2310895E-2,2.8445125E-3,1.34729445E-2,2.7271652E-1,1.6466507E-1,0E0,0E0,1.4752454E2,0E0,4.2553467E1,1.1346037E2,6.911743E1,9.175473E1,0E0,0E0,0E0,0E0,0E0,0E0,0E0,0E0,0E0,0E0,0E0,0E0,0E0,0E0,0E0,0E0,0E0,0E0,0E0,0E0,0E0,0E0,0E0,0E0],"parents":[2147483647,0,0,1,1,2,2,3,3,4,4,5,5,7,7,8,8,10,10,11,11,12,12,13,13,14,14,15,15,18,18,19,19,20,20,21,21,22,22,23,23,24,24,25,25,26,26,27,27,28,28,31,31,33,33,34,34,35,35,36,36],"right_children":[2,4,6,8,10,12,-1,14,16,-1,18,20,22,24,26,28,-1,-1,30,32,34,36,38,40,42,44,46,48,50,-1,-1,52,-1,54,56,58,60,-1,-1,-1,-1,-1,-1,-1,-1,-1,-1,-1,-1,-1,-1,-1,-1,-1,-1,-1,-1,-1,-1,-1,-1],"split_conditions":[6.9126E0,2.936955E0,1.1328244E1,1.796E3,1.854E3,1.0826684E2,5.8607564E0,1.78E3,1.816E3,5.5880874E-1,1.5310278E2,4.5775085E2,6.007472E0,1.771E3,1.786E3,1.814E3,2.6597366E-1,1.339834E0,1.7504393E2,1.0035792E1,1.952E3,1.95E-1,1.89E-1,1.766E3,1.776E3,1.782E3,1.791E3,1.798E3,1.815E3,-1.248848E-1,7.105843E-1,1.890624E0,2.0827765E0,4.6304532E2,1.954E3,2.0523125E2,5.867549E0,2.418863E0,9.082581E-1,4.00784E-2,1.21488385E-1,-8.026839E-3,4.4804767E-2,3.170185E-2,1.1662517E-1,2.3256684E-2,6.4594746E-2,3.0869943E-1,1.5368345E-1,-8.838043E-2,3.692837E-2,1.7192374E0,6.13691E-1,1.8401734E0,3.8980758E0,-1.0344422E0,1.4253159E0,5.513922E0,2.2329805E0,2.6903412E0,-2.3971254E-1],"split_indices":[6,6,6,1,1,4,0,1,1,0,2,2,5,1,1,1,0,0,2,6,1,15,13,1,1,1,1,1,1,0,0,3,0,2,1,4,5,0,0,0,0,0,0,0,0,0,0,0,0,0,0,0,0,0,0,0,0,0,0,0,0],"split_type":[0,0,0,0,0,0,0,0,0,0,0,0,0,0,0,0,0,0,0,0,0,0,0,0,0,0,0,0,0,0,0,0,0,0,0,0,0,0,0,0,0,0,0,0,0,0,0,0,0,0,0,0,0,0,0,0,0,0,0,0,0],"sum_hessian":[2.04E2,8.8E1,1.16E2,6.7E1,2.1E1,1.08E2,8E0,3.2E1,3.5E1,1.1E1,1E1,8.7E1,2.1E1,2.2E1,1E1,1.7E1,1.8E1,4E0,6E0,6.4E1,2.3E1,1.3E1,8E0,1.4E1,8E0,4E0,6E0,1.5E1,2E0,1E0,5E0,4.6E1,1.8E1,1.8E1,5E0,8E0,5E0,5E0,3E0,1.2E1,2E0,5E0,3E0,1E0,3E0,3E0,3E0,2E0,1.3E1,1E0,1E0,2.3E1,2.3E1,4E0,1.4E1,2E0,3E0,5E0,3E0,4E0,1E0],"tree_param":{"num_deleted":"0","num_feature":"17","num_nodes":"61","size_leaf_vector":"0"}},{"base_weights":[3.795102E0,1.0633641E0,6.4378147E0,5.2345407E-1,2.8950791E0,5.782515E0,5.4768715E0,3.462489E-1,4.0023538E-1,3.6985238E0,1.9925431E0,5.0219474E0,7.981733E0,1.7383392E-1,1.6985333E-1,2.3995724E0,1.6115388E0,-4.886322E-1,2.488087E0,4.234658E0,2.680063E0,1.119537E1,5.9999194E0,2.0949857E-1,-1.1058541E-1,1.2272347E0,1.5735735E0,-2.5009233E-1,3.0207826E-2,2.7433898E0,-9.741211E-3,5.225957E0,1.3008627E0,1.2290105E1,5.2983403E-1,3.5883043E0,7.7448764E0,4.4207755E-2,2.469597E-1,-1.8982603E-1,5.344348E-2,6.4880378E-3,6.5700805E-1,4.1323796E-1,1.02733E0,1.1207008E0,2.719665E0,-1.81892E-1,1.1281838E0,1.5953003E0,4.2046638E0,4.3941194E-1,1.3217957E0,5.069092E-1,2.4871686E0],"categories":[],"categories_nodes":[],"categories_segments":[],"categories_sizes":[],"default_left":[0,0,0,0,0,0,0,0,0,0,0,0,0,0,0,0,0,0,0,0,0,0,0,0,0,0,0,0,0,0,0,0,0,0,0,0,0,0,0,0,0,0,0,0,0,0,0,0,0,0,0,0,0,0,0],"id":13,"left_children":[1,3,5,7,9,11,-1,13,-1,15,17,19,21,23,-1,25,-1,27,29,31,-1,33,35,37,39,-1,41,-1,-1,43,-1,45,47,49,-1,51,53,-1,-1,-1,-1,-1,-1,-1,-1,-1,-1,-1,-1,-1,-1,-1,-1,-1,-1],"loss_changes":[1.4730901E3,9.935864E1,6.998716E2,1.1030369E1,9.308685E0,1.2718164E2,0E0,2.442153E0,0E0,1.1018463E1,1.7199661E1,1.9929541E2,8.5680664E1,4.1877234E-1,0E0,4.7383537E0,0E0,6.939086E-1,7.1676483E0,1.8514758E2,0E0,6.087451E1,4.3747803E1,1.2134181E0,8.6655045E-1,0E0,6.649557E0,0E0,0E0,4.585556E0,0E0,2.4651685E2,8.672095E1,9.683716E0,0E0,9.174355E0,1.5729492E1,0E0,0E0,0E0,0E0,0E0,0E0,0E0,0E0,0E0,0E0,0E0,0E0,0E0,0E0,0E0,0E0,0E0,0E0],"parents":[2147483647,0,0,1,1,2,2,3,3,4,4,5,5,7,7,9,9,10,10,11,11,12,12,13,13,15,15,17,17,18,18,19,19,21,21,22,22,23,23,24,24,26,26,29,29,31,31,32,32,33,33,35,35,36,36],"right_children":[2,4,6,8,10,12,-1,14,-1,16,18,20,22,24,-1,26,-1,28,30,32,-1,34,36,38,40,-1,42,-1,-1,44,-1,46,48,50,-1,52,54,-1,-1,-1,-1,-1,-1,-1,-1,-1,-1,-1,-1,-1,-1,-1,-1,-1,-1],"split_conditions":[1.887E3,1.859E3,1.1560067E1,1.836E3,1.872E3,1.0826684E2,5.4768715E0,1.803E3,4.0023538E-1,1.868E3,1.875E3,1.0901491E1,4E-1,1.798E3,1.6985333E-1,1.861E3,1.6115388E0,1.874E3,1.886E3,1.95E3,2.680063E0,6.672546E0,1.476623E2,1.796E3,1.799E3,1.2272347E0,1.863E3,-2.5009233E-1,3.0207826E-2,5.16624E-1,-9.741211E-3,4.6304532E2,6.710493E0,3.09E-1,5.2983403E-1,2.003E3,4.18E-1,4.4207755E-2,2.469597E-1,-1.8982603E-1,5.344348E-2,6.4880378E-3,6.5700805E-1,4.1323796E-1,1.02733E0,1.1207008E0,2.719665E0,-1.81892E-1,1.1281838E0,1.5953003E0,4.2046638E0,4.3941194E-1,1.3217957E0,5.069092E-1,2.4871686E0],"split_indices":[1,1,6,1,1,4,0,1,0,1,1,6,9,1,0,1,0,1,1,1,0,5,2,1,1,0,1,0,0,3,0,2,5,9,0,1,9,0,0,0,0,0,0,0,0,0,0,0,0,0,0,0,0,0,0],"split_type":[0,0,0,0,0,0,0,0,0,0,0,0,0,0,0,0,0,0,0,0,0,0,0,0,0,0,0,0,0,0,0,0,0,0,0,0,0,0,0,0,0,0,0,0,0,0,0,0,0,0,0,0,0,0,0],"sum_hessian":[2.04E2,1.01E2,1.03E2,7.9E1,2.2E1,9.9E1,4E0,6.6E1,1.3E1,1E1,1.2E1,7.6E1,2.3E1,3.8E1,2.8E1,7E0,3E0,2E0,1E1,6.5E1,1.1E1,7E0,1.6E1,3.4E1,4E0,1E0,6E0,1E0,1E0,9E0,1E0,4.8E1,1.7E1,6E0,1E0,8E0,8E0,3.2E1,2E0,1E0,3E0,2E0,4E0,4E0,5E0,3.6E1,1.2E1,1E1,7E0,2E0,4E0,3E0,5E0,1E0,7E0],"tree_param":{"num_deleted":"0","num_feature":"17","num_nodes":"55","size_leaf_vector":"0"}},{"base_weights":[2.800312E0,7.3150265E-1,4.688273E0,3.1854275E-1,1.9411222E0,4.1968107E0,4.162423E0,1.799244E-1,6.443086E-1,2.299083E0,6.922106E-1,3.5886662E0,6.0490913E0,7.22146E-2,2.575086E-1,4.891281E-1,2.442332E-1,3.0737802E-1,2.6810727E0,-2.125786E-1,1.0437775E0,2.8446226E0,5.82772E0,3.1779878E0,4.8954773E0,1.0725288E-1,1.2435722E-2,2.8981093E-1,-3.2984734E-2,7.8450584E-1,3.3725184E-1,2.9073527E0,1.3885345E0,4.8831788E-1,3.4487152E-1,3.8457968E0,7.068162E-1,4.7577953E0,2.5951471E0,1.142985E0,5.9966946E0,1.6737733E-2,8.834915E-2,-1.7071962E-2,2.7947789E-2,7.482548E-2,2.0706196E-1,-3.3100512E-2,2.9859925E-2,6.42992E-2,2.7093622E-1,-3.520241E-2,1.3539316E-1,6.098379E-1,1.3685745E0,2.5675965E-2,5.382965E-1,-2.7179718E-1,3.1914672E-1,7.686579E-1,2.309133E0,6.1609435E-1,-5.215473E-1,6.517072E-1,1.6315736E0,5.1934206E-1,-2.6966858E-1,2.053E0,8.296271E-1],"categories":[],"categories_nodes":[],"categories_segments":[],"categories_sizes":[],"default_left":[0,0,0,0,0,0,0,0,0,0,0,0,0,0,0,0,0,0,0,0,0,0,0,0,0,0,0,0,0,0,0,0,0,0,0,0,0,0,0,0,0,0,0,0,0,0,0,0,0,0,0,0,0,0,0,0,0,0,0,0,0,0,0,0,0,0,0,0,0],"id":14,"left_children":[1,3,5,7,9,11,-1,13,15,17,19,21,23,25,27,29,-1,-1,31,-1,33,35,37,-1,39,41,43,45,47,49,51,53,55,-1,57,59,61,63,-1,65,67,-1,-1,-1,-1,-1,-1,-1,-1,-1,-1,-1,-1,-1,-1,-1,-1,-1,-1,-1,-1,-1,-1,-1,-1,-1,-1,-1,-1],"loss_changes":[7.97266E2,4.8834576E1,4.248545E2,3.2708578E0,9.585091E0,9.431653E1,0E0,4.326595E-1,1.8149567E-1,6.5029907E0,4.1869545E0,1.1669861E2,7.3954895E1,4.893543E-2,3.0045104E-1,3.6347604E-1,0E0,0E0,5.770111E-2,0E0,1.8873954E0,1.2998135E2,1.6225647E1,0E0,7.992438E1,1.2810436E-1,6.1276928E-2,2.806952E-1,5.1983155E-2,7.695842E-2,6.2331057E-1,6.6437225E0,1.961308E0,0E0,4.561047E0,1.8790808E2,7.2732E1,1.6347443E1,0E0,8.761768E0,2.484674E1,0E0,0E0,0E0,0E0,0E0,0E0,0E0,0E0,0E0,0E0,0E0,0E0,0E0,0E0,0E0,0E0,0E0,0E0,0E0,0E0,0E0,0E0,0E0,0E0,0E0,0E0,0E0,0E0],"parents":[2147483647,0,0,1,1,2,2,3,3,4,4,5,5,7,7,8,8,9,9,10,10,11,11,12,12,13,13,14,14,15,15,18,18,20,20,21,21,22,22,24,24,25,25,26,26,27,27,28,28,29,29,30,30,31,31,32,32,34,34,35,35,36,36,37,37,39,39,40,40],"right_children":[2,4,6,8,10,12,-1,14,16,18,20,22,24,26,28,30,-1,-1,32,-1,34,36,38,-1,40,42,44,46,48,50,52,54,56,-1,58,60,62,64,-1,66,68,-1,-1,-1,-1,-1,-1,-1,-1,-1,-1,-1,-1,-1,-1,-1,-1,-1,-1,-1,-1,-1,-1,-1,-1,-1,-1,-1,-1],"split_conditions":[1.883E3,1.848E3,1.1560067E1,1.821E3,7.999898E0,1.0826684E2,4.162423E0,1.782E3,1.836E3,1.859E3,1.874E3,1.0745194E1,3.903253E0,1.771E3,1.817E3,2.184873E0,2.442332E-1,3.0737802E-1,1.872E3,-2.125786E-1,1.878E3,5.411728E0,4.9126172E2,3.1779878E0,1.4245657E2,1.766E3,1.776E3,1.816E3,1.819E3,1.822E3,1.826E3,1.869E3,1.875E3,4.8831788E-1,1.881E3,4.539253E2,1.0282998E1,1.959E3,2.5951471E0,1.3930162E2,1.89E-1,1.6737733E-2,8.834915E-2,-1.7071962E-2,2.7947789E-2,7.482548E-2,2.0706196E-1,-3.3100512E-2,2.9859925E-2,6.42992E-2,2.7093622E-1,-3.520241E-2,1.3539316E-1,6.098379E-1,1.3685745E0,2.5675965E-2,5.382965E-1,-2.7179718E-1,3.1914672E-1,7.686579E-1,2.309133E0,6.1609435E-1,-5.215473E-1,6.517072E-1,1.6315736E0,5.1934206E-1,-2.6966858E-1,2.053E0,8.296271E-1],"split_indices":[1,1,6,1,6,4,0,1,1,1,1,6,5,1,1,6,0,0,1,0,1,3,2,0,2,1,1,1,1,1,1,1,1,0,1,2,6,1,0,2,13,0,0,0,0,0,0,0,0,0,0,0,0,0,0,0,0,0,0,0,0,0,0,0,0,0,0,0,0],"split_type":[0,0,0,0,0,0,0,0,0,0,0,0,0,0,0,0,0,0,0,0,0,0,0,0,0,0,0,0,0,0,0,0,0,0,0,0,0,0,0,0,0,0,0,0,0,0,0,0,0,0,0,0,0,0,0,0,0,0,0,0,0,0,0,0,0,0,0,0,0],"sum_hessian":[2.04E2,9.8E1,1.06E2,7.4E1,2.4E1,1.02E2,4E0,5.3E1,2.1E1,1.8E1,6E0,7.9E1,2.3E1,2.3E1,3E1,1.3E1,8E0,5E0,1.3E1,1E0,5E0,6.1E1,1.8E1,3E0,2E1,1.4E1,9E0,2.7E1,3E0,3E0,1E1,1E1,3E0,2E0,3E0,4.1E1,2E1,1.5E1,3E0,5E0,1.5E1,1.2E1,2E0,5E0,4E0,2.6E1,1E0,2E0,1E0,1E0,2E0,2E0,8E0,8E0,2E0,1E0,2E0,1E0,2E0,3.2E1,9E0,1.3E1,7E0,4E0,1.1E1,4E0,1E0,1.1E1,4E0],"tree_param":{"num_deleted":"0","num_feature":"17","num_nodes":"69","size_leaf_vector":"0"}},{"base_weights":[2.0712957E0,8.926139E-1,3.93992E0,5.1967E-1,2.6489522E0,3.481509E0,3.499425E0,6.018967E-1,-7.5122374E-1,5.43729E0,9.852417E-1,2.8955624E0,4.7058396E0,2.3730373E-1,1.4933159E0,1.7311183E0,4.6583405E-1,-2.8085556E0,2.1677372E0,2.4257624E0,5.7033954E0,2.103814E0,3.4791367E0,1.3325466E-1,4.8191035E-1,1.5587982E0,-6.0850527E-2,-1.983846E-1,-1.5958604E0,2.5071883E0,-2.3493348E-1,4.532596E0,1.8910809E0,2.4629426E0,5.3134006E-1,1.8404337E0,1.4193807E0,2.3796776E-2,7.1013615E-2,1.1316238E-1,1.8539658E-1,4.1942444E-1,9.088303E-1,-3.0322266E-1,2.1394959E-1,9.0403485E-1,3.890955E-1,7.7303344E-1,2.275592E0,2.1965313E-1,9.8005277E-1,1.1117249E-1,7.5408024E-1],"categories":[],"categories_nodes":[],"categories_segments":[],"categories_sizes":[],"default_left":[0,0,0,0,0,0,0,0,0,0,0,0,0,0,0,0,0,0,0,0,0,0,0,0,0,0,0,0,0,0,0,0,0,0,0,0,0,0,0,0,0,0,0,0,0,0,0,0,0,0,0,0,0],"id":15,"left_children":[1,3,5,7,9,11,-1,13,-1,15,17,19,21,23,25,-1,-1,27,29,31,33,-1,35,37,39,41,-1,43,-1,45,-1,47,49,-1,-1,51,-1,-1,-1,-1,-1,-1,-1,-1,-1,-1,-1,-1,-1,-1,-1,-1,-1],"loss_changes":[4.4799847E2,8.181042E1,2.3913965E2,2.7862288E1,9.670067E1,4.0895813E1,0E0,3.344617E1,0E0,1.3914185E0,7.338045E1,5.739737E1,4.0688324E1,1.8446145E0,3.6482086E0,0E0,0E0,2.516102E1,1.3983429E1,4.5499786E1,5.4450455E1,0E0,2.6174255E1,2.825256E-1,8.033991E-2,2.618927E0,0E0,2.9423397E0,0E0,2.8310623E0,0E0,3.4189285E1,6.1383087E1,0E0,0E0,7.973667E0,0E0,0E0,0E0,0E0,0E0,0E0,0E0,0E0,0E0,0E0,0E0,0E0,0E0,0E0,0E0,0E0,0E0],"parents":[2147483647,0,0,1,1,2,2,3,3,4,4,5,5,7,7,9,9,10,10,11,11,12,12,13,13,14,14,17,17,18,18,19,19,20,20,22,22,23,23,24,24,25,25,27,27,29,29,31,31,32,32,35,35],"right_children":[2,4,6,8,10,12,-1,14,-1,16,18,20,22,24,26,-1,-1,28,30,32,34,-1,36,38,40,42,-1,44,-1,46,-1,48,50,-1,-1,52,-1,-1,-1,-1,-1,-1,-1,-1,-1,-1,-1,-1,-1,-1,-1,-1,-1],"split_conditions":[3.832544E0,9.068779E0,1.1726423E1,8.946748E0,1.952932E0,1.062445E1,3.499425E0,1.848E3,-7.5122374E-1,1.943E3,2.275366E0,1.089E0,6.007472E0,1.821E3,1.894E3,1.7311183E0,4.6583405E-1,1.896E3,3.700609E0,4.382144E0,2.013E3,2.103814E0,1.1115083E1,1.8E3,7.6445694E1,3.1951544E2,-6.0850527E-2,1.895E3,-1.5958604E0,1.0184036E1,-2.3493348E-1,1.937E3,1.9795229E2,2.4629426E0,5.3134006E-1,1.968E3,1.4193807E0,2.3796776E-2,7.1013615E-2,1.1316238E-1,1.8539658E-1,4.1942444E-1,9.088303E-1,-3.0322266E-1,2.1394959E-1,9.0403485E-1,3.890955E-1,7.7303344E-1,2.275592E0,2.1965313E-1,9.8005277E-1,1.1117249E-1,7.5408024E-1],"split_indices":[3,6,6,6,3,6,0,1,0,1,3,14,5,1,1,0,0,1,3,3,1,0,6,1,2,2,0,1,0,6,0,1,3,0,0,1,0,0,0,0,0,0,0,0,0,0,0,0,0,0,0,0,0],"split_type":[0,0,0,0,0,0,0,0,0,0,0,0,0,0,0,0,0,0,0,0,0,0,0,0,0,0,0,0,0,0,0,0,0,0,0,0,0,0,0,0,0,0,0,0,0,0,0,0,0,0,0,0,0],"sum_hessian":[2.04E2,1.26E2,7.8E1,1.05E2,2.1E1,7.5E1,3E0,1.03E2,2E0,7E0,1.4E1,5.3E1,2.2E1,7.4E1,2.9E1,6E0,1E0,3E0,1.1E1,4.7E1,6E0,6E0,1.6E1,5.3E1,2.1E1,2.8E1,1E0,2E0,1E0,1E1,1E0,8E0,3.9E1,3E0,3E0,8E0,8E0,3.6E1,1.7E1,1.4E1,7E0,2.7E1,1E0,1E0,1E0,6E0,4E0,6E0,2E0,2.2E1,1.7E1,3E0,5E0],"tree_param":{"num_deleted":"0","num_feature":"17","num_nodes":"53","size_leaf_vector":"0"}},{"base_weights":[1.5358092E0,6.4435434E-1,2.9494667E0,3.7234923E-1,1.9256356E0,2.590095E0,2.7120485E0,4.372963E-1,-2.0032654E0,4.0807304E0,6.4787596E-1,3.4317365E0,1.8270583E0,1.9206727E-1,1.2045374E0,-1.4151306E-1,-7.599564E-1,4.9059143E0,6.087204E-1,-2.3872757E0,1.6056036E0,2.7587614E0,7.9576035E0,-9.1922003E-1,2.1482162E0,1.1438545E-1,4.354465E-1,1.8337166E0,6.6283673E-1,6.1873174E-1,1.8342255E0,-1.6862996E-1,-1.356482E0,1.8725947E0,-1.9969483E-1,1.6106873E0,4.8041134E0,5.0388795E-1,2.8471162E0,3.2001287E-1,2.7469504E0,1.9087369E-2,6.31381E-2,1.445032E-1,8.496857E-3,3.353709E-1,1.0109757E0,7.6955795E-2,5.148239E-1,-2.5773928E-1,1.8185578E-1,2.9406005E-1,6.727518E-1,5.862196E-1,-8.400376E-1,6.60315E-1,1.7931428E0,-5.339951E-1,3.9900285E-1,2.1013184E-1,9.104575E-1],"categories":[],"categories_nodes":[],"categories_segments":[],"categories_sizes":[],"default_left":[0,0,0,0,0,0,0,0,0,0,0,0,0,0,0,0,0,0,0,0,0,0,0,0,0,0,0,0,0,0,0,0,0,0,0,0,0,0,0,0,0,0,0,0,0,0,0,0,0,0,0,0,0,0,0,0,0,0,0,0,0],"id":16,"left_children":[1,3,5,7,9,11,-1,13,15,17,19,21,23,25,27,-1,-1,29,-1,31,33,35,37,-1,39,41,43,45,47,-1,-1,49,-1,51,-1,53,55,-1,-1,57,59,-1,-1,-1,-1,-1,-1,-1,-1,-1,-1,-1,-1,-1,-1,-1,-1,-1,-1,-1,-1],"loss_changes":[2.564429E2,4.35444E1,1.4950214E2,1.7230675E1,5.793744E1,4.2537506E1,0E0,1.9336226E1,1.2398863E0,3.5895538E0,4.7435745E1,8.464969E1,7.2556854E1,1.4626827E0,7.3052177E0,0E0,0E0,4.5670776E0,0E0,1.8178818E1,8.523344E0,6.740497E1,2.2550827E1,0E0,4.2905243E1,2.8897375E-1,3.4396935E-1,8.328735E0,5.979057E0,0E0,0E0,2.1258264E0,0E0,1.4330673E0,0E0,3.87923E1,2.0432205E1,0E0,0E0,2.5698277E1,1.5550476E1,0E0,0E0,0E0,0E0,0E0,0E0,0E0,0E0,0E0,0E0,0E0,0E0,0E0,0E0,0E0,0E0,0E0,0E0,0E0,0E0],"parents":[2147483647,0,0,1,1,2,2,3,3,4,4,5,5,7,7,8,8,9,9,10,10,11,11,12,12,13,13,14,14,17,17,19,19,20,20,21,21,22,22,24,24,25,25,26,26,27,27,28,28,31,31,33,33,35,35,36,36,39,39,40,40],"right_children":[2,4,6,8,10,12,-1,14,16,18,20,22,24,26,28,-1,-1,30,-1,32,34,36,38,-1,40,42,44,46,48,-1,-1,50,-1,52,-1,54,56,-1,-1,58,60,-1,-1,-1,-1,-1,-1,-1,-1,-1,-1,-1,-1,-1,-1,-1,-1,-1,-1,-1,-1],"split_conditions":[3.832544E0,9.068779E0,1.1726423E1,8.946748E0,1.952932E0,5.524922E0,2.7120485E0,1.859E3,1.89E3,1.893E3,2.275366E0,1.7984842E2,1.954E3,1.831E3,1.872E3,-1.4151306E-1,-7.599564E-1,1.891E3,6.087204E-1,1.896E3,3.700609E0,4.6304532E2,1.155992E2,-9.1922003E-1,9.728953E0,1.806E3,1.1714967E2,1.869E3,8.755737E0,6.1873174E-1,1.8342255E0,1.895E3,-1.356482E0,1.903E3,-1.9969483E-1,4.603816E2,1.916E3,5.0388795E-1,2.8471162E0,1.985E3,1.96E3,1.9087369E-2,6.31381E-2,1.445032E-1,8.496857E-3,3.353709E-1,1.0109757E0,7.6955795E-2,5.148239E-1,-2.5773928E-1,1.8185578E-1,2.9406005E-1,6.727518E-1,5.862196E-1,-8.400376E-1,6.60315E-1,1.7931428E0,-5.339951E-1,3.9900285E-1,2.1013184E-1,9.104575E-1],"split_indices":[3,6,6,6,3,5,0,1,1,1,3,3,1,1,1,0,0,1,0,1,3,2,2,0,6,1,2,1,6,0,0,1,0,1,0,2,1,0,0,1,1,0,0,0,0,0,0,0,0,0,0,0,0,0,0,0,0,0,0,0,0],"split_type":[0,0,0,0,0,0,0,0,0,0,0,0,0,0,0,0,0,0,0,0,0,0,0,0,0,0,0,0,0,0,0,0,0,0,0,0,0,0,0,0,0,0,0,0,0,0,0,0,0,0,0,0,0,0,0,0,0,0,0,0,0],"sum_hessian":[2.04E2,1.26E2,7.8E1,1.05E2,2.1E1,7.5E1,3E0,1.03E2,2E0,7E0,1.4E1,3.4E1,4.1E1,7.9E1,2.4E1,1E0,1E0,4E0,3E0,3E0,1.1E1,3.1E1,3E0,2E0,3.9E1,6.1E1,1.8E1,1E1,1.4E1,2E0,2E0,2E0,1E0,1E1,1E0,2.1E1,1E1,1E0,2E0,1E1,2.9E1,4.1E1,2E1,1.6E1,2E0,8E0,2E0,1.1E1,3E0,1E0,1E0,4E0,6E0,2E1,1E0,4E0,6E0,3E0,7E0,4E0,2.5E1],"tree_param":{"num_deleted":"0","num_feature":"17","num_nodes":"61","size_leaf_vector":"0"}},{"base_weights":[1.1335901E0,8.681839E-1,4.2144394E0,6.076788E-1,2.8298743E0,3.1293683E0,2.3619874E0,4.063515E-1,2.0072064E0,5.1225977E0,1.6499405E0,1.4841615E-1,3.2939782E0,1.3601795E-1,7.4425554E-1,4.8500757E0,5.467204E-1,5.9799957E0,-3.2684328E-3,4.0955463E-1,2.3532166E0,1.2901685E0,2.3687677E0,2.0470062E-1,-1.2888107E0,1.5325752E0,1.9353333E-1,3.5587922E-1,1.5789002E0,2.092813E0,-2.1212208E0,7.017255E0,1.1905518E-1,8.35612E-1,-3.2201844E-1,8.892548E-1,1.1494141E0,4.3769836E-1,9.784058E-1,4.121642E-2,8.38456E-1,-8.9781195E-2,-4.5567018E-1,2.689759E-1,1.0827316E0,-1.5095693E-1,3.2191163E-1,3.0076772E-1,1.0432663E0,-1.0307587E0,-1.8148041E-1,2.6577852E0,8.508423E-1,4.283066E-1,1.2949768E-1,2.2851564E-2,4.196045E-1,2.796753E-1,-1.137085E-2],"categories":[],"categories_nodes":[],"categories_segments":[],"categories_sizes":[],"default_left":[0,0,0,0,0,0,0,0,0,0,0,0,0,0,0,0,0,0,0,0,0,0,0,0,0,0,0,0,0,0,0,0,0,0,0,0,0,0,0,0,0,0,0,0,0,0,0,0,0,0,0,0,0,0,0,0,0,0,0],"id":17,"left_children":[1,3,5,7,9,11,-1,13,15,17,19,-1,21,23,25,27,29,31,-1,33,35,-1,37,39,41,43,45,-1,-1,47,49,51,-1,53,-1,-1,55,57,-1,-1,-1,-1,-1,-1,-1,-1,-1,-1,-1,-1,-1,-1,-1,-1,-1,-1,-1,-1,-1],"loss_changes":[1.6396478E2,9.537613E1,3.8883392E1,4.6802334E1,5.1063766E1,4.4420624E0,0E0,1.3509439E1,8.453976E1,3.0875275E1,1.2993568E1,0E0,1.9198914E0,8.484149E0,2.8356976E1,4.3468475E0,6.6312584E1,3.1962204E1,0E0,5.319692E0,3.9477463E0,0E0,1.4085304E1,1.3738356E1,4.5617008E-1,3.2421684E1,2.5050812E1,0E0,0E0,1.1610741E1,9.881762E0,1.3382492E1,0E0,8.1875277E-1,0E0,0E0,1.231082E0,9.761742E-1,0E0,0E0,0E0,0E0,0E0,0E0,0E0,0E0,0E0,0E0,0E0,0E0,0E0,0E0,0E0,0E0,0E0,0E0,0E0,0E0,0E0],"parents":[2147483647,0,0,1,1,2,2,3,3,4,4,5,5,7,7,8,8,9,9,10,10,12,12,13,13,14,14,15,15,16,16,17,17,19,19,20,20,22,22,23,23,24,24,25,25,26,26,29,29,30,30,31,31,33,33,36,36,37,37],"right_children":[2,4,6,8,10,12,-1,14,16,18,20,-1,22,24,26,28,30,32,-1,34,36,-1,38,40,42,44,46,-1,-1,48,50,52,-1,54,-1,-1,56,58,-1,-1,-1,-1,-1,-1,-1,-1,-1,-1,-1,-1,-1,-1,-1,-1,-1,-1,-1,-1,-1],"split_conditions":[1.0901491E1,1.991E3,1.174322E1,4.5775085E2,4E-1,2.7061206E2,2.3619874E0,1.801369E2,9.933511E0,2.1844676E2,1.4245657E2,1.4841615E-1,1.1148759E1,1.861E3,1.890624E0,1.952932E0,1.925E3,6.007472E0,-3.2684328E-3,1.3930162E2,5.988265E0,1.2901685E0,1.966E3,1.859E3,1.862E3,9.068779E0,1.0023534E1,3.5587922E-1,1.5789002E0,1.062445E1,4.6992267E2,2.0523125E2,1.1905518E-1,3.723954E0,-3.2201844E-1,8.892548E-1,6.32002E0,1.957E3,9.784058E-1,4.121642E-2,8.38456E-1,-8.9781195E-2,-4.5567018E-1,2.689759E-1,1.0827316E0,-1.5095693E-1,3.2191163E-1,3.0076772E-1,1.0432663E0,-1.0307587E0,-1.8148041E-1,2.6577852E0,8.508423E-1,4.283066E-1,1.2949768E-1,2.2851564E-2,4.196045E-1,2.796753E-1,-1.137085E-2],"split_indices":[6,1,6,2,9,2,0,2,6,3,2,0,6,1,3,3,1,5,0,2,5,0,1,1,1,6,6,0,0,6,2,4,0,5,0,0,5,1,0,0,0,0,0,0,0,0,0,0,0,0,0,0,0,0,0,0,0,0,0],"split_type":[0,0,0,0,0,0,0,0,0,0,0,0,0,0,0,0,0,0,0,0,0,0,0,0,0,0,0,0,0,0,0,0,0,0,0,0,0,0,0,0,0,0,0,0,0,0,0,0,0,0,0,0,0,0,0,0,0,0,0],"sum_hessian":[2.04E2,1.89E2,1.5E1,1.68E2,2.1E1,1.3E1,2E0,1.48E2,2E1,6E0,1.5E1,1E0,1.2E1,8.3E1,6.5E1,6E0,1.4E1,5E0,1E0,6E0,9E0,4E0,8E0,8E1,3E0,2.6E1,3.9E1,1E0,5E0,9E0,5E0,4E0,1E0,5E0,1E0,5E0,4E0,3E0,5E0,7.9E1,1E0,1E0,2E0,2.1E1,5E0,2.2E1,1.7E1,6E0,3E0,2E0,3E0,2E0,2E0,1E0,4E0,1E0,3E0,1E0,2E0],"tree_param":{"num_deleted":"0","num_feature":"17","num_nodes":"59","size_leaf_vector":"0"}},{"base_weights":[8.626E-1,6.5570515E-1,3.265564E0,4.4859195E-1,2.2169065E0,2.3823678E0,1.8895874E0,2.4042171E-1,1.2680789E0,4.1035986E0,1.252922E0,9.1455007E-1,1.2807356E0,3.461389E-1,-8.808339E-1,1.7878902E0,-1.4556885E0,4.7906137E0,-2.774048E-3,9.337952E-1,7.649144E-1,-4.91272E-2,1.5487772E0,2.0876461E-1,1.7508572E0,-1.1691223E0,1.1212158E-1,9.755972E-1,3.0284064E0,-6.362732E-1,-8.3496094E-2,5.6138124E0,1.0119324E-1,-3.8238525E-2,1.2153592E0,2.3321687E-1,6.183106E-1,7.870092E-2,-1.6216508E-1,7.9662913E-1,4.0285036E-2,2.0732576E-1,-4.4074708E-1,1.4542408E-1,8.085297E-1,1.6710815E-1,1.054713E0,-6.600952E-2,2.843628E-2,3.5951844E-1,1.9254204E0,9.5720224E-2,-2.7371523E-1,1.2254334E-1,4.6521607E-1],"categories":[],"categories_nodes":[],"categories_segments":[],"categories_sizes":[],"default_left":[0,0,0,0,0,0,0,0,0,0,0,0,0,0,0,0,0,0,0,0,0,0,0,0,0,0,0,0,0,0,0,0,0,0,0,0,0,0,0,0,0,0,0,0,0,0,0,0,0,0,0,0,0,0,0],"id":18,"left_children":[1,3,5,7,9,11,-1,13,15,17,19,-1,21,23,25,27,29,31,-1,-1,33,-1,35,37,39,-1,41,43,45,-1,47,49,-1,51,53,-1,-1,-1,-1,-1,-1,-1,-1,-1,-1,-1,-1,-1,-1,-1,-1,-1,-1,-1,-1],"loss_changes":[9.977673E1,6.044114E1,2.785495E1,2.8525307E1,3.487082E1,6.369339E0,0E0,1.6425783E1,5.0741344E1,1.9823402E1,1.2140076E1,0E0,2.963914E0,2.3756E1,3.6376858E1,2.62677E1,5.2997885E0,2.0102112E1,0E0,0E0,5.1113377E0,0E0,7.686701E-1,4.7581525E0,1.5728821E1,0E0,1.017035E1,1.4729897E1,1.1289085E1,0E0,9.3882516E-2,1.0064255E1,0E0,2.165136E0,1.8019352E0,0E0,0E0,0E0,0E0,0E0,0E0,0E0,0E0,0E0,0E0,0E0,0E0,0E0,0E0,0E0,0E0,0E0,0E0,0E0,0E0],"parents":[2147483647,0,0,1,1,2,2,3,3,4,4,5,5,7,7,8,8,9,9,10,10,12,12,13,13,14,14,15,15,16,16,17,17,20,20,22,22,23,23,24,24,26,26,27,27,28,28,30,30,31,31,33,33,34,34],"right_children":[2,4,6,8,10,12,-1,14,16,18,20,-1,22,24,26,28,30,32,-1,-1,34,-1,36,38,40,-1,42,44,46,-1,48,50,-1,52,54,-1,-1,-1,-1,-1,-1,-1,-1,-1,-1,-1,-1,-1,-1,-1,-1,-1,-1,-1,-1],"split_conditions":[1.0901491E1,1.991E3,1.174322E1,4.3119785E2,4E-1,8.384293E0,1.8895874E0,3.8374536E2,1.95E3,2.1844676E2,1.995E3,9.1455007E-1,1.966E3,3.1951544E2,4.076603E2,1.931E3,4.824279E2,6.007472E0,-2.774048E-3,9.337952E-1,2.003E3,-4.91272E-2,1.1454919E1,2.7496854E2,1.893E3,-1.1691223E0,1.946E3,1.062445E1,9.353447E0,-6.362732E-1,1.952E3,3.09E-1,1.0119324E-1,2.001E3,7.427593E0,2.3321687E-1,6.183106E-1,7.870092E-2,-1.6216508E-1,7.9662913E-1,4.0285036E-2,2.0732576E-1,-4.4074708E-1,1.4542408E-1,8.085297E-1,1.6710815E-1,1.054713E0,-6.600952E-2,2.843628E-2,3.5951844E-1,1.9254204E0,9.5720224E-2,-2.7371523E-1,1.2254334E-1,4.6521607E-1],"split_indices":[6,1,6,2,9,5,0,2,1,3,1,0,1,2,2,1,2,5,0,0,1,0,6,2,1,0,1,6,6,0,1,9,0,1,6,0,0,0,0,0,0,0,0,0,0,0,0,0,0,0,0,0,0,0,0],"split_type":[0,0,0,0,0,0,0,0,0,0,0,0,0,0,0,0,0,0,0,0,0,0,0,0,0,0,0,0,0,0,0,0,0,0,0,0,0,0,0,0,0,0,0,0,0,0,0,0,0,0,0,0,0,0,0],"sum_hessian":[2.04E2,1.89E2,1.5E1,1.68E2,2.1E1,1.3E1,2E0,1.35E2,3.3E1,6E0,1.5E1,7E0,6E0,1.24E2,1.1E1,2.8E1,5E0,5E0,1E0,2E0,1.3E1,1E0,5E0,1.14E2,1E1,2E0,9E0,1.8E1,1E1,3E0,2E0,4E0,1E0,5E0,8E0,3E0,2E0,1.07E2,7E0,6E0,4E0,7E0,2E0,1.5E1,3E0,2E0,8E0,1E0,1E0,1E0,3E0,4E0,1E0,3E0,5E0],"tree_param":{"num_deleted":"0","num_feature":"17","num_nodes":"55","size_leaf_vector":"0"}},{"base_weights":[6.437556E-1,4.831E-1,2.5113068E0,3.190627E-1,1.7212455E0,1.7903006E0,1.51167E0,1.6352415E-1,9.3183273E-1,3.2129996E0,9.6102524E-1,1.1034669E0,1.3621356E0,2.4832736E-1,-7.3346967E-1,1.3265518E0,-1.1312815E0,3.7511241E0,-2.3620606E-3,7.470398E-1,5.647147E-1,-9.216309E-3,1.6123103E0,1.3363914E-1,1.2261306E0,-9.352967E-1,5.5133056E-2,7.331318E-1,2.2309542E0,-1.6436996E0,-7.096354E-2,4.386664E0,8.6013794E-2,-5.641683E-2,9.1605633E-1,1.00543216E-1,-1.0469056E-1,8.286164E-1,1.2211304E0,5.531005E-2,-2.4051972E-1,4.4996643E-1,-3.08844E-1,1.9523491E-1,-3.003113E-1,3.4647584E-1,-2.0365724E-1,3.0634308E-1,9.206818E-1,-5.586212E-1,-1.4828797E-1,-5.6103516E-2,2.4169924E-2,1.7411469E0,4.521851E-1,7.275147E-2,-2.3265381E-1,9.4967656E-2,3.489136E-1,-9.56421E-2,4.937897E-1],"categories":[],"categories_nodes":[],"categories_segments":[],"categories_sizes":[],"default_left":[0,0,0,0,0,0,0,0,0,0,0,0,0,0,0,0,0,0,0,0,0,0,0,0,0,0,0,0,0,0,0,0,0,0,0,0,0,0,0,0,0,0,0,0,0,0,0,0,0,0,0,0,0,0,0,0,0,0,0,0,0],"id":19,"left_children":[1,3,5,7,9,11,-1,13,15,17,19,-1,21,23,25,27,29,31,-1,-1,33,35,37,39,41,-1,43,45,47,49,51,53,-1,55,57,-1,-1,-1,59,-1,-1,-1,-1,-1,-1,-1,-1,-1,-1,-1,-1,-1,-1,-1,-1,-1,-1,-1,-1,-1,-1],"loss_changes":[6.0293472E1,3.80402E1,2.013742E1,1.5954905E1,2.1861588E1,6.3065453E0,0E0,1.0527382E1,2.918862E1,1.21621475E1,8.289807E0,0E0,4.474869E0,1.3853953E1,2.2733992E1,1.3928436E1,3.1433144E0,1.1952911E1,0E0,0E0,3.106892E0,4.679463E-1,1.5744953E0,5.509576E0,9.57148E0,0E0,6.9425383E0,1.2099656E1,8.018009E0,8.357906E-2,6.782118E-2,1.1654694E1,0E0,1.4777857E0,9.644513E-1,0E0,0E0,0E0,7.066943E0,0E0,0E0,0E0,0E0,0E0,0E0,0E0,0E0,0E0,0E0,0E0,0E0,0E0,0E0,0E0,0E0,0E0,0E0,0E0,0E0,0E0,0E0],"parents":[2147483647,0,0,1,1,2,2,3,3,4,4,5,5,7,7,8,8,9,9,10,10,12,12,13,13,14,14,15,15,16,16,17,17,20,20,21,21,22,22,23,23,24,24,26,26,27,27,28,28,29,29,30,30,31,31,33,33,34,34,38,38],"right_children":[2,4,6,8,10,12,-1,14,16,18,20,-1,22,24,26,28,30,32,-1,-1,34,36,38,40,42,-1,44,46,48,50,52,54,-1,56,58,-1,-1,-1,60,-1,-1,-1,-1,-1,-1,-1,-1,-1,-1,-1,-1,-1,-1,-1,-1,-1,-1,-1,-1,-1,-1],"split_conditions":[1.0901491E1,1.991E3,1.174322E1,4.3119785E2,4E-1,1.917E3,1.51167E0,3.8374536E2,1.95E3,2.1844676E2,1.995E3,1.1034669E0,1.959E3,3.1435287E2,4.076603E2,1.931E3,4.824279E2,6.007472E0,-2.3620606E-3,7.470398E-1,2.003E3,1.957E3,1.962E3,2.7496854E2,1.897E3,-9.352967E-1,1.937E3,1.925E3,4.578461E2,1.953E3,1.952E3,2.0523125E2,8.6013794E-2,2.001E3,7.427593E0,1.00543216E-1,-1.0469056E-1,8.286164E-1,1.966E3,5.531005E-2,-2.4051972E-1,4.4996643E-1,-3.08844E-1,1.9523491E-1,-3.003113E-1,3.4647584E-1,-2.0365724E-1,3.0634308E-1,9.206818E-1,-5.586212E-1,-1.4828797E-1,-5.6103516E-2,2.4169924E-2,1.7411469E0,4.521851E-1,7.275147E-2,-2.3265381E-1,9.4967656E-2,3.489136E-1,-9.56421E-2,4.937897E-1],"split_indices":[6,1,6,2,9,1,0,2,1,3,1,0,1,2,2,1,2,5,0,0,1,1,1,2,1,0,1,1,2,1,1,4,0,1,6,0,0,0,1,0,0,0,0,0,0,0,0,0,0,0,0,0,0,0,0,0,0,0,0,0,0],"split_type":[0,0,0,0,0,0,0,0,0,0,0,0,0,0,0,0,0,0,0,0,0,0,0,0,0,0,0,0,0,0,0,0,0,0,0,0,0,0,0,0,0,0,0,0,0,0,0,0,0,0,0,0,0,0,0,0,0,0,0,0,0],"sum_hessian":[2.04E2,1.89E2,1.5E1,1.68E2,2.1E1,1.3E1,2E0,1.35E2,3.3E1,6E0,1.5E1,1E0,1.2E1,1.24E2,1.1E1,2.8E1,5E0,5E0,1E0,2E0,1.3E1,2E0,1E1,1.12E2,1.2E1,2E0,9E0,1.8E1,1E1,3E0,2E0,4E0,1E0,5E0,8E0,1E0,1E0,1E0,9E0,1.07E2,5E0,1.1E1,1E0,6E0,3E0,1.4E1,4E0,5E0,5E0,2E0,1E0,1E0,1E0,2E0,2E0,4E0,1E0,3E0,5E0,2E0,7E0],"tree_param":{"num_deleted":"0","num_feature":"17","num_nodes":"61","size_leaf_vector":"0"}},{"base_weights":[4.8327616E-1,3.8598892E-1,2.5590887E0,8.893495E-4,6.9688684E-1,1.5626308E0,1.2093384E0,-7.45604E-2,2.827863E-1,6.110926E-1,2.7962112E0,5.507776E-1,5.86263E-1,-6.077765E-2,-1.5590286E-1,6.029898E-1,-3.522753E-1,5.2605784E-1,2.6479645E0,1.3652756E0,2.0830078E-1,2.4671632E-1,1.7102052E-2,-8.0100946E-2,1.1924286E-1,2.6846948E-1,6.92585E-1,-2.2885324E-1,1.463623E-1,1.8294281E0,4.5491737E-1,1.0022095E0,8.546448E-2,-3.781907E-2,-1.6910554E-3,1.051236E-1,-2.8248597E-2,8.680268E-2,-4.238663E-2,1.865326E-1,7.281815E-1,9.268427E-2,3.0481523E-1],"categories":[],"categories_nodes":[],"categories_segments":[],"categories_sizes":[],"default_left":[0,0,0,0,0,0,0,0,0,0,0,0,0,0,0,0,0,0,0,0,0,0,0,0,0,0,0,0,0,0,0,0,0,0,0,0,0,0,0,0,0,0,0],"id":20,"left_children":[1,3,5,7,9,11,-1,13,15,17,19,-1,21,23,-1,25,27,29,31,-1,-1,-1,-1,33,-1,35,-1,-1,37,39,41,-1,-1,-1,-1,-1,-1,-1,-1,-1,-1,-1,-1],"loss_changes":[4.0412E1,2.358553E1,6.90226E0,1.9140304E0,1.792323E1,7.9151535E-1,0E0,4.0399444E-1,4.076048E0,1.6966736E1,1.1592838E1,0E0,3.280295E-1,6.516863E-1,0E0,6.7975755E0,1.5447268E0,8.71817E0,5.596245E0,0E0,0E0,0E0,0E0,2.3202372E-1,0E0,3.895746E-1,0E0,0E0,2.0539415E-1,2.1007175E0,7.795038E0,0E0,0E0,0E0,0E0,0E0,0E0,0E0,0E0,0E0,0E0,0E0,0E0],"parents":[2147483647,0,0,1,1,2,2,3,3,4,4,5,5,7,7,8,8,9,9,10,10,12,12,13,13,15,15,16,16,17,17,18,18,23,23,25,25,28,28,29,29,30,30],"right_children":[2,4,6,8,10,12,-1,14,16,18,20,-1,22,24,-1,26,28,30,32,-1,-1,-1,-1,34,-1,36,-1,-1,38,40,42,-1,-1,-1,-1,-1,-1,-1,-1,-1,-1,-1,-1],"split_conditions":[2.402397E2,6.9126E0,1.174322E1,1.842E3,1.093E0,2.6954214E2,1.2093384E0,1.841E3,1.5310278E2,4.9126172E2,2.011E3,5.507776E-1,1.973E3,7.6445694E1,-1.5590286E-1,1.4169109E2,6.082512E0,1.872E3,1.918E3,1.3652756E0,2.0830078E-1,2.4671632E-1,1.7102052E-2,1.806E3,1.1924286E-1,1.1714967E2,6.92585E-1,-2.2885324E-1,1.865E3,1.869E3,1.07940735E2,1.0022095E0,8.546448E-2,-3.781907E-2,-1.6910554E-3,1.051236E-1,-2.8248597E-2,8.680268E-2,-4.238663E-2,1.865326E-1,7.281815E-1,9.268427E-2,3.0481523E-1],"split_indices":[3,6,6,1,14,3,0,1,2,2,1,0,1,2,0,2,6,1,1,0,0,0,0,1,0,2,0,0,1,1,4,0,0,0,0,0,0,0,0,0,0,0,0],"split_type":[0,0,0,0,0,0,0,0,0,0,0,0,0,0,0,0,0,0,0,0,0,0,0,0,0,0,0,0,0,0,0,0,0,0,0,0,0,0,0,0,0,0,0],"sum_hessian":[2.04E2,1.96E2,8E0,8.8E1,1.08E2,6E0,2E0,7E1,1.8E1,1.05E2,3E0,4E0,2E0,6.9E1,1E0,1.2E1,6E0,1.02E2,3E0,1E0,2E0,1E0,1E0,6.7E1,2E0,1.1E1,1E0,3E0,3E0,4E0,9.8E1,2E0,1E0,4.1E1,2.6E1,9E0,2E0,2E0,1E0,2E0,2E0,7.9E1,1.9E1],"tree_param":{"num_deleted":"0","num_feature":"17","num_nodes":"43","size_leaf_vector":"0"}},{"base_weights":[3.700294E-1,2.600641E-1,1.6527405E0,1.5660489E-1,1.0429978E0,1.1977975E0,9.674683E-1,2.333338E-1,-4.266922E-1,3.0056152E0,6.9645536E-1,7.8761905E-1,8.860286E-1,2.0987773E-2,7.788667E-1,-1.083452E0,1.0143534E-1,1.9204102E-1,1.1604859E0,8.998352E-1,2.7393088E-1,1.7852783E-3,1.151123E0,9.2005596E-2,-1.2134857E0,4.5850495E-1,1.5415624E0,-1.3406677E0,-1.2213135E-1,4.7304842E-1,-5.6556535E-1,1.1282158E-1,3.1256104E-1,-1.02896124E-1,2.310384E-1,6.904175E-1,7.6760525E-1,-1.5979527E-2,1.1779768E-1,-4.5262757E-1,3.9431766E-2,5.961329E-1,4.753452E-2,9.5465705E-2,6.34037E-1,-1.6313173E-1,-4.652014E-1,-6.159668E-2,6.6375737E-3,-3.3230898E-1,1.16706856E-1,1.0964738E-1,-1.5484497E-1,8.9428715E-2,1.4538575E-2,-3.496857E-2,3.6873478E-1],"categories":[],"categories_nodes":[],"categories_segments":[],"categories_sizes":[],"default_left":[0,0,0,0,0,0,0,0,0,0,0,0,0,0,0,0,0,0,0,0,0,0,0,0,0,0,0,0,0,0,0,0,0,0,0,0,0,0,0,0,0,0,0,0,0,0,0,0,0,0,0,0,0,0,0,0,0],"id":21,"left_children":[1,3,5,7,9,11,-1,13,15,17,19,-1,21,23,25,27,29,-1,-1,-1,31,33,35,37,39,41,43,45,47,-1,49,51,-1,-1,53,-1,55,-1,-1,-1,-1,-1,-1,-1,-1,-1,-1,-1,-1,-1,-1,-1,-1,-1,-1,-1,-1],"loss_changes":[2.8486193E1,1.5226988E1,7.5810738E0,7.663283E0,1.2869589E1,3.9049587E0,0E0,1.7359917E1,7.0469594E0,3.6456566E0,1.8639797E1,0E0,3.045248E0,9.667637E0,9.555401E0,2.0616627E0,1.2700854E1,0E0,0E0,0E0,2.1094532E0,3.9540374E-1,2.644925E0,4.5632305E0,2.581028E0,1.3903845E1,7.7229347E0,3.2824516E-1,4.054532E-2,0E0,5.0885277E0,2.7314003E0,0E0,0E0,2.2282973E-2,0E0,3.8157406E0,0E0,0E0,0E0,0E0,0E0,0E0,0E0,0E0,0E0,0E0,0E0,0E0,0E0,0E0,0E0,0E0,0E0,0E0,0E0,0E0],"parents":[2147483647,0,0,1,1,2,2,3,3,4,4,5,5,7,7,8,8,9,9,10,10,12,12,13,13,14,14,15,15,16,16,20,20,21,21,22,22,23,23,24,24,25,25,26,26,27,27,28,28,30,30,31,31,34,34,36,36],"right_children":[2,4,6,8,10,12,-1,14,16,18,20,-1,22,24,26,28,30,-1,-1,-1,32,34,36,38,40,42,44,46,48,-1,50,52,-1,-1,54,-1,56,-1,-1,-1,-1,-1,-1,-1,-1,-1,-1,-1,-1,-1,-1,-1,-1,-1,-1,-1,-1],"split_conditions":[1.0901491E1,1.991E3,1.174322E1,1.95E3,3.48E-1,1.917E3,9.674683E-1,9.155648E0,1.977E3,2.004E3,1.993E3,7.8761905E-1,1.1115083E1,3.2688742E2,1.931E3,4.824279E2,1.982E3,1.9204102E-1,1.1604859E0,8.998352E-1,2.1016035E2,1.959E3,1.1148759E1,1.842E3,9.068779E0,1.893E3,3.8472E0,1.0469687E1,1.952E3,4.7304842E-1,1.07940735E2,2.0192712E2,3.1256104E-1,-1.02896124E-1,1.969E3,6.904175E-1,1.966E3,-1.5979527E-2,1.1779768E-1,-4.5262757E-1,3.9431766E-2,5.961329E-1,4.753452E-2,9.5465705E-2,6.34037E-1,-1.6313173E-1,-4.652014E-1,-6.159668E-2,6.6375737E-3,-3.3230898E-1,1.16706856E-1,1.0964738E-1,-1.5484497E-1,8.9428715E-2,1.4538575E-2,-3.496857E-2,3.6873478E-1],"split_indices":[6,1,6,1,9,1,0,6,1,1,1,0,6,2,1,2,1,0,0,0,4,1,6,1,6,1,3,6,1,0,4,4,0,0,1,0,1,0,0,0,0,0,0,0,0,0,0,0,0,0,0,0,0,0,0,0,0],"split_type":[0,0,0,0,0,0,0,0,0,0,0,0,0,0,0,0,0,0,0,0,0,0,0,0,0,0,0,0,0,0,0,0,0,0,0,0,0,0,0,0,0,0,0,0,0,0,0,0,0,0,0,0,0,0,0,0,0],"sum_hessian":[2.04E2,1.89E2,1.5E1,1.68E2,2.1E1,1.3E1,2E0,1.49E2,1.9E1,2E0,1.9E1,1E0,1.2E1,1.08E2,4.1E1,8E0,1.1E1,1E0,1E0,2E0,1.7E1,3E0,9E0,1.03E2,5E0,3E1,1.1E1,6E0,2E0,3E0,8E0,1.5E1,2E0,1E0,2E0,1E0,8E0,7E1,3.3E1,4E0,1E0,4E0,2.6E1,4E0,7E0,2E0,4E0,1E0,1E0,5E0,3E0,1.1E1,4E0,1E0,1E0,3E0,5E0],"tree_param":{"num_deleted":"0","num_feature":"17","num_nodes":"57","size_leaf_vector":"0"}},{"base_weights":[2.8797826E-1,1.6612317E-1,1.0851667E0,1.16556294E-1,1.3674011E0,8.6239016E-1,7.739746E-1,1.564494E-1,-1.0198771E0,4.9928793E-1,9.864121E-1,2.0896728E0,5.2911377E-1,4.9605735E-2,6.888962E-1,-1.466573E-1,-4.2594683E-1,2.4087831E-1,1.4673615E-1,-8.6759955E-2,8.2700735E-1,2.760845E-1,5.8657837E-1,1.1300932E-1,-7.922821E-1,1.5315552E-1,1.2136972E0,-7.7998355E-2,1.2002564E-2,5.570374E-2,4.486084E-3,-1.4485861E-1,7.598945E-1,4.840295E-3,3.8798127E-1,-8.357346E-1,-7.837525E-2,1.3090275E-1,-5.717194E-1,7.263336E-1,2.4321061E-1,1.3032074E-1,-1.2491456E-1,5.86853E-1,1.09751135E-1],"categories":[],"categories_nodes":[],"categories_segments":[],"categories_sizes":[],"default_left":[0,0,0,0,0,0,0,0,0,0,0,0,0,0,0,0,0,0,0,0,0,0,0,0,0,0,0,0,0,0,0,0,0,0,0,0,0,0,0,0,0,0,0,0,0],"id":22,"left_children":[1,3,5,7,9,11,-1,13,15,17,-1,19,21,23,25,27,-1,-1,29,-1,-1,31,-1,33,35,37,39,-1,-1,-1,-1,41,43,-1,-1,-1,-1,-1,-1,-1,-1,-1,-1,-1,-1],"loss_changes":[1.9733732E1,1.0498924E1,6.7659664E0,8.002666E0,1.0029646E1,9.119932E0,0E0,9.523108E0,1.8872147E0,5.244738E-1,0E0,8.730991E0,7.038181E0,7.615932E0,7.686516E0,7.3870555E-2,0E0,0E0,1.775144E-2,0E0,0E0,3.9795504E0,0E0,1.5071729E1,9.85832E0,9.5773E0,4.849354E0,0E0,0E0,0E0,0E0,1.9109886E0,3.5269928E0,0E0,0E0,0E0,0E0,0E0,0E0,0E0,0E0,0E0,0E0,0E0,0E0],"parents":[2147483647,0,0,1,1,2,2,3,3,4,4,5,5,7,7,8,8,9,9,11,11,12,12,13,13,14,14,15,15,18,18,21,21,23,23,24,24,25,25,26,26,31,31,32,32],"right_children":[2,4,6,8,10,12,-1,14,16,18,-1,20,22,24,26,28,-1,-1,30,-1,-1,32,-1,34,36,38,40,-1,-1,-1,-1,42,44,-1,-1,-1,-1,-1,-1,-1,-1,-1,-1,-1,-1],"split_conditions":[1.062445E1,1.089E0,1.174322E1,1.0472577E1,1.9136137E2,1.918E3,7.739746E-1,9.780857E0,7.74936E0,2.013E3,9.864121E-1,1.908E3,1.979E3,9.652373E0,1.928E3,1.916E3,-4.2594683E-1,2.4087831E-1,2.018E3,-8.6759955E-2,8.2700735E-1,1.1115083E1,5.8657837E-1,9.494719E0,1.899E3,1.926E3,1.941E3,-7.7998355E-2,1.2002564E-2,5.570374E-2,4.486084E-3,2.7125327E2,1.1148759E1,4.840295E-3,3.8798127E-1,-8.357346E-1,-7.837525E-2,1.3090275E-1,-5.717194E-1,7.263336E-1,2.4321061E-1,1.3032074E-1,-1.2491456E-1,5.86853E-1,1.09751135E-1],"split_indices":[6,14,6,6,4,1,0,6,3,1,0,1,1,6,1,1,0,0,1,0,0,6,0,6,1,1,1,0,0,0,0,2,6,0,0,0,0,0,0,0,0,0,0,0,0],"split_type":[0,0,0,0,0,0,0,0,0,0,0,0,0,0,0,0,0,0,0,0,0,0,0,0,0,0,0,0,0,0,0,0,0,0,0,0,0,0,0,0,0,0,0,0,0],"sum_hessian":[2.04E2,1.78E2,2.6E1,1.72E2,6E0,2.4E1,2E0,1.67E2,5E0,5E0,1E0,4E0,2E1,1.4E2,2.7E1,2E0,3E0,2E0,3E0,1E0,3E0,1.8E1,2E0,1.31E2,9E0,1.4E1,1.3E1,1E0,1E0,2E0,1E0,1E1,8E0,1.22E2,9E0,1E0,8E0,1.3E1,1E0,2E0,1.1E1,3E0,7E0,1E0,7E0],"tree_param":{"num_deleted":"0","num_feature":"17","num_nodes":"45","size_leaf_vector":"0"}},{"base_weights":[2.1917456E-1,1.20771185E-1,8.63435E-1,7.8787744E-2,1.1411089E0,6.848389E-1,6.191772E-1,1.0955756E-1,-7.9589844E-1,3.9968362E-1,8.384491E-1,6.053315E-1,4.812025E-1,6.080944E-2,8.736969E-1,-2.2174072E-1,-3.888428E-1,1.9270326E-1,1.17767334E-1,2.5647888E-1,1.48452E0,-5.8284365E-3,7.0092165E-1,1.4846671E0,-4.1392517E-1,-9.549866E-2,1.0203552E-2,4.456482E-2,3.8131715E-3,-1.3345337E-1,7.478909E-1,5.528534E-1,6.143189E-2,3.3604268E-2,-1.1381745E-1,2.960576E-1,-2.3153381E-1,7.33017E-2,7.0614856E-1,1.5840454E-1,-4.8596194E-1,-8.988099E-2,1.3945924E-1,4.988251E-1,1.2770692E-1],"categories":[],"categories_nodes":[],"categories_segments":[],"categories_sizes":[],"default_left":[0,0,0,0,0,0,0,0,0,0,0,0,0,0,0,0,0,0,0,0,0,0,0,0,0,0,0,0,0,0,0,0,0,0,0,0,0,0,0,0,0,0,0,0,0],"id":23,"left_children":[1,3,5,7,9,11,-1,13,15,17,-1,-1,19,21,23,25,-1,-1,27,29,31,33,35,37,39,-1,-1,-1,-1,41,43,-1,-1,-1,-1,-1,-1,-1,-1,-1,-1,-1,-1,-1,-1],"loss_changes":[1.289219E1,7.57797E0,4.375416E0,4.7433076E0,7.465728E0,5.8148804E0,0E0,6.2049303E0,1.4359064E0,3.3481264E-1,0E0,0E0,4.805042E0,6.7863445E0,8.481529E0,1.096376E-1,0E0,0E0,1.1047307E-2,3.9321563E0,1.4568958E0,6.425638E0,7.078133E0,6.971184E0,5.399041E0,0E0,0E0,0E0,0E0,1.3321996E0,1.9451032E0,0E0,0E0,0E0,0E0,0E0,0E0,0E0,0E0,0E0,0E0,0E0,0E0,0E0,0E0],"parents":[2147483647,0,0,1,1,2,2,3,3,4,4,5,5,7,7,8,8,9,9,12,12,13,13,14,14,15,15,18,18,19,19,20,20,21,21,22,22,23,23,24,24,29,29,30,30],"right_children":[2,4,6,8,10,12,-1,14,16,18,-1,-1,20,22,24,26,-1,-1,28,30,32,34,36,38,40,-1,-1,-1,-1,42,44,-1,-1,-1,-1,-1,-1,-1,-1,-1,-1,-1,-1,-1,-1],"split_conditions":[1.062445E1,1.089E0,1.174322E1,1.0472577E1,1.9136137E2,1.063796E1,6.191772E-1,4.578461E2,1.925E3,2.013E3,8.384491E-1,6.053315E-1,4.9126172E2,1.0023534E1,1.0054433E1,1.916E3,-3.888428E-1,1.9270326E-1,2.018E3,1.1115083E1,1.918E3,1.897E3,1.0455257E1,3.04112E0,1.911E3,-9.549866E-2,1.0203552E-2,4.456482E-2,3.8131715E-3,1.977E3,1.962E3,5.528534E-1,6.143189E-2,3.3604268E-2,-1.1381745E-1,2.960576E-1,-2.3153381E-1,7.33017E-2,7.0614856E-1,1.5840454E-1,-4.8596194E-1,-8.988099E-2,1.3945924E-1,4.988251E-1,1.2770692E-1],"split_indices":[6,14,6,6,4,6,0,2,1,1,0,0,2,6,6,1,0,0,1,6,1,1,6,3,1,0,0,0,0,1,1,0,0,0,0,0,0,0,0,0,0,0,0,0,0],"split_type":[0,0,0,0,0,0,0,0,0,0,0,0,0,0,0,0,0,0,0,0,0,0,0,0,0,0,0,0,0,0,0,0,0,0,0,0,0,0,0,0,0,0,0,0,0],"sum_hessian":[2.04E2,1.78E2,2.6E1,1.72E2,6E0,2.4E1,2E0,1.67E2,5E0,5E0,1E0,2E0,2.2E1,1.58E2,9E0,3E0,2E0,2E0,3E0,1.9E1,3E0,1.44E2,1.4E1,6E0,3E0,2E0,1E0,2E0,1E0,1.1E1,8E0,2E0,1E0,1.1E2,3.4E1,1.2E1,2E0,3E0,3E0,2E0,1E0,9E0,2E0,1E0,7E0],"tree_param":{"num_deleted":"0","num_feature":"17","num_nodes":"45","size_leaf_vector":"0"}},{"base_weights":[1.7077395E-1,1.09948054E-1,8.8240814E-1,3.6824748E-2,5.910889E-1,6.159903E-1,4.5829928E-1,7.001676E-2,-8.59965E-1,1.5298868E0,2.79895E-1,1.1779664E0,2.35338E-1,4.9341317E-2,3.4274295E-1,-4.105408E-1,-2.6359558E-1,2.6568604E-1,7.1268314E-1,6.456442E-2,1.1250763E0,4.1563112E-1,5.2212525E-2,-1.3554688E-1,4.9621582E-1,1.1004263E-1,-3.7803498E-1,2.3309328E-2,-1.2097779E-1,-1.4705403E-1,2.6900905E-1,5.467408E-1,-1.4506531E-1,2.49115E-1,1.9647217E-1,6.542273E-3,3.4284502E-1,-3.6278138E-1,-2.8393937E-2,-1.9454958E-1,2.6657542E-2,1.645569E-2,1.2880921E-1,-5.31189E-2,1.5135498E-1],"categories":[],"categories_nodes":[],"categories_segments":[],"categories_sizes":[],"default_left":[0,0,0,0,0,0,0,0,0,0,0,0,0,0,0,0,0,0,0,0,0,0,0,0,0,0,0,0,0,0,0,0,0,0,0,0,0,0,0,0,0,0,0,0,0],"id":24,"left_children":[1,3,5,7,9,11,-1,13,15,17,19,21,23,25,-1,-1,27,-1,-1,29,31,-1,-1,-1,33,35,37,-1,-1,39,41,-1,-1,-1,43,-1,-1,-1,-1,-1,-1,-1,-1,-1,-1],"loss_changes":[8.776567E0,6.6629286E0,1.8094969E0,5.001411E0,6.875496E0,2.5037074E0,0E0,3.5135748E0,1.4588156E0,1.1653404E0,3.5672278E0,8.003006E-1,1.8375871E0,4.166426E0,0E0,0E0,2.2199747E-1,0E0,0E0,7.7505124E-1,5.368637E0,0E0,0E0,0E0,5.3800476E-1,1.2732841E1,4.5968027E0,0E0,0E0,1.1222978E0,2.8551823E-1,0E0,0E0,0E0,6.6465837E-1,0E0,0E0,0E0,0E0,0E0,0E0,0E0,0E0,0E0,0E0],"parents":[2147483647,0,0,1,1,2,2,3,3,4,4,5,5,7,7,8,8,9,9,10,10,11,11,12,12,13,13,16,16,19,19,20,20,24,24,25,25,26,26,29,29,30,30,34,34],"right_children":[2,4,6,8,10,12,-1,14,16,18,20,22,24,26,-1,-1,28,-1,-1,30,32,-1,-1,-1,34,36,38,-1,-1,40,42,-1,-1,-1,44,-1,-1,-1,-1,-1,-1,-1,-1,-1,-1],"split_conditions":[1.0901491E1,1.07940735E2,1.1726423E1,1.982E3,3.7E-1,1.962E3,4.5829928E-1,1.978E3,2.4723407E2,2.004E3,2.1839034E2,1.1148759E1,1.966E3,5.235899E0,3.4274295E-1,-4.105408E-1,1.984E3,2.6568604E-1,7.1268314E-1,2.003E3,1.993E3,4.1563112E-1,5.2212525E-2,-1.3554688E-1,8.384293E0,4.118336E0,7.0532E0,2.3309328E-2,-1.2097779E-1,1.4245657E2,7.638836E0,5.467408E-1,-1.4506531E-1,2.49115E-1,8.834998E0,6.542273E-3,3.4284502E-1,-3.6278138E-1,-2.8393937E-2,-1.9454958E-1,2.6657542E-2,1.645569E-2,1.2880921E-1,-5.31189E-2,1.5135498E-1],"split_indices":[6,4,6,1,9,1,0,1,2,1,3,6,1,3,0,0,1,0,0,1,1,0,0,0,5,3,3,0,0,2,6,0,0,0,5,0,0,0,0,0,0,0,0,0,0],"split_type":[0,0,0,0,0,0,0,0,0,0,0,0,0,0,0,0,0,0,0,0,0,0,0,0,0,0,0,0,0,0,0,0,0,0,0,0,0,0,0,0,0,0,0,0,0],"sum_hessian":[2.04E2,1.89E2,1.5E1,1.65E2,2.4E1,1.2E1,3E0,1.6E2,5E0,5E0,1.9E1,4E0,8E0,1.58E2,2E0,2E0,3E0,4E0,1E0,1.6E1,3E0,3E0,1E0,2E0,6E0,1.39E2,1.9E1,1E0,2E0,8E0,8E0,2E0,1E0,2E0,4E0,1.29E2,1E1,4E0,1.5E1,2E0,6E0,4E0,4E0,2E0,2E0],"tree_param":{"num_deleted":"0","num_feature":"17","num_nodes":"45","size_leaf_vector":"0"}},{"base_weights":[1.307037E-1,8.3018295E-2,6.887989E-1,2.4529934E-2,4.680603E-1,4.9885994E-1,4.0367433E-1,5.0882522E-2,-6.866862E-1,1.2339834E0,2.1488038E-1,4.0015414E-1,3.3202654E-1,3.650709E-2,3.5264283E-1,-3.284363E-1,-2.089386E-1,2.0192139E-1,6.0578156E-1,4.3866325E-2,8.8797E-1,-1.1758118E-1,4.250183E-1,7.049261E-2,-4.3025067E-1,1.9812012E-2,-9.678345E-2,-1.5044862E-1,1.0929489E-1,4.3739018E-1,-1.2330323E-1,9.0230304E-1,2.3933105E-1,4.4783615E-3,1.7087403E-1,-3.283844E-1,-4.8297122E-2,-6.563782E-2,7.106705E-2,4.4384766E-2,3.6165163E-1,-1.08435065E-1,1.304123E-1],"categories":[],"categories_nodes":[],"categories_segments":[],"categories_sizes":[],"default_left":[0,0,0,0,0,0,0,0,0,0,0,0,0,0,0,0,0,0,0,0,0,0,0,0,0,0,0,0,0,0,0,0,0,0,0,0,0,0,0,0,0,0,0],"id":25,"left_children":[1,3,5,7,9,11,-1,13,15,17,19,-1,21,23,-1,-1,25,-1,-1,27,29,-1,31,33,35,-1,-1,-1,37,-1,-1,39,41,-1,-1,-1,-1,-1,-1,-1,-1,-1,-1],"loss_changes":[5.3984814E0,4.267409E0,1.3247199E0,3.146176E0,4.58275E0,1.5073793E0,0E0,2.559897E0,9.410734E-1,1.2837524E0,2.2632034E0,0E0,1.0417752E0,2.5684106E0,0E0,0E0,1.4633574E-1,0E0,0E0,6.6140884E-1,3.5609016E0,0E0,8.475592E-1,4.151247E0,1.7915325E0,0E0,0E0,0E0,7.216286E-1,0E0,0E0,5.07812E-1,1.3309109E0,0E0,0E0,0E0,0E0,0E0,0E0,0E0,0E0,0E0,0E0],"parents":[2147483647,0,0,1,1,2,2,3,3,4,4,5,5,7,7,8,8,9,9,10,10,12,12,13,13,16,16,19,19,20,20,22,22,23,23,24,24,28,28,31,31,32,32],"right_children":[2,4,6,8,10,12,-1,14,16,18,20,-1,22,24,-1,-1,26,-1,-1,28,30,-1,32,34,36,-1,-1,-1,38,-1,-1,40,42,-1,-1,-1,-1,-1,-1,-1,-1,-1,-1],"split_conditions":[1.0901491E1,1.07940735E2,1.174322E1,1.982E3,3.7E-1,1.917E3,4.0367433E-1,1.979E3,2.4723407E2,2.004E3,2.1839034E2,4.0015414E-1,6.284903E0,1.95E3,3.5264283E-1,-3.284363E-1,1.984E3,2.0192139E-1,6.0578156E-1,1.991E3,1.993E3,-1.1758118E-1,1.962E3,1.934E3,5.4048023E1,1.9812012E-2,-9.678345E-2,-1.5044862E-1,4.18E-1,4.3739018E-1,-1.2330323E-1,1.957E3,1.966E3,4.4783615E-3,1.7087403E-1,-3.283844E-1,-4.8297122E-2,-6.563782E-2,7.106705E-2,4.4384766E-2,3.6165163E-1,-1.08435065E-1,1.304123E-1],"split_indices":[6,4,6,1,9,1,0,1,2,1,3,0,5,1,0,0,1,0,0,1,1,0,1,1,3,0,0,0,9,0,0,1,1,0,0,0,0,0,0,0,0,0,0],"split_type":[0,0,0,0,0,0,0,0,0,0,0,0,0,0,0,0,0,0,0,0,0,0,0,0,0,0,0,0,0,0,0,0,0,0,0,0,0,0,0,0,0,0,0],"sum_hessian":[2.04E2,1.89E2,1.5E1,1.65E2,2.4E1,1.3E1,2E0,1.6E2,5E0,5E0,1.9E1,1E0,1.2E1,1.59E2,1E0,2E0,3E0,4E0,1E0,1.6E1,3E0,1E0,1.1E1,1.49E2,1E1,1E0,2E0,1E0,1.5E1,2E0,1E0,2E0,9E0,1.35E2,1.4E1,2E0,8E0,4E0,1.1E1,1E0,1E0,2E0,7E0],"tree_param":{"num_deleted":"0","num_feature":"17","num_nodes":"43","size_leaf_vector":"0"}},{"base_weights":[1.00451626E-1,4.581844E-2,4.58929E-1,1.9506516E-2,6.895534E-1,1.0565491E0,3.0905816E-1,4.8099384E-2,-4.513672E-1,2.3235066E-1,5.1491547E-1,-6.1917115E-2,4.2716447E-1,5.2567545E-2,7.022027E-1,-9.183023E-2,1.8914887E-1,-2.4574497E-1,-6.9836426E-1,1.14181526E-1,6.3072205E-2,3.9705658E-1,-2.9849243E-1,2.1562195E-1,2.7286685E-1,-6.675289E-2,-4.0253067E-1,5.636101E-1,1.4509639E-1,-2.435074E-1,-1.6138712E-2,-2.4490358E-2,-2.6301882E-1,3.182068E-2,-9.887695E-3,-5.3253174E-2,3.4959716E-1,-1.9072725E-1,3.1018067E-2,-5.3009037E-3,8.978272E-2,-3.2774054E-2,8.311249E-3,-1.3342667E-1,-2.8710939E-2,-2.2915994E-1,5.69549E-2,4.645386E-2,-7.162171E-2,-8.425903E-2,3.9230347E-2,-8.674317E-2,1.0225221E-1],"categories":[],"categories_nodes":[],"categories_segments":[],"categories_sizes":[],"default_left":[0,0,0,0,0,0,0,0,0,0,0,0,0,0,0,0,0,0,0,0,0,0,0,0,0,0,0,0,0,0,0,0,0,0,0,0,0,0,0,0,0,0,0,0,0,0,0,0,0,0,0,0,0],"id":26,"left_children":[1,3,5,7,9,11,13,15,17,19,-1,-1,-1,21,23,25,27,29,31,-1,33,35,37,39,-1,41,43,-1,45,-1,47,-1,-1,-1,-1,49,-1,-1,51,-1,-1,-1,-1,-1,-1,-1,-1,-1,-1,-1,-1,-1,-1],"loss_changes":[3.9938486E0,3.018434E0,2.091742E0,2.3509188E0,2.8874881E0,2.6134686E0,2.282358E0,3.2542377E0,3.3626127E-1,1.2657207E-1,0E0,0E0,0E0,1.9325631E0,7.1192694E-1,6.198279E-1,5.8305807E0,8.9651406E-1,3.6844063E-1,0E0,2.001203E-2,2.8297234E0,9.0877885E-1,8.3351E-2,0E0,3.1610712E-1,3.517008E-2,0E0,3.4400232E0,0E0,2.653356E-1,0E0,0E0,0E0,0E0,2.880383E-1,0E0,0E0,5.9451896E-1,0E0,0E0,0E0,0E0,0E0,0E0,0E0,0E0,0E0,0E0,0E0,0E0,0E0,0E0],"parents":[2147483647,0,0,1,1,2,2,3,3,4,4,5,5,6,6,7,7,8,8,9,9,13,13,14,14,15,15,16,16,17,17,18,18,20,20,21,21,22,22,23,23,25,25,26,26,28,28,30,30,35,35,38,38],"right_children":[2,4,6,8,10,12,14,16,18,20,-1,-1,-1,22,24,26,28,30,32,-1,34,36,38,40,-1,42,44,-1,46,-1,48,-1,-1,-1,-1,50,-1,-1,52,-1,-1,-1,-1,-1,-1,-1,-1,-1,-1,-1,-1,-1,-1],"split_conditions":[1.062445E1,1.089E0,1.918E3,1.0455257E1,1.9136137E2,1.908E3,2.3880304E2,1.4245657E2,1.925E3,2.013E3,5.1491547E-1,-6.1917115E-2,4.2716447E-1,6.680397E0,2.7125327E2,1.853E3,1.861E3,1.907E3,1.0469687E1,1.14181526E-1,2.018E3,1.959E3,3.7030072E2,1.976E3,2.7286685E-1,1.821E3,2.003E3,5.636101E-1,6.082512E0,-2.435074E-1,4.7543332E2,-2.4490358E-2,-2.6301882E-1,3.182068E-2,-9.887695E-3,4.8395944E2,3.4959716E-1,-1.9072725E-1,1.966E3,-5.3009037E-3,8.978272E-2,-3.2774054E-2,8.311249E-3,-1.3342667E-1,-2.8710939E-2,-2.2915994E-1,5.69549E-2,4.645386E-2,-7.162171E-2,-8.425903E-2,3.9230347E-2,-8.674317E-2,1.0225221E-1],"split_indices":[6,14,1,6,4,1,3,2,1,1,0,0,0,5,2,1,1,1,6,0,1,1,2,1,0,1,1,0,6,0,2,0,0,0,0,2,0,0,1,0,0,0,0,0,0,0,0,0,0,0,0,0,0],"split_type":[0,0,0,0,0,0,0,0,0,0,0,0,0,0,0,0,0,0,0,0,0,0,0,0,0,0,0,0,0,0,0,0,0,0,0,0,0,0,0,0,0,0,0,0,0,0,0,0,0,0,0,0,0],"sum_hessian":[2.04E2,1.78E2,2.6E1,1.72E2,6E0,4E0,2.2E1,1.63E2,9E0,5E0,1E0,1E0,3E0,1.4E1,8E0,8.2E1,8.1E1,6E0,3E0,2E0,3E0,7E0,7E0,3E0,5E0,7.7E1,5E0,1E0,8E1,1E0,5E0,1E0,2E0,2E0,1E0,5E0,2E0,3E0,4E0,1E0,2E0,5.3E1,2.4E1,4E0,1E0,3E0,7.7E1,3E0,2E0,2E0,3E0,2E0,2E0],"tree_param":{"num_deleted":"0","num_feature":"17","num_nodes":"53","size_leaf_vector":"0"}},{"base_weights":[7.593586E-2,3.3749986E-2,3.5280016E-1,1.16269495E-2,5.756836E-1,8.1264037E-1,2.3749575E-1,3.817327E-2,-3.477173E-1,1.8532307E-1,4.3767703E-1,-5.262909E-2,3.310547E-1,1.3232422E-1,2.683594E-1,4.5696896E-5,8.824201E-1,-5.607466E-1,2.9934084E-1,9.1342166E-2,4.962921E-2,5.126953E-3,5.383301E-1,-2.5969936E-2,6.5476483E-1,5.352692E-1,1.6484985E-1,-3.832306E-1,-2.595452E-1,2.5454713E-2,-8.404542E-3,-4.0075684E-1,1.2072754E-1,7.1826175E-2,1.9733886E-1,1.0937333E-2,-1.310083E-1,-1.19342044E-1,3.841507E-1,1.2849426E-1,-4.606934E-2,3.6003113E-2,-1.4079742E-1,-1.3796997E-2,-1.5110473E-1,-2.9177858E-2,5.6706104E-2],"categories":[],"categories_nodes":[],"categories_segments":[],"categories_sizes":[],"default_left":[0,0,0,0,0,0,0,0,0,0,0,0,0,0,0,0,0,0,0,0,0,0,0,0,0,0,0,0,0,0,0,0,0,0,0,0,0,0,0,0,0,0,0,0,0,0,0],"id":27,"left_children":[1,3,5,7,9,11,13,15,17,19,-1,-1,-1,21,-1,23,25,27,-1,-1,29,31,33,35,37,-1,39,-1,41,-1,-1,43,45,-1,-1,-1,-1,-1,-1,-1,-1,-1,-1,-1,-1,-1,-1],"loss_changes":[2.3824444E0,2.1393764E0,1.2385845E0,1.6635666E0,2.1431015E0,1.6306167E0,1.4709648E0,5.214591E0,3.9991379E0,8.189741E-2,0E0,0E0,0E0,1.0817394E0,0E0,2.6741414E0,4.2356567E0,2.0429914E0,0E0,0E0,1.331554E-2,8.460292E-1,2.1057963E-2,3.887649E0,4.461194E0,0E0,4.8522794E-1,0E0,7.729308E-1,0E0,0E0,1.2289405E-1,2.2680128E-1,0E0,0E0,0E0,0E0,0E0,0E0,0E0,0E0,0E0,0E0,0E0,0E0,0E0,0E0],"parents":[2147483647,0,0,1,1,2,2,3,3,4,4,5,5,6,6,7,7,8,8,9,9,13,13,15,15,16,16,17,17,20,20,21,21,22,22,23,23,24,24,26,26,28,28,31,31,32,32],"right_children":[2,4,6,8,10,12,14,16,18,20,-1,-1,-1,22,-1,24,26,28,-1,-1,30,32,34,36,38,-1,40,-1,42,-1,-1,44,46,-1,-1,-1,-1,-1,-1,-1,-1,-1,-1,-1,-1,-1,-1],"split_conditions":[1.062445E1,1.089E0,1.918E3,1.0282998E1,1.9136137E2,1.908E3,1.174322E1,4.578461E2,1.991E3,2.013E3,4.3767703E-1,-5.262909E-2,3.310547E-1,1.977E3,2.683594E-1,1.0178125E1,4.630929E2,1.0458013E1,2.9934084E-1,9.1342166E-2,2.018E3,1.0827636E1,1.979E3,3.8374536E2,3.42584E0,5.352692E-1,1.941E3,-3.832306E-1,4.206239E0,2.5454713E-2,-8.404542E-3,1.954E3,6.284903E0,7.1826175E-2,1.9733886E-1,1.0937333E-2,-1.310083E-1,-1.19342044E-1,3.841507E-1,1.2849426E-1,-4.606934E-2,3.6003113E-2,-1.4079742E-1,-1.3796997E-2,-1.5110473E-1,-2.9177858E-2,5.6706104E-2],"split_indices":[6,14,1,6,4,1,6,2,1,1,0,0,0,1,0,6,2,6,0,0,1,6,1,2,3,0,1,0,3,0,0,1,5,0,0,0,0,0,0,0,0,0,0,0,0,0,0],"split_type":[0,0,0,0,0,0,0,0,0,0,0,0,0,0,0,0,0,0,0,0,0,0,0,0,0,0,0,0,0,0,0,0,0,0,0,0,0,0,0,0,0,0,0,0,0,0,0],"sum_hessian":[2.04E2,1.78E2,2.6E1,1.72E2,6E0,4E0,2.2E1,1.61E2,1.1E1,5E0,1E0,1E0,3E0,2E1,2E0,1.55E2,6E0,1E1,1E0,2E0,3E0,1.6E1,4E0,1.5E2,5E0,2E0,4E0,2E0,8E0,2E0,1E0,3E0,1.3E1,2E0,2E0,1.31E2,1.9E1,2E0,3E0,2E0,2E0,3E0,5E0,1E0,2E0,3E0,1E1],"tree_param":{"num_deleted":"0","num_feature":"17","num_nodes":"47","size_leaf_vector":"0"}},{"base_weights":[6.193079E-2,-6.7269415E-2,1.385702E-1,-1.2856364E-1,-3.8781803E-2,2.61615E-1,-1.6564205E-2,-9.706434E-2,-1.6295624E-1,6.302738E-2,-6.6291764E-2,1.7007594E-1,1.2401987E0,-7.267484E-1,1.4653142E-1,-1.3683628E-1,3.2290652E-2,-6.0789824E-2,-2.4825955E-2,-4.8091196E-2,1.9279976E-1,-2.0136653E-1,-3.59072E-2,2.0409012E-1,-3.1122896E-1,-3.4447175E-1,1.9475342E0,-1.3089861E-1,-1.4155884E0,3.4766278E-1,-1.2862141E-1,-4.5833044E-2,-1.8832756E-2,2.0415831E-2,-1.0015178E-1,-1.742847E-2,-6.2129404E-2,1.5160668E-1,3.7671205E-1,8.0197144E-1,5.7265216E-1,-5.7687986E-1,6.560364E-1,-5.626282E-1,6.356507E-2,6.1073706E-2,8.574158E-1,-1.0158463E0,7.568529E-2,-4.105854E-2,2.3522759E-2,-1.2604223E-2,1.3752365E-1,6.768577E-2,-1.4498945E-1,3.5842896E-2,2.2185059E-1,-3.0860138E-1,-6.202927E-2,2.5308383E-1,4.213257E-2,1.2848282E-1,-5.6645203E-2,2.9651644E-2,3.5052013E-1,-3.960999E-1,-1.5357972E-2,1.24197826E-1,-3.8390353E-2],"categories":[],"categories_nodes":[],"categories_segments":[],"categories_sizes":[],"default_left":[0,0,0,0,0,0,0,0,0,0,0,0,0,0,0,0,0,0,0,0,0,0,0,0,0,0,0,0,0,0,0,0,0,0,0,0,0,0,0,0,0,0,0,0,0,0,0,0,0,0,0,0,0,0,0,0,0,0,0,0,0,0,0,0,0,0,0,0,0],"id":28,"left_children":[1,3,5,7,9,11,13,15,17,19,21,23,25,27,29,31,-1,-1,-1,33,-1,-1,35,37,-1,-1,39,41,43,45,47,-1,-1,-1,49,51,-1,53,-1,-1,55,57,59,-1,-1,61,63,65,67,-1,-1,-1,-1,-1,-1,-1,-1,-1,-1,-1,-1,-1,-1,-1,-1,-1,-1,-1,-1],"loss_changes":[2.0391963E0,1.2946579E-1,2.466748E0,1.0182977E-2,1.5541962E-1,6.2387347E0,6.824512E0,1.3684806E-1,1.5053302E-2,8.038098E-1,7.662612E-1,2.9635744E0,1.2372794E1,4.3295984E0,2.7011266E0,5.7566166E-3,0E0,0E0,0E0,7.332735E-2,0E0,0E0,1.2925293E-1,3.452329E0,0E0,0E0,3.4579506E0,2.8351622E0,4.139246E0,4.0381446E0,3.8834703E0,0E0,0E0,0E0,6.317105E-2,4.7551405E-1,0E0,3.1164603E0,0E0,0E0,1.3848388E-1,6.233828E-1,1.7166138E-1,0E0,0E0,1.8243171E0,2.2435737E0,1.1073036E0,1.2931304E0,0E0,0E0,0E0,0E0,0E0,0E0,0E0,0E0,0E0,0E0,0E0,0E0,0E0,0E0,0E0,0E0,0E0,0E0,0E0,0E0],"parents":[2147483647,0,0,1,1,2,2,3,3,4,4,5,5,6,6,7,7,8,8,9,9,10,10,11,11,12,12,13,13,14,14,15,15,19,19,22,22,23,23,26,26,27,27,28,28,29,29,30,30,34,34,35,35,37,37,40,40,41,41,42,42,45,45,46,46,47,47,48,48],"right_children":[2,4,6,8,10,12,14,16,18,20,22,24,26,28,30,32,-1,-1,-1,34,-1,-1,36,38,-1,-1,40,42,44,46,48,-1,-1,-1,50,52,-1,54,-1,-1,56,58,60,-1,-1,62,64,66,68,-1,-1,-1,-1,-1,-1,-1,-1,-1,-1,-1,-1,-1,-1,-1,-1,-1,-1,-1,-1],"split_conditions":[1.09286125E2,1.782E3,3.601492E2,1.771E3,1.798E3,3.4141885E2,4.1167606E2,1.766E3,1.776E3,1.797E3,1.799E3,3.3203534E2,1.891E3,3.8374536E2,5.704848E0,1.763E3,3.2290652E-2,-6.0789824E-2,-2.4825955E-2,1.786E3,1.9279976E-1,-2.0136653E-1,9.3472305E1,3.1951544E2,-3.1122896E-1,-3.4447175E-1,1.893E3,3.7030072E2,1.934E3,4.206239E0,7.0532E0,-4.5833044E-2,-1.8832756E-2,2.0415831E-2,1.796E3,8.53712E1,-6.2129404E-2,2.9665942E2,3.7671205E-1,8.0197144E-1,1.971E3,1.895E3,1.897E3,-5.626282E-1,6.356507E-2,4.3484723E2,4.4735242E2,1.947E3,1.95E3,-4.105854E-2,2.3522759E-2,-1.2604223E-2,1.3752365E-1,6.768577E-2,-1.4498945E-1,3.5842896E-2,2.2185059E-1,-3.0860138E-1,-6.202927E-2,2.5308383E-1,4.213257E-2,1.2848282E-1,-5.6645203E-2,2.9651644E-2,3.5052013E-1,-3.960999E-1,-1.5357972E-2,1.24197826E-1,-3.8390353E-2],"split_indices":[2,1,2,1,1,2,2,1,1,1,1,2,1,2,3,1,0,0,0,1,0,0,2,2,0,0,1,2,1,3,3,0,0,0,1,2,0,2,0,0,1,1,1,0,0,2,2,1,1,0,0,0,0,0,0,0,0,0,0,0,0,0,0,0,0,0,0,0,0],"split_type":[0,0,0,0,0,0,0,0,0,0,0,0,0,0,0,0,0,0,0,0,0,0,0,0,0,0,0,0,0,0,0,0,0,0,0,0,0,0,0,0,0,0,0,0,0,0,0,0,0,0,0,0,0,0,0,0,0,0,0,0,0,0,0,0,0,0,0,0,0],"sum_hessian":[2.04E2,7.6E1,1.28E2,2.3E1,5.3E1,7.1E1,5.7E1,1.4E1,9E0,1.1E1,4.2E1,6.6E1,5E0,1E1,4.7E1,1.2E1,2E0,5E0,4E0,1E1,1E0,1E0,4.1E1,6.5E1,1E0,1E0,4E0,6E0,4E0,2.7E1,2E1,9E0,3E0,3E0,7E0,3.8E1,3E0,6.3E1,2E0,2E0,2E0,4E0,2E0,3E0,1E0,1.8E1,9E0,3E0,1.7E1,6E0,1E0,3.7E1,1E0,5.7E1,6E0,1E0,1E0,1E0,3E0,1E0,1E0,7E0,1.1E1,3E0,6E0,2E0,1E0,6E0,1.1E1],"tree_param":{"num_deleted":"0","num_feature":"17","num_nodes":"69","size_leaf_vector":"0"}},{"base_weights":[4.4298135E-2,2.9948488E-2,4.4590977E-1,-5.3126354E-2,1.1272385E-1,1.181488E-1,3.6187136E-1,-9.944517E-3,-4.4076842E-1,1.2212677E0,5.381298E-2,5.9536744E-2,2.8381348E-2,-6.354645E-2,7.600072E-1,-7.949562E-1,-1.754085E-1,2.9552206E-1,5.2197725E-1,-3.64888E-1,9.377581E-2,1.4855958E-2,-5.2551273E-3,-4.3829836E-2,-4.5677948E-1,4.6727374E-1,2.8897706E-1,-6.459732E-2,-2.7491763E-1,2.9891968E-2,-1.3773194E-1,2.6513673E-2,1.06471255E-1,3.7855932E-1,2.1346042E-2,-1.5580912E-2,5.6896973E-2,-1.5858155E-1,-3.6195375E-2,3.7951663E-2,1.0653687E-1,3.8043596E-2,-5.3668216E-2,-3.2611086E-3,4.4134095E-1,-3.313678E-1,2.9771233E-2],"categories":[],"categories_nodes":[],"categories_segments":[],"categories_sizes":[],"default_left":[0,0,0,0,0,0,0,0,0,0,0,0,0,0,0,0,0,0,0,0,0,0,0,0,0,0,0,0,0,0,0,0,0,0,0,0,0,0,0,0,0,0,0,0,0,0,0],"id":29,"left_children":[1,3,5,7,9,11,-1,13,15,17,19,-1,21,23,25,27,29,31,-1,-1,33,-1,-1,35,37,-1,39,-1,-1,41,-1,-1,-1,43,45,-1,-1,-1,-1,-1,-1,-1,-1,-1,-1,-1,-1],"loss_changes":[1.1680577E0,1.3744221E0,1.6019253E0,1.6695265E0,6.4648075E0,3.7621297E-2,0E0,3.8039474E0,8.0043054E-1,1.8865337E0,4.986735E0,0E0,4.7483426E-3,6.4675653E-1,1.803978E0,8.423042E-2,4.214269E-1,5.5357516E-3,0E0,0E0,1.9308387E0,0E0,0E0,1.6694964E-1,3.27937E-2,0E0,8.80903E-3,0E0,0E0,1.2386362E-1,0E0,0E0,0E0,8.100149E0,6.774688E0,0E0,0E0,0E0,0E0,0E0,0E0,0E0,0E0,0E0,0E0,0E0,0E0],"parents":[2147483647,0,0,1,1,2,2,3,3,4,4,5,5,7,7,8,8,9,9,10,10,12,12,13,13,14,14,15,15,16,16,17,17,20,20,23,23,24,24,26,26,29,29,33,33,34,34],"right_children":[2,4,6,8,10,12,-1,14,16,18,20,-1,22,24,26,28,30,32,-1,-1,34,-1,-1,36,38,-1,40,-1,-1,42,-1,-1,-1,44,46,-1,-1,-1,-1,-1,-1,-1,-1,-1,-1,-1,-1],"split_conditions":[1.089E0,2.1165462E2,1.9136137E2,1.694087E2,1.872E3,2.013E3,3.6187136E-1,1.5000783E2,1.801369E2,1.869E3,1.875E3,5.9536744E-2,2.018E3,7.94E-1,1.861E3,1.862E3,2.0545148E2,1.868E3,5.2197725E-1,-3.64888E-1,1.890624E0,1.4855958E-2,-5.2551273E-3,2E3,2.009E3,4.6727374E-1,9.669215E0,-6.459732E-2,-2.7491763E-1,1.995E3,-1.3773194E-1,2.6513673E-2,1.06471255E-1,1.560864E0,2.275366E0,-1.5580912E-2,5.6896973E-2,-1.5858155E-1,-3.6195375E-2,3.7951663E-2,1.0653687E-1,3.8043596E-2,-5.3668216E-2,-3.2611086E-3,4.4134095E-1,-3.313678E-1,2.9771233E-2],"split_indices":[14,2,4,2,1,1,0,2,2,1,1,0,1,14,1,1,2,1,0,0,3,0,0,1,1,0,6,0,0,1,0,0,0,3,3,0,0,0,0,0,0,0,0,0,0,0,0],"split_type":[0,0,0,0,0,0,0,0,0,0,0,0,0,0,0,0,0,0,0,0,0,0,0,0,0,0,0,0,0,0,0,0,0,0,0,0,0,0,0,0,0,0,0,0,0,0,0],"sum_hessian":[2.04E2,1.98E2,6E0,9.9E1,9.9E1,5E0,1E0,9E1,9E0,4E0,9.5E1,2E0,3E0,8.5E1,5E0,3E0,6E0,2E0,2E0,2E0,9.3E1,2E0,1E0,8.2E1,3E0,1E0,4E0,1E0,2E0,4E0,2E0,1E0,1E0,1.8E1,7.5E1,8E1,2E0,2E0,1E0,2E0,2E0,3E0,1E0,1.4E1,4E0,4E0,7.1E1],"tree_param":{"num_deleted":"0","num_feature":"17","num_nodes":"47","size_leaf_vector":"0"}},{"base_weights":[3.5017822E-2,2.6507016E-2,1.7977296E-1,1.4035472E-2,3.7370518E-1,5.2606836E-3,4.3610382E-1,9.422302E-2,3.0758974E-1,-1.9434094E-3,4.645691E-1,1.5802309E-1,2.4627687E-2,4.7628786E-2,2.2262573E-2,3.930754E-2,-1.10871516E-1,2.398224E-1,-3.0766297E-2,1.1883546E-2,-4.4677737E-3,-1.6044708E-3,1.3247746E-1,-1.9033928E-1,-5.2204966E-3],"categories":[],"categories_nodes":[],"categories_segments":[],"categories_sizes":[],"default_left":[0,0,0,0,0,0,0,0,0,0,0,0,0,0,0,0,0,0,0,0,0,0,0,0,0],"id":30,"left_children":[1,3,-1,5,7,9,11,13,-1,15,17,-1,-1,-1,19,21,23,-1,-1,-1,-1,-1,-1,-1,-1],"loss_changes":[9.685285E-1,8.7376463E-1,0E0,7.2730714E-1,1.1781554E0,6.428296E-1,8.510852E-2,2.4331324E-2,0E0,8.670885E-1,6.516676E-1,0E0,0E0,0E0,3.168377E-3,2.517364E0,2.5827868E0,0E0,0E0,0E0,0E0,0E0,0E0,0E0,0E0],"parents":[2147483647,0,0,1,1,3,3,4,4,5,5,6,6,7,7,9,9,10,10,14,14,15,15,16,16],"right_children":[2,4,-1,6,8,10,12,14,-1,16,18,-1,-1,-1,20,22,24,-1,-1,-1,-1,-1,-1,-1,-1],"split_conditions":[1.174322E1,1.089E0,1.7977296E-1,4.9126172E2,1.9136137E2,4.6E-1,1.918E3,2.013E3,3.0758974E-1,5.235899E0,1.993E3,1.5802309E-1,2.4627687E-2,4.7628786E-2,2.018E3,3.832544E0,1.5872448E1,2.398224E-1,-3.0766297E-2,1.1883546E-2,-4.4677737E-3,-1.6044708E-3,1.3247746E-1,-1.9033928E-1,-5.2204966E-3],"split_indices":[6,14,0,2,4,9,1,1,0,3,1,0,0,0,1,3,3,0,0,0,0,0,0,0,0],"split_type":[0,0,0,0,0,0,0,0,0,0,0,0,0,0,0,0,0,0,0,0,0,0,0,0,0],"sum_hessian":[2.04E2,2.02E2,2E0,1.96E2,6E0,1.93E2,3E0,5E0,1E0,1.91E2,2E0,2E0,1E0,2E0,3E0,1.39E2,5.2E1,1E0,1E0,2E0,1E0,1.26E2,1.3E1,7E0,4.5E1],"tree_param":{"num_deleted":"0","num_feature":"17","num_nodes":"25","size_leaf_vector":"0"}},{"base_weights":[2.8761636E-2,1.0214599E-2,2.3326918E-1,4.7754165E-2,-8.960606E-2,4.2687988E-1,1.1702474E-1,8.00946E-3,5.556854E-1,-5.495041E-1,-1.9532448E-2,1.8087158E-1,2.4853821E-1,-1.18123375E-1,3.0186245E-1,3.676925E-2,-3.3790892E-1,3.7144318E-1,8.632551E-2,-1.0590382E-1,2.4108417E-1,3.608551E-1,-8.085938E-2,-7.796631E-2,1.7730713E-2,-2.6843263E-2,3.819987E-1,-1.1074296E-3,9.081543E-1,-9.241791E-1,4.3319702E-1,-2.351176E-1,3.0224764E-1,1.04902476E-1,-2.735679E-1,3.1878152E-1,-1.0369263E-1,1.303894E-1,2.0928957E-2,5.4992676E-2,-7.185059E-2,2.6788332E-2,4.2268068E-1,1.0758318E-2,-2.0545198E-1,3.8276368E-1,7.131348E-2,-3.1004333E-1,-5.6652833E-2,2.6262513E-1,-4.6026614E-2,-1.5099335E-1,6.025391E-2,-9.46228E-3,1.7710191E-1,-1.2194723E-1,7.7900395E-2,2.060669E-1,3.592733E-2,1.6344604E-1,4.789429E-2],"categories":[],"categories_nodes":[],"categories_segments":[],"categories_sizes":[],"default_left":[0,0,0,0,0,0,0,0,0,0,0,0,0,0,0,0,0,0,0,0,0,0,0,0,0,0,0,0,0,0,0,0,0,0,0,0,0,0,0,0,0,0,0,0,0,0,0,0,0,0,0,0,0,0,0,0,0,0,0,0,0],"id":31,"left_children":[1,3,5,7,9,11,13,15,17,-1,19,21,-1,23,25,27,29,-1,31,33,35,37,-1,-1,39,-1,41,43,45,47,49,51,-1,53,55,57,-1,-1,-1,-1,-1,-1,59,-1,-1,-1,-1,-1,-1,-1,-1,-1,-1,-1,-1,-1,-1,-1,-1,-1,-1],"loss_changes":[7.7518415E-1,7.1250445E-1,3.326494E-1,2.781435E0,6.3120418E0,4.429083E-1,5.5722785E-1,1.2957863E0,3.096303E0,0E0,1.1735324E0,5.025872E-1,0E0,1.2016357E-1,2.53704E-1,3.9616258E0,4.921116E0,0E0,2.3095977E0,1.4071391E0,7.0281637E-1,5.558139E-2,0E0,0E0,2.1427134E-1,0E0,3.3703625E-2,2.9566395E0,9.2939997E-1,2.8706312E-1,1.4313818E0,8.026246E-1,0E0,1.2108445E0,1.6648955E0,7.968867E-1,0E0,0E0,0E0,0E0,0E0,0E0,7.365435E-2,0E0,0E0,0E0,0E0,0E0,0E0,0E0,0E0,0E0,0E0,0E0,0E0,0E0,0E0,0E0,0E0,0E0,0E0],"parents":[2147483647,0,0,1,1,2,2,3,3,4,4,5,5,6,6,7,7,8,8,10,10,11,11,13,13,14,14,15,15,16,16,18,18,19,19,20,20,21,21,24,24,26,26,27,27,28,28,29,29,30,30,31,31,33,33,34,34,35,35,42,42],"right_children":[2,4,6,8,10,12,14,16,18,-1,20,22,-1,24,26,28,30,-1,32,34,36,38,-1,-1,40,-1,42,44,46,48,50,52,-1,54,56,58,-1,-1,-1,-1,-1,-1,60,-1,-1,-1,-1,-1,-1,-1,-1,-1,-1,-1,-1,-1,-1,-1,-1,-1,-1],"split_conditions":[1.0849723E1,9.652373E0,1.962E3,9.494719E0,1.899E3,1.959E3,1.97E3,9.318359E0,1.93E3,-5.495041E-1,1.07940735E2,1.957E3,2.4853821E-1,1.966E3,2.7061206E2,9.155648E0,3.6342847E2,3.7144318E-1,4.578461E2,4.41882E0,2.1916318E2,1.956E3,-8.085938E-2,-7.796631E-2,1.969E3,-2.6843263E-2,1.971E3,3.2688742E2,1.893E3,2.003E3,2.035199E0,2E3,3.0224764E-1,4.206239E0,2.1453087E2,6.007472E0,-1.0369263E-1,1.303894E-1,2.0928957E-2,5.4992676E-2,-7.185059E-2,2.6788332E-2,2.7142545E2,1.0758318E-2,-2.0545198E-1,3.8276368E-1,7.131348E-2,-3.1004333E-1,-5.6652833E-2,2.6262513E-1,-4.6026614E-2,-1.5099335E-1,6.025391E-2,-9.46228E-3,1.7710191E-1,-1.2194723E-1,7.7900395E-2,2.060669E-1,3.592733E-2,1.6344604E-1,4.789429E-2],"split_indices":[6,6,1,6,1,1,1,6,1,0,4,1,0,1,2,6,2,0,2,3,3,1,0,0,1,0,1,2,1,1,5,1,0,3,3,5,0,0,0,0,0,0,3,0,0,0,0,0,0,0,0,0,0,0,0,0,0,0,0,0,0],"split_type":[0,0,0,0,0,0,0,0,0,0,0,0,0,0,0,0,0,0,0,0,0,0,0,0,0,0,0,0,0,0,0,0,0,0,0,0,0,0,0,0,0,0,0,0,0,0,0,0,0,0,0,0,0,0,0,0,0,0,0,0,0],"sum_hessian":[2.04E2,1.88E2,1.6E1,1.37E2,5.1E1,5E0,1.1E1,1.28E2,9E0,1E0,5E1,4E0,1E0,5E0,6E0,1.19E2,9E0,3E0,6E0,3.8E1,1.2E1,3E0,1E0,2E0,3E0,1E0,5E0,1.15E2,4E0,5E0,4E0,5E0,1E0,1.7E1,2.1E1,1.1E1,1E0,2E0,1E0,2E0,1E0,1E0,4E0,1.1E2,5E0,2E0,2E0,4E0,1E0,2E0,2E0,3E0,2E0,1.4E1,3E0,1.7E1,4E0,3E0,8E0,2E0,2E0],"tree_param":{"num_deleted":"0","num_feature":"17","num_nodes":"61","size_leaf_vector":"0"}},{"base_weights":[2.4229594E-2,-3.9485343E-2,7.248942E-2,-7.691406E-3,-4.108298E-1,9.785553E-1,3.175651E-2,-3.9964873E-2,3.9580995E-1,-2.080475E-1,-1.5906677E-1,2.4508667E-1,4.1575167E-1,-2.9373932E-1,5.87917E-2,-8.078584E-2,-1.486074E-2,-7.896729E-2,-1.8870035E-3,2.1162415E-2,8.912659E-2,4.430542E-1,1.2092285E-2,-9.029749E-2,-4.7502093E-2,2.3402596E-1,-4.047684E-2,1.6021729E-4,-1.0093689E-3,3.9520264E-2,6.3988113E-1,-3.4668887E-1,4.7715478E-2,-1.9231549E-2,-3.71755E-2,1.06226355E-2,-3.6273766E-2,5.3378106E-3,1.6484386E-1,-1.418932E-1,-3.4171066E-3,2.8704071E-2,-2.7767945E-2,2.3710176E-1,3.7701417E-2,1.412459E-1,-1.7144291E-3],"categories":[],"categories_nodes":[],"categories_segments":[],"categories_sizes":[],"default_left":[0,0,0,0,0,0,0,0,0,0,0,0,0,0,0,0,0,0,0,0,0,0,0,0,0,0,0,0,0,0,0,0,0,0,0,0,0,0,0,0,0,0,0,0,0,0,0],"id":32,"left_children":[1,3,5,7,9,11,13,15,-1,-1,17,19,-1,-1,21,23,25,-1,27,-1,-1,29,31,33,35,37,39,-1,-1,41,43,-1,45,-1,-1,-1,-1,-1,-1,-1,-1,-1,-1,-1,-1,-1,-1],"loss_changes":[6.3321096E-1,1.0476189E0,4.2870083E0,3.6075156E0,3.8783514E-1,1.1539979E0,3.1458025E0,8.283101E-2,0E0,0E0,8.136056E-2,6.273046E-3,0E0,0E0,1.9865193E0,5.5247694E-3,3.4099895E-1,0E0,1.2528656E-5,0E0,0E0,9.2782784E-1,4.2149396E0,1.2310177E-2,5.9060097E-2,3.31281E-1,5.984487E-1,0E0,0E0,4.5944218E-2,5.196128E-1,0E0,2.2181334E0,0E0,0E0,0E0,0E0,0E0,0E0,0E0,0E0,0E0,0E0,0E0,0E0,0E0,0E0],"parents":[2147483647,0,0,1,1,2,2,3,3,4,4,5,5,6,6,7,7,10,10,11,11,14,14,15,15,16,16,18,18,21,21,22,22,23,23,24,24,25,25,26,26,29,29,30,30,32,32],"right_children":[2,4,6,8,10,12,14,16,-1,-1,18,20,-1,-1,22,24,26,-1,28,-1,-1,30,32,34,36,38,40,-1,-1,42,44,-1,46,-1,-1,-1,-1,-1,-1,-1,-1,-1,-1,-1,-1,-1,-1],"split_conditions":[6.9126E0,1.5310278E2,1.872E3,1.4169109E2,6.009599E0,1.869E3,1.875E3,1.793E3,3.9580995E-1,-2.080475E-1,5.1296E-2,1.868E3,4.1575167E-1,-2.9373932E-1,8.581716E0,1.78E3,1.798E3,-7.896729E-2,1.864E3,2.1162415E-2,8.912659E-2,7.947924E0,8.754432E0,1.771E3,1.786E3,1.797E3,1.8E3,1.6021729E-4,-1.0093689E-3,4.096816E0,2.7496854E2,-3.4668887E-1,1.857648E0,-1.9231549E-2,-3.71755E-2,1.06226355E-2,-3.6273766E-2,5.3378106E-3,1.6484386E-1,-1.418932E-1,-3.4171066E-3,2.8704071E-2,-2.7767945E-2,2.3710176E-1,3.7701417E-2,1.412459E-1,-1.7144291E-3],"split_indices":[6,2,1,2,6,1,1,1,0,0,3,1,0,0,6,1,1,0,1,0,0,6,6,1,1,1,1,0,0,5,2,0,3,0,0,0,0,0,0,0,0,0,0,0,0,0,0],"split_type":[0,0,0,0,0,0,0,0,0,0,0,0,0,0,0,0,0,0,0,0,0,0,0,0,0,0,0,0,0,0,0,0,0,0,0,0,0,0,0,0,0,0,0,0,0,0,0],"sum_hessian":[2.04E2,8.8E1,1.16E2,8.2E1,6E0,4E0,1.12E2,8.1E1,1E0,2E0,4E0,2E0,2E0,2E0,1.1E2,3E1,5.1E1,2E0,2E0,1E0,1E0,1.1E1,9.9E1,2.2E1,8E0,4E0,4.7E1,1E0,1E0,4E0,7E0,2E0,9.7E1,1.4E1,8E0,4E0,4E0,3E0,1E0,2E0,4.5E1,3E0,1E0,5E0,2E0,1E1,8.7E1],"tree_param":{"num_deleted":"0","num_feature":"17","num_nodes":"47","size_leaf_vector":"0"}},{"base_weights":[1.8674394E-2,3.1197562E-3,1.9050688E-1,-1.6856963E-2,1.3484131E-1,3.534088E-1,9.3180336E-2,1.2342691E-3,-4.9648032E-1,4.9936423E-1,1.8742371E-2,1.4207153E-1,2.115143E-1,-1.1212158E-2,1.2302857E-1,-7.4925213E-3,2.083191E-1,1.137085E-2,-6.109375E-1,6.2493134E-1,4.9645998E-2,2.9563904E-1,-4.7512278E-2,2.917099E-1,-6.8472296E-2,-2.0678711E-1,6.352997E-2,2.350515E-2,-2.1231079E-1,-2.054947E-1,-4.7213748E-2,2.7520753E-2,2.3162536E-1,-8.62793E-2,1.7577516E-1,-2.3192851E-1,4.8655193E-2,1.2634736E-1,3.2452393E-2,-7.650147E-2,-1.6552735E-2,6.457672E-2,-7.055664E-2,-4.126331E-3,1.07148744E-1,-2.04386E-1,-1.8566357E-2,-1.1546021E-1,-1.7772675E-2,5.8308106E-2,-1.454773E-2,-5.558472E-2,2.0306397E-2],"categories":[],"categories_nodes":[],"categories_segments":[],"categories_sizes":[],"default_left":[0,0,0,0,0,0,0,0,0,0,0,0,0,0,0,0,0,0,0,0,0,0,0,0,0,0,0,0,0,0,0,0,0,0,0,0,0,0,0,0,0,0,0,0,0,0,0,0,0,0,0,0,0],"id":33,"left_children":[1,3,5,7,9,11,13,15,17,19,21,23,-1,25,-1,27,-1,-1,29,31,-1,33,35,37,-1,39,41,43,45,-1,-1,-1,-1,-1,-1,47,49,-1,-1,-1,-1,-1,51,-1,-1,-1,-1,-1,-1,-1,-1,-1,-1],"loss_changes":[5.4732805E-1,4.996009E-1,2.3659879E-1,1.432314E0,1.0486587E0,3.4571916E-1,4.0160045E-1,9.730565E-1,3.9014018E-1,1.4812648E-1,3.8096032E-1,3.4364495E-1,0E0,1.5931407E-1,0E0,1.0144638E0,0E0,0E0,6.011629E-2,2.4301803E-1,0E0,8.457118E-1,3.1277683E-1,4.9474448E-2,0E0,7.860988E-3,1.7794287E-1,1.7329513E0,1.439276E0,0E0,0E0,0E0,0E0,0E0,0E0,1.356622E-1,1.7928392E-1,0E0,0E0,0E0,0E0,0E0,9.184249E-2,0E0,0E0,0E0,0E0,0E0,0E0,0E0,0E0,0E0,0E0],"parents":[2147483647,0,0,1,1,2,2,3,3,4,4,5,5,6,6,7,7,8,8,9,9,10,10,11,11,13,13,15,15,18,18,19,19,21,21,22,22,23,23,25,25,26,26,27,27,28,28,35,35,36,36,42,42],"right_children":[2,4,6,8,10,12,14,16,18,20,22,24,-1,26,-1,28,-1,-1,30,32,-1,34,36,38,-1,40,42,44,46,-1,-1,-1,-1,-1,-1,48,50,-1,-1,-1,-1,-1,52,-1,-1,-1,-1,-1,-1,-1,-1,-1,-1],"split_conditions":[1.0849723E1,1.07940735E2,1.962E3,1.982E3,3.7E-1,1.959E3,1.174322E1,1.979E3,1.8977321E2,2.0523125E2,1.993E3,1.957E3,2.115143E-1,1.966E3,1.2302857E-1,1.0184036E1,2.083191E-1,1.137085E-2,1.988E3,1.986E3,4.9645998E-2,1.991E3,4.18E-1,1.917E3,-6.8472296E-2,1.965E3,8.609569E0,4.4735242E2,1.0458013E1,-2.054947E-1,-4.7213748E-2,2.7520753E-2,2.3162536E-1,-8.62793E-2,1.7577516E-1,1.77E-1,1.89E-1,1.2634736E-1,3.2452393E-2,-7.650147E-2,-1.6552735E-2,6.457672E-2,8.834998E0,-4.126331E-3,1.07148744E-1,-2.04386E-1,-1.8566357E-2,-1.1546021E-1,-1.7772675E-2,5.8308106E-2,-1.454773E-2,-5.558472E-2,2.0306397E-2],"split_indices":[6,4,1,1,9,1,6,1,3,4,1,1,0,1,0,6,0,0,1,1,0,1,9,1,0,1,5,2,6,0,0,0,0,0,0,13,13,0,0,0,0,0,5,0,0,0,0,0,0,0,0,0,0],"split_type":[0,0,0,0,0,0,0,0,0,0,0,0,0,0,0,0,0,0,0,0,0,0,0,0,0,0,0,0,0,0,0,0,0,0,0,0,0,0,0,0,0,0,0,0,0,0,0,0,0,0,0,0,0],"sum_hessian":[2.04E2,1.88E2,1.6E1,1.64E2,2.4E1,5E0,1.1E1,1.59E2,5E0,5E0,1.9E1,4E0,1E0,9E0,2E0,1.58E2,1E0,1E0,4E0,3E0,2E0,3E0,1.6E1,3E0,1E0,2E0,7E0,1.38E2,2E1,3E0,1E0,1E0,2E0,1E0,2E0,5E0,1.1E1,1E0,2E0,1E0,1E0,3E0,4E0,1.25E2,1.3E1,4E0,1.6E1,2E0,3E0,4E0,7E0,2E0,2E0],"tree_param":{"num_deleted":"0","num_feature":"17","num_nodes":"53","size_leaf_vector":"0"}},{"base_weights":[1.55923655E-2,2.5527275E-3,1.509179E-1,3.0803245E-2,-7.3939905E-2,2.6780048E-1,7.015991E-2,1.525354E-3,4.0540773E-1,-4.6620485E-1,-1.3258057E-2,1.1266581E-1,1.7979127E-1,-1.4227295E-2,9.84192E-2,2.2517594E-2,-2.5053406E-1,2.7846223E-1,4.874965E-2,1.3441737E-1,-8.6705826E-2,2.1279907E-1,-5.8200076E-2,-1.7578125E-1,4.813385E-2,8.565046E-4,8.670146E-1,-6.7314655E-1,3.0670777E-1,-2.1100871E-1,2.4109498E-1,-3.2244873E-1,2.553493E-1,-2.9447174E-1,9.281841E-2,1.0739594E-1,2.6101686E-2,-6.502991E-2,-1.4071655E-2,1.6682434E-1,-5.644531E-2,7.3980973E-3,-1.1403809E-1,4.0564272E-1,-1.5486145E-2,-2.8740844E-1,-8.735962E-2,2.0013735E-1,-4.6783447E-2,-1.2327118E-1,3.775635E-2,-9.906006E-3,-1.22375496E-1,1.5868837E-1,1.3370769E-2,3.835602E-2,-1.4941822E-1,6.164551E-2,-7.912354E-2,5.7836916E-2,1.3339234E-2,-4.446411E-2,1.6241455E-2],"categories":[],"categories_nodes":[],"categories_segments":[],"categories_sizes":[],"default_left":[0,0,0,0,0,0,0,0,0,0,0,0,0,0,0,0,0,0,0,0,0,0,0,0,0,0,0,0,0,0,0,0,0,0,0,0,0,0,0,0,0,0,0,0,0,0,0,0,0,0,0,0,0,0,0,0,0,0,0,0,0,0,0],"id":34,"left_children":[1,3,5,7,9,11,13,15,17,-1,19,21,-1,23,-1,25,27,-1,29,31,33,35,-1,37,39,41,43,45,47,49,-1,51,53,55,57,-1,-1,-1,-1,59,61,-1,-1,-1,-1,-1,-1,-1,-1,-1,-1,-1,-1,-1,-1,-1,-1,-1,-1,-1,-1,-1,-1],"loss_changes":[3.6135694E-1,4.0853742E-1,1.5111679E-1,1.5129143E0,4.5598984E0,2.924729E-1,2.6583314E-1,6.88218E-1,1.8193575E0,0E0,5.539763E-1,2.2552791E-1,0E0,1.0920793E-1,0E0,2.1943843E0,2.561433E0,0E0,1.5422187E0,1.021582E0,1.2954988E0,6.017126E-2,0E0,5.6784153E-3,1.0871686E-1,1.0794996E0,1.4067643E0,3.73883E-1,9.377731E-1,4.5573822E-1,0E0,8.5479915E-2,7.8383166E-1,1.439371E0,8.1747895E-1,0E0,0E0,0E0,0E0,4.136294E-3,5.8764372E-2,0E0,0E0,0E0,0E0,0E0,0E0,0E0,0E0,0E0,0E0,0E0,0E0,0E0,0E0,0E0,0E0,0E0,0E0,0E0,0E0,0E0,0E0],"parents":[2147483647,0,0,1,1,2,2,3,3,4,4,5,5,6,6,7,7,8,8,10,10,11,11,13,13,15,15,16,16,18,18,19,19,20,20,21,21,23,23,24,24,25,25,26,26,27,27,28,28,29,29,31,31,32,32,33,33,34,34,39,39,40,40],"right_children":[2,4,6,8,10,12,14,16,18,-1,20,22,-1,24,-1,26,28,-1,30,32,34,36,-1,38,40,42,44,46,48,50,-1,52,54,56,58,-1,-1,-1,-1,60,62,-1,-1,-1,-1,-1,-1,-1,-1,-1,-1,-1,-1,-1,-1,-1,-1,-1,-1,-1,-1,-1,-1],"split_conditions":[1.0846074E1,9.652373E0,1.962E3,9.494719E0,1.899E3,1.959E3,1.174322E1,9.318359E0,1.93E3,-4.6620485E-1,1.923E3,1.957E3,1.7979127E-1,1.966E3,9.84192E-2,9.257043E0,3.6342847E2,2.7846223E-1,4.578461E2,1.903E3,1.9795229E2,1.917E3,-5.8200076E-2,1.965E3,8.609569E0,3.3203534E2,1.893E3,1.895E3,2.035199E0,2E3,2.4109498E-1,1.901E3,1.0184036E1,4.250207E0,7.808584E0,1.0739594E-1,2.6101686E-2,-6.502991E-2,-1.4071655E-2,2.6517468E2,8.834998E0,7.3980973E-3,-1.1403809E-1,4.0564272E-1,-1.5486145E-2,-2.8740844E-1,-8.735962E-2,2.0013735E-1,-4.6783447E-2,-1.2327118E-1,3.775635E-2,-9.906006E-3,-1.22375496E-1,1.5868837E-1,1.3370769E-2,3.835602E-2,-1.4941822E-1,6.164551E-2,-7.912354E-2,5.7836916E-2,1.3339234E-2,-4.446411E-2,1.6241455E-2],"split_indices":[6,6,1,6,1,1,6,6,1,0,1,1,0,1,0,6,2,0,2,1,3,1,0,1,5,2,1,1,5,1,0,1,6,3,5,0,0,0,0,3,5,0,0,0,0,0,0,0,0,0,0,0,0,0,0,0,0,0,0,0,0,0,0],"split_type":[0,0,0,0,0,0,0,0,0,0,0,0,0,0,0,0,0,0,0,0,0,0,0,0,0,0,0,0,0,0,0,0,0,0,0,0,0,0,0,0,0,0,0,0,0,0,0,0,0,0,0,0,0,0,0,0,0,0,0,0,0,0,0],"sum_hessian":[2.04E2,1.87E2,1.7E1,1.37E2,5E1,6E0,1.1E1,1.28E2,9E0,1E0,4.9E1,5E0,1E0,9E0,2E0,1.19E2,9E0,3E0,6E0,1.6E1,3.3E1,4E0,1E0,2E0,7E0,1.17E2,2E0,5E0,4E0,5E0,1E0,3E0,1.3E1,1.5E1,1.8E1,1E0,3E0,1E0,1E0,3E0,4E0,1.11E2,6E0,1E0,1E0,2E0,3E0,2E0,2E0,3E0,2E0,1E0,2E0,5E0,8E0,5E0,1E1,1.4E1,4E0,2E0,1E0,2E0,2E0],"tree_param":{"num_deleted":"0","num_feature":"17","num_nodes":"63","size_leaf_vector":"0"}},{"base_weights":[1.217509E-2,4.437691E-3,2.30399E-1,-5.2267876E-3,1.8761902E-1,5.9443157E-2,1.8842012E-1,2.4379957E-3,-2.0595442E-1,2.6803207E-1,-8.935547E-2,3.1637575E-2,1.0070801E-2,-2.5930611E-2,6.774358E-2,-6.2220257E-2,-1.6025391E-1,1.23196416E-1,1.5204875E-1,9.255982E-3,-4.9465943E-2,-6.866455E-3,9.132385E-3,1.9429233E-2,-2.8956282E-1,5.325012E-1,1.1737898E-2,3.2533266E-2,-1.1804199E-1,8.253479E-3,1.7145386E-1,7.3699956E-4,-3.8269043E-3,-5.965146E-3,1.8190482E-1,-2.7894747E-1,-1.7051393E-2,2.0795289E-1,-4.0631104E-2,-2.5019532E-2,4.228072E-2,-4.306641E-2,-2.3986818E-3,6.493226E-2,2.0794678E-2],"categories":[],"categories_nodes":[],"categories_segments":[],"categories_sizes":[],"default_left":[0,0,0,0,0,0,0,0,0,0,0,0,0,0,0,0,0,0,0,0,0,0,0,0,0,0,0,0,0,0,0,0,0,0,0,0,0,0,0,0,0,0,0,0,0],"id":35,"left_children":[1,3,5,7,9,11,-1,13,15,17,19,-1,21,23,25,27,-1,-1,29,-1,-1,31,-1,33,35,37,39,-1,41,-1,43,-1,-1,-1,-1,-1,-1,-1,-1,-1,-1,-1,-1,-1,-1],"loss_changes":[3.4511706E-1,3.5328072E-1,4.3855146E-1,2.9282352E-1,2.466738E-1,1.2569286E-2,0E0,3.4264025E-1,2.970035E-1,6.989527E-2,3.2325745E-2,0E0,1.5891041E-3,1.5482488E0,1.4513773E0,6.996169E-2,0E0,0E0,9.78297E-3,0E0,0E0,1.960746E-4,0E0,2.5732286E0,2.7782433E0,7.3780787E-1,6.386156E-1,0E0,1.2890093E-2,0E0,7.971734E-3,0E0,0E0,0E0,0E0,0E0,0E0,0E0,0E0,0E0,0E0,0E0,0E0,0E0,0E0],"parents":[2147483647,0,0,1,1,2,2,3,3,4,4,5,5,7,7,8,8,9,9,10,10,12,12,13,13,14,14,15,15,18,18,21,21,23,23,24,24,25,25,26,26,28,28,30,30],"right_children":[2,4,6,8,10,12,-1,14,16,18,20,-1,22,24,26,28,-1,-1,30,-1,-1,32,-1,34,36,38,40,-1,42,-1,44,-1,-1,-1,-1,-1,-1,-1,-1,-1,-1,-1,-1,-1,-1],"split_conditions":[1.089E0,4.7696854E2,1.9136137E2,4.697472E2,1.956E3,2.013E3,1.8842012E-1,1.934E3,1.941E3,5.704848E0,1.957E3,3.1637575E-2,1.7393028E2,1.897E3,1.94E3,3.664E-3,-1.6025391E-1,1.23196416E-1,1.916E3,9.255982E-3,-4.9465943E-2,2.016E3,9.132385E-3,1.891E3,4.1167606E2,5.235899E0,1.0167324E1,3.2533266E-2,4.7543332E2,8.253479E-3,1.0752227E1,7.3699956E-4,-3.8269043E-3,-5.965146E-3,1.8190482E-1,-2.7894747E-1,-1.7051393E-2,2.0795289E-1,-4.0631104E-2,-2.5019532E-2,4.228072E-2,-4.306641E-2,-2.3986818E-3,6.493226E-2,2.0794678E-2],"split_indices":[14,2,4,2,1,1,0,1,1,3,1,0,3,1,1,3,0,0,1,0,0,1,0,1,2,3,6,0,2,0,6,0,0,0,0,0,0,0,0,0,0,0,0,0,0],"split_type":[0,0,0,0,0,0,0,0,0,0,0,0,0,0,0,0,0,0,0,0,0,0,0,0,0,0,0,0,0,0,0,0,0,0,0,0,0,0,0,0,0,0,0,0,0],"sum_hessian":[2.04E2,1.98E2,6E0,1.89E2,9E0,5E0,1E0,1.83E2,6E0,7E0,2E0,2E0,3E0,1.28E2,5.5E1,5E0,1E0,2E0,5E0,1E0,1E0,2E0,1E0,1.1E2,1.8E1,5E0,5E1,1E0,4E0,1E0,4E0,1E0,1E0,1.04E2,6E0,4E0,1.4E1,4E0,1E0,2.9E1,2.1E1,3E0,1E0,2E0,2E0],"tree_param":{"num_deleted":"0","num_feature":"17","num_nodes":"45","size_leaf_vector":"0"}},{"base_weights":[9.956857E-3,3.4478107E-3,1.9357736E-1,-4.2320504E-3,1.4902039E-1,4.7887165E-2,1.6015778E-1,1.7403712E-2,-6.198472E-2,2.7788696E-1,1.679484E-2,2.5308227E-2,8.560181E-3,-2.3334601E-3,2.7388E-1,-3.01457E-1,2.5569035E-2,7.0175175E-3,1.0069886E-1,7.6220706E-2,-4.205017E-2,-5.83903E-3,7.763672E-3,9.196695E-3,-2.355652E-1,-1.1222839E-1,-6.196228E-1,1.4258179E-1,-1.7115682E-1,2.8717043E-2,9.393311E-3,6.2713627E-4,-3.2546998E-3,-2.4673739E-3,2.3528443E-1,-1.7140275E-1,4.984654E-2,-3.544281E-1,-5.5144504E-2,2.2410916E-2,1.8463746E-1,-8.935131E-2,4.253174E-2],"categories":[],"categories_nodes":[],"categories_segments":[],"categories_sizes":[],"default_left":[0,0,0,0,0,0,0,0,0,0,0,0,0,0,0,0,0,0,0,0,0,0,0,0,0,0,0,0,0,0,0,0,0,0,0,0,0,0,0,0,0,0,0],"id":36,"left_children":[1,3,5,7,9,11,-1,13,15,17,19,-1,21,23,-1,25,27,-1,-1,29,-1,31,-1,33,-1,35,37,39,41,-1,-1,-1,-1,-1,-1,-1,-1,-1,-1,-1,-1,-1,-1],"loss_changes":[2.4434744E-1,2.2310813E-1,3.214651E-1,2.3848817E-1,1.6572748E-1,7.884234E-3,0E0,2.4589863E0,1.0979761E0,6.5666676E-2,6.664929E-2,0E0,1.1486117E-3,1.2438891E0,0E0,7.733458E-1,9.2216176E-1,0E0,0E0,1.3821125E-3,0E0,1.4185873E-4,0E0,1.8428535E0,0E0,1.3730295E0,1.0070292E0,7.564796E-1,6.368575E-1,0E0,0E0,0E0,0E0,0E0,0E0,0E0,0E0,0E0,0E0,0E0,0E0,0E0,0E0],"parents":[2147483647,0,0,1,1,2,2,3,3,4,4,5,5,7,7,8,8,9,9,10,10,12,12,13,13,15,15,16,16,19,19,21,21,23,23,25,25,26,26,27,27,28,28],"right_children":[2,4,6,8,10,12,-1,14,16,18,20,-1,22,24,-1,26,28,-1,-1,30,-1,32,-1,34,-1,36,38,40,42,-1,-1,-1,-1,-1,-1,-1,-1,-1,-1,-1,-1,-1,-1],"split_conditions":[1.089E0,4.7696854E2,1.9136137E2,3.517623E2,1.918E3,2.013E3,1.6015778E-1,3.4141885E2,4.1167606E2,1.0597415E1,1.957E3,2.5308227E-2,1.7393028E2,3.3203534E2,2.7388E-1,3.8374536E2,1.0184036E1,7.0175175E-3,1.0069886E-1,4.8605484E2,-4.205017E-2,2.016E3,7.763672E-3,3.1951544E2,-2.355652E-1,9.427942E0,1.899E3,1.0178125E1,1.953E3,2.8717043E-2,9.393311E-3,6.2713627E-4,-3.2546998E-3,-2.4673739E-3,2.3528443E-1,-1.7140275E-1,4.984654E-2,-3.544281E-1,-5.5144504E-2,2.2410916E-2,1.8463746E-1,-8.935131E-2,4.253174E-2],"split_indices":[14,2,4,2,1,1,0,2,2,6,1,0,3,2,0,2,6,0,0,2,0,1,0,2,0,6,1,6,1,0,0,0,0,0,0,0,0,0,0,0,0,0,0],"split_type":[0,0,0,0,0,0,0,0,0,0,0,0,0,0,0,0,0,0,0,0,0,0,0,0,0,0,0,0,0,0,0,0,0,0,0,0,0,0,0,0,0,0,0],"sum_hessian":[2.04E2,1.98E2,6E0,1.89E2,9E0,5E0,1E0,1.38E2,5.1E1,4E0,5E0,2E0,3E0,1.36E2,2E0,1.3E1,3.8E1,1E0,3E0,4E0,1E0,2E0,1E0,1.35E2,1E0,9E0,4E0,2.4E1,1.4E1,2E0,2E0,1E0,1E0,1.33E2,2E0,3E0,6E0,1E0,3E0,2.2E1,2E0,1E1,4E0],"tree_param":{"num_deleted":"0","num_feature":"17","num_nodes":"43","size_leaf_vector":"0"}},{"base_weights":[7.916539E-3,2.4308057E-3,1.6273716E-1,-1.142182E-2,7.2459824E-2,3.859965E-2,1.3613434E-1,1.3481795E-3,-4.2543945E-1,1.932953E-1,1.4781336E-2,2.0248415E-2,7.2784424E-3,-8.939914E-3,2.0179749E-1,-3.7898257E-2,-1.4059067E-1,-1.7127483E-1,8.6943254E-2,-4.964193E-3,6.6009522E-3,1.3600282E-2,-2.2172445E-1,-1.510849E-1,3.7451607E-1,-7.450867E-2,-8.208161E-2,2.0532532E-1,2.8675426E-2,5.310059E-4,-2.7648928E-3,1.3571151E-3,1.9400941E-1,-1.8526155E-1,-2.1392824E-2,1.5119752E-1,1.0165406E-2,8.1207275E-2,-5.930603E-2,1.35672E-1,-1.088791E-2],"categories":[],"categories_nodes":[],"categories_segments":[],"categories_sizes":[],"default_left":[0,0,0,0,0,0,0,0,0,0,0,0,0,0,0,0,0,0,0,0,0,0,0,0,0,0,0,0,0,0,0,0,0,0,0,0,0,0,0,0,0],"id":37,"left_children":[1,3,5,7,9,11,-1,13,15,-1,17,-1,19,21,23,-1,-1,25,27,29,-1,31,33,-1,35,37,-1,-1,39,-1,-1,-1,-1,-1,-1,-1,-1,-1,-1,-1,-1],"loss_changes":[1.7371187E-1,1.9387472E-1,2.3539053E-1,8.8350344E-1,1.0789447E0,4.9389126E-3,0E0,3.3794937E-1,5.400777E-3,0E0,4.311024E-1,0E0,8.303061E-4,7.5122344E-1,1.1633171E0,0E0,0E0,6.8733245E-2,7.810855E-1,1.02216996E-4,0E0,8.1305665E-1,8.490094E-1,0E0,2.9164666E-1,3.086382E-1,0E0,0E0,6.218165E-1,0E0,0E0,0E0,0E0,0E0,0E0,0E0,0E0,0E0,0E0,0E0,0E0],"parents":[2147483647,0,0,1,1,2,2,3,3,4,4,5,5,7,7,8,8,10,10,12,12,13,13,14,14,17,17,18,18,19,19,21,21,22,22,24,24,25,25,28,28],"right_children":[2,4,6,8,10,12,-1,14,16,-1,18,-1,20,22,24,-1,-1,26,28,30,-1,32,34,-1,36,38,-1,-1,40,-1,-1,-1,-1,-1,-1,-1,-1,-1,-1,-1,-1],"split_conditions":[1.089E0,4.4735242E2,1.9136137E2,4.3484723E2,4.4944452E2,2.013E3,1.3613434E-1,4.2228333E2,9.494719E0,1.932953E-1,4.578461E2,2.0248415E-2,1.7393028E2,3.601492E2,8.939803E0,-3.7898257E-2,-1.4059067E-1,1.0035792E1,9.652373E0,2.016E3,6.6009522E-3,3.5890714E2,2.275366E0,-1.510849E-1,1.0184036E1,1.92E3,-8.208161E-2,2.0532532E-1,4.603816E2,5.310059E-4,-2.7648928E-3,1.3571151E-3,1.9400941E-1,-1.8526155E-1,-2.1392824E-2,1.5119752E-1,1.0165406E-2,8.1207275E-2,-5.930603E-2,1.35672E-1,-1.088791E-2],"split_indices":[14,2,4,2,2,1,0,2,6,0,2,0,3,2,6,0,0,6,6,1,0,2,3,0,6,1,0,0,2,0,0,0,0,0,0,0,0,