{"learner":{"attributes":{"best_iteration":"10","best_ntree_limit":"11","best_score":"9.454927293535365"},"feature_names":["Country","Year","Energy from renewable & waste sources","Total energy consumption of primary fuels and equivalents","Fraction from renewable sources and waste","Hydroelectric power","Wind, wave, tidal","Solar photovoltaic","Geothermal aquifers","Landfill gas","Sewage gas","Biogas from autogen","Municipal solid waste (MSW)","Poultry litter","Straw","Wood","Charcoal","Liquid bio-fuels","Bioethanol"],"feature_types":["int","int","float","float","float","float","float","float","float","float","float","float","float","float","float","float","float","float","float"],"gradient_booster":{"model":{"gbtree_model_param":{"num_parallel_tree":"1","num_trees":"111","size_leaf_vector":"0"},"tree_info":[0,0,0,0,0,0,0,0,0,0,0,0,0,0,0,0,0,0,0,0,0,0,0,0,0,0,0,0,0,0,0,0,0,0,0,0,0,0,0,0,0,0,0,0,0,0,0,0,0,0,0,0,0,0,0,0,0,0,0,0,0,0,0,0,0,0,0,0,0,0,0,0,0,0,0,0,0,0,0,0,0,0,0,0,0,0,0,0,0,0,0,0,0,0,0,0,0,0,0,0,0,0,0,0,0,0,0,0,0,0,0],"trees":[{"base_weights":[5.0032205E2],"categories":[],"categories_nodes":[],"categories_segments":[],"categories_sizes":[],"default_left":[0],"id":0,"left_children":[-1],"loss_changes":[0E0],"parents":[2147483647],"right_children":[-1],"split_conditions":[1.5009662E2],"split_indices":[0],"split_type":[0],"sum_hessian":[2.4E1],"tree_param":{"num_deleted":"0","num_feature":"19","num_nodes":"1","size_leaf_vector":"0"}},{"base_weights":[3.562293E2,1.1859198E2,5.9781773E1],"categories":[],"categories_nodes":[],"categories_segments":[],"categories_sizes":[],"default_left":[0,0,0],"id":1,"left_children":[1,-1,-1],"loss_changes":[7.456225E4,0E0,0E0],"parents":[2147483647,0,0],"right_children":[2,-1,-1],"split_conditions":[2.014E3,1.1859198E2,5.9781773E1],"split_indices":[1,0,0],"split_type":[0,0,0],"sum_hessian":[2.4E1,1.8E1,6E0],"tree_param":{"num_deleted":"0","num_feature":"19","num_nodes":"3","size_leaf_vector":"0"}},{"base_weights":[2.5649545E2,8.3095436E1,3.574238E1],"categories":[],"categories_nodes":[],"categories_segments":[],"categories_sizes":[],"default_left":[0,0,0],"id":2,"left_children":[1,-1,-1],"loss_changes":[3.7357E4,0E0,0E0],"parents":[2147483647,0,0],"right_children":[2,-1,-1],"split_conditions":[2.016E3,8.3095436E1,3.574238E1],"split_indices":[1,0,0],"split_type":[0,0,0],"sum_hessian":[2.4E1,2E1,4E0],"tree_param":{"num_deleted":"0","num_feature":"19","num_nodes":"3","size_leaf_vector":"0"}},{"base_weights":[1.8430034E2,6.315895E1,3.4283375E1],"categories":[],"categories_nodes":[],"categories_segments":[],"categories_sizes":[],"default_left":[0,0,0],"id":3,"left_children":[1,-1,-1],"loss_changes":[2.1857438E4,0E0,0E0],"parents":[2147483647,0,0],"right_children":[2,-1,-1],"split_conditions":[2.009E3,6.315895E1,3.4283375E1],"split_indices":[1,0,0],"split_type":[0,0,0],"sum_hessian":[2.4E1,1.6E1,8E0],"tree_param":{"num_deleted":"0","num_feature":"19","num_nodes":"3","size_leaf_vector":"0"}},{"base_weights":[1.3290791E2,4.2628918E1,1.4743296E1],"categories":[],"categories_nodes":[],"categories_segments":[],"categories_sizes":[],"default_left":[0,0,0],"id":4,"left_children":[1,-1,-1],"loss_changes":[1.2258281E4,0E0,0E0],"parents":[2147483647,0,0],"right_children":[2,-1,-1],"split_conditions":[2.019E3,4.2628918E1,1.4743296E1],"split_indices":[1,0,0],"split_type":[0,0,0],"sum_hessian":[2.4E1,2.1E1,3E0],"tree_param":{"num_deleted":"0","num_feature":"19","num_nodes":"3","size_leaf_vector":"0"}},{"base_weights":[9.5330444E1,5.176894E1,3.2818493E1,1.6415817E1,4.667368E0],"categories":[],"categories_nodes":[],"categories_segments":[],"categories_sizes":[],"default_left":[0,0,0,0,0],"id":5,"left_children":[1,3,-1,-1,-1],"loss_changes":[9.6535625E3,3.3925781E0,0E0,0E0,0E0],"parents":[2147483647,0,0,1,1],"right_children":[2,4,-1,-1,-1],"split_conditions":[2.25532E2,2.4472E1,3.2818493E1,1.6415817E1,4.667368E0],"split_indices":[3,2,0,0,0],"split_type":[0,0,0,0,0],"sum_hessian":[2.4E1,7E0,1.7E1,6E0,1E0],"tree_param":{"num_deleted":"0","num_feature":"19","num_nodes":"5","size_leaf_vector":"0"}},{"base_weights":[6.888738E1,2.402304E1,1.2029302E1],"categories":[],"categories_nodes":[],"categories_segments":[],"categories_sizes":[],"default_left":[0,0,0],"id":6,"left_children":[1,-1,-1],"loss_changes":[4.8426016E3,0E0,0E0],"parents":[2147483647,0,0],"right_children":[2,-1,-1],"split_conditions":[2.009E3,2.402304E1,1.2029302E1],"split_indices":[1,0,0],"split_type":[0,0,0],"sum_hessian":[2.4E1,1.6E1,8E0],"tree_param":{"num_deleted":"0","num_feature":"19","num_nodes":"3","size_leaf_vector":"0"}},{"base_weights":[4.9663242E1,1.7240055E1,2.9404964E1,9.383459E0,2.1628695E0],"categories":[],"categories_nodes":[],"categories_segments":[],"categories_sizes":[],"default_left":[0,0,0,0,0],"id":7,"left_children":[1,-1,3,-1,-1],"loss_changes":[2.262379E3,0E0,1.4869092E2,0E0,0E0],"parents":[2147483647,0,0,2,2],"right_children":[2,-1,4,-1,-1],"split_conditions":[2.009E3,1.7240055E1,2.4472E1,9.383459E0,2.1628695E0],"split_indices":[1,0,2,0,0],"split_type":[0,0,0,0,0],"sum_hessian":[2.4E1,1.6E1,8E0,7E0,1E0],"tree_param":{"num_deleted":"0","num_feature":"19","num_nodes":"5","size_leaf_vector":"0"}},{"base_weights":[3.591573E1,3.7906075E1,2.605347E0,3.898153E1,2.1369143E0,1.5260688E1,9.747881E0],"categories":[],"categories_nodes":[],"categories_segments":[],"categories_sizes":[],"default_left":[0,0,0,0,0,0,0],"id":8,"left_children":[1,3,-1,5,-1,-1,-1],"loss_changes":[1.0257949E3,4.8376562E2,0E0,4.4039062E1,0E0,0E0,0E0],"parents":[2147483647,0,0,1,1,3,3],"right_children":[2,4,-1,6,-1,-1,-1],"split_conditions":[2.02E3,5.4E-1,2.605347E0,2.611E0,2.1369143E0,1.5260688E1,9.747881E0],"split_indices":[1,5,0,2,0,0,0],"split_type":[0,0,0,0,0,0,0],"sum_hessian":[2.4E1,2.2E1,2E0,2.1E1,1E0,5E0,1.6E1],"tree_param":{"num_deleted":"0","num_feature":"19","num_nodes":"7","size_leaf_vector":"0"}},{"base_weights":[2.6331049E1,9.1335125E0,4.6903524E0],"categories":[],"categories_nodes":[],"categories_segments":[],"categories_sizes":[],"default_left":[0,0,0],"id":9,"left_children":[1,-1,-1],"loss_changes":[6.241406E2,0E0,0E0],"parents":[2147483647,0,0],"right_children":[2,-1,-1],"split_conditions":[2.009E3,9.1335125E0,4.6903524E0],"split_indices":[1,0,0],"split_type":[0,0,0],"sum_hessian":[2.4E1,1.6E1,8E0],"tree_param":{"num_deleted":"0","num_feature":"19","num_nodes":"3","size_leaf_vector":"0"}},{"base_weights":[1.8984713E1,1.016705E1,1.5411688E1,1.6379751E1,1.1462097E0,5.0554132E0,1.1128281E0],"categories":[],"categories_nodes":[],"categories_segments":[],"categories_sizes":[],"default_left":[0,0,0,0,0,0,0],"id":10,"left_children":[1,-1,3,5,-1,-1,-1],"loss_changes":[8.0913477E2,0E0,1.8427637E2,5.7003906E1,0E0,0E0,0E0],"parents":[2147483647,0,0,2,2,3,3],"right_children":[2,-1,4,6,-1,-1,-1],"split_conditions":[1.994E3,1.016705E1,2.02E3,5.4E-1,1.1462097E0,5.0554132E0,1.1128281E0],"split_indices":[1,0,1,5,0,0,0],"split_type":[0,0,0,0,0,0,0],"sum_hessian":[2.4E1,3E0,2.1E1,1.9E1,2E0,1.8E1,1E0],"tree_param":{"num_deleted":"0","num_feature":"19","num_nodes":"7","size_leaf_vector":"0"}},{"base_weights":[1.3988553E1,7.8794637E0,1.1120651E1,1.1774233E1,9.169678E-1,3.61861E0,9.4590455E-1],"categories":[],"categories_nodes":[],"categories_segments":[],"categories_sizes":[],"default_left":[0,0,0,0,0,0,0],"id":11,"left_children":[1,-1,3,5,-1,-1,-1],"loss_changes":[5.881001E2,0E0,7.9963135E1,1.1592285E1,0E0,0E0,0E0],"parents":[2147483647,0,0,2,2,3,3],"right_children":[2,-1,4,6,-1,-1,-1],"split_conditions":[1.994E3,7.8794637E0,2.02E3,5.4E-1,9.169678E-1,3.61861E0,9.4590455E-1],"split_indices":[1,0,1,5,0,0,0],"split_type":[0,0,0,0,0,0,0],"sum_hessian":[2.4E1,3E0,2.1E1,1.9E1,2E0,1.8E1,1E0],"tree_param":{"num_deleted":"0","num_feature":"19","num_nodes":"7","size_leaf_vector":"0"}},{"base_weights":[1.0326434E1,6.106586E0,8.033624E0,8.470198E0,7.3357546E-1,9.2017765E0,1.3305322E0,3.8782976E0,7.3475223E0,8.464966E-2,7.9127884E0,2.9111025E-1,2.536711E0],"categories":[],"categories_nodes":[],"categories_segments":[],"categories_sizes":[],"default_left":[0,0,0,0,0,0,0,0,0,0,0,0,0],"id":12,"left_children":[1,-1,3,5,-1,7,-1,-1,9,-1,11,-1,-1],"loss_changes":[4.113296E2,0E0,3.2962402E1,1.8229004E1,0E0,1.5553345E1,0E0,0E0,4.968683E1,0E0,3.7024475E1,0E0,0E0],"parents":[2147483647,0,0,2,2,3,3,5,5,8,8,10,10],"right_children":[2,-1,4,6,-1,8,-1,-1,10,-1,12,-1,-1],"split_conditions":[1.994E3,6.106586E0,2.02E3,1.612E0,7.3357546E-1,3.78E-1,1.3305322E0,3.8782976E0,7.19E-1,8.464966E-2,3.4E-2,2.9111025E-1,2.536711E0],"split_indices":[1,0,1,9,0,5,0,0,15,0,16,0,0],"split_type":[0,0,0,0,0,0,0,0,0,0,0,0,0],"sum_hessian":[2.4E1,3E0,2.1E1,1.9E1,2E0,1.5E1,4E0,3E0,1.2E1,1E0,1.1E1,1E0,1E1],"tree_param":{"num_deleted":"0","num_feature":"19","num_nodes":"13","size_leaf_vector":"0"}},{"base_weights":[7.8269715E0,4.7326083E0,6.0260386E0,6.3352127E0,5.8685917E-1,8.821991E0,5.1621437E0,3.005681E0,6.0513157E-1,1.6355896E0,5.850149E0,9.422608E-2,8.400147E-1,4.289612E-1,1.9571545E0],"categories":[],"categories_nodes":[],"categories_segments":[],"categories_sizes":[],"default_left":[0,0,0,0,0,0,0,0,0,0,0,0,0,0,0],"id":13,"left_children":[1,-1,3,5,-1,7,9,-1,-1,11,13,-1,-1,-1,-1],"loss_changes":[2.6279993E2,0E0,1.5289429E1,1.28029175E1,0E0,2.0516113E1,2.9252197E1,0E0,0E0,5.2758856E0,2.9384888E1,0E0,0E0,0E0,0E0],"parents":[2147483647,0,0,2,2,3,3,5,5,6,6,9,9,10,10],"right_children":[2,-1,4,6,-1,8,10,-1,-1,12,14,-1,-1,-1,-1],"split_conditions":[1.994E3,4.7326083E0,2.02E3,3.78E-1,5.8685917E-1,2.004E3,4.16E-1,3.005681E0,6.0513157E-1,2.003E3,3.4E-2,9.422608E-2,8.400147E-1,4.289612E-1,1.9571545E0],"split_indices":[1,0,1,5,0,1,5,0,0,1,16,0,0,0,0],"split_type":[0,0,0,0,0,0,0,0,0,0,0,0,0,0,0],"sum_hessian":[2.4E1,3E0,2.1E1,1.9E1,2E0,4E0,1.5E1,3E0,1E0,3E0,1.2E1,2E0,1E0,2E0,1E1],"tree_param":{"num_deleted":"0","num_feature":"19","num_nodes":"15","size_leaf_vector":"0"}},{"base_weights":[5.9689064E0,4.049103E0,4.7274623E0,5.003915E0,3.6494142E-1,3.864576E0,6.3722687E0,5.295227E0,2.1296844E0,7.22611E0,7.621491E-1,1.6974336E0,4.67688E-1,1.4808197E-1,9.03783E-1,2.3511293E0,6.25676E-1],"categories":[],"categories_nodes":[],"categories_segments":[],"categories_sizes":[],"default_left":[0,0,0,0,0,0,0,0,0,0,0,0,0,0,0,0,0],"id":14,"left_children":[1,-1,3,5,-1,7,9,11,13,15,-1,-1,-1,-1,-1,-1,-1],"loss_changes":[1.6983643E2,0E0,1.6237183E1,8.113281E0,0E0,2.3471191E1,7.8158875E0,6.700897E-1,1.0069237E1,2.499817E0,0E0,0E0,0E0,0E0,0E0,0E0,0E0],"parents":[2147483647,0,0,2,2,3,3,5,5,6,6,7,7,8,8,9,9],"right_children":[2,-1,4,6,-1,8,10,12,14,16,-1,-1,-1,-1,-1,-1,-1],"split_conditions":[1.992E3,4.049103E0,5.4E-1,3.9E-2,3.6494142E-1,1.74E-1,1.612E0,2.004E3,9.92E-1,2.019E3,7.621491E-1,1.6974336E0,4.67688E-1,1.4808197E-1,9.03783E-1,2.3511293E0,6.25676E-1],"split_indices":[1,0,5,16,0,10,9,1,15,1,0,0,0,0,0,0,0],"split_type":[0,0,0,0,0,0,0,0,0,0,0,0,0,0,0,0,0],"sum_hessian":[2.4E1,2E0,2.2E1,2E1,2E0,1.3E1,7E0,6E0,7E0,5E0,2E0,5E0,1E0,3E0,4E0,4E0,1E0],"tree_param":{"num_deleted":"0","num_feature":"19","num_nodes":"17","size_leaf_vector":"0"}},{"base_weights":[4.6330323E0,3.2392883E0,3.6275184E0,3.8339698E0,2.919556E-1,2.9349802E0,4.9279556E0,1.2753861E0,1.7313334E0,1.6663224E0,6.097199E-1,9.2769516E-1,9.088135E-1,4.576416E-2,3.6217347E-1],"categories":[],"categories_nodes":[],"categories_segments":[],"categories_sizes":[],"default_left":[0,0,0,0,0,0,0,0,0,0,0,0,0,0,0],"id":15,"left_children":[1,-1,3,5,-1,7,9,-1,11,-1,-1,13,-1,-1,-1],"loss_changes":[1.1579608E2,0E0,8.87262E0,6.1896667E0,0E0,1.4820755E1,3.2226257E0,0E0,6.578087E0,0E0,0E0,1.332685E0,0E0,0E0,0E0],"parents":[2147483647,0,0,2,2,3,3,5,5,6,6,8,8,11,11],"right_children":[2,-1,4,6,-1,8,10,-1,12,-1,-1,14,-1,-1,-1],"split_conditions":[1.992E3,3.2392883E0,5.4E-1,3.9E-2,2.919556E-1,1.7E-1,1.612E0,1.2753861E0,1.6E-2,1.6663224E0,6.097199E-1,4.16E-1,9.088135E-1,4.576416E-2,3.6217347E-1],"split_indices":[1,0,5,16,0,10,9,0,17,0,0,5,0,0,0],"split_type":[0,0,0,0,0,0,0,0,0,0,0,0,0,0,0],"sum_hessian":[2.4E1,2E0,2.2E1,2E1,2E0,1.3E1,7E0,5E0,8E0,5E0,2E0,6E0,2E0,2E0,4E0],"tree_param":{"num_deleted":"0","num_feature":"19","num_nodes":"15","size_leaf_vector":"0"}},{"base_weights":[3.5790992E0,2.5914369E0,2.7636135E0,4.0879416E0,2.1686368E0,1.9042481E0,4.1138765E-1,1.3117454E0,3.0757828E0,7.154755E-1,6.111908E-1,1.165503E0,3.8859102E-1,2.7597657E-1,2.632233E-1,3.660889E-2,1.01379395E-1],"categories":[],"categories_nodes":[],"categories_segments":[],"categories_sizes":[],"default_left":[0,0,0,0,0,0,0,0,0,0,0,0,0,0,0,0,0],"id":16,"left_children":[1,-1,3,5,7,-1,-1,9,11,-1,13,-1,-1,15,-1,-1,-1],"loss_changes":[7.926657E1,0E0,9.257462E0,2.8126183E1,9.957222E0,0E0,0E0,6.812336E0,6.494232E0,0E0,4.7178125E-1,0E0,0E0,6.4510703E-3,0E0,0E0,0E0],"parents":[2147483647,0,0,2,2,3,3,4,4,7,7,8,8,10,10,13,13],"right_children":[2,-1,4,6,8,-1,-1,10,12,-1,14,-1,-1,16,-1,-1,-1],"split_conditions":[1.992E3,2.5914369E0,3.78E-1,2.002E3,1.327E0,1.9042481E0,4.1138765E-1,1.74E-1,1.612E0,7.154755E-1,4.48E-1,1.165503E0,3.8859102E-1,4.16E-1,2.632233E-1,3.660889E-2,1.01379395E-1],"split_indices":[1,0,5,1,9,0,0,10,9,0,5,0,0,5,0,0,0],"split_type":[0,0,0,0,0,0,0,0,0,0,0,0,0,0,0,0,0],"sum_hessian":[2.4E1,2E0,2.2E1,5E0,1.7E1,2E0,3E0,1E1,7E0,3E0,7E0,4E0,3E0,4E0,3E0,2E0,2E0],"tree_param":{"num_deleted":"0","num_feature":"19","num_nodes":"17","size_leaf_vector":"0"}},{"base_weights":[2.8084862E0,1.9091859E0,2.0343795E0,3.2475078E0,1.4865471E0,1.5234009E0,3.1882784E-1,5.418769E-1,2.2660456E0,2.6690063E-1,3.1541225E-1,8.347779E-2,2.4797363E0,2.928467E-2,3.8300782E-1,8.5974735E-1,2.6429445E-1,1.2696534E-1,3.3325195E-2],"categories":[],"categories_nodes":[],"categories_segments":[],"categories_sizes":[],"default_left":[0,0,0,0,0,0,0,0,0,0,0,0,0,0,0,0,0,0,0],"id":17,"left_children":[1,-1,3,5,7,-1,-1,9,11,-1,13,-1,15,-1,17,-1,-1,-1,-1],"loss_changes":[5.5861084E1,0E0,9.7934265E0,1.859834E1,1.1290348E1,0E0,0E0,4.2825055E-1,3.1329384E0,0E0,6.566703E-2,0E0,2.4133415E0,0E0,7.657528E-3,0E0,0E0,0E0,0E0],"parents":[2147483647,0,0,2,2,3,3,4,4,7,7,8,8,10,10,12,12,14,14],"right_children":[2,-1,4,6,8,-1,-1,10,12,-1,14,-1,16,-1,18,-1,-1,-1,-1],"split_conditions":[1.994E3,1.9091859E0,3.78E-1,2.002E3,1.202E0,1.5234009E0,3.1882784E-1,1.74E-1,3.4E-2,2.6690063E-1,4.16E-1,8.347779E-2,3.463E0,2.928467E-2,2.4679E2,8.5974735E-1,2.6429445E-1,1.2696534E-1,3.3325195E-2],"split_indices":[1,0,5,1,9,0,0,10,16,0,5,0,6,0,3,0,0,0,0],"split_type":[0,0,0,0,0,0,0,0,0,0,0,0,0,0,0,0,0,0,0],"sum_hessian":[2.4E1,3E0,2.1E1,5E0,1.6E1,2E0,3E0,8E0,8E0,2E0,6E0,1E0,7E0,2E0,4E0,5E0,2E0,3E0,1E0],"tree_param":{"num_deleted":"0","num_feature":"19","num_nodes":"19","size_leaf_vector":"0"}},{"base_weights":[2.1825624E0,1.6913148E0,1.636996E0,2.580302E0,1.2316165E0,1.2187256E0,2.4709168E-1,6.685425E-1,1.7204081E0,3.7127382E-1,2.4787249E-1,1.3952333E-1,2.0126343E0,2.3425294E-2,9.005127E-2,7.801369E-1,2.7649614E-1],"categories":[],"categories_nodes":[],"categories_segments":[],"categories_sizes":[],"default_left":[0,0,0,0,0,0,0,0,0,0,0,0,0,0,0,0,0],"id":18,"left_children":[1,-1,3,5,7,-1,-1,9,11,-1,13,-1,15,-1,-1,-1,-1],"loss_changes":[3.7896446E1,0E0,5.6171913E0,1.2275509E1,3.8038998E0,0E0,0E0,2.0870051E0,2.365532E0,0E0,3.871891E-2,0E0,2.0923958E0,0E0,0E0,0E0,0E0],"parents":[2147483647,0,0,2,2,3,3,4,4,7,7,8,8,10,10,12,12],"right_children":[2,-1,4,6,8,-1,-1,10,12,-1,14,-1,16,-1,-1,-1,-1],"split_conditions":[1.992E3,1.6913148E0,3.78E-1,2.002E3,1.202E0,1.2187256E0,2.4709168E-1,1.74E-1,3.6E-2,3.7127382E-1,4.16E-1,1.3952333E-1,4.67E-1,2.3425294E-2,9.005127E-2,7.801369E-1,2.7649614E-1],"split_indices":[1,0,5,1,9,0,0,10,16,0,5,0,5,0,0,0,0],"split_type":[0,0,0,0,0,0,0,0,0,0,0,0,0,0,0,0,0],"sum_hessian":[2.4E1,2E0,2.2E1,5E0,1.7E1,2E0,3E0,9E0,8E0,3E0,6E0,2E0,6E0,2E0,4E0,3E0,3E0],"tree_param":{"num_deleted":"0","num_feature":"19","num_nodes":"17","size_leaf_vector":"0"}},{"base_weights":[1.7213111E0,1.3530457E0,1.2827095E0,2.0505066E0,9.5551556E-1,9.7497565E-1,1.9149628E-1,5.1645815E-1,1.3371887E0,3.3319703E-1,2.2907639E-1,1.6532034E0,1.5866089E-1,1.8737793E-2,8.226167E-2,1.17398076E-1,1.8273132E0,6.046028E-1,1.612793E-1],"categories":[],"categories_nodes":[],"categories_segments":[],"categories_sizes":[],"default_left":[0,0,0,0,0,0,0,0,0,0,0,0,0,0,0,0,0,0,0],"id":19,"left_children":[1,-1,3,5,7,-1,-1,9,11,-1,13,15,-1,-1,-1,-1,17,-1,-1],"loss_changes":[2.4794533E1,0E0,3.818737E0,8.088264E0,2.3257732E0,0E0,0E0,1.4531934E0,1.4246368E0,0E0,4.302761E-2,6.0315704E-1,0E0,0E0,0E0,0E0,1.2907791E-1,0E0,0E0],"parents":[2147483647,0,0,2,2,3,3,4,4,7,7,8,8,10,10,11,11,16,16],"right_children":[2,-1,4,6,8,-1,-1,10,12,-1,14,16,-1,-1,-1,-1,18,-1,-1],"split_conditions":[1.992E3,1.3530457E0,3.78E-1,2.002E3,1.202E0,9.7497565E-1,1.9149628E-1,1.995E3,1.612E0,3.3319703E-1,4.16E-1,3.98E-1,1.5866089E-1,1.8737793E-2,8.226167E-2,1.17398076E-1,2.019E3,6.046028E-1,1.612793E-1],"split_indices":[1,0,5,1,9,0,0,1,9,0,5,5,0,0,0,0,1,0,0],"split_type":[0,0,0,0,0,0,0,0,0,0,0,0,0,0,0,0,0,0,0],"sum_hessian":[2.4E1,2E0,2.2E1,5E0,1.7E1,2E0,3E0,9E0,8E0,2E0,7E0,5E0,3E0,2E0,5E0,1E0,4E0,3E0,1E0],"tree_param":{"num_deleted":"0","num_feature":"19","num_nodes":"19","size_leaf_vector":"0"}},{"base_weights":[1.3647437E0,2.6851196E0,8.0646074E-1,9.267212E-1,1.4162232E0,1.3466099E-1,1.1061636E0,3.7890628E-1,8.445435E-2,6.282959E-2,6.286621E-2,1.2450007E0,6.851197E-2,2.233429E-2,2.4810792E-3,1.5790579E0,5.283203E-1,1.3265076E-1,1.6948446E0,2.622986E-2,1.8500519E-1,6.088555E-1,2.0509951E-1],"categories":[],"categories_nodes":[],"categories_segments":[],"categories_sizes":[],"default_left":[0,0,0,0,0,0,0,0,0,0,0,0,0,0,0,0,0,0,0,0,0,0,0],"id":20,"left_children":[1,3,5,7,-1,9,11,-1,-1,-1,13,15,-1,-1,-1,17,19,-1,21,-1,-1,-1,-1],"loss_changes":[1.6263145E1,2.0681255E1,3.676509E0,7.2935534E-1,0E0,2.4410963E-2,1.299983E0,0E0,0E0,0E0,2.5457907E-3,1.7992859E0,0E0,0E0,0E0,1.7204857E-1,1.4087379E-1,0E0,6.4297867E-1,0E0,0E0,0E0,0E0],"parents":[2147483647,0,0,1,1,2,2,3,3,5,5,6,6,10,10,11,11,15,15,16,16,18,18],"right_children":[2,4,6,8,-1,10,12,-1,-1,-1,14,16,-1,-1,-1,18,20,-1,22,-1,-1,-1,-1],"split_conditions":[1.997E3,2.31288E2,7.1E-2,1.994E3,1.4162232E0,1.7E-1,5.4E-1,3.7890628E-1,8.445435E-2,6.282959E-2,2.4679E2,1.4E-2,6.851197E-2,2.233429E-2,2.4810792E-3,2.92E-1,2.25532E2,1.3265076E-1,4.67E-1,2.622986E-2,1.8500519E-1,6.088555E-1,2.0509951E-1],"split_indices":[1,3,14,1,0,10,5,0,0,0,3,17,0,0,0,5,3,0,5,0,0,0,0],"split_type":[0,0,0,0,0,0,0,0,0,0,0,0,0,0,0,0,0,0,0,0,0,0,0],"sum_hessian":[2.4E1,6E0,1.8E1,4E0,2E0,6E0,1.2E1,2E0,2E0,2E0,4E0,1E1,2E0,3E0,1E0,6E0,4E0,1E0,5E0,1E0,3E0,3E0,2E0],"tree_param":{"num_deleted":"0","num_feature":"19","num_nodes":"23","size_leaf_vector":"0"}},{"base_weights":[1.0830665E0,3.0097656E0,7.8466797E-1,1.9492494E-1,1.1594696E0,5.3930855E-1,1.1773033E0,9.602844E-1,3.1895956E-1,1.8073883E0,4.3777466E-1,3.4936523E-1,2.148285E-2,1.9087525E-1,1.9187623E-1,6.526123E-1,1.05514534E-1,1.6407776E-1,5.480957E-2,2.3133087E-1,5.810547E-3,8.2043454E-2,2.0977784E-2],"categories":[],"categories_nodes":[],"categories_segments":[],"categories_sizes":[],"default_left":[0,0,0,0,0,0,0,0,0,0,0,0,0,0,0,0,0,0,0,0,0,0,0],"id":21,"left_children":[1,3,5,-1,-1,7,9,11,13,15,17,-1,-1,19,-1,-1,-1,-1,-1,21,-1,-1,-1],"loss_changes":[1.2011433E1,3.543167E0,1.5808163E0,0E0,0E0,1.1778936E0,2.9364986E0,8.2423925E-1,3.707273E-1,1.3775578E0,3.9286733E-2,0E0,0E0,6.490365E-2,0E0,0E0,0E0,0E0,0E0,3.5299033E-2,0E0,0E0,0E0],"parents":[2147483647,0,0,1,1,2,2,5,5,6,6,7,7,8,8,9,9,10,10,13,13,19,19],"right_children":[2,4,6,-1,-1,8,10,12,14,16,18,-1,-1,20,-1,-1,-1,-1,-1,22,-1,-1,-1],"split_conditions":[1.992E3,1.991E3,4.1E-2,1.9492494E-1,1.1594696E0,1.69E-1,4.67E-1,2.004E3,2.49249E2,1.612E0,5.4E-1,3.4936523E-1,2.148285E-2,3.7E-2,1.9187623E-1,6.526123E-1,1.05514534E-1,1.6407776E-1,5.480957E-2,1.64E-1,5.810547E-3,8.2043454E-2,2.0977784E-2],"split_indices":[1,1,16,0,0,10,5,1,3,9,5,0,0,16,0,0,0,0,0,13,0,0,0],"split_type":[0,0,0,0,0,0,0,0,0,0,0,0,0,0,0,0,0,0,0,0,0,0,0],"sum_hessian":[2.4E1,2E0,2.2E1,1E0,1E0,1.5E1,7E0,4E0,1.1E1,3E0,4E0,3E0,1E0,9E0,2E0,2E0,1E0,2E0,2E0,7E0,2E0,5E0,2E0],"tree_param":{"num_deleted":"0","num_feature":"19","num_nodes":"23","size_leaf_vector":"0"}},{"base_weights":[8.782654E-1,2.5582886E0,6.2094647E-1,1.6568299E-1,9.855469E-1,4.194908E-1,9.462395E-1,2.578078E-1,2.5202638E-1,1.4547043E0,3.5021973E-1,2.073578E-1,1.6409302E-1,5.220917E-1,8.968506E-2,1.3126221E-1,4.3847658E-2,1.9226074E-1,1.550293E-2,2.196808E-2,6.9844276E-2,5.7403566E-3,1.2359619E-3],"categories":[],"categories_nodes":[],"categories_segments":[],"categories_sizes":[],"default_left":[0,0,0,0,0,0,0,0,0,0,0,0,0,0,0,0,0,0,0,0,0,0,0],"id":22,"left_children":[1,3,5,-1,-1,7,9,11,-1,13,15,-1,17,-1,-1,-1,-1,19,21,-1,-1,-1,-1],"loss_changes":[9.218983E0,2.5600014E0,1.1103001E0,0E0,0E0,8.714733E-1,1.9149737E0,4.145695E-1,0E0,8.000746E-1,2.5143504E-2,0E0,4.7244698E-2,0E0,0E0,0E0,0E0,3.1224132E-2,4.5184046E-5,0E0,0E0,0E0,0E0],"parents":[2147483647,0,0,1,1,2,2,5,5,6,6,7,7,9,9,10,10,12,12,17,17,18,18],"right_children":[2,4,6,-1,-1,8,10,12,-1,14,16,-1,18,-1,-1,-1,-1,20,22,-1,-1,-1,-1],"split_conditions":[1.992E3,1.991E3,4.1E-2,1.6568299E-1,9.855469E-1,2.49249E2,4.67E-1,1.994E3,2.5202638E-1,1.612E0,5.4E-1,2.073578E-1,3.8E-2,5.220917E-1,8.968506E-2,1.3126221E-1,4.3847658E-2,3.4E-2,1.998E3,2.196808E-2,6.9844276E-2,5.7403566E-3,1.2359619E-3],"split_indices":[1,1,16,0,0,3,5,1,0,9,5,0,16,0,0,0,0,16,1,0,0,0,0],"split_type":[0,0,0,0,0,0,0,0,0,0,0,0,0,0,0,0,0,0,0,0,0,0,0],"sum_hessian":[2.4E1,2E0,2.2E1,1E0,1E0,1.5E1,7E0,1.2E1,3E0,3E0,4E0,1E0,1.1E1,2E0,1E0,2E0,2E0,9E0,2E0,3E0,6E0,1E0,1E0],"tree_param":{"num_deleted":"0","num_feature":"19","num_nodes":"23","size_leaf_vector":"0"}},{"base_weights":[7.1464354E-1,2.1745403E0,4.931508E-1,1.4082642E-1,8.377167E-1,3.285408E-1,7.607269E-1,6.361389E-1,1.7299652E-1,1.1712341E0,2.8017578E-1,2.748413E-1,4.322815E-2,7.636261E-2,2.930115E-1,4.1767275E-1,7.623139E-2,1.05010994E-1,3.5076905E-2,5.261841E-2,1.4119466E-2,1.0195313E-1,1.5852356E-2,6.862793E-3,-4.449463E-3],"categories":[],"categories_nodes":[],"categories_segments":[],"categories_sizes":[],"default_left":[0,0,0,0,0,0,0,0,0,0,0,0,0,0,0,0,0,0,0,0,0,0,0,0,0],"id":23,"left_children":[1,3,5,-1,-1,7,9,11,13,15,17,-1,-1,19,21,-1,-1,-1,-1,-1,23,-1,-1,-1,-1],"loss_changes":[7.0115366E0,1.8497086E0,7.631221E-1,0E0,0E0,6.5547216E-1,1.2500057E0,5.568502E-1,1.1679503E-1,4.5699835E-1,1.6097546E-2,0E0,0E0,4.6836063E-2,3.8280874E-2,0E0,0E0,0E0,0E0,0E0,1.8603449E-3,0E0,0E0,0E0,0E0],"parents":[2147483647,0,0,1,1,2,2,5,5,6,6,7,7,8,8,9,9,10,10,13,13,14,14,20,20],"right_children":[2,4,6,-1,-1,8,10,12,14,16,18,-1,-1,20,22,-1,-1,-1,-1,-1,24,-1,-1,-1,-1],"split_conditions":[1.992E3,1.991E3,4.1E-2,1.4082642E-1,8.377167E-1,1.69E-1,4.67E-1,2.002E3,2.003E3,1.612E0,5.4E-1,2.748413E-1,4.322815E-2,1.74E-1,2.009E3,4.1767275E-1,7.623139E-2,1.05010994E-1,3.5076905E-2,5.261841E-2,2E3,1.0195313E-1,1.5852356E-2,6.862793E-3,-4.449463E-3],"split_indices":[1,1,16,0,0,10,5,1,1,9,5,0,0,10,1,0,0,0,0,0,1,0,0,0,0],"split_type":[0,0,0,0,0,0,0,0,0,0,0,0,0,0,0,0,0,0,0,0,0,0,0,0,0],"sum_hessian":[2.4E1,2E0,2.2E1,1E0,1E0,1.5E1,7E0,4E0,1.1E1,3E0,4E0,2E0,2E0,7E0,4E0,2E0,1E0,2E0,2E0,2E0,5E0,3E0,1E0,4E0,1E0],"tree_param":{"num_deleted":"0","num_feature":"19","num_nodes":"25","size_leaf_vector":"0"}},{"base_weights":[5.843994E-1,1.8483683E0,3.9412522E-1,1.1970521E-1,7.120606E-1,6.806691E-1,2.7671474E-1,3.3062136E-1,1.9445038E-1,1.3551839E-1,4.7923496E-1,7.21283E-2,8.477784E-3,8.92112E-2,9.673462E-2,2.0741501E-1,4.418335E-2,1.06160484E-1,8.626302E-3,3.6774445E-2,-3.781128E-3,3.8543702E-3,2.7465821E-5],"categories":[],"categories_nodes":[],"categories_segments":[],"categories_sizes":[],"default_left":[0,0,0,0,0,0,0,0,0,0,0,0,0,0,0,0,0,0,0,0,0,0,0],"id":24,"left_children":[1,3,5,-1,-1,7,9,-1,11,13,15,-1,-1,17,-1,-1,-1,19,21,-1,-1,-1,-1],"loss_changes":[5.284027E0,1.3363714E0,5.85444E-1,0E0,0E0,1.015063E0,4.4976687E-1,0E0,2.3769736E-2,7.510859E-2,3.911438E-1,0E0,0E0,1.4108643E-2,0E0,0E0,0E0,1.9097038E-2,1.06914595E-4,0E0,0E0,0E0,0E0],"parents":[2147483647,0,0,1,1,2,2,5,5,6,6,8,8,9,9,10,10,13,13,17,17,18,18],"right_children":[2,4,6,-1,-1,8,10,-1,12,14,16,-1,-1,18,-1,-1,-1,20,22,-1,-1,-1,-1],"split_conditions":[1.992E3,1.991E3,3.78E-1,1.1970521E-1,7.120606E-1,2.002E3,4.6E-1,3.3062136E-1,2.014E3,8E-2,3.463E0,7.21283E-2,8.477784E-3,3.7E-2,9.673462E-2,2.0741501E-1,4.418335E-2,1.81E-1,1.998E3,3.6774445E-2,-3.781128E-3,3.8543702E-3,2.7465821E-5],"split_indices":[1,1,5,0,0,1,5,0,1,14,6,0,0,16,0,0,0,13,1,0,0,0,0],"split_type":[0,0,0,0,0,0,0,0,0,0,0,0,0,0,0,0,0,0,0,0,0,0,0],"sum_hessian":[2.4E1,2E0,2.2E1,1E0,1E0,5E0,1.7E1,2E0,3E0,1.1E1,6E0,2E0,1E0,1E1,1E0,3E0,3E0,8E0,2E0,7E0,1E0,1E0,1E0],"tree_param":{"num_deleted":"0","num_feature":"19","num_nodes":"23","size_leaf_vector":"0"}},{"base_weights":[4.7420043E-1,1.5711263E0,3.1050575E-1,1.01751715E-1,6.052551E-1,5.4499817E-1,2.1509129E-1,2.6449585E-1,1.5625763E-1,1.0598501E-1,3.7140328E-1,5.7699587E-2,7.2052004E-3,6.5787576E-2,8.222351E-2,1.8190919E-1,1.5614624E-1,8.656311E-2,7.789612E-3,5.8847047E-2,1.9226074E-2,3.0596925E-2,-3.213501E-3,-2.1911622E-3,7.96051E-3],"categories":[],"categories_nodes":[],"categories_segments":[],"categories_sizes":[],"default_left":[0,0,0,0,0,0,0,0,0,0,0,0,0,0,0,0,0,0,0,0,0,0,0,0,0],"id":25,"left_children":[1,3,5,-1,-1,7,9,-1,11,13,15,-1,-1,17,-1,-1,19,21,23,-1,-1,-1,-1,-1,-1],"loss_changes":[4.0011797E0,9.655132E-1,3.9737678E-1,0E0,0E0,6.4746296E-1,2.676199E-1,0E0,1.4462613E-2,6.30521E-2,2.5935704E-1,0E0,0E0,1.2580033E-2,0E0,0E0,5.845636E-3,1.3097458E-2,1.3255436E-3,0E0,0E0,0E0,0E0,0E0,0E0],"parents":[2147483647,0,0,1,1,2,2,5,5,6,6,8,8,9,9,10,10,13,13,16,16,17,17,18,18],"right_children":[2,4,6,-1,-1,8,10,-1,12,14,16,-1,-1,18,-1,-1,20,22,24,-1,-1,-1,-1,-1,-1],"split_conditions":[1.992E3,1.991E3,3.78E-1,1.01751715E-1,6.052551E-1,2.002E3,4.6E-1,2.6449585E-1,2.014E3,8E-2,5E-1,5.7699587E-2,7.2052004E-3,4.4E-1,8.222351E-2,1.8190919E-1,5.4E-1,1.64E-1,2E3,5.8847047E-2,1.9226074E-2,3.0596925E-2,-3.213501E-3,-2.1911622E-3,7.96051E-3],"split_indices":[1,1,5,0,0,1,5,0,1,14,5,0,0,5,0,0,5,13,1,0,0,0,0,0,0],"split_type":[0,0,0,0,0,0,0,0,0,0,0,0,0,0,0,0,0,0,0,0,0,0,0,0,0],"sum_hessian":[2.4E1,2E0,2.2E1,1E0,1E0,5E0,1.7E1,2E0,3E0,1.1E1,6E0,2E0,1E0,1E1,1E0,2E0,4E0,7E0,3E0,2E0,2E0,6E0,1E0,2E0,1E0],"tree_param":{"num_deleted":"0","num_feature":"19","num_nodes":"25","size_leaf_vector":"0"}},{"base_weights":[3.8841552E-1,1.3354492E0,2.4800177E-1,8.648987E-2,5.144623E-1,1.5127563E-1,4.104538E-1,2.3872884E-1,3.3981323E-2,6.647568E-1,1.2492065E-1,1.3989258E-1,1.16931155E-1,-9.4360355E-3,7.975769E-2,2.3569031E-1,4.5318604E-2,4.707947E-2,1.538086E-2,7.548014E-3,1.913208E-1,-3.717041E-3,3.570557E-4,2.739258E-2,6.7657474E-3,-2.7282715E-3,6.1248783E-3,6.51764E-2,1.3137818E-2],"categories":[],"categories_nodes":[],"categories_segments":[],"categories_sizes":[],"default_left":[0,0,0,0,0,0,0,0,0,0,0,0,0,0,0,0,0,0,0,0,0,0,0,0,0,0,0,0,0],"id":26,"left_children":[1,3,5,-1,-1,7,9,11,13,15,17,19,-1,21,23,-1,-1,-1,-1,25,27,-1,-1,-1,-1,-1,-1,-1,-1],"loss_changes":[2.9932203E0,6.9754696E-1,2.9931545E-1,0E0,0E0,1.5601188E-1,4.9785352E-1,7.982957E-2,1.6652508E-2,1.2969732E-1,3.7423894E-3,4.619962E-2,0E0,1.7170125E-4,5.838517E-4,0E0,0E0,0E0,0E0,8.281401E-4,9.615675E-3,0E0,0E0,0E0,0E0,0E0,0E0,0E0,0E0],"parents":[2147483647,0,0,1,1,2,2,5,5,6,6,7,7,8,8,9,9,10,10,11,11,13,13,14,14,19,19,20,20],"right_children":[2,4,6,-1,-1,8,10,12,14,16,18,20,-1,22,24,-1,-1,-1,-1,26,28,-1,-1,-1,-1,-1,-1,-1,-1],"split_conditions":[1.992E3,1.991E3,4.1E-2,8.648987E-2,5.144623E-1,1.81E-1,4.67E-1,2.49249E2,2E3,1.612E0,5.4E-1,7.19E-1,1.16931155E-1,2.4679E2,2.009E3,2.3569031E-1,4.5318604E-2,4.707947E-2,1.538086E-2,2.003E3,2.48037E2,-3.717041E-3,3.570557E-4,2.739258E-2,6.7657474E-3,-2.7282715E-3,6.1248783E-3,6.51764E-2,1.3137818E-2],"split_indices":[1,1,16,0,0,10,5,3,1,9,5,15,0,3,1,0,0,0,0,1,3,0,0,0,0,0,0,0,0],"split_type":[0,0,0,0,0,0,0,0,0,0,0,0,0,0,0,0,0,0,0,0,0,0,0,0,0,0,0,0,0],"sum_hessian":[2.4E1,2E0,2.2E1,1E0,1E0,1.5E1,7E0,8E0,7E0,3E0,4E0,6E0,2E0,4E0,3E0,2E0,1E0,2E0,2E0,2E0,4E0,3E0,1E0,2E0,1E0,1E0,1E0,3E0,1E0],"tree_param":{"num_deleted":"0","num_feature":"19","num_nodes":"29","size_leaf_vector":"0"}},{"base_weights":[3.1884155E-1,1.1351318E0,1.9850624E-1,7.3516846E-2,4.372925E-1,1.2022972E-1,3.3024597E-1,1.8917847E-1,2.7633667E-2,5.3557587E-1,9.9932864E-2,2.3196411E-1,2.6285807E-2,-7.2753904E-3,6.436157E-2,1.885498E-1,3.8520813E-2,3.3986665E-2,6.9763185E-3,2.648417E-1,5.204773E-3,-2.3162842E-3,1.4144898E-2,-3.338623E-3,-9.969076E-4,2.1911621E-2,5.749512E-3,8.733764E-2,2.001343E-2,-7.5073243E-4,3.0212404E-4],"categories":[],"categories_nodes":[],"categories_segments":[],"categories_sizes":[],"default_left":[0,0,0,0,0,0,0,0,0,0,0,0,0,0,0,0,0,0,0,0,0,0,0,0,0,0,0,0,0,0,0],"id":27,"left_children":[1,3,5,-1,-1,7,9,11,13,15,17,19,21,23,25,-1,-1,-1,-1,27,-1,-1,-1,-1,29,-1,-1,-1,-1,-1,-1],"loss_changes":[2.2303832E0,5.039706E-1,1.9747353E-1,0E0,0E0,9.692243E-2,3.2479966E-1,5.662787E-2,1.0725347E-2,7.064271E-2,2.4861284E-3,4.479736E-2,2.4925757E-3,1.0987173E-4,1.6892143E-4,0E0,0E0,0E0,0E0,1.182425E-2,0E0,0E0,0E0,0E0,1.1571373E-5,0E0,0E0,0E0,0E0,0E0,0E0],"parents":[2147483647,0,0,1,1,2,2,5,5,6,6,7,7,8,8,9,9,10,10,11,11,12,12,13,13,14,14,19,19,24,24],"right_children":[2,4,6,-1,-1,8,10,12,14,16,18,20,22,24,26,-1,-1,-1,-1,28,-1,-1,-1,-1,30,-1,-1,-1,-1,-1,-1],"split_conditions":[1.992E3,1.991E3,4.1E-2,7.3516846E-2,4.372925E-1,1.81E-1,4.67E-1,7.94E-1,2E3,1.612E0,2.03941E2,2.005E3,2.003E3,3.6E-2,2.009E3,1.885498E-1,3.8520813E-2,3.3986665E-2,6.9763185E-3,9.59E-1,5.204773E-3,-2.3162842E-3,1.4144898E-2,-3.338623E-3,1.998E3,2.1911621E-2,5.749512E-3,8.733764E-2,2.001343E-2,-7.5073243E-4,3.0212404E-4],"split_indices":[1,1,16,0,0,10,5,12,1,9,3,1,1,16,1,0,0,0,0,15,0,0,0,0,1,0,0,0,0,0,0],"split_type":[0,0,0,0,0,0,0,0,0,0,0,0,0,0,0,0,0,0,0,0,0,0,0,0,0,0,0,0,0,0,0],"sum_hessian":[2.4E1,2E0,2.2E1,1E0,1E0,1.5E1,7E0,8E0,7E0,3E0,4E0,6E0,2E0,4E0,3E0,2E0,1E0,3E0,1E0,5E0,1E0,1E0,1E0,2E0,2E0,2E0,1E0,4E0,1E0,1E0,1E0],"tree_param":{"num_deleted":"0","num_feature":"19","num_nodes":"31","size_leaf_vector":"0"}},{"base_weights":[2.602722E-1,9.648641E-1,1.5705274E-1,6.2493898E-2,3.7169495E-1,3.0254617E-1,9.982978E-2,1.4873658E-1,8.1977844E-2,4.397583E-2,1.8131801E-1,2.9843142E-2,4.4219973E-3,7.270813E-3,9.390869E-2,7.9710394E-2,1.5481568E-2,1.7010499E-2,-7.890974E-3,3.7146E-2,9.80835E-3,-3.1604005E-3,-2.5634767E-4],"categories":[],"categories_nodes":[],"categories_segments":[],"categories_sizes":[],"default_left":[0,0,0,0,0,0,0,0,0,0,0,0,0,0,0,0,0,0,0,0,0,0,0],"id":28,"left_children":[1,3,5,-1,-1,7,9,-1,11,13,15,-1,-1,17,19,-1,-1,-1,21,-1,-1,-1,-1],"loss_changes":[1.6666557E0,3.6405873E-1,1.6128492E-1,0E0,0E0,2.1509528E-1,7.39523E-2,0E0,3.2401662E-3,2.1310648E-2,6.290756E-2,0E0,0E0,6.443111E-3,5.1067434E-3,0E0,0E0,0E0,1.2121434E-4,0E0,0E0,0E0,0E0],"parents":[2147483647,0,0,1,1,2,2,5,5,6,6,8,8,9,9,10,10,13,13,14,14,18,18],"right_children":[2,4,6,-1,-1,8,10,-1,12,14,16,-1,-1,18,20,-1,-1,-1,22,-1,-1,-1,-1],"split_conditions":[1.992E3,1.991E3,3.78E-1,6.2493898E-2,3.7169495E-1,2.002E3,4.6E-1,1.4873658E-1,2.014E3,2.003E3,3.463E0,2.9843142E-2,4.4219973E-3,1.995E3,4.23E-1,7.9710394E-2,1.5481568E-2,1.7010499E-2,3.7E-2,3.7146E-2,9.80835E-3,-3.1604005E-3,-2.5634767E-4],"split_indices":[1,1,5,0,0,1,5,0,1,1,6,0,0,1,5,0,0,0,16,0,0,0,0],"split_type":[0,0,0,0,0,0,0,0,0,0,0,0,0,0,0,0,0,0,0,0,0,0,0],"sum_hessian":[2.4E1,2E0,2.2E1,1E0,1E0,5E0,1.7E1,2E0,3E0,1.1E1,6E0,2E0,1E0,7E0,4E0,3E0,3E0,1E0,6E0,2E0,2E0,4E0,2E0],"tree_param":{"num_deleted":"0","num_feature":"19","num_nodes":"23","size_leaf_vector":"0"}},{"base_weights":[2.1310547E-1,8.201294E-1,1.2466298E-1,5.31189E-2,3.1593934E-1,2.4227905E-1,7.85319E-2,1.18988045E-1,6.594849E-2,3.5825092E-2,1.4052473E-1,7.5347903E-3,2.8266909E-2,1.8673984E-2,3.3673096E-2,7.1911626E-2,5.291138E-2,-1.9995118E-3,3.4105573E-2,2.1343995E-2,5.1116943E-3,1.3597412E-2,1.2115479E-3],"categories":[],"categories_nodes":[],"categories_segments":[],"categories_sizes":[],"default_left":[0,0,0,0,0,0,0,0,0,0,0,0,0,0,0,0,0,0,0,0,0,0,0],"id":29,"left_children":[1,3,5,-1,-1,7,9,-1,11,13,15,-1,-1,17,-1,-1,19,-1,21,-1,-1,-1,-1],"loss_changes":[1.239928E0,2.63036E-1,1.0576573E-1,0E0,0E0,1.3714045E-1,4.262097E-2,0E0,2.2515804E-3,1.3631921E-2,4.81437E-2,0E0,0E0,4.5285504E-3,0E0,0E0,2.0584483E-3,0E0,2.1782424E-3,0E0,0E0,0E0,0E0],"parents":[2147483647,0,0,1,1,2,2,5,5,6,6,8,8,9,9,10,10,13,13,16,16,18,18],"right_children":[2,4,6,-1,-1,8,10,-1,12,14,16,-1,-1,18,-1,-1,20,-1,22,-1,-1,-1,-1],"split_conditions":[1.992E3,1.991E3,3.78E-1,5.31189E-2,3.1593934E-1,2.002E3,4.6E-1,1.18988045E-1,4.407E0,8E-2,5E-1,7.5347903E-3,2.8266909E-2,9.92E-1,3.3673096E-2,7.1911626E-2,5.4E-1,-1.9995118E-3,1.182E0,2.1343995E-2,5.1116943E-3,1.3597412E-2,1.2115479E-3],"split_indices":[1,1,5,0,0,1,5,0,2,14,5,0,0,15,0,0,5,0,15,0,0,0,0],"split_type":[0,0,0,0,0,0,0,0,0,0,0,0,0,0,0,0,0,0,0,0,0,0,0],"sum_hessian":[2.4E1,2E0,2.2E1,1E0,1E0,5E0,1.7E1,2E0,3E0,1.1E1,6E0,2E0,1E0,1E1,1E0,2E0,4E0,4E0,6E0,2E0,2E0,4E0,2E0],"tree_param":{"num_deleted":"0","num_feature":"19","num_nodes":"23","size_leaf_vector":"0"}},{"base_weights":[1.7592286E-1,6.971232E-1,1.0029138E-1,4.515381E-2,2.6855165E-1,5.2862167E-2,1.8261337E-1,2.9355563E-2,1.1604309E-1,3.1230927E-1,4.2333983E-2,2.895508E-2,8.37014E-3,4.2211913E-2,6.307984E-3,1.0890503E-1,2.4028016E-2,1.7077638E-2,4.0893555E-3,-6.9754464E-3,8.45398E-3,-3.0212404E-4,-2.3406984E-3],"categories":[],"categories_nodes":[],"categories_segments":[],"categories_sizes":[],"default_left":[0,0,0,0,0,0,0,0,0,0,0,0,0,0,0,0,0,0,0,0,0,0,0],"id":30,"left_children":[1,3,5,-1,-1,7,9,11,13,15,17,-1,19,-1,-1,-1,-1,-1,-1,21,-1,-1,-1],"loss_changes":[9.1556346E-1,1.90032E-1,8.01494E-2,0E0,0E0,2.0356193E-2,1.32328E-1,1.7514465E-2,6.415099E-3,1.80251E-2,1.3181185E-3,0E0,3.5404891E-3,0E0,0E0,0E0,0E0,0E0,0E0,2.6688329E-5,0E0,0E0,0E0],"parents":[2147483647,0,0,1,1,2,2,5,5,6,6,7,7,8,8,9,9,10,10,12,12,19,19],"right_children":[2,4,6,-1,-1,8,10,12,14,16,18,-1,20,-1,-1,-1,-1,-1,-1,22,-1,-1,-1],"split_conditions":[1.992E3,1.991E3,4.1E-2,4.515381E-2,2.6855165E-1,2.49249E2,4.67E-1,1.995E3,2.005E3,1.612E0,5.4E-1,2.895508E-2,2.003E3,4.2211913E-2,6.307984E-3,1.0890503E-1,2.4028016E-2,1.7077638E-2,4.0893555E-3,2.644E0,8.45398E-3,-3.0212404E-4,-2.3406984E-3],"split_indices":[1,1,16,0,0,3,5,1,1,9,5,0,1,0,0,0,0,0,0,2,0,0,0],"split_type":[0,0,0,0,0,0,0,0,0,0,0,0,0,0,0,0,0,0,0,0,0,0,0],"sum_hessian":[2.4E1,2E0,2.2E1,1E0,1E0,1.5E1,7E0,1.2E1,3E0,3E0,4E0,2E0,1E1,2E0,1E0,2E0,1E0,2E0,2E0,6E0,4E0,1E0,5E0],"tree_param":{"num_deleted":"0","num_feature":"19","num_nodes":"23","size_leaf_vector":"0"}},{"base_weights":[1.451831E-1,5.925496E-1,8.051864E-2,3.837891E-2,2.2826844E-1,1.6337585E-1,4.842631E-2,8.007202E-2,4.4883728E-2,2.207438E-2,8.6683E-2,1.4455159E-2,2.0425417E-2,2.1133423E-3,4.9597166E-2,4.3746952E-2,3.3862304E-2,5.145264E-3,1.3595582E-3,8.074951E-3,-5.2751815E-3,1.9909669E-2,4.8889164E-3,1.3659668E-2,3.2714845E-3,-2.5634767E-4,-1.7608643E-3],"categories":[],"categories_nodes":[],"categories_segments":[],"categories_sizes":[],"default_left":[0,0,0,0,0,0,0,0,0,0,0,0,0,0,0,0,0,0,0,0,0,0,0,0,0,0,0],"id":31,"left_children":[1,3,5,-1,-1,7,9,-1,11,13,15,17,-1,19,21,-1,23,-1,-1,-1,25,-1,-1,-1,-1,-1,-1],"loss_changes":[6.755067E-1,1.3730848E-1,5.324717E-2,0E0,0E0,6.1625794E-2,1.6233005E-2,0E0,1.839716E-3,6.4877854E-3,1.6928863E-2,2.5259214E-6,0E0,1.6080594E-3,1.7104838E-3,0E0,8.430262E-4,0E0,0E0,0E0,1.3377081E-5,0E0,0E0,0E0,0E0,0E0,0E0],"parents":[2147483647,0,0,1,1,2,2,5,5,6,6,8,8,9,9,10,10,11,11,13,13,14,14,16,16,20,20],"right_children":[2,4,6,-1,-1,8,10,-1,12,14,16,18,-1,20,22,-1,24,-1,-1,-1,26,-1,-1,-1,-1,-1,-1],"split_conditions":[1.992E3,1.991E3,3.78E-1,3.837891E-2,2.2826844E-1,2.002E3,4.6E-1,8.007202E-2,4.407E0,2.003E3,5E-1,2.004E3,2.0425417E-2,1.995E3,4.23E-1,4.3746952E-2,5.4E-1,5.145264E-3,1.3595582E-3,8.074951E-3,2.644E0,1.9909669E-2,4.8889164E-3,1.3659668E-2,3.2714845E-3,-2.5634767E-4,-1.7608643E-3],"split_indices":[1,1,5,0,0,1,5,0,2,1,5,1,0,1,5,0,5,0,0,0,2,0,0,0,0,0,0],"split_type":[0,0,0,0,0,0,0,0,0,0,0,0,0,0,0,0,0,0,0,0,0,0,0,0,0,0,0],"sum_hessian":[2.4E1,2E0,2.2E1,1E0,1E0,5E0,1.7E1,2E0,3E0,1.1E1,6E0,2E0,1E0,7E0,4E0,2E0,4E0,1E0,1E0,1E0,6E0,2E0,2E0,2E0,2E0,1E0,5E0],"tree_param":{"num_deleted":"0","num_feature":"19","num_nodes":"27","size_leaf_vector":"0"}},{"base_weights":[1.20236814E-1,5.036621E-1,6.499714E-2,3.262024E-2,1.9402772E-1,3.1021118E-2,1.24824524E-1,4.9662273E-2,6.17218E-3,2.157898E-1,2.7087402E-2,6.023298E-2,8.443196E-3,-4.0771486E-3,1.7440796E-2,7.47406E-2,1.7362976E-2,1.0925294E-2,2.6184083E-3,2.0697024E-2,1.1535645E-3,-5.767823E-4,4.376221E-3,-2.1972657E-4,-1.4190674E-3,6.152344E-3,1.2359619E-3],"categories":[],"categories_nodes":[],"categories_segments":[],"categories_sizes":[],"default_left":[0,0,0,0,0,0,0,0,0,0,0,0,0,0,0,0,0,0,0,0,0,0,0,0,0,0,0],"id":32,"left_children":[1,3,5,-1,-1,7,9,11,13,15,17,19,21,23,25,-1,-1,-1,-1,-1,-1,-1,-1,-1,-1,-1,-1],"loss_changes":[4.9677068E-1,9.9214196E-2,4.287982E-2,0E0,0E0,7.104881E-3,6.528028E-2,3.4128744E-3,9.950746E-4,6.6437125E-3,5.38633E-4,3.191268E-3,2.1911475E-4,7.457289E-6,7.893238E-5,0E0,0E0,0E0,0E0,0E0,0E0,0E0,0E0,0E0,0E0,0E0,0E0],"parents":[2147483647,0,0,1,1,2,2,5,5,6,6,7,7,8,8,9,9,10,10,11,11,12,12,13,13,14,14],"right_children":[2,4,6,-1,-1,8,10,12,14,16,18,20,22,24,26,-1,-1,-1,-1,-1,-1,-1,-1,-1,-1,-1,-1],"split_conditions":[1.992E3,1.991E3,4.1E-2,3.262024E-2,1.9402772E-1,1.81E-1,4.67E-1,7.94E-1,2E3,1.612E0,5.4E-1,2.005E3,2.003E3,2.644E0,2.009E3,7.47406E-2,1.7362976E-2,1.0925294E-2,2.6184083E-3,2.0697024E-2,1.1535645E-3,-5.767823E-4,4.376221E-3,-2.1972657E-4,-1.4190674E-3,6.152344E-3,1.2359619E-3],"split_indices":[1,1,16,0,0,10,5,12,1,9,5,1,1,2,1,0,0,0,0,0,0,0,0,0,0,0,0],"split_type":[0,0,0,0,0,0,0,0,0,0,0,0,0,0,0,0,0,0,0,0,0,0,0,0,0,0,0],"sum_hessian":[2.4E1,2E0,2.2E1,1E0,1E0,1.5E1,7E0,8E0,7E0,3E0,4E0,6E0,2E0,4E0,3E0,2E0,1E0,2E0,2E0,5E0,1E0,1E0,1E0,1E0,3E0,2E0,1E0],"tree_param":{"num_deleted":"0","num_feature":"19","num_nodes":"27","size_leaf_vector":"0"}},{"base_weights":[9.870972E-2,4.2812094E-1,5.145131E-2,2.7731324E-2,1.649231E-1,1.12467445E-1,2.825419E-2,6.851807E-2,4.3603517E-2,1.2143453E-2,5.1836286E-2,1.0437012E-2,1.8670656E-2,3.4318403E-3,1.619568E-2,2.5451662E-2,2.166748E-2,3.717041E-3,9.796143E-4,-6.188965E-3,9.813582E-3,8.740235E-3,2.093506E-3,-4.989624E-4,-3.6437989E-3,3.7429812E-3,-9.2468265E-4],"categories":[],"categories_nodes":[],"categories_segments":[],"categories_sizes":[],"default_left":[0,0,0,0,0,0,0,0,0,0,0,0,0,0,0,0,0,0,0,0,0,0,0,0,0,0,0],"id":33,"left_children":[1,3,5,-1,-1,7,9,-1,11,13,15,17,-1,19,-1,-1,21,-1,-1,23,25,-1,-1,-1,-1,-1,-1],"loss_changes":[3.671588E-1,7.166308E-2,2.9376496E-2,0E0,0E0,3.7940003E-2,6.209177E-3,0E0,2.4402384E-3,4.188881E-3,5.131295E-3,1.5627593E-6,0E0,7.361083E-4,0E0,0E0,3.4508342E-4,0E0,0E0,1.1459905E-4,2.7884997E-4,0E0,0E0,0E0,0E0,0E0,0E0],"parents":[2147483647,0,0,1,1,2,2,5,5,6,6,8,8,9,9,10,10,11,11,13,13,16,16,19,19,20,20],"right_children":[2,4,6,-1,-1,8,10,-1,12,14,16,18,-1,20,-1,-1,22,-1,-1,24,26,-1,-1,-1,-1,-1,-1],"split_conditions":[1.992E3,1.991E3,3.78E-1,2.7731324E-2,1.649231E-1,1.997E3,4.6E-1,6.851807E-2,2.92E-1,8E-2,5E-1,2.004E3,1.8670656E-2,9.92E-1,1.619568E-2,2.5451662E-2,5.4E-1,3.717041E-3,9.796143E-4,2.4679E2,3.7E-2,8.740235E-3,2.093506E-3,-4.989624E-4,-3.6437989E-3,3.7429812E-3,-9.2468265E-4],"split_indices":[1,1,5,0,0,1,5,0,5,14,5,1,0,15,0,0,5,0,0,3,16,0,0,0,0,0,0],"split_type":[0,0,0,0,0,0,0,0,0,0,0,0,0,0,0,0,0,0,0,0,0,0,0,0,0,0,0],"sum_hessian":[2.4E1,2E0,2.2E1,1E0,1E0,5E0,1.7E1,1E0,4E0,1.1E1,6E0,2E0,2E0,1E1,1E0,2E0,4E0,1E0,1E0,4E0,6E0,2E0,2E0,3E0,1E0,5E0,1E0],"tree_param":{"num_deleted":"0","num_feature":"19","num_nodes":"27","size_leaf_vector":"0"}},{"base_weights":[8.2526855E-2,3.6391196E-1,4.2236328E-2,2.3574831E-2,1.4018555E-1,9.403483E-2,2.2623697E-2,5.8236696E-2,3.519287E-2,9.424846E-3,4.2018346E-2,8.870442E-3,1.49353035E-2,3.643799E-2,3.7841796E-4,2.0745851E-2,1.7333984E-2,3.1585696E-3,8.331299E-4,1.319275E-2,3.204346E-3,-4.7454834E-3,4.174805E-3,6.9946293E-3,1.6723634E-3,-1.9775392E-3,1.5869141E-4],"categories":[],"categories_nodes":[],"categories_segments":[],"categories_sizes":[],"default_left":[0,0,0,0,0,0,0,0,0,0,0,0,0,0,0,0,0,0,0,0,0,0,0,0,0,0,0],"id":34,"left_children":[1,3,5,-1,-1,7,9,-1,11,13,15,17,-1,19,21,-1,23,-1,-1,-1,-1,25,-1,-1,-1,-1,-1],"loss_changes":[2.6805854E-1,5.176562E-2,2.1238398E-2,0E0,0E0,2.8504338E-2,4.211751E-3,0E0,1.4788061E-3,2.9186802E-3,3.4898883E-3,1.0716467E-6,0E0,1.1274032E-4,7.5969135E-4,0E0,2.2171938E-4,0E0,0E0,0E0,0E0,8.139326E-5,0E0,0E0,0E0,0E0,0E0],"parents":[2147483647,0,0,1,1,2,2,5,5,6,6,8,8,9,9,10,10,11,11,13,13,14,14,16,16,21,21],"right_children":[2,4,6,-1,-1,8,10,-1,12,14,16,18,-1,20,22,-1,24,-1,-1,-1,-1,26,-1,-1,-1,-1,-1],"split_conditions":[1.992E3,1.991E3,3.78E-1,2.3574831E-2,1.4018555E-1,1.997E3,8E-2,5.8236696E-2,2.92E-1,1.995E3,4.67E-1,2.004E3,1.49353035E-2,1.994E3,1.6E-2,2.0745851E-2,5.4E-1,3.1585696E-3,8.331299E-4,1.319275E-2,3.204346E-3,4.48E-1,4.174805E-3,6.9946293E-3,1.6723634E-3,-1.9775392E-3,1.5869141E-4],"split_indices":[1,1,5,0,0,1,14,0,5,1,5,1,0,1,17,0,5,0,0,0,0,5,0,0,0,0,0],"split_type":[0,0,0,0,0,0,0,0,0,0,0,0,0,0,0,0,0,0,0,0,0,0,0,0,0,0,0],"sum_hessian":[2.4E1,2E0,2.2E1,1E0,1E0,5E0,1.7E1,1E0,4E0,1.1E1,6E0,2E0,2E0,2E0,9E0,2E0,4E0,1E0,1E0,1E0,1E0,7E0,2E0,2E0,2E0,5E0,2E0],"tree_param":{"num_deleted":"0","num_feature":"19","num_nodes":"27","size_leaf_vector":"0"}},{"base_weights":[6.932739E-2,3.0932617E-1,3.500897E-2,2.0040894E-2,1.1915589E-1,8.552857E-2,1.9871762E-2,2.4406433E-2,4.9502566E-2,-4.5166016E-3,3.147536E-2,1.121521E-2,7.619222E-3,1.2207031E-4,-6.3964846E-3,3.5983E-2,1.33667E-3,2.7191164E-3,7.095337E-4,1.8310547E-4,-1.2817384E-4,-2.685547E-3,-5.1269535E-4,1.818339E-2,4.7785442E-2,6.361084E-3,4.6234133E-4,1.7305756E-2,5.5969236E-3],"categories":[],"categories_nodes":[],"categories_segments":[],"categories_sizes":[],"default_left":[0,0,0,0,0,0,0,0,0,0,0,0,0,0,0,0,0,0,0,0,0,0,0,0,0,0,0,0,0],"id":35,"left_children":[1,3,5,-1,-1,7,9,11,-1,13,15,-1,17,19,21,23,-1,-1,-1,-1,-1,-1,-1,25,27,-1,-1,-1,-1],"loss_changes":[1.9508031E-1,3.7391126E-2,1.5889084E-2,0E0,0E0,2.0262655E-2,5.5190246E-3,5.865935E-4,0E0,6.1821935E-5,1.4230162E-3,0E0,1.3319514E-6,1.065433E-6,4.4592205E-5,1.4419658E-3,0E0,0E0,0E0,0E0,0E0,0E0,0E0,2.6890216E-4,6.5412465E-4,0E0,0E0,0E0,0E0],"parents":[2147483647,0,0,1,1,2,2,5,5,6,6,7,7,9,9,10,10,12,12,13,13,14,14,15,15,23,23,24,24],"right_children":[2,4,6,-1,-1,8,10,12,-1,14,16,-1,18,20,22,24,-1,-1,-1,-1,-1,-1,-1,26,28,-1,-1,-1,-1],"split_conditions":[1.992E3,1.991E3,2.611E0,2.0040894E-2,1.1915589E-1,2.581E0,7.1E-2,1.994E3,4.9502566E-2,4.16E-1,5.4E-1,1.121521E-2,1.995E3,1.998E3,4.38E-1,3.8E-2,1.33667E-3,2.7191164E-3,7.095337E-4,1.8310547E-4,-1.2817384E-4,-2.685547E-3,-5.1269535E-4,2.009E3,4.67E-1,6.361084E-3,4.6234133E-4,1.7305756E-2,5.5969236E-3],"split_indices":[1,1,2,0,0,2,14,1,0,5,5,0,1,1,5,16,0,0,0,0,0,0,0,1,5,0,0,0,0],"split_type":[0,0,0,0,0,0,0,0,0,0,0,0,0,0,0,0,0,0,0,0,0,0,0,0,0,0,0,0,0],"sum_hessian":[2.4E1,2E0,2.2E1,1E0,1E0,4E0,1.8E1,3E0,1E0,6E0,1.2E1,1E0,2E0,2E0,4E0,1E1,2E0,1E0,1E0,1E0,1E0,2E0,2E0,5E0,5E0,4E0,1E0,3E0,2E0],"tree_param":{"num_deleted":"0","num_feature":"19","num_nodes":"29","size_leaf_vector":"0"}},{"base_weights":[5.777954E-2,2.6293945E-1,2.8507398E-2,1.7037965E-2,1.01284795E-1,7.269287E-2,1.5379253E-2,2.0736694E-2,4.207764E-2,-5.086263E-4,2.6980313E-2,9.53064E-3,1.940918E-3,-3.6185128E-3,2.0751955E-3,3.1789143E-2,1.0681152E-3,-1.5563965E-3,-2.3986818E-3,1.7303467E-3,3.432083E-2,3.0517578E-5,-7.232666E-4,1.2253419E-2,5.2757263E-3],"categories":[],"categories_nodes":[],"categories_segments":[],"categories_sizes":[],"default_left":[0,0,0,0,0,0,0,0,0,0,0,0,0,0,0,0,0,0,0,0,0,0,0,0,0],"id":36,"left_children":[1,3,5,-1,-1,7,9,11,-1,13,15,-1,-1,17,-1,19,-1,21,-1,-1,23,-1,-1,-1,-1],"loss_changes":[1.4264104E-1,2.7008548E-2,1.2223724E-2,0E0,0E0,1.4643829E-2,3.5157315E-3,4.2404328E-4,0E0,2.32875E-4,1.1256654E-3,0E0,0E0,5.0738185E-5,0E0,3.949441E-4,0E0,8.746361E-6,0E0,0E0,1.5513785E-4,0E0,0E0,0E0,0E0],"parents":[2147483647,0,0,1,1,2,2,5,5,6,6,7,7,9,9,10,10,13,13,15,15,17,17,20,20],"right_children":[2,4,6,-1,-1,8,10,12,-1,14,16,-1,-1,18,-1,20,-1,22,-1,-1,24,-1,-1,-1,-1],"split_conditions":[1.992E3,1.991E3,2.611E0,1.7037965E-2,1.01284795E-1,2.581E0,7.6E-2,1.994E3,4.207764E-2,2.003E3,5.4E-1,9.53064E-3,1.940918E-3,2.48011E2,2.0751955E-3,2.92E-1,1.0681152E-3,4.16E-1,-2.3986818E-3,1.7303467E-3,1.612E0,3.0517578E-5,-7.232666E-4,1.2253419E-2,5.2757263E-3],"split_indices":[1,1,2,0,0,2,14,1,0,1,5,0,0,3,0,5,0,5,0,0,9,0,0,0,0],"split_type":[0,0,0,0,0,0,0,0,0,0,0,0,0,0,0,0,0,0,0,0,0,0,0,0,0],"sum_hessian":[2.4E1,2E0,2.2E1,1E0,1E0,4E0,1.8E1,3E0,1E0,8E0,1E1,1E0,2E0,6E0,2E0,8E0,2E0,5E0,1E0,1E0,7E0,2E0,3E0,4E0,3E0],"tree_param":{"num_deleted":"0","num_feature":"19","num_nodes":"25","size_leaf_vector":"0"}},{"base_weights":[4.8093263E-2,2.2351074E-1,2.3121709E-2,1.4483643E-2,8.60962E-2,6.159668E-2,1.1779785E-2,1.737976E-2,3.5769656E-2,-4.679362E-4,2.0729758E-2,8.102417E-3,5.167643E-3,-2.973284E-3,1.6601563E-3,2.746146E-2,7.159424E-3,2.0141602E-3,3.1127932E-4,-1.200358E-3,-2.041626E-3,1.0810852E-2,1.1174012E-2,2.4765015E-3,4.1656496E-4,-2.7465821E-5,-6.8359374E-4,4.589844E-3,-3.982544E-4],"categories":[],"categories_nodes":[],"categories_segments":[],"categories_sizes":[],"default_left":[0,0,0,0,0,0,0,0,0,0,0,0,0,0,0,0,0,0,0,0,0,0,0,0,0,0,0,0,0],"id":37,"left_children":[1,3,5,-1,-1,7,9,11,-1,13,15,-1,17,19,-1,21,23,-1,-1,25,-1,27,-1,-1,-1,-1,-1,-1,-1],"loss_changes":[1.0434322E-1,1.951395E-2,9.311148E-3,0E0,0E0,1.0670096E-2,2.0924192E-3,3.3075956E-4,0E0,1.5178288E-4,8.082576E-4,0E0,1.2191631E-5,3.9389706E-5,0E0,7.378431E-4,2.0149804E-5,0E0,0E0,6.9650514E-6,0E0,2.3824867E-4,0E0,0E0,0E0,0E0,0E0,0E0,0E0],"parents":[2147483647,0,0,1,1,2,2,5,5,6,6,7,7,9,9,10,10,12,12,13,13,15,15,16,16,19,19,21,21],"right_children":[2,4,6,-1,-1,8,10,12,-1,14,16,-1,18,20,-1,22,24,-1,-1,26,-1,28,-1,-1,-1,-1,-1,-1,-1],"split_conditions":[1.992E3,1.991E3,2.611E0,1.4483643E-2,8.60962E-2,2.581E0,7.6E-2,1.994E3,3.5769656E-2,2.003E3,4.67E-1,8.102417E-3,1.995E3,2.48011E2,1.6601563E-3,3.8E-2,2.03941E2,2.0141602E-3,3.1127932E-4,9.92E-1,-2.041626E-3,2.004E3,1.1174012E-2,2.4765015E-3,4.1656496E-4,-2.7465821E-5,-6.8359374E-4,4.589844E-3,-3.982544E-4],"split_indices":[1,1,2,0,0,2,14,1,0,1,5,0,1,3,0,16,3,0,0,15,0,1,0,0,0,0,0,0,0],"split_type":[0,0,0,0,0,0,0,0,0,0,0,0,0,0,0,0,0,0,0,0,0,0,0,0,0,0,0,0,0],"sum_hessian":[2.4E1,2E0,2.2E1,1E0,1E0,4E0,1.8E1,3E0,1E0,8E0,1E1,1E0,2E0,6E0,2E0,6E0,4E0,1E0,1E0,5E0,1E0,3E0,3E0,3E0,1E0,3E0,2E0,2E0,1E0],"tree_param":{"num_deleted":"0","num_feature":"19","num_nodes":"29","size_leaf_vector":"0"}},{"base_weights":[4.0219728E-2,1.899821E-1,1.893682E-2,1.2313844E-2,7.3178105E-2,5.2355956E-2,9.145636E-3,1.4770508E-2,3.0404665E-2,-4.611545E-4,1.6174316E-2,6.884766E-3,4.3945312E-3,-2.4937221E-3,1.3305664E-3,2.142334E-2,5.59082E-3,1.7120362E-3,2.6550295E-4,-9.765625E-4,-1.7395021E-3,8.31604E-3,8.752442E-3,2.2308351E-3,5.6457525E-4,-2.7465821E-5,-5.493164E-4,2.990723E-4,4.5410157E-3],"categories":[],"categories_nodes":[],"categories_segments":[],"categories_sizes":[],"default_left":[0,0,0,0,0,0,0,0,0,0,0,0,0,0,0,0,0,0,0,0,0,0,0,0,0,0,0,0,0],"id":38,"left_children":[1,3,5,-1,-1,7,9,11,-1,13,15,-1,17,19,-1,21,23,-1,-1,25,-1,27,-1,-1,-1,-1,-1,-1,-1],"loss_changes":[7.6086804E-2,1.4090747E-2,7.0470683E-3,0E0,0E0,7.710131E-3,1.2903969E-3,2.385974E-4,0E0,1.00630146E-4,4.913092E-4,0E0,8.765608E-6,2.9432988E-5,0E0,4.6858657E-4,2.0225954E-5,0E0,0E0,4.3697655E-6,0E0,1.845959E-4,0E0,0E0,0E0,0E0,0E0,0E0,0E0],"parents":[2147483647,0,0,1,1,2,2,5,5,6,6,7,7,9,9,10,10,12,12,13,13,15,15,16,16,19,19,21,21],"right_children":[2,4,6,-1,-1,8,10,12,-1,14,16,-1,18,20,-1,22,24,-1,-1,26,-1,28,-1,-1,-1,-1,-1,-1,-1],"split_conditions":[1.992E3,1.991E3,2.611E0,1.2313844E-2,7.3178105E-2,2.581E0,7.6E-2,1.994E3,3.0404665E-2,2.003E3,4.67E-1,6.884766E-3,1.995E3,2.48011E2,1.3305664E-3,1.82E-1,5.4E-1,1.7120362E-3,2.6550295E-4,9.92E-1,-1.7395021E-3,2.48037E2,8.752442E-3,2.2308351E-3,5.6457525E-4,-2.7465821E-5,-5.493164E-4,2.990723E-4,4.5410157E-3],"split_indices":[1,1,2,0,0,2,14,1,0,1,5,0,1,3,0,13,5,0,0,15,0,3,0,0,0,0,0,0,0],"split_type":[0,0,0,0,0,0,0,0,0,0,0,0,0,0,0,0,0,0,0,0,0,0,0,0,0,0,0,0,0],"sum_hessian":[2.4E1,2E0,2.2E1,1E0,1E0,4E0,1.8E1,3E0,1E0,8E0,1E1,1E0,2E0,6E0,2E0,6E0,4E0,1E0,1E0,5E0,1E0,3E0,3E0,2E0,2E0,3E0,2E0,2E0,1E0],"tree_param":{"num_deleted":"0","num_feature":"19","num_nodes":"29","size_leaf_vector":"0"}},{"base_weights":[3.3756103E-2,1.6147868E-1,1.562898E-2,1.0464478E-2,6.220093E-2,4.450073E-2,7.208573E-3,1.2550354E-2,2.5845338E-2,-4.4080947E-4,1.2811834E-2,5.85022E-3,3.7333171E-3,-2.0839146E-3,1.0620118E-3,1.6105652E-2,9.063721E-4,1.4556885E-3,2.2430421E-4,-7.9345703E-4,-1.4739991E-3,6.286621E-3,2.0739745E-2,1.4648438E-4,-3.4423827E-4,3.414917E-3,2.3803712E-4,7.008362E-3,1.538086E-3],"categories":[],"categories_nodes":[],"categories_segments":[],"categories_sizes":[],"default_left":[0,0,0,0,0,0,0,0,0,0,0,0,0,0,0,0,0,0,0,0,0,0,0,0,0,0,0,0,0],"id":39,"left_children":[1,3,5,-1,-1,7,9,11,-1,13,15,-1,17,19,-1,21,-1,-1,-1,23,-1,25,27,-1,-1,-1,-1,-1,-1],"loss_changes":[5.5357322E-2,1.0184146E-2,5.270787E-3,0E0,0E0,5.5725016E-3,8.200158E-4,1.7232454E-4,0E0,6.624571E-5,3.060737E-4,0E0,6.3946172E-6,2.1660167E-5,0E0,2.3363554E-4,0E0,0E0,0E0,3.2827256E-6,0E0,1.0295026E-4,8.48698E-5,0E0,0E0,0E0,0E0,0E0,0E0],"parents":[2147483647,0,0,1,1,2,2,5,5,6,6,7,7,9,9,10,10,12,12,13,13,15,15,19,19,21,21,22,22],"right_children":[2,4,6,-1,-1,8,10,12,-1,14,16,-1,18,20,-1,22,-1,-1,-1,24,-1,26,28,-1,-1,-1,-1,-1,-1],"split_conditions":[1.992E3,1.991E3,2.611E0,1.0464478E-2,6.220093E-2,2.581E0,7.6E-2,1.994E3,2.5845338E-2,2.003E3,3.463E0,5.85022E-3,1.995E3,2.48011E2,1.0620118E-3,3.8E-2,9.063721E-4,1.4556885E-3,2.2430421E-4,2.644E0,-1.4739991E-3,2.002E3,4.67E-1,1.4648438E-4,-3.4423827E-4,3.414917E-3,2.3803712E-4,7.008362E-3,1.538086E-3],"split_indices":[1,1,2,0,0,2,14,1,0,1,6,0,1,3,0,16,0,0,0,2,0,1,5,0,0,0,0,0,0],"split_type":[0,0,0,0,0,0,0,0,0,0,0,0,0,0,0,0,0,0,0,0,0,0,0,0,0,0,0,0,0],"sum_hessian":[2.4E1,2E0,2.2E1,1E0,1E0,4E0,1.8E1,3E0,1E0,8E0,1E1,1E0,2E0,6E0,2E0,7E0,3E0,1E0,1E0,5E0,1E0,3E0,4E0,1E0,4E0,1E0,2E0,3E0,1E0],"tree_param":{"num_deleted":"0","num_feature":"19","num_nodes":"29","size_leaf_vector":"0"}},{"base_weights":[2.8376466E-2,1.3726807E-1,1.2939453E-2,8.898926E-3,5.2871708E-2,3.782959E-2,5.708393E-3,1.0665894E-2,2.1972656E-2,-3.5942925E-4,1.015403E-2,4.9713138E-3,3.1738281E-3,-1.6828264E-3,8.5449225E-4,1.2794495E-2,2.3345947E-3,1.2359619E-3,1.9226075E-4,-5.6966144E-4,-1.2542725E-3,5.1574707E-3,1.6345214E-2,1.0025025E-3,2.6550295E-4,-4.7607423E-4,-1.4648438E-5,2.34375E-3,-4.2114258E-4,5.474854E-3,1.3092041E-3],"categories":[],"categories_nodes":[],"categories_segments":[],"categories_sizes":[],"default_left":[0,0,0,0,0,0,0,0,0,0,0,0,0,0,0,0,0,0,0,0,0,0,0,0,0,0,0,0,0,0,0],"id":40,"left_children":[1,3,5,-1,-1,7,9,11,-1,13,15,-1,17,19,-1,21,23,-1,-1,25,-1,27,29,-1,-1,-1,-1,-1,-1,-1,-1],"loss_changes":[4.024785E-2,7.352609E-3,3.9236415E-3,0E0,0E0,4.0284917E-3,5.161812E-4,1.2437347E-4,0E0,4.2999192E-5,1.9724632E-4,0E0,4.5485795E-6,1.708374E-5,0E0,1.3263547E-4,2.8819777E-6,0E0,0E0,3.101428E-6,0E0,8.064881E-5,3.4437748E-5,0E0,0E0,0E0,0E0,0E0,0E0,0E0,0E0],"parents":[2147483647,0,0,1,1,2,2,5,5,6,6,7,7,9,9,10,10,12,12,13,13,15,15,16,16,19,19,21,21,22,22],"right_children":[2,4,6,-1,-1,8,10,12,-1,14,16,-1,18,20,-1,22,24,-1,-1,26,-1,28,30,-1,-1,-1,-1,-1,-1,-1,-1],"split_conditions":[1.992E3,1.991E3,2.611E0,8.898926E-3,5.2871708E-2,2.581E0,7.6E-2,1.994E3,2.1972656E-2,2.003E3,3.463E0,4.9713138E-3,1.995E3,2.48011E2,8.5449225E-4,1.82E-1,5.1E-1,1.2359619E-3,1.9226075E-4,1.996E3,-1.2542725E-3,2.005E3,4.67E-1,1.0025025E-3,2.6550295E-4,-4.7607423E-4,-1.4648438E-5,2.34375E-3,-4.2114258E-4,5.474854E-3,1.3092041E-3],"split_indices":[1,1,2,0,0,2,14,1,0,1,6,0,1,3,0,13,5,0,0,1,0,1,5,0,0,0,0,0,0,0,0],"split_type":[0,0,0,0,0,0,0,0,0,0,0,0,0,0,0,0,0,0,0,0,0,0,0,0,0,0,0,0,0,0,0],"sum_hessian":[2.4E1,2E0,2.2E1,1E0,1E0,4E0,1.8E1,3E0,1E0,8E0,1E1,1E0,2E0,6E0,2E0,7E0,3E0,1E0,1E0,5E0,1E0,3E0,4E0,1E0,2E0,1E0,4E0,2E0,1E0,3E0,1E0],"tree_param":{"num_deleted":"0","num_feature":"19","num_nodes":"31","size_leaf_vector":"0"}},{"base_weights":[2.3835449E-2,1.1667887E-1,1.0689113E-2,7.562256E-3,4.494324E-2,3.2165527E-2,4.4748406E-3,9.0789795E-3,1.8676758E-2,-1.4299665E-3,7.310134E-3,4.2297365E-3,2.7058918E-3,-4.8828125E-4,-1.0620118E-3,5.1752725E-3,4.93927E-3,1.0528564E-3,1.6479492E-4,-4.0283205E-4,-1.4648438E-5,3.027344E-3,3.1829835E-3,-3.570557E-4,1.1403402E-3],"categories":[],"categories_nodes":[],"categories_segments":[],"categories_sizes":[],"default_left":[0,0,0,0,0,0,0,0,0,0,0,0,0,0,0,0,0,0,0,0,0,0,0,0,0],"id":41,"left_children":[1,3,5,-1,-1,7,9,11,-1,13,15,-1,17,19,-1,21,-1,-1,-1,-1,-1,-1,23,-1,-1],"loss_changes":[2.9266573E-2,5.315505E-3,2.9256511E-3,0E0,0E0,2.9081898E-3,3.285485E-4,8.982452E-5,0E0,1.2180635E-5,1.6884867E-4,0E0,3.2714252E-6,2.1874905E-6,0E0,8.540615E-5,0E0,0E0,0E0,0E0,0E0,0E0,3.1556825E-5,0E0,0E0],"parents":[2147483647,0,0,1,1,2,2,5,5,6,6,7,7,9,9,10,10,12,12,13,13,15,15,22,22],"right_children":[2,4,6,-1,-1,8,10,12,-1,14,16,-1,18,20,-1,22,-1,-1,-1,-1,-1,-1,24,-1,-1],"split_conditions":[1.992E3,1.991E3,2.611E0,7.562256E-3,4.494324E-2,2.581E0,7.1E-2,1.994E3,1.8676758E-2,2.48011E2,2.27E-1,4.2297365E-3,1.995E3,1.996E3,-1.0620118E-3,7.94E-1,4.93927E-3,1.0528564E-3,1.6479492E-4,-4.0283205E-4,-1.4648438E-5,3.027344E-3,3.4E-2,-3.570557E-4,1.1403402E-3],"split_indices":[1,1,2,0,0,2,14,1,0,3,13,0,1,1,0,12,0,0,0,0,0,0,16,0,0],"split_type":[0,0,0,0,0,0,0,0,0,0,0,0,0,0,0,0,0,0,0,0,0,0,0,0,0],"sum_hessian":[2.4E1,2E0,2.2E1,1E0,1E0,4E0,1.8E1,3E0,1E0,6E0,1.2E1,1E0,2E0,5E0,1E0,1.1E1,1E0,1E0,1E0,1E0,4E0,2E0,9E0,1E0,8E0],"tree_param":{"num_deleted":"0","num_feature":"19","num_nodes":"25","size_leaf_vector":"0"}},{"base_weights":[2.0039063E-2,9.918213E-2,8.84479E-3,6.427002E-3,3.8204957E-2,2.7349854E-2,3.5095215E-3,7.7285767E-3,1.5875245E-2,2.1497938E-3,4.197693E-3,3.5980225E-3,2.3091633E-3,-1.2207031E-3,3.9367676E-3,8.9721684E-4,1.4190674E-4,-4.1707358E-4,-9.063721E-4,2.4169923E-3,2.3071289E-3,1.2817384E-4,-2.0141603E-4,3.0441285E-4,1.4953613E-3],"categories":[],"categories_nodes":[],"categories_segments":[],"categories_sizes":[],"default_left":[0,0,0,0,0,0,0,0,0,0,0,0,0,0,0,0,0,0,0,0,0,0,0,0,0],"id":42,"left_children":[1,3,5,-1,-1,7,9,11,-1,13,-1,-1,15,17,19,-1,-1,21,-1,-1,23,-1,-1,-1,-1],"loss_changes":[2.127148E-2,3.8426053E-3,2.174793E-3,0E0,0E0,2.0993706E-3,2.4074042E-4,6.475681E-5,0E0,1.1321944E-4,0E0,0E0,2.339637E-6,8.868674E-6,6.197914E-5,0E0,0E0,1.575177E-6,0E0,0E0,2.9545496E-5,0E0,0E0,0E0,0E0],"parents":[2147483647,0,0,1,1,2,2,5,5,6,6,7,7,9,9,12,12,13,13,14,14,17,17,20,20],"right_children":[2,4,6,-1,-1,8,10,12,-1,14,-1,-1,16,18,20,-1,-1,22,-1,-1,24,-1,-1,-1,-1],"split_conditions":[1.992E3,1.991E3,2.611E0,6.427002E-3,3.8204957E-2,2.581E0,2.27E-1,1.994E3,1.5875245E-2,7.1E-2,4.197693E-3,3.5980225E-3,1.995E3,2.48011E2,7.94E-1,8.9721684E-4,1.4190674E-4,2.644E0,-9.063721E-4,2.4169923E-3,1.664E0,1.2817384E-4,-2.0141603E-4,3.0441285E-4,1.4953613E-3],"split_indices":[1,1,2,0,0,2,13,1,0,14,0,0,1,3,12,0,0,2,0,0,9,0,0,0,0],"split_type":[0,0,0,0,0,0,0,0,0,0,0,0,0,0,0,0,0,0,0,0,0,0,0,0,0],"sum_hessian":[2.4E1,2E0,2.2E1,1E0,1E0,4E0,1.8E1,3E0,1E0,1.7E1,1E0,1E0,2E0,6E0,1.1E1,1E0,1E0,5E0,1E0,2E0,9E0,1E0,4E0,7E0,2E0],"tree_param":{"num_deleted":"0","num_feature":"19","num_nodes":"25","size_leaf_vector":"0"}},{"base_weights":[1.6925048E-2,8.43099E-2,7.399849E-3,5.4656984E-3,3.2473758E-2,2.3242187E-2,2.8413471E-3,6.5612793E-3,1.3494873E-2,1.6784668E-3,3.5659792E-3,3.0578615E-3,1.953125E-3,-1.0027204E-3,3.1026204E-3,7.5988774E-4,1.1901856E-4,-3.153483E-4,-7.69043E-4,1.9287111E-3,1.7944336E-3,-3.1127932E-4,1.0986329E-5,2.2430421E-4,1.1962892E-3],"categories":[],"categories_nodes":[],"categories_segments":[],"categories_sizes":[],"default_left":[0,0,0,0,0,0,0,0,0,0,0,0,0,0,0,0,0,0,0,0,0,0,0,0,0],"id":43,"left_children":[1,3,5,-1,-1,7,9,11,-1,13,-1,-1,15,17,19,-1,-1,21,-1,-1,23,-1,-1,-1,-1],"loss_changes":[1.5422474E-2,2.7737152E-3,1.5949595E-3,0E0,0E0,1.5181296E-3,1.7990106E-4,4.703179E-5,0E0,7.1842675E-5,0E0,0E0,1.7024577E-6,6.701354E-6,4.068239E-5,0E0,0E0,1.5632559E-6,0E0,0E0,1.9975876E-5,0E0,0E0,0E0,0E0],"parents":[2147483647,0,0,1,1,2,2,5,5,6,6,7,7,9,9,12,12,13,13,14,14,17,17,20,20],"right_children":[2,4,6,-1,-1,8,10,12,-1,14,-1,-1,16,18,20,-1,-1,22,-1,-1,24,-1,-1,-1,-1],"split_conditions":[1.992E3,1.991E3,2.611E0,5.4656984E-3,3.2473758E-2,2.581E0,2.27E-1,1.994E3,1.3494873E-2,7.1E-2,3.5659792E-3,3.0578615E-3,1.995E3,2.48011E2,7.94E-1,7.5988774E-4,1.1901856E-4,1.996E3,-7.69043E-4,1.9287111E-3,1.664E0,-3.1127932E-4,1.0986329E-5,2.2430421E-4,1.1962892E-3],"split_indices":[1,1,2,0,0,2,13,1,0,14,0,0,1,3,12,0,0,1,0,0,9,0,0,0,0],"split_type":[0,0,0,0,0,0,0,0,0,0,0,0,0,0,0,0,0,0,0,0,0,0,0,0,0],"sum_hessian":[2.4E1,2E0,2.2E1,1E0,1E0,4E0,1.8E1,3E0,1E0,1.7E1,1E0,1E0,2E0,6E0,1.1E1,1E0,1E0,5E0,1E0,2E0,9E0,1E0,4E0,7E0,2E0],"tree_param":{"num_deleted":"0","num_feature":"19","num_nodes":"25","size_leaf_vector":"0"}},{"base_weights":[1.4296875E-2,7.165527E-2,6.1937417E-3,4.641724E-3,2.7603151E-2,1.9763183E-2,2.2968494E-3,5.584717E-3,1.1471558E-2,1.3020834E-3,3.0303956E-3,2.6000978E-3,1.6682943E-3,-8.4577285E-4,2.4464924E-3,6.5002445E-4,1.0070801E-4,-2.644857E-4,-6.5002445E-4,1.538086E-3,1.397705E-3,-2.6550295E-4,1.0986329E-5,-3.7994387E-4,5.503337E-4],"categories":[],"categories_nodes":[],"categories_segments":[],"categories_sizes":[],"default_left":[0,0,0,0,0,0,0,0,0,0,0,0,0,0,0,0,0,0,0,0,0,0,0,0,0],"id":44,"left_children":[1,3,5,-1,-1,7,9,11,-1,13,-1,-1,15,17,19,-1,-1,21,-1,-1,23,-1,-1,-1,-1],"loss_changes":[1.1175755E-2,2.00722E-3,1.1708159E-3,0E0,0E0,1.0962088E-3,1.3435603E-4,3.3826873E-5,0E0,4.6313653E-5,0E0,0E0,1.2653572E-6,4.8019883E-6,2.6568829E-5,0E0,0E0,1.153474E-6,0E0,0E0,1.3958857E-5,0E0,0E0,0E0,0E0],"parents":[2147483647,0,0,1,1,2,2,5,5,6,6,7,7,9,9,12,12,13,13,14,14,17,17,20,20],"right_children":[2,4,6,-1,-1,8,10,12,-1,14,-1,-1,16,18,20,-1,-1,22,-1,-1,24,-1,-1,-1,-1],"split_conditions":[1.992E3,1.991E3,2.611E0,4.641724E-3,2.7603151E-2,2.581E0,2.27E-1,1.994E3,1.1471558E-2,7.1E-2,3.0303956E-3,2.6000978E-3,1.995E3,2.48011E2,7.94E-1,6.5002445E-4,1.0070801E-4,1.996E3,-6.5002445E-4,1.538086E-3,3.4E-2,-2.6550295E-4,1.0986329E-5,-3.7994387E-4,5.503337E-4],"split_indices":[1,1,2,0,0,2,13,1,0,14,0,0,1,3,12,0,0,1,0,0,16,0,0,0,0],"split_type":[0,0,0,0,0,0,0,0,0,0,0,0,0,0,0,0,0,0,0,0,0,0,0,0,0],"sum_hessian":[2.4E1,2E0,2.2E1,1E0,1E0,4E0,1.8E1,3E0,1E0,1.7E1,1E0,1E0,2E0,6E0,1.1E1,1E0,1E0,5E0,1E0,2E0,9E0,1E0,4E0,1E0,8E0],"tree_param":{"num_deleted":"0","num_feature":"19","num_nodes":"25","size_leaf_vector":"0"}},{"base_weights":[1.20458985E-2,6.0913086E-2,5.1481826E-3,3.945923E-3,2.3464967E-2,1.6790772E-2,1.8133866E-3,4.737854E-3,9.750366E-3,9.596083E-4,2.5772096E-3,2.206421E-3,4.2419435E-4,2.4414062E-4,3.40271E-3,-3.7090594E-4,8.483887E-4,1.2329102E-3,1.9226075E-4,-2.080744E-4,2.807617E-4],"categories":[],"categories_nodes":[],"categories_segments":[],"categories_sizes":[],"default_left":[0,0,0,0,0,0,0,0,0,0,0,0,0,0,0,0,0,0,0,0,0],"id":45,"left_children":[1,3,5,-1,-1,7,9,11,-1,13,-1,-1,-1,15,17,19,-1,-1,-1,-1,-1],"loss_changes":[8.113207E-3,1.450453E-3,8.625421E-4,0E0,0E0,7.9279765E-4,1.01696416E-4,2.4393281E-5,0E0,3.0632546E-5,0E0,0E0,0E0,2.4886469E-5,5.1766E-6,6.130751E-6,0E0,0E0,0E0,0E0,0E0],"parents":[2147483647,0,0,1,1,2,2,5,5,6,6,7,7,9,9,13,13,14,14,15,15],"right_children":[2,4,6,-1,-1,8,10,12,-1,14,-1,-1,-1,16,18,20,-1,-1,-1,-1,-1],"split_conditions":[1.992E3,1.991E3,2.611E0,3.945923E-3,2.3464967E-2,2.581E0,2.27E-1,1.994E3,9.750366E-3,2.49249E2,2.5772096E-3,2.206421E-3,4.2419435E-4,1.664E0,2.005E3,2.016E3,8.483887E-4,1.2329102E-3,1.9226075E-4,-2.080744E-4,2.807617E-4],"split_indices":[1,1,2,0,0,2,13,1,0,3,0,0,0,9,1,1,0,0,0,0,0],"split_type":[0,0,0,0,0,0,0,0,0,0,0,0,0,0,0,0,0,0,0,0,0],"sum_hessian":[2.4E1,2E0,2.2E1,1E0,1E0,4E0,1.8E1,3E0,1E0,1.7E1,1E0,1E0,2E0,1.4E1,3E0,1.2E1,2E0,2E0,1E0,1E1,2E0],"tree_param":{"num_deleted":"0","num_feature":"19","num_nodes":"21","size_leaf_vector":"0"}},{"base_weights":[1.0214844E-2,5.1778156E-2,4.3494185E-3,3.3508302E-3,1.9949341E-2,1.4227295E-2,1.5210604E-3,3.9749146E-3,8.285522E-3,7.9345703E-4,2.1926882E-3,1.5747071E-3,2.2888184E-5,2.1972656E-4,2.746582E-3,-2.676157E-4,6.7749026E-4,9.887696E-4,1.6479492E-4,-0E0,-5.218506E-4],"categories":[],"categories_nodes":[],"categories_segments":[],"categories_sizes":[],"default_left":[0,0,0,0,0,0,0,0,0,0,0,0,0,0,0,0,0,0,0,0,0],"id":46,"left_children":[1,3,5,-1,-1,7,9,11,-1,13,-1,-1,-1,15,17,19,-1,-1,-1,-1,-1],"loss_changes":[5.8694575E-3,1.0504955E-3,6.2093744E-4,0E0,0E0,5.766731E-4,7.421526E-5,1.94686E-5,0E0,1.9566716E-5,0E0,0E0,0E0,1.5506606E-5,3.0174851E-6,5.120698E-6,0E0,0E0,0E0,0E0,0E0],"parents":[2147483647,0,0,1,1,2,2,5,5,6,6,7,7,9,9,13,13,14,14,15,15],"right_children":[2,4,6,-1,-1,8,10,12,-1,14,-1,-1,-1,16,18,20,-1,-1,-1,-1,-1],"split_conditions":[1.992E3,1.991E3,2.611E0,3.3508302E-3,1.9949341E-2,2.581E0,2.27E-1,1.995E3,8.285522E-3,2.49249E2,2.1926882E-3,1.5747071E-3,2.2888184E-5,1.664E0,2.005E3,2.48037E2,6.7749026E-4,9.887696E-4,1.6479492E-4,-0E0,-5.218506E-4],"split_indices":[1,1,2,0,0,2,13,1,0,3,0,0,0,9,1,3,0,0,0,0,0],"split_type":[0,0,0,0,0,0,0,0,0,0,0,0,0,0,0,0,0,0,0,0,0],"sum_hessian":[2.4E1,2E0,2.2E1,1E0,1E0,4E0,1.8E1,3E0,1E0,1.7E1,1E0,2E0,1E0,1.4E1,3E0,1.2E1,2E0,2E0,1E0,1.1E1,1E0],"tree_param":{"num_deleted":"0","num_feature":"19","num_nodes":"21","size_leaf_vector":"0"}},{"base_weights":[8.616943E-3,4.4006348E-2,3.6262844E-3,2.8472901E-3,1.6955568E-2,1.1926269E-2,1.2512207E-3,3.1738281E-3,7.0404056E-3,6.306966E-4,1.8630982E-3,1.638794E-3,1.7700196E-4,1.6682943E-4,2.2125244E-3,-2.2536058E-4,5.432129E-4,7.9345703E-4,1.373291E-4,1.4648438E-4,-1.7903646E-4],"categories":[],"categories_nodes":[],"categories_segments":[],"categories_sizes":[],"default_left":[0,0,0,0,0,0,0,0,0,0,0,0,0,0,0,0,0,0,0,0,0],"id":47,"left_children":[1,3,5,-1,-1,7,9,11,-1,13,-1,-1,-1,15,17,19,-1,-1,-1,-1,-1],"loss_changes":[4.2558312E-3,7.5917505E-4,4.3847645E-4,0E0,0E0,4.3060892E-4,5.4550823E-5,2.0432595E-5,0E0,1.2838531E-5,0E0,0E0,0E0,1.0078763E-5,1.8238406E-6,3.7372622E-6,0E0,0E0,0E0,0E0,0E0],"parents":[2147483647,0,0,1,1,2,2,5,5,6,6,7,7,9,9,13,13,14,14,15,15],"right_children":[2,4,6,-1,-1,8,10,12,-1,14,-1,-1,-1,16,18,20,-1,-1,-1,-1,-1],"split_conditions":[1.992E3,1.991E3,2.611E0,2.8472901E-3,1.6955568E-2,2.581E0,2.27E-1,1.994E3,7.0404056E-3,2.49249E2,1.8630982E-3,1.638794E-3,1.7700196E-4,1.664E0,2.005E3,4.16E-1,5.432129E-4,7.9345703E-4,1.373291E-4,1.4648438E-4,-1.7903646E-4],"split_indices":[1,1,2,0,0,2,13,1,0,3,0,0,0,9,1,5,0,0,0,0,0],"split_type":[0,0,0,0,0,0,0,0,0,0,0,0,0,0,0,0,0,0,0,0,0],"sum_hessian":[2.4E1,2E0,2.2E1,1E0,1E0,4E0,1.8E1,3E0,1E0,1.7E1,1E0,1E0,2E0,1.4E1,3E0,1.2E1,2E0,2E0,1E0,4E0,8E0],"tree_param":{"num_deleted":"0","num_feature":"19","num_nodes":"21","size_leaf_vector":"0"}},{"base_weights":[7.314453E-3,3.7394207E-2,3.0729875E-3,2.4169923E-3,1.4410401E-2,1.0119629E-2,1.056872E-3,2.670288E-3,5.987549E-3,5.289714E-4,1.5838624E-3,1.3916016E-3,1.4038086E-4,-4.098075E-4,1.0325114E-3,-6.103516E-6,-4.1198733E-4,1.4373779E-3,-1.9836426E-4,1.09863286E-4,7.305909E-4],"categories":[],"categories_nodes":[],"categories_segments":[],"categories_sizes":[],"default_left":[0,0,0,0,0,0,0,0,0,0,0,0,0,0,0,0,0,0,0,0,0],"id":48,"left_children":[1,3,5,-1,-1,7,9,11,-1,13,-1,-1,-1,15,17,-1,-1,19,-1,-1,-1],"loss_changes":[3.0746441E-3,5.4949755E-4,3.1606224E-4,0E0,0E0,3.1317043E-4,3.9561113E-5,1.5169691E-5,0E0,8.93196E-6,0E0,0E0,0E0,2.5987447E-6,9.179209E-6,0E0,0E0,9.797606E-6,0E0,0E0,0E0],"parents":[2147483647,0,0,1,1,2,2,5,5,6,6,7,7,9,9,13,13,14,14,17,17],"right_children":[2,4,6,-1,-1,8,10,12,-1,14,-1,-1,-1,16,18,-1,-1,20,-1,-1,-1],"split_conditions":[1.992E3,1.991E3,2.611E0,2.4169923E-3,1.4410401E-2,2.581E0,2.27E-1,1.994E3,5.987549E-3,7.1E-2,1.5838624E-3,1.3916016E-3,1.4038086E-4,2.48011E2,5.4E-1,-6.103516E-6,-4.1198733E-4,3.8E-2,-1.9836426E-4,1.09863286E-4,7.305909E-4],"split_indices":[1,1,2,0,0,2,13,1,0,14,0,0,0,3,5,0,0,16,0,0,0],"split_type":[0,0,0,0,0,0,0,0,0,0,0,0,0,0,0,0,0,0,0,0,0],"sum_hessian":[2.4E1,2E0,2.2E1,1E0,1E0,4E0,1.8E1,3E0,1E0,1.7E1,1E0,1E0,2E0,6E0,1.1E1,5E0,1E0,9E0,2E0,5E0,4E0],"tree_param":{"num_deleted":"0","num_feature":"19","num_nodes":"21","size_leaf_vector":"0"}},{"base_weights":[6.1621093E-3,3.1778973E-2,2.5528618E-3,2.0507814E-3,1.2249757E-2,8.587646E-3,8.3039934E-4,2.2506714E-3,5.090332E-3,3.780789E-4,1.3458253E-3,1.1810303E-3,1.1291504E-4,4.272461E-5,4.6234133E-4,2.67334E-4,-3.4679065E-4,1.739502E-4,-2.3002626E-4],"categories":[],"categories_nodes":[],"categories_segments":[],"categories_sizes":[],"default_left":[0,0,0,0,0,0,0,0,0,0,0,0,0,0,0,0,0,0,0],"id":49,"left_children":[1,3,5,-1,-1,7,9,11,-1,13,-1,-1,-1,15,-1,-1,17,-1,-1],"loss_changes":[2.2303124E-3,3.983404E-4,2.319467E-4,0E0,0E0,2.2733439E-4,2.9721186E-5,1.11591835E-5,0E0,6.9548173E-6,0E0,0E0,0E0,5.265935E-6,0E0,0E0,4.725224E-6,0E0,0E0],"parents":[2147483647,0,0,1,1,2,2,5,5,6,6,7,7,9,9,13,13,16,16],"right_children":[2,4,6,-1,-1,8,10,12,-1,14,-1,-1,-1,16,-1,-1,18,-1,-1],"split_conditions":[1.992E3,1.991E3,2.611E0,2.0507814E-3,1.2249757E-2,2.581E0,2.27E-1,1.994E3,5.090332E-3,2.49249E2,1.3458253E-3,1.1810303E-3,1.1291504E-4,3.98E-1,4.6234133E-4,2.67334E-4,2.03941E2,1.739502E-4,-2.3002626E-4],"split_indices":[1,1,2,0,0,2,13,1,0,3,0,0,0,5,0,0,3,0,0],"split_type":[0,0,0,0,0,0,0,0,0,0,0,0,0,0,0,0,0,0,0],"sum_hessian":[2.4E1,2E0,2.2E1,1E0,1E0,4E0,1.8E1,3E0,1E0,1.7E1,1E0,1E0,2E0,1.4E1,3E0,4E0,1E1,3E0,7E0],"tree_param":{"num_deleted":"0","num_feature":"19","num_nodes":"19","size_leaf_vector":"0"}},{"base_weights":[5.223389E-3,2.6997885E-2,2.1561333E-3,1.7395021E-3,1.0409546E-2,7.293701E-3,6.9066096E-4,1.8997192E-3,4.3304446E-3,3.0517578E-4,1.1444092E-3,1.0070801E-3,8.850098E-5,-1.953125E-4,8.2736544E-4,1.17187505E-4,-6.510417E-4,1.4851888E-3,-1.09863286E-4,-1.3732911E-5,-3.7231448E-4,8.544922E-5,6.042481E-4],"categories":[],"categories_nodes":[],"categories_segments":[],"categories_sizes":[],"default_left":[0,0,0,0,0,0,0,0,0,0,0,0,0,0,0,0,0,0,0,0,0,0,0],"id":50,"left_children":[1,3,5,-1,-1,7,9,11,-1,13,-1,-1,-1,15,17,-1,19,21,-1,-1,-1,-1,-1],"loss_changes":[1.6114874E-3,2.8855423E-4,1.681287E-4,0E0,0E0,1.6517309E-4,2.1716973E-5,8.363355E-6,0E0,4.8658917E-6,0E0,0E0,0E0,2.9246012E-6,7.6103543E-6,0E0,2.0858522E-6,3.2360358E-6,0E0,0E0,0E0,0E0,0E0],"parents":[2147483647,0,0,1,1,2,2,5,5,6,6,7,7,9,9,13,13,14,14,16,16,17,17],"right_children":[2,4,6,-1,-1,8,10,12,-1,14,-1,-1,-1,16,18,-1,20,22,-1,-1,-1,-1,-1],"split_conditions":[1.992E3,1.991E3,2.611E0,1.7395021E-3,1.0409546E-2,2.581E0,2.27E-1,1.994E3,4.3304446E-3,3.8E-2,1.1444092E-3,1.0070801E-3,8.850098E-5,4.16E-1,5.1E-1,1.17187505E-4,1.59E-1,1.999E3,-1.09863286E-4,-1.3732911E-5,-3.7231448E-4,8.544922E-5,6.042481E-4],"split_indices":[1,1,2,0,0,2,13,1,0,16,0,0,0,5,5,0,13,1,0,0,0,0,0],"split_type":[0,0,0,0,0,0,0,0,0,0,0,0,0,0,0,0,0,0,0,0,0,0,0],"sum_hessian":[2.4E1,2E0,2.2E1,1E0,1E0,4E0,1.8E1,3E0,1E0,1.7E1,1E0,1E0,2E0,9E0,8E0,4E0,5E0,5E0,3E0,3E0,2E0,2E0,3E0],"tree_param":{"num_deleted":"0","num_feature":"19","num_nodes":"23","size_leaf_vector":"0"}},{"base_weights":[4.4177244E-3,2.2928873E-2,1.811152E-3,1.4739991E-3,8.843995E-3,6.201172E-3,5.6055974E-4,1.6174316E-3,3.68042E-3,2.3057725E-4,9.7503664E-4,8.605957E-4,7.324219E-5,-1.7089843E-4,6.510417E-4,8.789063E-5,-5.289714E-4,1.159668E-3,-8.239746E-5,-1.3732911E-5,-2.990723E-4,7.324219E-5,4.6691895E-4],"categories":[],"categories_nodes":[],"categories_segments":[],"categories_sizes":[],"default_left":[0,0,0,0,0,0,0,0,0,0,0,0,0,0,0,0,0,0,0,0,0,0,0],"id":51,"left_children":[1,3,5,-1,-1,7,9,11,-1,13,-1,-1,-1,15,17,-1,19,21,-1,-1,-1,-1,-1],"loss_changes":[1.1647388E-3,2.0922034E-4,1.2279674E-4,0E0,0E0,1.1920258E-4,1.6113256E-5,6.172806E-6,0E0,3.1497743E-6,0E0,0E0,0E0,1.8159548E-6,4.55603E-6,0E0,1.3109917E-6,1.7993152E-6,0E0,0E0,0E0,0E0,0E0],"parents":[2147483647,0,0,1,1,2,2,5,5,6,6,7,7,9,9,13,13,14,14,16,16,17,17],"right_children":[2,4,6,-1,-1,8,10,12,-1,14,-1,-1,-1,16,18,-1,20,22,-1,-1,-1,-1,-1],"split_conditions":[1.992E3,1.991E3,2.611E0,1.4739991E-3,8.843995E-3,2.581E0,2.27E-1,1.994E3,3.68042E-3,3.8E-2,9.7503664E-4,8.605957E-4,7.324219E-5,4.16E-1,5.1E-1,8.789063E-5,1.59E-1,1.999E3,-8.239746E-5,-1.3732911E-5,-2.990723E-4,7.324219E-5,4.6691895E-4],"split_indices":[1,1,2,0,0,2,13,1,0,16,0,0,0,5,5,0,13,1,0,0,0,0,0],"split_type":[0,0,0,0,0,0,0,0,0,0,0,0,0,0,0,0,0,0,0,0,0,0,0],"sum_hessian":[2.4E1,2E0,2.2E1,1E0,1E0,4E0,1.8E1,3E0,1E0,1.7E1,1E0,1E0,2E0,9E0,8E0,4E0,5E0,5E0,3E0,3E0,2E0,2E0,3E0],"tree_param":{"num_deleted":"0","num_feature":"19","num_nodes":"23","size_leaf_vector":"0"}},{"base_weights":[3.7451172E-3,1.949056E-2,1.5285326E-3,1.2542725E-3,7.5164796E-3,5.2734376E-3,4.6258225E-4,1.373291E-3,3.1311037E-3,1.8141005E-4,8.285523E-4,7.324219E-4,6.1035156E-5,-1.0172526E-5,2.5634767E-4,-9.8419194E-5,3.0899048E-4,1.7852784E-4,-1.09863286E-4],"categories":[],"categories_nodes":[],"categories_segments":[],"categories_sizes":[],"default_left":[0,0,0,0,0,0,0,0,0,0,0,0,0,0,0,0,0,0,0],"id":52,"left_children":[1,3,5,-1,-1,7,9,11,-1,13,-1,-1,-1,15,-1,-1,17,-1,-1],"loss_changes":[8.4273564E-4,1.5081337E-4,8.9373905E-5,0E0,0E0,8.636042E-5,1.1782237E-5,4.501392E-6,0E0,2.329807E-6,0E0,0E0,0E0,1.6232565E-6,0E0,0E0,1.7633429E-6,0E0,0E0],"parents":[2147483647,0,0,1,1,2,2,5,5,6,6,7,7,9,9,13,13,16,16],"right_children":[2,4,6,-1,-1,8,10,12,-1,14,-1,-1,-1,16,-1,-1,18,-1,-1],"split_conditions":[1.992E3,1.991E3,2.611E0,1.2542725E-3,7.5164796E-3,2.581E0,2.27E-1,1.994E3,3.1311037E-3,2.49249E2,8.285523E-4,7.324219E-4,6.1035156E-5,3.8E-2,2.5634767E-4,-9.8419194E-5,5.4E-1,1.7852784E-4,-1.09863286E-4],"split_indices":[1,1,2,0,0,2,13,1,0,3,0,0,0,16,0,0,5,0,0],"split_type":[0,0,0,0,0,0,0,0,0,0,0,0,0,0,0,0,0,0,0],"sum_hessian":[2.4E1,2E0,2.2E1,1E0,1E0,4E0,1.8E1,3E0,1E0,1.7E1,1E0,1E0,2E0,1.4E1,3E0,7E0,7E0,5E0,2E0],"tree_param":{"num_deleted":"0","num_feature":"19","num_nodes":"19","size_leaf_vector":"0"}},{"base_weights":[3.178711E-3,1.6560873E-2,1.2950068E-3,1.0620118E-3,6.390381E-3,4.4799806E-3,3.8869758E-4,1.159668E-3,2.6641847E-3,1.4919705E-4,7.0495607E-4,5.187989E-4,-8.239746E-5,-0E0,2.0141603E-4,-1.3615534E-4,1.7700196E-4,-1.0871888E-4,5.645752E-5],"categories":[],"categories_nodes":[],"categories_segments":[],"categories_sizes":[],"default_left":[0,0,0,0,0,0,0,0,0,0,0,0,0,0,0,0,0,0,0],"id":53,"left_children":[1,3,5,-1,-1,7,9,11,-1,13,-1,-1,-1,15,-1,17,-1,-1,-1],"loss_changes":[6.087544E-4,1.09764456E-4,6.464978E-5,0E0,0E0,6.2758845E-5,8.573669E-6,3.7432956E-6,0E0,1.4023649E-6,0E0,0E0,0E0,1.2853206E-6,0E0,1.0221474E-6,0E0,0E0,0E0],"parents":[2147483647,0,0,1,1,2,2,5,5,6,6,7,7,9,9,13,13,15,15],"right_children":[2,4,6,-1,-1,8,10,12,-1,14,-1,-1,-1,16,-1,18,-1,-1,-1],"split_conditions":[1.992E3,1.991E3,2.611E0,1.0620118E-3,6.390381E-3,2.581E0,2.27E-1,1.995E3,2.6641847E-3,2.49249E2,7.0495607E-4,5.187989E-4,-8.239746E-5,1.6E-2,2.0141603E-4,4.59E-1,1.7700196E-4,-1.0871888E-4,5.645752E-5],"split_indices":[1,1,2,0,0,2,13,1,0,3,0,0,0,17,0,5,0,0,0],"split_type":[0,0,0,0,0,0,0,0,0,0,0,0,0,0,0,0,0,0,0],"sum_hessian":[2.4E1,2E0,2.2E1,1E0,1E0,4E0,1.8E1,3E0,1E0,1.7E1,1E0,2E0,1E0,1.4E1,3E0,1.2E1,2E0,7E0,5E0],"tree_param":{"num_deleted":"0","num_feature":"19","num_nodes":"19","size_leaf_vector":"0"}},{"base_weights":[2.6904298E-3,1.4078776E-2,1.088018E-3,9.063721E-4,5.4290774E-3,3.741455E-3,3.32481E-4,9.0789795E-4,2.2613527E-3,1.28852E-4,5.9967046E-4,5.4016116E-4,3.051758E-6,3.933377E-4,-3.6621095E-5,2.1362304E-5,2.3345948E-4],"categories":[],"categories_nodes":[],"categories_segments":[],"categories_sizes":[],"default_left":[0,0,0,0,0,0,0,0,0,0,0,0,0,0,0,0,0],"id":54,"left_children":[1,3,5,-1,-1,7,9,11,-1,13,-1,-1,-1,15,-1,-1,-1],"loss_changes":[4.4090254E-4,7.8617304E-5,4.4865745E-5,0E0,0E0,4.6942805E-5,6.189736E-6,3.1870636E-6,0E0,1.2425912E-6,0E0,0E0,0E0,1.0603626E-6,0E0,0E0,0E0],"parents":[2147483647,0,0,1,1,2,2,5,5,6,6,7,7,9,9,13,13],"right_children":[2,4,6,-1,-1,8,10,12,-1,14,-1,-1,-1,16,-1,-1,-1],"split_conditions":[1.992E3,1.991E3,2.611E0,9.063721E-4,5.4290774E-3,2.581E0,2.27E-1,1.994E3,2.2613527E-3,4.23E-1,5.9967046E-4,5.4016116E-4,3.051758E-6,2.004E3,-3.6621095E-5,2.1362304E-5,2.3345948E-4],"split_indices":[1,1,2,0,0,2,13,1,0,5,0,0,0,1,0,0,0],"split_type":[0,0,0,0,0,0,0,0,0,0,0,0,0,0,0,0,0],"sum_hessian":[2.4E1,2E0,2.2E1,1E0,1E0,4E0,1.8E1,3E0,1E0,1.7E1,1E0,1E0,2E0,8E0,9E0,5E0,3E0],"tree_param":{"num_deleted":"0","num_feature":"19","num_nodes":"17","size_leaf_vector":"0"}},{"base_weights":[2.286377E-3,1.1962891E-2,9.248153E-4,7.69043E-4,4.614258E-3,3.1799315E-3,2.8268914E-4,7.7056885E-4,1.9226075E-3,3.306071E-5,5.081177E-4,4.577637E-4,3.051758E-6],"categories":[],"categories_nodes":[],"categories_segments":[],"categories_sizes":[],"default_left":[0,0,0,0,0,0,0,0,0,0,0,0,0],"id":55,"left_children":[1,3,5,-1,-1,7,9,11,-1,-1,-1,-1,-1],"loss_changes":[3.1831578E-4,5.6952238E-5,3.2406657E-5,0E0,0E0,3.395793E-5,4.4376648E-6,2.281818E-6,0E0,0E0,0E0,0E0,0E0],"parents":[2147483647,0,0,1,1,2,2,5,5,6,6,7,7],"right_children":[2,4,6,-1,-1,8,10,12,-1,-1,-1,-1,-1],"split_conditions":[1.992E3,1.991E3,2.611E0,7.69043E-4,4.614258E-3,2.581E0,2.27E-1,1.994E3,1.9226075E-3,3.306071E-5,5.081177E-4,4.577637E-4,3.051758E-6],"split_indices":[1,1,2,0,0,2,13,1,0,0,0,0,0],"split_type":[0,0,0,0,0,0,0,0,0,0,0,0,0],"sum_hessian":[2.4E1,2E0,2.2E1,1E0,1E0,4E0,1.8E1,3E0,1E0,1.7E1,1E0,1E0,2E0],"tree_param":{"num_deleted":"0","num_feature":"19","num_nodes":"13","size_leaf_vector":"0"}},{"base_weights":[1.9165039E-3,1.0152181E-2,7.589589E-4,6.5002445E-4,3.9184573E-3,2.6916503E-3,2.1041067E-4,6.4849854E-4,1.6296387E-3,1.8819173E-5,4.3029786E-4,3.845215E-4,3.051758E-6],"categories":[],"categories_nodes":[],"categories_segments":[],"categories_sizes":[],"default_left":[0,0,0,0,0,0,0,0,0,0,0,0,0],"id":56,"left_children":[1,3,5,-1,-1,7,9,11,-1,-1,-1,-1,-1],"loss_changes":[2.3062411E-4,4.1396037E-5,2.3817662E-5,0E0,0E0,2.4473342E-5,3.3442352E-6,1.603815E-6,0E0,0E0,0E0,0E0,0E0],"parents":[2147483647,0,0,1,1,2,2,5,5,6,6,7,7],"right_children":[2,4,6,-1,-1,8,10,12,-1,-1,-1,-1,-1],"split_conditions":[1.992E3,1.991E3,2.611E0,6.5002445E-4,3.9184573E-3,2.581E0,2.27E-1,1.994E3,1.6296387E-3,1.8819173E-5,4.3029786E-4,3.845215E-4,3.051758E-6],"split_indices":[1,1,2,0,0,2,13,1,0,0,0,0,0],"split_type":[0,0,0,0,0,0,0,0,0,0,0,0,0],"sum_hessian":[2.4E1,2E0,2.2E1,1E0,1E0,4E0,1.8E1,3E0,1E0,1.7E1,1E0,1E0,2E0],"tree_param":{"num_deleted":"0","num_feature":"19","num_nodes":"13","size_leaf_vector":"0"}},{"base_weights":[1.628418E-3,8.626302E-3,6.448497E-4,5.493164E-4,3.3325197E-3,2.2888184E-3,1.7828691E-4,5.569458E-4,1.3824464E-3,1.5767417E-5,3.6621094E-4,2.685547E-4,-6.866455E-5],"categories":[],"categories_nodes":[],"categories_segments":[],"categories_sizes":[],"default_left":[0,0,0,0,0,0,0,0,0,0,0,0,0],"id":57,"left_children":[1,3,5,-1,-1,7,9,11,-1,-1,-1,-1,-1],"loss_changes":[1.6650974E-4,3.0259296E-5,1.723327E-5,0E0,0E0,1.751748E-5,2.4260164E-6,1.2680732E-6,0E0,0E0,0E0,0E0,0E0],"parents":[2147483647,0,0,1,1,2,2,5,5,6,6,7,7],"right_children":[2,4,6,-1,-1,8,10,12,-1,-1,-1,-1,-1],"split_conditions":[1.992E3,1.991E3,2.611E0,5.493164E-4,3.3325197E-3,2.581E0,2.27E-1,1.995E3,1.3824464E-3,1.5767417E-5,3.6621094E-4,2.685547E-4,-6.866455E-5],"split_indices":[1,1,2,0,0,2,13,1,0,0,0,0,0],"split_type":[0,0,0,0,0,0,0,0,0,0,0,0,0],"sum_hessian":[2.4E1,2E0,2.2E1,1E0,1E0,4E0,1.8E1,3E0,1E0,1.7E1,1E0,2E0,1E0],"tree_param":{"num_deleted":"0","num_feature":"19","num_nodes":"13","size_leaf_vector":"0"}},{"base_weights":[1.3769531E-3,7.3242188E-3,5.413553E-4,4.6691895E-4,2.8289796E-3,1.9226074E-3,1.4937551E-4,4.5013428E-4,1.171875E-3,-4.8522954E-5,4.4555665E-4,2.9296876E-4,-1.5258789E-5,2.3934501E-4,-8.468628E-5],"categories":[],"categories_nodes":[],"categories_segments":[],"categories_sizes":[],"default_left":[0,0,0,0,0,0,0,0,0,0,0,0,0,0,0],"id":58,"left_children":[1,3,5,-1,-1,7,9,11,-1,-1,13,-1,-1,-1,-1],"loss_changes":[1.2027305E-4,2.175942E-5,1.2165537E-5,0E0,0E0,1.2845965E-5,1.8228678E-6,1.1046261E-6,0E0,0E0,2.7891183E-6,0E0,0E0,0E0,0E0],"parents":[2147483647,0,0,1,1,2,2,5,5,6,6,7,7,10,10],"right_children":[2,4,6,-1,-1,8,10,12,-1,-1,14,-1,-1,-1,-1],"split_conditions":[1.992E3,1.991E3,2.611E0,4.6691895E-4,2.8289796E-3,2.581E0,3.8E-2,1.994E3,1.171875E-3,-4.8522954E-5,5.1E-1,2.9296876E-4,-1.5258789E-5,2.3934501E-4,-8.468628E-5],"split_indices":[1,1,2,0,0,2,16,1,0,0,5,0,0,0,0],"split_type":[0,0,0,0,0,0,0,0,0,0,0,0,0,0,0],"sum_hessian":[2.4E1,2E0,2.2E1,1E0,1E0,4E0,1.8E1,3E0,1E0,9E0,9E0,1E0,2E0,6E0,3E0],"tree_param":{"num_deleted":"0","num_feature":"19","num_nodes":"15","size_leaf_vector":"0"}},{"base_weights":[1.1621094E-3,6.225586E-3,4.5112942E-4,3.9367678E-4,2.407837E-3,1.6357421E-3,1.1564556E-4,1.14440925E-4,9.979248E-4,6.103516E-6,2.746582E-4],"categories":[],"categories_nodes":[],"categories_segments":[],"categories_sizes":[],"default_left":[0,0,0,0,0,0,0,0,0,0,0],"id":59,"left_children":[1,3,5,-1,-1,7,9,-1,-1,-1,-1],"loss_changes":[8.719221E-5,1.6007572E-5,8.951458E-6,0E0,0E0,9.333901E-6,1.4297273E-6,0E0,0E0,0E0,0E0],"parents":[2147483647,0,0,1,1,2,2,5,5,6,6],"right_children":[2,4,6,-1,-1,8,10,-1,-1,-1,-1],"split_conditions":[1.992E3,1.991E3,2.611E0,3.9367678E-4,2.407837E-3,2.581E0,2.27E-1,1.14440925E-4,9.979248E-4,6.103516E-6,2.746582E-4],"split_indices":[1,1,2,0,0,2,13,0,0,0,0],"split_type":[0,0,0,0,0,0,0,0,0,0,0],"sum_hessian":[2.4E1,2E0,2.2E1,1E0,1E0,4E0,1.8E1,3E0,1E0,1.7E1,1E0],"tree_param":{"num_deleted":"0","num_feature":"19","num_nodes":"11","size_leaf_vector":"0"}},{"base_weights":[9.875488E-4,5.3100586E-3,3.808063E-4,3.3874513E-4,2.0507814E-3,1.3671875E-3,1.01189864E-4,8.69751E-5,8.514405E-4,6.103516E-6,2.3345948E-4],"categories":[],"categories_nodes":[],"categories_segments":[],"categories_sizes":[],"default_left":[0,0,0,0,0,0,0,0,0,0,0],"id":60,"left_children":[1,3,5,-1,-1,7,9,-1,-1,-1,-1],"loss_changes":[6.3544154E-5,1.1419877E-5,6.2052477E-6,0E0,0E0,7.100217E-6,1.0240872E-6,0E0,0E0,0E0,0E0],"parents":[2147483647,0,0,1,1,2,2,5,5,6,6],"right_children":[2,4,6,-1,-1,8,10,-1,-1,-1,-1],"split_conditions":[1.992E3,1.991E3,2.611E0,3.3874513E-4,2.0507814E-3,2.581E0,2.27E-1,8.69751E-5,8.514405E-4,6.103516E-6,2.3345948E-4],"split_indices":[1,1,2,0,0,2,13,0,0,0,0],"split_type":[0,0,0,0,0,0,0,0,0,0,0],"sum_hessian":[2.4E1,2E0,2.2E1,1E0,1E0,4E0,1.8E1,3E0,1E0,1.7E1,1E0],"tree_param":{"num_deleted":"0","num_feature":"19","num_nodes":"11","size_leaf_vector":"0"}},{"base_weights":[8.3740236E-4,4.4962564E-3,3.237517E-4,2.8381348E-4,1.7395021E-3,1.1535644E-3,2.6502108E-5,7.095337E-5,7.232666E-4],"categories":[],"categories_nodes":[],"categories_segments":[],"categories_sizes":[],"default_left":[0,0,0,0,0,0,0,0,0],"id":61,"left_children":[1,3,5,-1,-1,7,-1,-1,-1],"loss_changes":[4.5528646E-5,8.382525E-6,4.3910823E-6,0E0,0E0,5.1949637E-6,0E0,0E0,0E0],"parents":[2147483647,0,0,1,1,2,2,5,5],"right_children":[2,4,6,-1,-1,8,-1,-1,-1],"split_conditions":[1.992E3,1.991E3,2.611E0,2.8381348E-4,1.7395021E-3,2.581E0,2.6502108E-5,7.095337E-5,7.232666E-4],"split_indices":[1,1,2,0,0,2,0,0,0],"split_type":[0,0,0,0,0,0,0,0,0],"sum_hessian":[2.4E1,2E0,2.2E1,1E0,1E0,4E0,1.8E1,3E0,1E0],"tree_param":{"num_deleted":"0","num_feature":"19","num_nodes":"9","size_leaf_vector":"0"}},{"base_weights":[7.092285E-4,3.8045247E-3,2.746582E-4,2.3803712E-4,1.4739991E-3,9.7045896E-4,2.3129112E-5,5.7220463E-5,6.1340333E-4],"categories":[],"categories_nodes":[],"categories_segments":[],"categories_sizes":[],"default_left":[0,0,0,0,0,0,0,0,0],"id":62,"left_children":[1,3,5,-1,-1,7,-1,-1,-1],"loss_changes":[3.258315E-5,6.1175488E-6,3.0868346E-6,0E0,0E0,3.7979798E-6,0E0,0E0,0E0],"parents":[2147483647,0,0,1,1,2,2,5,5],"right_children":[2,4,6,-1,-1,8,-1,-1,-1],"split_conditions":[1.992E3,1.991E3,2.611E0,2.3803712E-4,1.4739991E-3,2.581E0,2.3129112E-5,5.7220463E-5,6.1340333E-4],"split_indices":[1,1,2,0,0,2,0,0,0],"split_type":[0,0,0,0,0,0,0,0,0],"sum_hessian":[2.4E1,2E0,2.2E1,1E0,1E0,4E0,1.8E1,3E0,1E0],"tree_param":{"num_deleted":"0","num_feature":"19","num_nodes":"9","size_leaf_vector":"0"}},{"base_weights":[6.0058595E-4,3.2348633E-3,2.3087212E-4,2.0141603E-4,1.2542725E-3,8.1787107E-4,1.9274261E-5,4.5776367E-5,5.218506E-4],"categories":[],"categories_nodes":[],"categories_segments":[],"categories_sizes":[],"default_left":[0,0,0,0,0,0,0,0,0],"id":63,"left_children":[1,3,5,-1,-1,7,-1,-1,-1],"loss_changes":[2.360138E-5,4.4684857E-6,2.1970482E-6,0E0,0E0,2.8003008E-6,0E0,0E0,0E0],"parents":[2147483647,0,0,1,1,2,2,5,5],"right_children":[2,4,6,-1,-1,8,-1,-1,-1],"split_conditions":[1.992E3,1.991E3,1.997E3,2.0141603E-4,1.2542725E-3,1.996E3,1.9274261E-5,4.5776367E-5,5.218506E-4],"split_indices":[1,1,1,0,0,1,0,0,0],"split_type":[0,0,0,0,0,0,0,0,0],"sum_hessian":[2.4E1,2E0,2.2E1,1E0,1E0,4E0,1.8E1,3E0,1E0],"tree_param":{"num_deleted":"0","num_feature":"19","num_nodes":"9","size_leaf_vector":"0"}},{"base_weights":[5.029297E-4,2.746582E-3,1.8841287E-4,1.739502E-4,1.0620118E-3,-5.231585E-5,5.065918E-4,-6.713867E-5,1.9531252E-4,2.6550295E-4,-8.468628E-5],"categories":[],"categories_nodes":[],"categories_segments":[],"categories_sizes":[],"default_left":[0,0,0,0,0,0,0,0,0,0,0],"id":64,"left_children":[1,3,5,-1,-1,7,9,-1,-1,-1,-1],"loss_changes":[1.7124168E-5,3.1050295E-6,1.7881833E-6,0E0,0E0,1.8342621E-6,3.2350886E-6,0E0,0E0,0E0,0E0],"parents":[2147483647,0,0,1,1,2,2,5,5,6,6],"right_children":[2,4,6,-1,-1,8,10,-1,-1,-1,-1],"split_conditions":[1.992E3,1.991E3,3.9E-2,1.739502E-4,1.0620118E-3,4.59E-1,5.1E-1,-6.713867E-5,1.9531252E-4,2.6550295E-4,-8.468628E-5],"split_indices":[1,1,16,0,0,5,5,0,0,0,0],"split_type":[0,0,0,0,0,0,0,0,0,0,0],"sum_hessian":[2.4E1,2E0,2.2E1,1E0,1E0,1.3E1,9E0,1.1E1,2E0,6E0,3E0],"tree_param":{"num_deleted":"0","num_feature":"19","num_nodes":"11","size_leaf_vector":"0"}},{"base_weights":[4.1503907E-4,2.339681E-3,1.4595363E-4,1.4648438E-4,9.063721E-4,6.1035156E-4,4.8185652E-6,2.7923586E-4,-1.0070801E-4],"categories":[],"categories_nodes":[],"categories_segments":[],"categories_sizes":[],"default_left":[0,0,0,0,0,0,0,0,0],"id":65,"left_children":[1,3,5,-1,-1,7,-1,-1,-1],"loss_changes":[1.2605844E-5,2.3103003E-6,1.3775903E-6,0E0,0E0,1.8281862E-6,0E0,0E0,0E0],"parents":[2147483647,0,0,1,1,2,2,5,5],"right_children":[2,4,6,-1,-1,8,-1,-1,-1],"split_conditions":[1.992E3,1.991E3,1.997E3,1.4648438E-4,9.063721E-4,2.611E0,4.8185652E-6,2.7923586E-4,-1.0070801E-4],"split_indices":[1,1,1,0,0,2,0,0,0],"split_type":[0,0,0,0,0,0,0,0,0],"sum_hessian":[2.4E1,2E0,2.2E1,1E0,1E0,4E0,1.8E1,3E0,1E0],"tree_param":{"num_deleted":"0","num_feature":"19","num_nodes":"9","size_leaf_vector":"0"}},{"base_weights":[3.4179687E-4,1.9938152E-3,3.3436652E-5,1.2817384E-4,7.69043E-4],"categories":[],"categories_nodes":[],"categories_segments":[],"categories_sizes":[],"default_left":[0,0,0,0,0],"id":66,"left_children":[1,3,-1,-1,-1],"loss_changes":[9.290981E-6,1.5820069E-6,0E0,0E0,0E0],"parents":[2147483647,0,0,1,1],"right_children":[2,4,-1,-1,-1],"split_conditions":[1.992E3,1.991E3,3.3436652E-5,1.2817384E-4,7.69043E-4],"split_indices":[1,1,0,0,0],"split_type":[0,0,0,0,0],"sum_hessian":[2.4E1,2E0,2.2E1,1E0,1E0],"tree_param":{"num_deleted":"0","num_feature":"19","num_nodes":"5","size_leaf_vector":"0"}},{"base_weights":[2.6123048E-4,1.6886393E-3,6.368886E-5,1.09863286E-4,6.5002445E-4,-3.5313198E-5,3.112793E-4,3.479004E-4,2.6448568E-5],"categories":[],"categories_nodes":[],"categories_segments":[],"categories_sizes":[],"default_left":[0,0,0,0,0,0,0,0,0],"id":67,"left_children":[1,3,5,-1,-1,-1,7,-1,-1],"loss_changes":[6.9417683E-6,1.1033071E-6,1.069635E-6,0E0,0E0,0E0,1.7906642E-6,0E0,0E0],"parents":[2147483647,0,0,1,1,2,2,6,6],"right_children":[2,4,6,-1,-1,-1,8,-1,-1],"split_conditions":[1.992E3,1.991E3,3.9E-2,1.09863286E-4,6.5002445E-4,-3.5313198E-5,1.997E3,3.479004E-4,2.6448568E-5],"split_indices":[1,1,16,0,0,0,1,0,0],"split_type":[0,0,0,0,0,0,0,0,0],"sum_hessian":[2.4E1,2E0,2.2E1,1E0,1E0,1.3E1,9E0,1E0,8E0],"tree_param":{"num_deleted":"0","num_feature":"19","num_nodes":"9","size_leaf_vector":"0"}},{"base_weights":[2.3681641E-4,3.7994387E-4,3.8840553E-5,-5.9925427E-5,2.5431314E-4,1.5563966E-4,-6.591797E-5],"categories":[],"categories_nodes":[],"categories_segments":[],"categories_sizes":[],"default_left":[0,0,0,0,0,0,0],"id":68,"left_children":[1,-1,3,-1,5,-1,-1],"loss_changes":[5.04702E-6,0E0,1.1818202E-6,0E0,1.6185145E-6,0E0,0E0],"parents":[2147483647,0,0,2,2,4,4],"right_children":[2,-1,4,-1,6,-1,-1],"split_conditions":[1.994E3,3.7994387E-4,2.31288E2,-5.9925427E-5,4.23E-1,1.5563966E-4,-6.591797E-5],"split_indices":[1,0,3,0,5,0,0],"split_type":[0,0,0,0,0,0,0],"sum_hessian":[2.4E1,3E0,2.1E1,1E1,1.1E1,7E0,4E0],"tree_param":{"num_deleted":"0","num_feature":"19","num_nodes":"7","size_leaf_vector":"0"}},{"base_weights":[1.7578126E-4,1.1800131E-3,1.114555E-5,3.6621095E-5,4.943848E-4],"categories":[],"categories_nodes":[],"categories_segments":[],"categories_sizes":[],"default_left":[0,0,0,0,0],"id":69,"left_children":[1,3,-1,-1,-1],"loss_changes":[3.436562E-6,1.2839832E-6,0E0,0E0,0E0],"parents":[2147483647,0,0,1,1],"right_children":[2,4,-1,-1,-1],"split_conditions":[1.992E3,1.991E3,1.114555E-5,3.6621095E-5,4.943848E-4],"split_indices":[1,1,0,0,0],"split_type":[0,0,0,0,0],"sum_hessian":[2.4E1,2E0,2.2E1,1E0,1E0],"tree_param":{"num_deleted":"0","num_feature":"19","num_nodes":"5","size_leaf_vector":"0"}},{"base_weights":[1.5380859E-4,2.990723E-4,1.114555E-5],"categories":[],"categories_nodes":[],"categories_segments":[],"categories_sizes":[],"default_left":[0,0,0],"id":70,"left_children":[1,-1,-1],"loss_changes":[2.4217927E-6,0E0,0E0],"parents":[2147483647,0,0],"right_children":[2,-1,-1],"split_conditions":[1.992E3,2.990723E-4,1.114555E-5],"split_indices":[1,0,0],"split_type":[0,0,0],"sum_hessian":[2.4E1,2E0,2.2E1],"tree_param":{"num_deleted":"0","num_feature":"19","num_nodes":"3","size_leaf_vector":"0"}},{"base_weights":[1.2939452E-4,5.405971E-4,-8.673417E-6,-2.9296876E-5,4.2724612E-4],"categories":[],"categories_nodes":[],"categories_segments":[],"categories_sizes":[],"default_left":[0,0,0,0,0],"id":71,"left_children":[1,3,-1,-1,-1],"loss_changes":[1.6430247E-6,4.086608E-6,0E0,0E0,0E0],"parents":[2147483647,0,0,1,1],"right_children":[2,4,-1,-1,-1],"split_conditions":[1.997E3,2.31288E2,-8.673417E-6,-2.9296876E-5,4.2724612E-4],"split_indices":[1,3,0,0,0],"split_type":[0,0,0,0,0],"sum_hessian":[2.4E1,6E0,1.8E1,4E0,2E0],"tree_param":{"num_deleted":"0","num_feature":"19","num_nodes":"5","size_leaf_vector":"0"}},{"base_weights":[9.521484E-5,1.7852784E-4,-0E0],"categories":[],"categories_nodes":[],"categories_segments":[],"categories_sizes":[],"default_left":[0,0,0],"id":72,"left_children":[1,-1,-1],"loss_changes":[1.189895E-6,0E0,0E0],"parents":[2147483647,0,0],"right_children":[2,-1,-1],"split_conditions":[1.994E3,1.7852784E-4,-0E0],"split_indices":[1,0,0],"split_type":[0,0,0],"sum_hessian":[2.4E1,3E0,2.1E1],"tree_param":{"num_deleted":"0","num_feature":"19","num_nodes":"3","size_leaf_vector":"0"}},{"base_weights":[7.324219E-5,-3.80296E-5,2.676157E-4,3.2348634E-4,6.658381E-6],"categories":[],"categories_nodes":[],"categories_segments":[],"categories_sizes":[],"default_left":[0,0,0,0,0],"id":73,"left_children":[1,-1,3,-1,-1],"loss_changes":[1.0058284E-6,0E0,2.5624959E-6,0E0,0E0],"parents":[2147483647,0,0,2,2],"right_children":[2,-1,4,-1,-1],"split_conditions":[2.31288E2,-3.80296E-5,1.997E3,3.2348634E-4,6.658381E-6],"split_indices":[3,0,1,0,0],"split_type":[0,0,0,0,0],"sum_hessian":[2.4E1,1.2E1,1.2E1,2E0,1E1],"tree_param":{"num_deleted":"0","num_feature":"19","num_nodes":"5","size_leaf_vector":"0"}},{"base_weights":[6.8359375E-5],"categories":[],"categories_nodes":[],"categories_segments":[],"categories_sizes":[],"default_left":[0],"id":74,"left_children":[-1],"loss_changes":[0E0],"parents":[2147483647],"right_children":[-1],"split_conditions":[2.0507814E-5],"split_indices":[0],"split_type":[0],"sum_hessian":[2.4E1],"tree_param":{"num_deleted":"0","num_feature":"19","num_nodes":"1","size_leaf_vector":"0"}},{"base_weights":[5.859375E-5],"categories":[],"categories_nodes":[],"categories_segments":[],"categories_sizes":[],"default_left":[0],"id":75,"left_children":[-1],"loss_changes":[0E0],"parents":[2147483647],"right_children":[-1],"split_conditions":[1.7578126E-5],"split_indices":[0],"split_type":[0],"sum_hessian":[2.4E1],"tree_param":{"num_deleted":"0","num_feature":"19","num_nodes":"1","size_leaf_vector":"0"}},{"base_weights":[4.8828126E-5],"categories":[],"categories_nodes":[],"categories_segments":[],"categories_sizes":[],"default_left":[0],"id":76,"left_children":[-1],"loss_changes":[0E0],"parents":[2147483647],"right_children":[-1],"split_conditions":[1.4648438E-5],"split_indices":[0],"split_type":[0],"sum_hessian":[2.4E1],"tree_param":{"num_deleted":"0","num_feature":"19","num_nodes":"1","size_leaf_vector":"0"}},{"base_weights":[4.8828126E-5],"categories":[],"categories_nodes":[],"categories_segments":[],"categories_sizes":[],"default_left":[0],"id":77,"left_children":[-1],"loss_changes":[0E0],"parents":[2147483647],"right_children":[-1],"split_conditions":[1.4648438E-5],"split_indices":[0],"split_type":[0],"sum_hessian":[2.4E1],"tree_param":{"num_deleted":"0","num_feature":"19","num_nodes":"1","size_leaf_vector":"0"}},{"base_weights":[4.8828126E-5],"categories":[],"categories_nodes":[],"categories_segments":[],"categories_sizes":[],"default_left":[0],"id":78,"left_children":[-1],"loss_changes":[0E0],"parents":[2147483647],"right_children":[-1],"split_conditions":[1.4648438E-5],"split_indices":[0],"split_type":[0],"sum_hessian":[2.4E1],"tree_param":{"num_deleted":"0","num_feature":"19","num_nodes":"1","size_leaf_vector":"0"}},{"base_weights":[4.8828126E-5],"categories":[],"categories_nodes":[],"categories_segments":[],"categories_sizes":[],"default_left":[0],"id":79,"left_children":[-1],"loss_changes":[0E0],"parents":[2147483647],"right_children":[-1],"split_conditions":[1.4648438E-5],"split_indices":[0],"split_type":[0],"sum_hessian":[2.4E1],"tree_param":{"num_deleted":"0","num_feature":"19","num_nodes":"1","size_leaf_vector":"0"}},{"base_weights":[4.8828126E-5],"categories":[],"categories_nodes":[],"categories_segments":[],"categories_sizes":[],"default_left":[0],"id":80,"left_children":[-1],"loss_changes":[0E0],"parents":[2147483647],"right_children":[-1],"split_conditions":[1.4648438E-5],"split_indices":[0],"split_type":[0],"sum_hessian":[2.4E1],"tree_param":{"num_deleted":"0","num_feature":"19","num_nodes":"1","size_leaf_vector":"0"}},{"base_weights":[4.8828126E-5],"categories":[],"categories_nodes":[],"categories_segments":[],"categories_sizes":[],"default_left":[0],"id":81,"left_children":[-1],"loss_changes":[0E0],"parents":[2147483647],"right_children":[-1],"split_conditions":[1.4648438E-5],"split_indices":[0],"split_type":[0],"sum_hessian":[2.4E1],"tree_param":{"num_deleted":"0","num_feature":"19","num_nodes":"1","size_leaf_vector":"0"}},{"base_weights":[4.8828126E-5],"categories":[],"categories_nodes":[],"categories_segments":[],"categories_sizes":[],"default_left":[0],"id":82,"left_children":[-1],"loss_changes":[0E0],"parents":[2147483647],"right_children":[-1],"split_conditions":[1.4648438E-5],"split_indices":[0],"split_type":[0],"sum_hessian":[2.4E1],"tree_param":{"num_deleted":"0","num_feature":"19","num_nodes":"1","size_leaf_vector":"0"}},{"base_weights":[4.8828126E-5],"categories":[],"categories_nodes":[],"categories_segments":[],"categories_sizes":[],"default_left":[0],"id":83,"left_children":[-1],"loss_changes":[0E0],"parents":[2147483647],"right_children":[-1],"split_conditions":[1.4648438E-5],"split_indices":[0],"split_type":[0],"sum_hessian":[2.4E1],"tree_param":{"num_deleted":"0","num_feature":"19","num_nodes":"1","size_leaf_vector":"0"}},{"base_weights":[4.8828126E-5],"categories":[],"categories_nodes":[],"categories_segments":[],"categories_sizes":[],"default_left":[0],"id":84,"left_children":[-1],"loss_changes":[0E0],"parents":[2147483647],"right_children":[-1],"split_conditions":[1.4648438E-5],"split_indices":[0],"split_type":[0],"sum_hessian":[2.4E1],"tree_param":{"num_deleted":"0","num_feature":"19","num_nodes":"1","size_leaf_vector":"0"}},{"base_weights":[4.8828126E-5],"categories":[],"categories_nodes":[],"categories_segments":[],"categories_sizes":[],"default_left":[0],"id":85,"left_children":[-1],"loss_changes":[0E0],"parents":[2147483647],"right_children":[-1],"split_conditions":[1.4648438E-5],"split_indices":[0],"split_type":[0],"sum_hessian":[2.4E1],"tree_param":{"num_deleted":"0","num_feature":"19","num_nodes":"1","size_leaf_vector":"0"}},{"base_weights":[4.8828126E-5],"categories":[],"categories_nodes":[],"categories_segments":[],"categories_sizes":[],"default_left":[0],"id":86,"left_children":[-1],"loss_changes":[0E0],"parents":[2147483647],"right_children":[-1],"split_conditions":[1.4648438E-5],"split_indices":[0],"split_type":[0],"sum_hessian":[2.4E1],"tree_param":{"num_deleted":"0","num_feature":"19","num_nodes":"1","size_leaf_vector":"0"}},{"base_weights":[4.8828126E-5],"categories":[],"categories_nodes":[],"categories_segments":[],"categories_sizes":[],"default_left":[0],"id":87,"left_children":[-1],"loss_changes":[0E0],"parents":[2147483647],"right_children":[-1],"split_conditions":[1.4648438E-5],"split_indices":[0],"split_type":[0],"sum_hessian":[2.4E1],"tree_param":{"num_deleted":"0","num_feature":"19","num_nodes":"1","size_leaf_vector":"0"}},{"base_weights":[4.8828126E-5],"categories":[],"categories_nodes":[],"categories_segments":[],"categories_sizes":[],"default_left":[0],"id":88,"left_children":[-1],"loss_changes":[0E0],"parents":[2147483647],"right_children":[-1],"split_conditions":[1.4648438E-5],"split_indices":[0],"split_type":[0],"sum_hessian":[2.4E1],"tree_param":{"num_deleted":"0","num_feature":"19","num_nodes":"1","size_leaf_vector":"0"}},{"base_weights":[4.8828126E-5],"categories":[],"categories_nodes":[],"categories_segments":[],"categories_sizes":[],"default_left":[0],"id":89,"left_children":[-1],"loss_changes":[0E0],"parents":[2147483647],"right_children":[-1],"split_conditions":[1.4648438E-5],"split_indices":[0],"split_type":[0],"sum_hessian":[2.4E1],"tree_param":{"num_deleted":"0","num_feature":"19","num_nodes":"1","size_leaf_vector":"0"}},{"base_weights":[4.8828126E-5],"categories":[],"categories_nodes":[],"categories_segments":[],"categories_sizes":[],"default_left":[0],"id":90,"left_children":[-1],"loss_changes":[0E0],"parents":[2147483647],"right_children":[-1],"split_conditions":[1.4648438E-5],"split_indices":[0],"split_type":[0],"sum_hessian":[2.4E1],"tree_param":{"num_deleted":"0","num_feature":"19","num_nodes":"1","size_leaf_vector":"0"}},{"base_weights":[4.8828126E-5],"categories":[],"categories_nodes":[],"categories_segments":[],"categories_sizes":[],"default_left":[0],"id":91,"left_children":[-1],"loss_changes":[0E0],"parents":[2147483647],"right_children":[-1],"split_conditions":[1.4648438E-5],"split_indices":[0],"split_type":[0],"sum_hessian":[2.4E1],"tree_param":{"num_deleted":"0","num_feature":"19","num_nodes":"1","size_leaf_vector":"0"}},{"base_weights":[4.8828126E-5],"categories":[],"categories_nodes":[],"categories_segments":[],"categories_sizes":[],"default_left":[0],"id":92,"left_children":[-1],"loss_changes":[0E0],"parents":[2147483647],"right_children":[-1],"split_conditions":[1.4648438E-5],"split_indices":[0],"split_type":[0],"sum_hessian":[2.4E1],"tree_param":{"num_deleted":"0","num_feature":"19","num_nodes":"1","size_leaf_vector":"0"}},{"base_weights":[4.8828126E-5],"categories":[],"categories_nodes":[],"categories_segments":[],"categories_sizes":[],"default_left":[0],"id":93,"left_children":[-1],"loss_changes":[0E0],"parents":[2147483647],"right_children":[-1],"split_conditions":[1.4648438E-5],"split_indices":[0],"split_type":[0],"sum_hessian":[2.4E1],"tree_param":{"num_deleted":"0","num_feature":"19","num_nodes":"1","size_leaf_vector":"0"}},{"base_weights":[4.8828126E-5],"categories":[],"categories_nodes":[],"categories_segments":[],"categories_sizes":[],"default_left":[0],"id":94,"left_children":[-1],"loss_changes":[0E0],"parents":[2147483647],"right_children":[-1],"split_conditions":[1.4648438E-5],"split_indices":[0],"split_type":[0],"sum_hessian":[2.4E1],"tree_param":{"num_deleted":"0","num_feature":"19","num_nodes":"1","size_leaf_vector":"0"}},{"base_weights":[4.8828126E-5],"categories":[],"categories_nodes":[],"categories_segments":[],"categories_sizes":[],"default_left":[0],"id":95,"left_children":[-1],"loss_changes":[0E0],"parents":[2147483647],"right_children":[-1],"split_conditions":[1.4648438E-5],"split_indices":[0],"split_type":[0],"sum_hessian":[2.4E1],"tree_param":{"num_deleted":"0","num_feature":"19","num_nodes":"1","size_leaf_vector":"0"}},{"base_weights":[4.8828126E-5],"categories":[],"categories_nodes":[],"categories_segments":[],"categories_sizes":[],"default_left":[0],"id":96,"left_children":[-1],"loss_changes":[0E0],"parents":[2147483647],"right_children":[-1],"split_conditions":[1.4648438E-5],"split_indices":[0],"split_type":[0],"sum_hessian":[2.4E1],"tree_param":{"num_deleted":"0","num_feature":"19","num_nodes":"1","size_leaf_vector":"0"}},{"base_weights":[4.8828126E-5],"categories":[],"categories_nodes":[],"categories_segments":[],"categories_sizes":[],"default_left":[0],"id":97,"left_children":[-1],"loss_changes":[0E0],"parents":[2147483647],"right_children":[-1],"split_conditions":[1.4648438E-5],"split_indices":[0],"split_type":[0],"sum_hessian":[2.4E1],"tree_param":{"num_deleted":"0","num_feature":"19","num_nodes":"1","size_leaf_vector":"0"}},{"base_weights":[4.8828126E-5],"categories":[],"categories_nodes":[],"categories_segments":[],"categories_sizes":[],"default_left":[0],"id":98,"left_children":[-1],"loss_changes":[0E0],"parents":[2147483647],"right_children":[-1],"split_conditions":[1.4648438E-5],"split_indices":[0],"split_type":[0],"sum_hessian":[2.4E1],"tree_param":{"num_deleted":"0","num_feature":"19","num_nodes":"1","size_leaf_vector":"0"}},{"base_weights":[4.8828126E-5],"categories":[],"categories_nodes":[],"categories_segments":[],"categories_sizes":[],"default_left":[0],"id":99,"left_children":[-1],"loss_changes":[0E0],"parents":[2147483647],"right_children":[-1],"split_conditions":[1.4648438E-5],"split_indices":[0],"split_type":[0],"sum_hessian":[2.4E1],"tree_param":{"num_deleted":"0","num_feature":"19","num_nodes":"1","size_leaf_vector":"0"}},{"base_weights":[4.8828126E-5],"categories":[],"categories_nodes":[],"categories_segments":[],"categories_sizes":[],"default_left":[0],"id":100,"left_children":[-1],"loss_changes":[0E0],"parents":[2147483647],"right_children":[-1],"split_conditions":[1.4648438E-5],"split_indices":[0],"split_type":[0],"sum_hessian":[2.4E1],"tree_param":{"num_deleted":"0","num_feature":"19","num_nodes":"1","size_leaf_vector":"0"}},{"base_weights":[4.8828126E-5],"categories":[],"categories_nodes":[],"categories_segments":[],"categories_sizes":[],"default_left":[0],"id":101,"left_children":[-1],"loss_changes":[0E0],"parents":[2147483647],"right_children":[-1],"split_conditions":[1.4648438E-5],"split_indices":[0],"split_type":[0],"sum_hessian":[2.4E1],"tree_param":{"num_deleted":"0","num_feature":"19","num_nodes":"1","size_leaf_vector":"0"}},{"base_weights":[4.8828126E-5],"categories":[],"categories_nodes":[],"categories_segments":[],"categories_sizes":[],"default_left":[0],"id":102,"left_children":[-1],"loss_changes":[0E0],"parents":[2147483647],"right_children":[-1],"split_conditions":[1.4648438E-5],"split_indices":[0],"split_type":[0],"sum_hessian":[2.4E1],"tree_param":{"num_deleted":"0","num_feature":"19","num_nodes":"1","size_leaf_vector":"0"}},{"base_weights":[4.8828126E-5],"categories":[],"categories_nodes":[],"categories_segments":[],"categories_sizes":[],"default_left":[0],"id":103,"left_children":[-1],"loss_changes":[0E0],"parents":[2147483647],"right_children":[-1],"split_conditions":[1.4648438E-5],"split_indices":[0],"split_type":[0],"sum_hessian":[2.4E1],"tree_param":{"num_deleted":"0","num_feature":"19","num_nodes":"1","size_leaf_vector":"0"}},{"base_weights":[4.8828126E-5],"categories":[],"categories_nodes":[],"categories_segments":[],